/* Generated by Edge Impulse
*
* Permission is hereby granted, free of charge, to any person obtaining a copy
* of this software and associated documentation files (the "Software"), to deal
* in the Software without restriction, including without limitation the rights
* to use, copy, modify, merge, publish, distribute, sublicense, and/or sell
* copies of the Software, and to permit persons to whom the Software is
* furnished to do so, subject to the following conditions:
*
* The above copyright notice and this permission notice shall be included in
* all copies or substantial portions of the Software.
*
* THE SOFTWARE IS PROVIDED "AS IS", WITHOUT WARRANTY OF ANY KIND, EXPRESS OR
* IMPLIED, INCLUDING BUT NOT LIMITED TO THE WARRANTIES OF MERCHANTABILITY,
* FITNESS FOR A PARTICULAR PURPOSE AND NONINFRINGEMENT. IN NO EVENT SHALL THE
* AUTHORS OR COPYRIGHT HOLDERS BE LIABLE FOR ANY CLAIM, DAMAGES OR OTHER
* LIABILITY, WHETHER IN AN ACTION OF CONTRACT, TORT OR OTHERWISE, ARISING FROM,
* OUT OF OR IN CONNECTION WITH THE SOFTWARE OR THE USE OR OTHER DEALINGS IN THE
* SOFTWARE.
*/
// Generated on: 16.11.2021 13:23:54

#include <stdio.h>
#include <stdlib.h>
#include <vector>
#include "edge-impulse-sdk/tensorflow/lite/c/builtin_op_data.h"
#include "edge-impulse-sdk/tensorflow/lite/c/common.h"
#include "edge-impulse-sdk/tensorflow/lite/micro/micro_mutable_op_resolver.h"
#include "edge-impulse-sdk/porting/ei_classifier_porting.h"

#if EI_CLASSIFIER_PRINT_STATE
#if defined(__cplusplus) && EI_C_LINKAGE == 1
extern "C" {
    extern void ei_printf(const char *format, ...);
}
#else
extern void ei_printf(const char *format, ...);
#endif
#endif

#if defined __GNUC__
#define ALIGN(X) __attribute__((aligned(X)))
#elif defined _MSC_VER
#define ALIGN(X) __declspec(align(X))
#elif defined __TASKING__
#define ALIGN(X) __align(X)
#endif

using namespace tflite;
using namespace tflite::ops;
using namespace tflite::ops::micro;

namespace {

constexpr int kTensorArenaSize = 2816;

#if defined(EI_CLASSIFIER_ALLOCATION_STATIC)
uint8_t tensor_arena[kTensorArenaSize] ALIGN(16);
#elif defined(EI_CLASSIFIER_ALLOCATION_STATIC_HIMAX)
#pragma Bss(".tensor_arena")
uint8_t tensor_arena[kTensorArenaSize] ALIGN(16);
#pragma Bss()
#elif defined(EI_CLASSIFIER_ALLOCATION_STATIC_HIMAX_GNU)
uint8_t tensor_arena[kTensorArenaSize] ALIGN(16) __attribute__((section(".tensor_arena")));
#else
#define EI_CLASSIFIER_ALLOCATION_HEAP 1
uint8_t* tensor_arena = NULL;
#endif

static uint8_t* tensor_boundary;
static uint8_t* current_location;

template <int SZ, class T> struct TfArray {
  int sz; T elem[SZ];
};
enum used_operators_e {
  OP_RESHAPE, OP_CONV_2D, OP_MAX_POOL_2D, OP_FULLY_CONNECTED, OP_SOFTMAX,  OP_LAST
};
struct TensorInfo_t { // subset of TfLiteTensor used for initialization from constant memory
  TfLiteAllocationType allocation_type;
  TfLiteType type;
  void* data;
  TfLiteIntArray* dims;
  size_t bytes;
};
struct NodeInfo_t { // subset of TfLiteNode used for initialization from constant memory
  struct TfLiteIntArray* inputs;
  struct TfLiteIntArray* outputs;
  void* builtin_data;
  used_operators_e used_op_index;
};

TfLiteContext ctx{};
TfLiteTensor tflTensors[21];
TfLiteEvalTensor tflEvalTensors[21];
TfLiteRegistration registrations[OP_LAST];
TfLiteNode tflNodes[10];

const TfArray<2, int> tensor_dimension0 = { 2, { 1,10 } };
const ALIGN(8) int32_t tensor_data1[2] = { -1, 8, };
const TfArray<1, int> tensor_dimension1 = { 1, { 2 } };
const ALIGN(8) float tensor_data2[128] = { -0.24452248215675354, 0, 0, 0.18613985180854797, 0, 0.011473549529910088, 0.12286877632141113, -0.37115389108657837, -0.005973257590085268, -0.010955167002975941, -0.0027440260164439678, 0.076875261962413788, 0, 0.0049990345723927021, 0, 0.0081508411094546318, 0.009644179604947567, 0, 0.0036991944070905447, -0.037488881498575211, -0.013282057829201221, -0.015193702653050423, 0, 0, 0, 0, 0, 0, 0, 0.016038523986935616, 0.00076483777957037091, 0.096657760441303253, -0.020973790436983109, -0.03090653195977211, 0, 0, 0, 0, 0.0069292676635086536, -0.0059923985973000526, 0.0051232622936367989, -0.0024426737800240517, 0, 0.10155244916677475, 0.0063740154728293419, 0, 0.015687251463532448, 0.0030119309667497873, 0.053892724215984344, 0.099160268902778625, 0.0085857361555099487, 0.0931849405169487, 0.0085663357749581337, 0, 0.016394542530179024, 0.18127095699310303, 0.091910779476165771, 0, 0.088236451148986816, 0.041048217564821243, 0.01719122938811779, 0, 0, 0.03279949352145195, -0.00045396602945402265, 0.013040386140346527, -0.11200198531150818, 0.0098134279251098633, 0, 0, 0, -0.0062806489877402782, 0, 0.0011486394796520472, -0.003456092206761241, 0, -0.021953243762254715, 0.0017276196740567684, 0.00148334342520684, 0.097884885966777802, 0, 0.014207676984369755, 0.044721681624650955, 0, 0.082579873502254486, 0.087878771126270294, 0, 0, 0.001947620534338057, 0.0053171608597040176, -0.096749305725097656, -0.020525215193629265, 0.074669055640697479, 0, 0.018955234438180923, 0, -0.22128933668136597, 0, 0, 0.0040875198319554329, 0.0049084615893661976, 0, 0.20476046204566956, -0.0017546849558129907, -0.088451243937015533, 0, 0.063211314380168915, 0.072827607393264771, 0, -0.034951169043779373, 0, -0.34814339876174927, 0.0032760498579591513, 0, 0, 0, -0.12903571128845215, 0.09913354367017746, -0.012160406447947025, -0.02060902863740921, -0.0028562585357576609, 0.12977783381938934, 0, 0.011138634756207466, -0.061745431274175644, 0, -0.039866451174020767, 0, };
const TfArray<1, int> tensor_dimension2 = { 1, { 128 } };
const ALIGN(8) float tensor_data3[32] = { 0.11719991266727448, -0.018816482275724411, -0.69191068410873413, -0.04288899153470993, -0.024607587605714798, -0.028676198795437813, 0.045721735805273056, 0, 0.39969205856323242, 0.022812293842434883, -0.04629647359251976, 0.33859822154045105, 0.36264887452125549, -0.012876026332378387, 0, -0.0071726175956428051, 0.33878406882286072, 0, 0, 0.19285307824611664, 0.010048208758234978, -0.1320502758026123, -0.028159778565168381, 0.0034317788667976856, 0.25395071506500244, 0.32505398988723755, -0.030285261571407318, -0.029584972187876701, 0.16445639729499817, -0.014255511574447155, -0.00592026486992836, 0.17372144758701324, };
const TfArray<1, int> tensor_dimension3 = { 1, { 32 } };
const ALIGN(8) float tensor_data4[8] = { -0.22549527883529663, 0.0038165068253874779, 0.080737374722957611, 0.39575347304344177, 0.46982333064079285, 0.13059006631374359, 0.42010912299156189, 0.28372403979301453, };
const TfArray<1, int> tensor_dimension4 = { 1, { 8 } };
const ALIGN(8) float tensor_data5[4] = { -0.20146389305591583, 0.40857729315757751, 0.048965387046337128, -0.33651524782180786, };
const TfArray<1, int> tensor_dimension5 = { 1, { 4 } };
const ALIGN(8) float tensor_data6[4*8] = { 
  0.38021489977836609, 1.4688705205917358, -8.0059919357299805, -0.46130639314651489, -4.7353339195251465, -3.2816197872161865, 0.44510099291801453, -1.499091625213623, 
  0.017755534499883652, -1.1311756372451782, -2.7425727844238281, -0.12557028234004974, 0.53852921724319458, 0.28614252805709839, 0.6610034704208374, 2.4175381660461426, 
  -5.518639087677002, -0.82755082845687866, 0.15817703306674957, -0.24125051498413086, 1.6697502136230469, -0.63279449939727783, -2.154263973236084, -1.5061267614364624, 
  0.98052150011062622, 0.48941764235496521, 1.1013748645782471, -1.864413857460022, -0.74819266796112061, 0.55091208219528198, -0.42485448718070984, -2.6192700862884521, 
};
const TfArray<2, int> tensor_dimension6 = { 2, { 4,8 } };
const ALIGN(8) float tensor_data7[128*1*3*10] = { 
  /* [0][0][][] */ -0.088203541934490204,-0.038194335997104645,-0.067652605473995209,0.021893993020057678,-0.013637743890285492,0.022801622748374939,-0.10127174854278564,0.051885038614273071,-0.10763480514287949,0.0020894035696983337, 0.89215958118438721,0.13256612420082092,0.75978541374206543,0.65351349115371704,1.103179931640625,1.0240483283996582,0.83208584785461426,0.50398898124694824,0.7415277361869812,0.98234796524047852, 0.085544794797897339,0.03734239935874939,0.029586389660835266,0.08582577109336853,0.048390403389930725,-0.027109593152999878,-0.039938166737556458,0.019505709409713745,-0.10453177988529205,0.041701719164848328, 
  /* [1][0][][] */ 0.016337111592292786,-0.0094571560621261597,0.025079891085624695,0.1007104218006134,0.094935476779937744,-0.11440706998109818,-0.0054908767342567444,0.11319515109062195,0.0045505687594413757,0.11078456044197083, -0.039971955120563507,0.012532055377960205,-0.099376916885375977,0.003452591598033905,0.11572639644145966,0.0047950297594070435,0.022529661655426025,-0.029841728508472443,-0.068820640444755554,0.016532540321350098, 0.068261235952377319,-0.089730329811573029,0.11091753840446472,-0.075861677527427673,-0.10725576430559158,-0.0037118867039680481,0.093736037611961365,-0.11165917664766312,0.10968133807182312,0.065674275159835815, 
  /* [2][0][][] */ -0.00088322162628173828,0.038313418626785278,0.088227167725563049,-0.042127631604671478,0.00467662513256073,-0.10384766012430191,-0.076553449034690857,0.11310392618179321,0.014426261186599731,0.012481912970542908, 0.054497376084327698,-0.049167171120643616,-0.067721262574195862,0.0027305036783218384,-0.066896133124828339,0.079580366611480713,0.0016008689999580383,0.040424734354019165,0.069656103849411011,-0.037156462669372559, -0.090144678950309753,0.056278139352798462,0.061834320425987244,0.035913795232772827,0.037551268935203552,0.0056115984916687012,-0.057195529341697693,0.081218048930168152,0.10732860863208771,-0.065001152455806732, 
  /* [3][0][][] */ -0.11632517725229263,0.030332908034324646,-0.00764426589012146,-0.033577039837837219,-0.034936487674713135,0.0079492181539535522,0.095880091190338135,-0.067870743572711945,0.037630200386047363,-0.048217989504337311, -2.7239012718200684,-0.30255228281021118,-0.39988863468170166,0.45775264501571655,1.036142110824585,1.1398292779922485,1.610193133354187,-0.46247503161430359,-0.96177643537521362,-1.1691950559616089, -0.1118256151676178,0.03430311381816864,-0.08768492192029953,-0.10403841733932495,-0.067064553499221802,-0.0041761994361877441,-0.066886633634567261,0.066821306943893433,0.005492866039276123,-0.11361552029848099, 
  /* [4][0][][] */ 0.0010935291647911072,0.03174273669719696,0.10455083847045898,-0.000878944993019104,0.045439526438713074,-0.059363119304180145,-0.089075088500976562,0.035338059067726135,-0.088727131485939026,-0.017291739583015442, 0.11411742866039276,-0.11371112614870071,0.087695345282554626,-0.040940046310424805,-0.030765429139137268,-0.072528600692749023,-0.026929892599582672,0.034878283739089966,-0.076551273465156555,-0.11540059745311737, -0.0080968961119651794,0.10067087411880493,-0.041712656617164612,0.099335908889770508,-0.071190878748893738,-0.02931889146566391,0.10993562638759613,0.077607288956642151,0.087781935930252075,0.093056946992874146, 
  /* [5][0][][] */ 0.05988745391368866,0.058402195572853088,-0.10066889226436615,-0.09617266058921814,-0.014340117573738098,0.0055461376905441284,0.067534863948822021,-0.10984952747821808,0.11781299114227295,-0.035256840288639069, -1.8220702409744263,-0.031756460666656494,-0.40288037061691284,0.7015565037727356,1.2685846090316772,1.4525946378707886,1.5244450569152832,-1.292538046836853,-2.7553601264953613,-3.4608595371246338, -0.057177618145942688,-0.035331264138221741,0.038855671882629395,0.019797936081886292,-0.05021282285451889,0.022916719317436218,-0.088564187288284302,-0.044120974838733673,0.020966023206710815,-0.012127004563808441, 
  /* [6][0][][] */ -0.089004427194595337,0.060604721307754517,-0.026004843413829803,-0.012593731284141541,-0.09989803284406662,-0.074621587991714478,-0.086966186761856079,0.012838184833526611,-0.056952819228172302,0.047062262892723083, 1.689894437789917,0.55144417285919189,0.22948263585567474,-0.73769402503967285,-1.9015933275222778,-1.980699896812439,-2.3216733932495117,-0.12545967102050781,0.6048814058303833,0.87441498041152954, -0.03102506697177887,0.052362903952598572,-0.040337242186069489,0.096469610929489136,-0.0083586052060127258,-0.11269552260637283,-0.1073707714676857,0.069420233368873596,-0.046743698418140411,-0.037537343800067902, 
  /* [7][0][][] */ -0.039579279720783234,-0.071787819266319275,0.053076490759849548,0.086905375123023987,0.11119149625301361,-0.1048598438501358,-0.0054930001497268677,-0.074578627943992615,-0.0120716392993927,-0.10539852827787399, -4.856748104095459,0.31748893857002258,-0.21618734300136566,0.43393641710281372,-0.10425236821174622,0.20898781716823578,0.87074267864227295,-2.5952935218811035,-3.283278226852417,-3.6537148952484131, -0.047206781804561615,-0.011656373739242554,0.10376660525798798,0.044739052653312683,-0.063721746206283569,0.044211074709892273,0.074256271123886108,0.12030445039272308,0.077387630939483643,0.0087541788816452026, 
  /* [8][0][][] */ 0.036579892039299011,-0.013017259538173676,-0.024746254086494446,-0.025372281670570374,-0.10825922340154648,-0.051839374005794525,-0.093764312565326691,-0.0060279816389083862,-0.041901111602783203,-0.016404241323471069, 0.10135992616415024,-0.046194586902856827,0.029234075918793678,-0.015754453837871552,0.095540821552276611,-0.025038331747055054,-0.10672751814126968,0.06622207909822464,0.10402945429086685,0.06277792900800705, 0.07418505847454071,0.11798006296157837,0.1025458425283432,0.10751430690288544,0.10312885046005249,-0.027653902769088745,-0.018999211490154266,0.049082159996032715,-0.089753001928329468,-0.089058555662631989, 
  /* [9][0][][] */ -0.0057427734136581421,0.019846096634864807,-0.056099735200405121,0.096390455961227417,0.029842168092727661,-0.0038620829582214355,-0.097247123718261719,0.074924945831298828,-0.073204681277275085,-0.023542255163192749, -3.4271042346954346,0.66313463449478149,-0.11336270719766617,-0.1983097642660141,-1.1917324066162109,-0.9436153769493103,-0.44732201099395752,-3.7087559700012207,-4.7325325012207031,-5.0077886581420898, 0.0031821578741073608,0.10316471755504608,-0.0040018633008003235,0.065032780170440674,-0.03313281387090683,0.073721170425415039,-0.087741836905479431,0.070626735687255859,-0.075576290488243103,0.015807494521141052, 
  /* [10][0][][] */ -0.095376260578632355,-0.0026635676622390747,-0.084408536553382874,-0.069447904825210571,0.012323647737503052,-0.11059509217739105,0.026731446385383606,-0.0041524395346641541,0.0062306225299835205,0.03619752824306488, -2.0134599208831787,0.10348854959011078,-0.26251435279846191,0.43648278713226318,0.53723472356796265,0.70978593826293945,0.72653704881668091,-3.1445167064666748,-4.9553036689758301,-5.5466794967651367, -0.044438078999519348,-0.085813909769058228,-0.06844734400510788,0.0024135112762451172,-0.08199387788772583,0.06040443480014801,0.029174491763114929,-0.0063559338450431824,0.030712008476257324,-0.067529678344726562, 
  /* [11][0][][] */ 0.09895402193069458,0.001513354480266571,-0.052105441689491272,0.081915080547332764,0.0077368617057800293,-0.078411206603050232,0.06277957558631897,0.090001359581947327,0.066002950072288513,0.076533645391464233, -5.6721091270446777,-0.582874596118927,0.57076114416122437,0.14243040978908539,-2.8753490447998047,-1.6298253536224365,-0.6327013373374939,-2.6002087593078613,-0.15056002140045166,1.7014601230621338, -0.076655775308609009,0.070215284824371338,-0.0022425651550292969,0.015143722295761108,0.11107589304447174,-0.092866592109203339,-0.058534771203994751,-0.075949959456920624,0.054277688264846802,0.10232305526733398, 
  /* [12][0][][] */ 0.044890418648719788,-0.08682144433259964,-0.046220339834690094,-0.014303438365459442,0.10317835211753845,-0.03803340345621109,-0.011626265943050385,0.00671347975730896,0.094105988740921021,0.05010010302066803, -0.029835358262062073,-0.070744611322879791,0.063908800482749939,-0.11308291554450989,-0.080428317189216614,-0.11682158708572388,-0.057506486773490906,0.048308283090591431,-0.070285320281982422,-0.097855955362319946, -0.073212601244449615,-0.037761077284812927,-0.068576648831367493,0.063363060355186462,0.073596000671386719,0.059548333287239075,-0.098360024392604828,0.053476005792617798,-0.11772099882364273,0.021462887525558472, 
  /* [13][0][][] */ 0.013000622391700745,0.097622349858283997,-0.0051039159297943115,0.094772592186927795,0.020152926445007324,0.034602433443069458,-0.05784144252538681,-0.092839181423187256,0.079125568270683289,0.075462877750396729, 1.6111257076263428,0.3893754780292511,0.51510769128799438,-0.67234504222869873,-1.7821787595748901,-1.8304489850997925,-1.9924097061157227,0.45351415872573853,1.6746969223022461,2.2728374004364014, 0.058425098657608032,0.07749997079372406,0.11860264837741852,-0.012361332774162292,-0.09353414922952652,0.038717344403266907,-0.088045164942741394,-0.082019135355949402,-0.090161606669425964,-0.042454920709133148, 
  /* [14][0][][] */ -0.070416942238807678,-0.028231538832187653,0.10015557706356049,-0.0200987309217453,-0.058430954813957214,0.085093632340431213,-0.074967570602893829,0.076443836092948914,-0.10010457783937454,0.0084236115217208862, -0.11224650591611862,0.051572725176811218,-0.10215503722429276,-0.10780793428421021,-0.044580869376659393,-0.1147756353020668,-0.02520250529050827,0.060966193675994873,0.058592662215232849,0.0077203810214996338, -0.068580664694309235,-0.013008825480937958,-0.060499466955661774,0.063955619931221008,0.033634841442108154,0.10254955291748047,-0.081246241927146912,0.023632094264030457,0.044000998139381409,-0.016252979636192322, 
  /* [15][0][][] */ -0.073299601674079895,0.018308401107788086,-0.080558165907859802,-0.017117321491241455,0.082740068435668945,-0.10448780655860901,0.0054793357849121094,-0.013146966695785522,0.083549156785011292,-0.038453429937362671, -2.8983769416809082,-0.34518340229988098,-0.21069221198558807,0.7090802788734436,0.81839936971664429,1.1340456008911133,1.5953254699707031,-0.64918452501296997,-1.2208290100097656,-1.4234833717346191, -0.083210423588752747,-0.04269062727689743,-0.11752317845821381,0.1185966432094574,-0.045973986387252808,-0.11491018533706665,0.0072228908538818359,-0.061381056904792786,-0.11997693777084351,-0.03691275417804718, 
  /* [16][0][][] */ -0.089360818266868591,-0.046442292630672455,0.09853169322013855,0.10257561504840851,-0.10214585065841675,-0.010918155312538147,-0.061231862753629684,-0.05069926381111145,-0.099263772368431091,0.069698214530944824, -3.8866438865661621,-0.22013098001480103,-0.196051225066185,0.57460218667984009,0.33472785353660583,0.74572503566741943,1.1488338708877563,-1.5359199047088623,-1.839997410774231,-1.9690357446670532, -0.072845295071601868,-0.084275960922241211,-0.11760486662387848,0.015770584344863892,-0.053460359573364258,0.074064105749130249,0.067500278353691101,-0.084321945905685425,0.066255301237106323,-0.021972730755805969, 
  /* [17][0][][] */ -0.052693352103233337,0.039998099207878113,-0.049214787781238556,-0.0082443952560424805,-0.04061763733625412,0.021368086338043213,-0.064207479357719421,0.0098034143447875977,-0.10768294334411621,0.064529627561569214, 0.10188907384872437,-0.050210319459438324,0.028474792838096619,-0.053089618682861328,-0.10007874667644501,0.073495715856552124,0.069814369082450867,0.11409403383731842,-0.10258746147155762,-0.062029611319303513, -0.0041321739554405212,-0.1078493520617485,-0.097144775092601776,0.029527902603149414,-0.095074743032455444,0.038492947816848755,0.041811272501945496,-0.11455629020929337,-0.013884961605072021,0.078919723629951477, 
  /* [18][0][][] */ -0.080231755971908569,-0.026991799473762512,-0.031852953135967255,0.080163300037384033,-0.086168408393859863,0.097184896469116211,-0.046647138893604279,-0.0010683238506317139,0.021552234888076782,-0.11460809409618378, -4.2398691177368164,-0.2685072124004364,-0.16276927292346954,0.69732809066772461,0.07893931120634079,0.44709491729736328,0.88809937238693237,-2.3648197650909424,-2.6820371150970459,-2.6851487159729004, -0.091449849307537079,0.08557562530040741,0.011862337589263916,-0.059779759496450424,-0.046494677662849426,0.10408991575241089,-0.078478254377841949,0.033496618270874023,0.010632559657096863,0.051658317446708679, 
  /* [19][0][][] */ -0.034305930137634277,-0.11057764291763306,-0.033771753311157227,-0.11887000501155853,-0.024928800761699677,0.12027211487293243,0.040733486413955688,0.069677978754043579,-0.046547859907150269,-0.11154614388942719, -1.5601067543029785,0.17794916033744812,-0.13317413628101349,0.7030029296875,0.88763266801834106,0.94769090414047241,1.0631606578826904,-2.4596621990203857,-4.0157713890075684,-4.5613360404968262, 0.11651311814785004,-0.071864426136016846,-0.026389427483081818,0.10673455893993378,0.016022637486457825,-0.11663048714399338,0.071440607309341431,-0.11347673833370209,0.10446731746196747,0.011907115578651428, 
  /* [20][0][][] */ -0.082563184201717377,-0.023672044277191162,-0.10665976256132126,0.019195050001144409,-0.08773331344127655,0.104413241147995,0.029189988970756531,0.036930441856384277,0.02268122136592865,0.069486826658248901, -0.04567771777510643,-0.093227960169315338,0.015719424933195114,0.059853579849004745,0.079702273011207581,0.031549535691738129,-0.12679898738861084,-0.016451902687549591,0.054044377058744431,-0.033142104744911194, -0.085923641920089722,-0.077961817383766174,0.06488625705242157,0.10224848985671997,0.057316616177558899,-0.05303548276424408,0.029443427920341492,-0.11812535673379898,0.0075840801000595093,0.069150581955909729, 
  /* [21][0][][] */ 0.02692018449306488,-0.045171648263931274,-0.036219708621501923,-0.058226108551025391,0.065720543265342712,-0.020226053893566132,0.086143419146537781,0.10850092768669128,-0.038744129240512848,-0.10778035223484039, -0.074497729539871216,-0.065699018537998199,-0.055571388453245163,0.1019408106803894,-0.041226685047149658,0.085429660975933075,-0.082373097538948059,-0.070342943072319031,-0.0029547058511525393,-0.082162603735923767, -0.058302655816078186,0.11850453913211823,-0.11087135225534439,-0.030344448983669281,-0.048980891704559326,-0.10802518576383591,0.0060297101736068726,0.083803489804267883,0.0049036294221878052,0.11632698774337769, 
  /* [22][0][][] */ -0.11706052720546722,-0.0038529038429260254,-0.011961162090301514,0.022337913513183594,-0.088204890489578247,0.046953216195106506,-0.011610075831413269,0.092534139752388,0.080530807375907898,0.086091369390487671, -0.088109284639358521,-0.018425911664962769,-0.068239480257034302,0.058642372488975525,0.034133687615394592,-0.012861065566539764,0.070077866315841675,0.058615803718566895,-0.099055424332618713,-0.035392194986343384, -0.016124479472637177,0.080596283078193665,-0.047007784247398376,0.11198551952838898,0.0021745637059211731,0.023829996585845947,-0.059124201536178589,0.076281905174255371,0.097850903868675232,0.062249496579170227, 
  /* [23][0][][] */ -0.032100796699523926,0.083148568868637085,-0.035079628229141235,-0.036900125443935394,0.071928605437278748,-0.097389057278633118,-0.05051065981388092,0.018066272139549255,-0.054349929094314575,-0.017481230199337006, 0.034887954592704773,-0.058385863900184631,0.030315771698951721,-0.069544374942779541,-0.098514556884765625,-0.049150921404361725,-0.090620130300521851,0.070984363555908203,0.0033101961016654968,0.087377429008483887, -0.061366304755210876,0.10140398144721985,0.014121755957603455,0.046180695295333862,-0.074815452098846436,0.073373988270759583,-0.093236416578292847,-0.086835935711860657,-0.073033496737480164,0.058825984597206116, 
  /* [24][0][][] */ 0.066877424716949463,-0.051845692098140717,0.048961281776428223,-0.014546230435371399,-0.025552473962306976,0.066110804677009583,0.10935120284557343,-0.026713564991950989,0.025182619690895081,0.0068937838077545166, -0.0078460425138473511,-0.095634289085865021,-0.009412519633769989,0.059878438711166382,-0.11003712564706802,0.047467797994613647,-0.072313703596591949,0.020407974720001221,0.066527247428894043,-0.030740998685359955, 0.039862573146820068,-0.086227685213088989,-0.11431346833705902,-0.051182150840759277,-0.12006763368844986,0.091151207685470581,0.068754285573959351,0.10581405460834503,0.089902773499488831,-0.067550510168075562, 
  /* [25][0][][] */ -0.067382834851741791,-0.023411862552165985,-0.067317426204681396,0.075095981359481812,-0.084054037928581238,0.10730208456516266,-0.10972458869218826,0.030822262167930603,-0.07119259238243103,0.046906158328056335, -0.0021135136485099792,-0.094948679208755493,0.067445427179336548,-0.11599671095609665,0.010858684778213501,0.10962063074111938,-0.11815411597490311,-0.056475616991519928,0.099100664258003235,0.050280094146728516, 0.10763047635555267,-0.059823013842105865,-0.0053403675556182861,0.0035581290721893311,-0.06517539918422699,0.050768867135047913,-0.088955402374267578,-0.070841535925865173,-0.1062924861907959,0.035117924213409424, 
  /* [26][0][][] */ 0.10734468698501587,0.073607832193374634,0.063003420829772949,-0.064535453915596008,0.089343279600143433,-0.0099826604127883911,-0.040186583995819092,0.083021551370620728,-0.095613308250904083,-0.11280789226293564, -0.10140128433704376,-0.018487416207790375,-0.08819754421710968,-0.08402782678604126,-0.063550546765327454,-0.083342388272285461,-0.037323251366615295,-0.0057989656925201416,-0.085331857204437256,-0.082582294940948486, -0.046822860836982727,0.050213903188705444,0.013145357370376587,-0.092254862189292908,-0.081396549940109253,0.083049654960632324,0.055132433772087097,-0.098180785775184631,0.038640707731246948,0.096989035606384277, 
  /* [27][0][][] */ 0.11581034958362579,-0.058890048414468765,0.010002642869949341,0.059408843517303467,-0.0022846385836601257,-0.061448592692613602,0.088774546980857849,0.088217154145240784,0.096516460180282593,0.019159853458404541, 0.03744526207447052,-0.020188458263874054,-0.058196257799863815,0.028581127524375916,-0.03569408506155014,-0.08981592208147049,-0.052009381353855133,0.050306051969528198,-0.055110454559326172,0.075201809406280518, 0.083058446645736694,-0.031673647463321686,0.014245405793190002,0.028167679905891418,-0.1079946756362915,0.083979114890098572,-0.11448679864406586,0.10439446568489075,0.026603639125823975,-0.096603646874427795, 
  /* [28][0][][] */ 0.048288971185684204,-0.056824035942554474,-0.1014227569103241,-0.11072933673858643,0.04847438633441925,0.047522306442260742,0.047227099537849426,0.098652243614196777,-0.038191981613636017,0.0036089867353439331, 0.10442015528678894,-0.091618821024894714,-0.0099577754735946655,-0.070398777723312378,-0.091059327125549316,-0.10778147727251053,-0.011241428554058075,0.049548506736755371,0.029700830578804016,0.10793697834014893, 0.11305949091911316,-0.11074624210596085,0.020435437560081482,0.10160361230373383,0.086663290858268738,-0.038733482360839844,0.05560031533241272,0.042682051658630371,-0.019873015582561493,0.087325289845466614, 
  /* [29][0][][] */ 0.022957503795623779,0.08470529317855835,0.087457001209259033,-0.11576416343450546,0.056571826338768005,-0.087913885712623596,0.021455079317092896,-0.11023209989070892,-0.012724928557872772,-0.088531494140625, -4.967806339263916,-0.60028201341629028,-0.073614783585071564,0.85738652944564819,-0.57566660642623901,-0.18165881931781769,0.32952457666397095,-3.3829493522644043,-3.2957417964935303,-3.0458047389984131, -0.09960329532623291,0.073644563555717468,-0.077627435326576233,0.11045548319816589,-0.0057795941829681396,0.013944029808044434,-0.077890142798423767,0.10052934288978577,0.064016833901405334,-0.10514523088932037, 
  /* [30][0][][] */ -0.098642401397228241,-0.080893918871879578,0.1032121330499649,0.02565281093120575,-0.061200261116027832,-0.0023788437247276306,0.072004988789558411,0.087007462978363037,0.069312423467636108,0.088249579071998596, -0.50430351495742798,-0.38666993379592896,-0.20076240599155426,0.6279253363609314,2.1461951732635498,1.9930316209793091,2.0268898010253906,0.29091343283653259,-0.78672939538955688,-1.1786247491836548, -0.11492669582366943,0.013621151447296143,-0.094743974506855011,0.080152332782745361,-0.019980885088443756,-0.060070082545280457,0.044373929500579834,0.11345374584197998,0.11262407898902893,0.084497824311256409, 
  /* [31][0][][] */ 0.064918145537376404,-0.10213333368301392,-0.065957136452198029,0.028002172708511353,-0.038952015340328217,-0.043567448854446411,-0.026895910501480103,0.052183687686920166,0.029021129012107849,-0.081773757934570312, -3.1346588134765625,-0.14537313580513,-0.31579580903053284,0.41462019085884094,0.48419246077537537,0.97427022457122803,1.3341953754425049,-1.1222138404846191,-2.1044988632202148,-2.5031435489654541, 0.086920350790023804,-0.044200018048286438,-0.074701473116874695,0.11224667727947235,-0.027085281908512115,-0.047515243291854858,-0.091847553849220276,0.073471695184707642,0.053405746817588806,-0.039725601673126221, 
  /* [32][0][][] */ 0.080913946032524109,-0.095193624496459961,-0.11996858566999435,-0.05613420158624649,0.048304066061973572,0.099504619836807251,0.080913379788398743,0.093045696616172791,-0.020504839718341827,0.033295929431915283, -2.4870979785919189,-0.49381127953529358,0.08801647275686264,0.72828525304794312,0.86585694551467896,1.1513975858688354,1.2615417242050171,-1.27715003490448,-1.2673710584640503,-0.87846583127975464, -0.011710390448570251,-0.04285847395658493,-0.010746315121650696,0.011812999844551086,-0.064563870429992676,0.067877769470214844,-0.082104325294494629,-0.013864897191524506,-0.068840131163597107,0.11119729280471802, 
  /* [33][0][][] */ 0.028896048665046692,-0.095967009663581848,0.0093797743320465088,-0.10847365856170654,-0.047306664288043976,0.057085171341896057,-0.060098469257354736,0.078996732831001282,-0.054711349308490753,0.012084409594535828, 0.044959783554077148,-0.063431568443775177,0.0175497867166996,0.052044298499822617,-0.00021136509894859046,0.040158957242965698,-0.100963294506073,-0.11595616489648819,-0.010297717526555061,0.050319962203502655, -0.049460850656032562,0.053846955299377441,-0.099429935216903687,-0.017758436501026154,-0.094399608671665192,-0.055947236716747284,0.04588647186756134,0.0048631876707077026,-0.025207184255123138,-0.017597302794456482, 
  /* [34][0][][] */ -0.11842675507068634,-0.074539586901664734,-0.013857722282409668,0.074750348925590515,0.019711345434188843,0.078197777271270752,0.096870005130767822,0.022757649421691895,-0.08536529541015625,0.018180713057518005, 0.0088699907064437866,-0.044154956936836243,0.061919331550598145,-0.11593508720397949,-0.016925990581512451,-0.029670782387256622,0.067170292139053345,-0.0074469074606895447,0.097513973712921143,-0.0065551847219467163, 0.082541108131408691,-0.044795133173465729,-0.033832460641860962,-0.11032784730195999,0.039703592658042908,-0.062578976154327393,0.027046278119087219,0.059393718838691711,-0.067809402942657471,-0.091311648488044739, 
  /* [35][0][][] */ 0.11423611640930176,0.018179014325141907,-0.07157878577709198,-0.036329813301563263,0.036402881145477295,0.069885730743408203,0.0068532228469848633,-0.11818157881498337,-0.036807157099246979,-0.068730004131793976, 0.056672975420951843,-0.00072874873876571655,-0.065803036093711853,-0.10216967016458511,-0.09953615814447403,-0.049272879958152771,0.020979896187782288,0.0062197744846343994,-0.049367852509021759,-0.066744178533554077, -0.066656261682510376,0.094635084271430969,0.091587364673614502,-0.10617228597402573,0.0035470202565193176,0.040170028805732727,0.098792314529418945,0.068832933902740479,0.011718288064002991,-0.0087516829371452332, 
  /* [36][0][][] */ 0.1019844263792038,0.022493958473205566,0.1046791672706604,-0.10760584473609924,0.027120351791381836,0.074827238917350769,0.050050199031829834,0.069900184869766235,0.093078181147575378,0.034339547157287598, -0.039279423654079437,-0.014858163893222809,-0.062042210251092911,0.032314196228981018,-0.020062938332557678,0.080637529492378235,-0.041463665664196014,-0.070973709225654602,0.01659490168094635,-0.093892410397529602, -0.079521238803863525,-0.082564361393451691,0.12012758851051331,0.058305203914642334,0.091430649161338806,0.11993110179901123,0.042440176010131836,0.0034838765859603882,-0.073794998228549957,-0.089421980082988739, 
  /* [37][0][][] */ 0.0064721256494522095,-0.002304472029209137,0.0051356852054595947,-0.064445048570632935,-0.074772074818611145,0.027117148041725159,-0.0037009790539741516,-0.065124057233333588,-0.056701041758060455,0.034262791275978088, -0.035888001322746277,-0.059582889080047607,-0.03939182311296463,-0.016196608543395996,0.031347170472145081,-0.087992094457149506,0.081700220704078674,0.10341040790081024,-0.11566666513681412,-0.10152450203895569, -0.066032193601131439,-0.040195830166339874,-0.033848650753498077,0.048135355114936829,-0.036099791526794434,0.010675624012947083,-0.11114127188920975,0.1180470883846283,0.084247767925262451,-0.0005383417010307312, 
  /* [38][0][][] */ -0.02518000453710556,-0.055594518780708313,0.011825636029243469,-0.016688704490661621,0.06661611795425415,0.011695817112922668,0.093605905771255493,0.074390023946762085,-0.08242015540599823,0.10960926115512848, -2.8567202091217041,-0.15998798608779907,-0.3781721293926239,0.68426477909088135,0.67983990907669067,1.075684666633606,1.243140697479248,-1.0439579486846924,-1.8955949544906616,-2.2559096813201904, -0.085315033793449402,-0.073404274880886078,-0.031165279448032379,0.024534523487091064,0.05762849748134613,0.10086493194103241,-0.094328656792640686,0.013797014951705933,0.0080152153968811035,-0.09668886661529541, 
  /* [39][0][][] */ 0.054270371794700623,0.094994321465492249,0.11747857928276062,-0.074943751096725464,0.094847708940505981,0.062058970332145691,0.013950318098068237,-0.11071920394897461,0.10739715397357941,0.052064090967178345, 0.096261650323867798,-0.040431126952171326,-0.085730001330375671,0.063680686056613922,0.090313084423542023,0.11822716146707535,-0.0060979430563747883,0.10945700109004974,0.024216579273343086,0.087698623538017273, 0.098721787333488464,0.078264623880386353,-0.11796487867832184,0.020945742726325989,-0.0029035434126853943,0.0068961679935455322,-0.026520341634750366,-0.017616249620914459,-0.0078033879399299622,-0.090676955878734589, 
  /* [40][0][][] */ -0.071666702628135681,0.049578994512557983,-0.07706509530544281,-0.048384599387645721,0.035879418253898621,0.035587489604949951,0.05961821973323822,0.06022605299949646,-0.065036594867706299,0.04863603413105011, -0.47937896847724915,0.094305895268917084,0.6651604175567627,-0.46372601389884949,-2.3704946041107178,-2.0622875690460205,-1.9907404184341431,-0.38747000694274902,1.8008350133895874,2.8739511966705322, 0.10280352830886841,0.075811132788658142,-0.086044304072856903,-0.0712127685546875,-0.030907757580280304,-0.10434553027153015,-0.076227515935897827,0.057019323110580444,0.069832563400268555,0.050744011998176575, 
  /* [41][0][][] */ 0.0015134140849113464,0.059923559427261353,-0.018976189196109772,-0.11100490391254425,0.020886063575744629,-0.10818278789520264,-0.084070250391960144,0.073382779955863953,-0.051889486610889435,-0.050988093018531799, -0.54734474420547485,-0.40591323375701904,-0.1027567982673645,0.81376105546951294,2.1848340034484863,1.9263061285018921,1.9779497385025024,-0.024171151220798492,-1.2489901781082153,-1.5865739583969116, 0.0086916089057922363,-0.062927760183811188,0.095251753926277161,-0.058133486658334732,0.0080132037401199341,0.0464659184217453,-0.029306493699550629,0.091895937919616699,0.069949299097061157,0.098585963249206543, 
  /* [42][0][][] */ -0.093747518956661224,0.016486302018165588,-0.051913484930992126,-0.014625765383243561,-0.016520023345947266,-0.080045878887176514,-0.047864258289337158,-0.090049728751182556,-0.042382910847663879,0.092848911881446838, -0.056566603481769562,-0.067263521254062653,0.065315276384353638,-0.062504753470420837,0.11942531168460846,0.05644892156124115,-0.11544927209615707,-0.028733767569065094,-0.11475752294063568,0.040715023875236511, 0.058379635214805603,-0.01609339565038681,0.092241033911705017,0.029752925038337708,-0.057340182363986969,0.093454822897911072,0.026288226246833801,-0.067624196410179138,-0.094372972846031189,-0.080750405788421631, 
  /* [43][0][][] */ -0.094569496810436249,0.091683030128479004,0.098979473114013672,-0.094390280544757843,0.043196678161621094,-0.026771768927574158,-0.049334563314914703,-0.016109496355056763,0.10845164954662323,-0.097396634519100189, 0.045545466244220734,-0.72719448804855347,-0.37727609276771545,0.73121184110641479,2.3020081520080566,2.1467185020446777,1.9982376098632812,0.87110471725463867,0.032476816326379776,-0.46371456980705261, -0.062915533781051636,-0.022923752665519714,0.084693953394889832,0.078352823853492737,-0.11896265298128128,-0.092965386807918549,0.081656888127326965,0.019689977169036865,0.001857265830039978,-0.0023162439465522766, 
  /* [44][0][][] */ -0.071577176451683044,-0.017007246613502502,0.11636163294315338,-0.033576779067516327,0.013945028185844421,-0.060573749244213104,-0.027736105024814606,0.056239545345306396,-0.083059504628181458,-0.051712565124034882, -5.3525505065917969,-0.6860499382019043,0.53273379802703857,0.66428357362747192,-0.88098084926605225,0.17764756083488464,0.79710990190505981,-2.005836009979248,-0.71375113725662231,0.53848081827163696, -0.064551100134849548,0.077263027429580688,0.058295249938964844,-0.058834049850702286,-0.074934586882591248,-0.033950112760066986,0.036318421363830566,-0.074689045548439026,0.062876611948013306,-0.018210127949714661, 
  /* [45][0][][] */ -0.022362276911735535,0.036312252283096313,-0.047631800174713135,-0.075422473251819611,0.115627720952034,-0.034263484179973602,-0.037231720983982086,-0.0053288862109184265,0.11585704982280731,-0.097321346402168274, 0.074231386184692383,0.00050972402095794678,-0.10749953240156174,0.057772845029830933,-0.08996591717004776,-0.083974957466125488,0.0014829263091087341,0.011210829019546509,-0.021257184445858002,0.1197514533996582, -0.04359801858663559,-0.054836802184581757,0.032129272818565369,-0.032178238034248352,-0.10309620946645737,0.01410241425037384,0.011753559112548828,0.013738721609115601,-0.090358301997184753,-0.05731084942817688, 
  /* [46][0][][] */ -0.014979980885982513,0.011427730321884155,-0.099650532007217407,0.0062918215990066528,-0.032071173191070557,-0.042784944176673889,-0.00031796097755432129,-0.030392959713935852,0.0020577758550643921,0.036320313811302185, -5.2788739204406738,-0.67125916481018066,0.52068614959716797,0.68354922533035278,-1.5366640090942383,-0.51363438367843628,0.023561380803585052,-2.0494387149810791,-0.15886507928371429,1.0027222633361816, -0.050290174782276154,-0.064898833632469177,-0.022189348936080933,0.063457295298576355,0.095406651496887207,-0.038255445659160614,0.041723594069480896,0.018995195627212524,-0.022036217153072357,0.076963722705841064, 
  /* [47][0][][] */ -0.080313354730606079,-0.016481451690196991,-0.058545563369989395,-0.046244077384471893,0.11050057411193848,0.012401282787322998,0.10043556988239288,-0.088882379233837128,0.11885671317577362,-0.042575329542160034, -3.5293037891387939,-0.70523834228515625,0.4712531566619873,0.69635069370269775,-0.11828651279211044,0.42253819108009338,0.9004206657409668,-1.0700284242630005,0.56613254547119141,1.5527611970901489, -0.012626856565475464,0.010032176971435547,-0.042720131576061249,-0.095527917146682739,-0.1148890033364296,-0.0026871562004089355,-0.10521506518125534,0.057831302285194397,-0.088920578360557556,-0.015376411378383636, 
  /* [48][0][][] */ 0.043931111693382263,-0.014409780502319336,-0.0050110891461372375,-0.023884959518909454,-0.04617820680141449,0.08258993923664093,0.031412944197654724,0.089840143918991089,-0.091385215520858765,0.013578623533248901, -4.6297492980957031,-0.76670145988464355,0.37208768725395203,0.57072383165359497,-1.0837783813476562,-0.17552414536476135,0.34802374243736267,-1.0665134191513062,0.93617558479309082,2.3439123630523682, -0.048608340322971344,-0.099206052720546722,0.1110207736492157,0.10390572249889374,0.0099932849407196045,0.019060999155044556,0.030147403478622437,0.11796484887599945,-0.11848235130310059,-0.066079005599021912, 
  /* [49][0][][] */ 0.010945707559585571,-0.06847497820854187,0.021801948547363281,-0.043902434408664703,-0.063039958477020264,-0.018175393342971802,-0.092461347579956055,0.072139889001846313,-0.026024878025054932,0.10134109854698181, 3.5250234603881836,0.036540057510137558,-2.09494948387146,-2.5610878467559814,0.47119271755218506,-0.29978582262992859,-0.99118608236312866,4.0741643905639648,3.4118773937225342,3.14711594581604, 0.083419054746627808,-0.063890434801578522,-0.072746478021144867,-0.025248713791370392,-0.093957617878913879,-0.0086669251322746277,-0.048882186412811279,0.10025236010551453,-0.024648033082485199,0.074527502059936523, 
  /* [50][0][][] */ -0.11318495869636536,-0.032262049615383148,0.028497979044914246,0.049465641379356384,-0.019096449017524719,0.10406732559204102,-0.041370213031768799,0.10182811319828033,0.057487770915031433,0.041867569088935852, -0.39916715025901794,-0.18793773651123047,-0.32226419448852539,0.58435064554214478,1.7288998365402222,1.717049241065979,1.4526479244232178,-0.8066946268081665,-2.4487659931182861,-3.2643089294433594, -0.052595362067222595,-0.06526782363653183,-0.10271986573934555,0.02204190194606781,0.026964649558067322,-0.0055666267871856689,-0.0015569776296615601,0.048630088567733765,0.0081941187381744385,0.078361466526985168, 
  /* [51][0][][] */ -0.0053578168153762817,0.10538449883460999,-0.012325339019298553,-0.052564449608325958,0.090601265430450439,0.085637271404266357,-0.092612460255622864,0.093034327030181885,0.039848625659942627,-0.11068367213010788, 2.1581392288208008,0.35293242335319519,0.43303853273391724,-0.71715736389160156,-1.8593504428863525,-1.9773647785186768,-2.0754315853118896,0.50131207704544067,1.7529836893081665,2.1376485824584961, 0.12029995024204254,-0.04180232435464859,-0.040316551923751831,-0.10098513215780258,-0.0094697251915931702,0.095678463578224182,0.070914298295974731,-0.03501206636428833,-0.036618269979953766,-8.7685883045196533e-05, 
  /* [52][0][][] */ 0.020385324954986572,0.017742142081260681,-0.073509559035301208,-0.10743722319602966,0.10890218615531921,-0.10239240527153015,0.11627234518527985,0.057886764407157898,0.0337352454662323,-0.084695562720298767, -3.565751314163208,-0.056397438049316406,-0.3634105920791626,0.55413514375686646,0.2967153787612915,0.50371986627578735,0.87597030401229858,-1.4644129276275635,-2.1990580558776855,-2.5669803619384766, -0.017281979322433472,0.11876492202281952,-0.067021504044532776,0.015464991331100464,-0.024167761206626892,0.094725772738456726,0.11727355420589447,-0.079730160534381866,-0.081875130534172058,0.080169305205345154, 
  /* [53][0][][] */ -0.034565597772598267,0.078225359320640564,-0.050447061657905579,-0.033445671200752258,0.065011367201805115,0.082554832100868225,0.021160021424293518,-0.012524820864200592,0.10750618577003479,-0.024757273495197296, 0.040731906890869141,-0.065268918871879578,-0.075649797916412354,-0.0068548917770385742,-0.1053951159119606,0.084731146693229675,0.10104799270629883,0.0054701864719390869,-0.060016553848981857,0.020871996879577637, -0.06476108729839325,0.086567863821983337,0.064045056700706482,0.053139582276344299,0.018194824457168579,-0.09376215934753418,0.11381307244300842,0.117534339427948,0.0042574852705001831,0.038668066263198853, 
  /* [54][0][][] */ 0.11831079423427582,0.011909782886505127,-0.087312400341033936,-0.10332714766263962,0.029835209250450134,0.095577552914619446,-0.021804966032505035,0.071860522031784058,-0.053092941641807556,0.046233028173446655, -6.0883774757385254,0.24557563662528992,0.16472761332988739,-0.064745239913463593,-2.2605345249176025,-1.6576899290084839,-0.98461943864822388,-5.2444238662719727,-5.0186848640441895,-4.7792010307312012, -0.088481470942497253,-0.043624423444271088,-0.095687851309776306,0.017545148730278015,-0.030877277255058289,-0.043113842606544495,0.046486064791679382,0.06903037428855896,-0.082632929086685181,-0.050298780202865601, 
  /* [55][0][][] */ -0.036794699728488922,0.10207174718379974,0.052105844020843506,0.067230314016342163,0.043347358703613281,0.076697081327438354,-0.021633811295032501,-0.00045981258153915405,-0.035509102046489716,-0.017878301441669464, 0.92930746078491211,-0.71323931217193604,-0.41625803709030151,0.66824996471405029,2.3132696151733398,2.1203837394714355,1.9821515083312988,1.5073148012161255,0.57490670680999756,-0.2161160409450531, -0.054491631686687469,0.017377957701683044,0.012160956859588623,0.082922682166099548,0.022575587034225464,-0.10859595984220505,0.057118251919746399,-0.098384134471416473,0.095456540584564209,0.062176674604415894, 
  /* [56][0][][] */ 0.071001991629600525,0.036513298749923706,-0.11465545743703842,0.11113360524177551,0.09424532949924469,0.029273137450218201,-0.097268454730510712,-0.050365403294563293,0.016338050365447998,-0.020122729241847992, -4.2687082290649414,0.096582658588886261,-0.29079180955886841,0.23121972382068634,-0.60164296627044678,0.076736554503440857,0.42951753735542297,-2.1561257839202881,-2.7779922485351562,-2.8867025375366211, 0.1073443740606308,-0.11952197551727295,0.068944007158279419,0.075999036431312561,-0.082578018307685852,0.096499264240264893,-0.093036167323589325,0.047811105847358704,0.11187070608139038,0.10187768936157227, 
  /* [57][0][][] */ -0.11292382329702377,-0.099275223910808563,0.02532254159450531,-0.094354346394538879,0.10353480279445648,-0.10651510208845139,0.030653461813926697,-0.0082357600331306458,0.10784989595413208,-0.067485183477401733, -0.04229186475276947,-0.10988792777061462,0.11964227259159088,-0.095644742250442505,0.067892447113990784,0.068714022636413574,-0.066817060112953186,-0.096656404435634613,-0.096159681677818298,0.0421457439661026, -0.053741931915283203,0.031243428587913513,-0.084311842918395996,0.041028857231140137,-0.092612288892269135,0.043421149253845215,-0.095380768179893494,0.080320537090301514,-0.08123914897441864,-0.064860425889492035, 
  /* [58][0][][] */ 0.095763042569160461,0.063897356390953064,-0.018579266965389252,-0.059685271233320236,0.041430622339248657,0.0509529709815979,0.0039045959711074829,-0.11555437743663788,0.075253650546073914,-0.066740304231643677, -4.5784845352172852,0.18794524669647217,-0.32063025236129761,0.20905771851539612,-0.7827223539352417,-0.35696187615394592,0.059379208832979202,-2.3449394702911377,-2.8104186058044434,-2.8248195648193359, 0.10597279667854309,-0.10774393379688263,0.042457163333892822,0.081988304853439331,-0.082066662609577179,-0.10835327953100204,0.056330561637878418,-0.11762085556983948,0.11953778564929962,0.073169752955436707, 
  /* [59][0][][] */ 0.082140430808067322,-0.092747047543525696,-0.090507581830024719,0.11934112012386322,-0.074896156787872314,0.038529470562934875,-0.10671266168355942,0.11164912581443787,-0.1087803989648819,-0.030098356306552887, -5.3161163330078125,-0.73407208919525146,0.34850338101387024,0.64618241786956787,-1.6494406461715698,-0.69215667247772217,-0.11491178721189499,-1.9038841724395752,-0.08088182657957077,1.2423772811889648, -0.1199629008769989,-0.02602502703666687,0.02745462954044342,0.072826609015464783,0.037098005414009094,0.11737653613090515,-0.070005670189857483,0.055462539196014404,-0.062767833471298218,-0.035242855548858643, 
  /* [60][0][][] */ 0.014426708221435547,-0.093742154538631439,0.056589424610137939,-0.04575570672750473,0.093068778514862061,-0.049259275197982788,-0.097837269306182861,0.083749592304229736,0.076519697904586792,-0.089570574462413788, -4.4765105247497559,-0.41335776448249817,0.94622677564620972,0.024816805496811867,-3.0872232913970947,-1.9265036582946777,-1.3269871473312378,-3.5066828727722168,-1.1112112998962402,0.67829126119613647, -0.1128455251455307,0.012871965765953064,-0.066105127334594727,-0.063898131251335144,0.091596916317939758,0.08586178719997406,-0.0257711261510849,-0.010357052087783813,0.11537462472915649,0.096157222986221313, 
  /* [61][0][][] */ -0.045252501964569092,-0.021195560693740845,-0.034659631550312042,-0.023088209331035614,0.10334548354148865,0.10378853976726532,-0.051103278994560242,0.10311667621135712,-0.019071511924266815,-0.0032579600811004639, -0.078823134303092957,0.022512361407279968,-0.11127761006355286,-0.037753008306026459,-0.077640354633331299,-0.11388809978961945,-0.034008286893367767,0.100307896733284,0.069739744067192078,-0.099298387765884399, -0.082783445715904236,0.073237404227256775,0.016336411237716675,-0.011571362614631653,0.052473545074462891,0.038195997476577759,-0.089979521930217743,-0.057714693248271942,-0.036224417388439178,0.055689722299575806, 
  /* [62][0][][] */ 0.050020739436149597,0.080327734351158142,0.082880914211273193,0.10968828201293945,-0.049656800925731659,0.038471430540084839,0.0057348757982254028,0.053678497672080994,-0.11220835894346237,-0.11678217351436615, 0.0096972733736038208,-0.060897797346115112,-0.064571857452392578,-0.050136499106884003,0.07758033275604248,-0.020783133804798126,0.03759494423866272,0.11323176324367523,0.025621235370635986,-0.0029199942946434021, -0.013456203043460846,0.017863094806671143,0.096147656440734863,-0.02043469250202179,-0.095150746405124664,-0.065165817737579346,-0.025009945034980774,-0.077105998992919922,0.11340625584125519,-0.082785569131374359, 
  /* [63][0][][] */ 0.049557030200958252,0.1113819032907486,0.038930431008338928,-0.1144261509180069,0.010955721139907837,0.089101150631904602,-0.035199977457523346,0.085250318050384521,0.047147244215011597,0.069460391998291016, -2.9522173404693604,0.029712118208408356,0.71510988473892212,-0.53639328479766846,-3.8349716663360596,-3.1640441417694092,-2.6361598968505859,-2.2976069450378418,0.17655901610851288,1.7601426839828491, -0.05009806901216507,0.089762508869171143,-0.092876352369785309,-0.11693515628576279,0.094050213694572449,0.06352020800113678,-0.063777610659599304,-0.067025318741798401,0.041537433862686157,-0.12027139216661453, 
  /* [64][0][][] */ 0.074623748660087585,0.11015130579471588,0.10817329585552216,-0.022080592811107635,0.118205726146698,-0.045016683638095856,0.025818541646003723,-0.053744658827781677,-0.035035431385040283,-0.051816299557685852, -3.5000591278076172,-0.63340508937835693,0.63108861446380615,0.67082899808883667,-0.23544992506504059,0.30742022395133972,0.75426805019378662,-0.97645223140716553,0.79447954893112183,1.9796353578567505, 0.03238147497177124,0.07954724133014679,0.038249045610427856,0.094455286860466003,-0.024567611515522003,-0.097481653094291687,0.062878161668777466,0.014133259654045105,0.053568050265312195,0.039102107286453247, 
  /* [65][0][][] */ -0.019683845341205597,0.089058041572570801,-0.044357135891914368,-0.0087254196405410767,0.069989487528800964,0.074346736073493958,-0.0078834667801856995,-0.021241709589958191,0.084121778607368469,0.090655148029327393, -4.5036487579345703,-0.4396338164806366,0.94528841972351074,0.064920820295810699,-2.905073881149292,-1.8324533700942993,-1.3301371335983276,-2.8605167865753174,-0.48620948195457458,1.2533378601074219, 0.060573697090148926,0.0091679245233535767,-0.087045207619667053,0.058943033218383789,0.00018240511417388916,-0.11440262198448181,0.040681332349777222,-0.059885870665311813,-0.070600010454654694,0.087516352534294128, 
  /* [66][0][][] */ -0.04312480241060257,-0.043864235281944275,-0.081442847847938538,0.07505287230014801,0.023000210523605347,-0.050780750811100006,-0.093976110219955444,0.11933612823486328,0.071872815489768982,0.012094378471374512, -4.6779236793518066,0.0079414276406168938,-0.28607538342475891,0.566162109375,-0.055256031453609467,0.46907979249954224,0.74986857175827026,-2.3533115386962891,-3.0448336601257324,-3.3416602611541748, -0.07600710541009903,0.037645518779754639,0.10152602195739746,0.051941812038421631,-0.098624058067798615,-0.0021170154213905334,0.053111374378204346,-0.11612920463085175,-0.06753966212272644,-0.056685373187065125, 
  /* [67][0][][] */ -0.027683928608894348,0.095849007368087769,-0.031907744705677032,-0.0044575706124305725,-0.10554642975330353,0.037226840853691101,-0.068969033658504486,0.0671672523021698,0.11425058543682098,0.030922457575798035, -3.0323479175567627,-1.0639927387237549,-0.070426277816295624,1.2764500379562378,0.8380628228187561,1.0116779804229736,1.2397265434265137,-1.3835709095001221,-1.4030659198760986,-1.0662353038787842, -0.107890285551548,-0.020371027290821075,-0.059514090418815613,0.043796062469482422,-0.095244944095611572,-0.056734740734100342,-0.037838518619537354,-0.070860221982002258,-0.096676379442214966,-0.053163006901741028, 
  /* [68][0][][] */ -0.11399829387664795,0.036876067519187927,-0.058351881802082062,0.10665379464626312,-0.041803210973739624,0.03670164942741394,0.11606700718402863,0.063209384679794312,0.09429776668548584,-0.031608067452907562, 0.016718208789825439,-0.018805064260959625,-0.027755796909332275,-0.076242804527282715,0.060356795787811279,-0.087663941085338593,0.021414324641227722,-0.05952141061425209,0.085774093866348267,-0.11009495705366135, -0.10660723596811295,-0.01711881160736084,-0.034784771502017975,0.10235646367073059,0.025196358561515808,-0.035858891904354095,-0.11676719039678574,0.095582768321037292,0.019033476710319519,0.038932725787162781, 
  /* [69][0][][] */ 0.058406099677085876,0.0094796866178512573,-0.061083901673555374,0.049546763300895691,0.0065424442291259766,0.10114818811416626,0.076005533337593079,-0.018542729318141937,0.076476156711578369,0.0095281898975372314, -0.066429227590560913,-0.10537964105606079,-0.10594499111175537,0.075824707746505737,-0.082865819334983826,-0.080241113901138306,-0.026024796068668365,0.074289306998252869,-0.084528997540473938,-0.10596008598804474, 0.079481109976768494,0.060351505875587463,0.083283469080924988,0.023723453283309937,-0.0063896924257278442,0.03594951331615448,-0.044641286134719849,0.095283403992652893,0.071595057845115662,-0.12024039030075073, 
  /* [70][0][][] */ -0.089347325265407562,-0.029797501862049103,-0.02478279173374176,-0.068527534604072571,-0.071479931473731995,0.044036909937858582,-0.11717192083597183,0.063144832849502563,-0.019943684339523315,-0.11417627334594727, -0.031074464321136475,-0.097753778100013733,0.056174755096435547,-0.026057340204715729,-0.037518627941608429,0.094956293702125549,0.054965510964393616,0.064118728041648865,-0.048337072134017944,-0.049991264939308167, -0.061354707926511765,-0.012374937534332275,0.10024061799049377,0.11454698443412781,-0.11785873770713806,0.056308716535568237,0.076182395219802856,-0.11074116080999374,0.02084776759147644,-0.058183372020721436, 
  /* [71][0][][] */ -0.021167457103729248,0.107878178358078,-0.0022420734167098999,0.029119148850440979,0.021920293569564819,-0.092885278165340424,-0.049286022782325745,0.025335773825645447,0.023119434714317322,-0.063916385173797607, -0.073408573865890503,-0.054123561829328537,0.077776059508323669,-0.061352759599685669,0.06943831592798233,-0.096937358379364014,-0.071438111364841461,0.076704442501068115,0.089269049465656281,-0.087199084460735321, 0.091278150677680969,-0.010599419474601746,0.033161118626594543,-0.10795432329177856,-0.089751198887825012,0.11379705369472504,0.023720696568489075,0.10506388545036316,0.035310849547386169,-0.051025867462158203, 
  /* [72][0][][] */ -0.067635498940944672,0.10757467150688171,0.02082507312297821,-0.053925737738609314,-0.0010767653584480286,-0.066287271678447723,0.078055784106254578,-0.083092227578163147,-0.029861539602279663,0.025082528591156006, 0.10056556761264801,-0.021534070372581482,-0.055035337805747986,0.0037776455283164978,-0.046214774250984192,-0.094609104096889496,0.042106881737709045,-0.090689182281494141,0.022169142961502075,0.1014905720949173, -0.093313775956630707,0.015772700309753418,0.05444847047328949,0.051914051175117493,-0.11929703503847122,0.03415369987487793,-0.0072207078337669373,-0.090048030018806458,0.053668513894081116,0.048414602875709534, 
  /* [73][0][][] */ 0.079726055264472961,0.063060969114303589,0.031659558415412903,0.067019432783126831,0.039184704422950745,0.057785183191299438,0.024291723966598511,-0.03792174905538559,0.11252038180828094,-0.00051362812519073486, 0.22859729826450348,-0.046575572341680527,-0.2268458753824234,0.81662666797637939,2.4116554260253906,2.1960551738739014,1.9029043912887573,-0.56891912221908569,-2.3456215858459473,-3.2470383644104004, -0.0022760555148124695,-0.036970987915992737,-0.046493642032146454,0.032852530479431152,-0.093678295612335205,0.062437176704406738,0.10931652784347534,0.087956756353378296,0.066735967993736267,-0.012000083923339844, 
  /* [74][0][][] */ -0.056618757545948029,-0.039942070841789246,-0.074861317873001099,-0.035778872668743134,-0.032691314816474915,-0.11487344652414322,-0.0044525787234306335,-0.048832759261131287,0.04494863748550415,-0.033143691718578339, -2.9324355125427246,-0.63178664445877075,0.71331292390823364,0.5542181134223938,-0.33920934796333313,0.084946334362030029,0.37953498959541321,-0.99487859010696411,0.89405339956283569,2.1100058555603027, -0.037876605987548828,0.016192883253097534,-0.023524604737758636,0.034739628434181213,0.046804025769233704,0.1153947114944458,-0.040956467390060425,0.055947527289390564,0.052495658397674561,-0.0067674964666366577, 
  /* [75][0][][] */ 0.040779799222946167,0.00065429508686065674,0.016548037528991699,0.10346798598766327,0.082836315035820007,-0.038401737809181213,-0.027788922190666199,-0.0054482296109199524,-0.041720777750015259,0.05988001823425293, -0.10599809139966965,0.014387622475624084,-0.091698125004768372,-0.0078789293766021729,-0.10764992982149124,0.0021301060914993286,-0.0077568367123603821,-0.098787575960159302,0.07724471390247345,0.10474343597888947, -0.011454313993453979,-0.099504098296165466,-0.031048543751239777,0.089936062693595886,-0.024972252547740936,0.065863251686096191,-0.088237844407558441,-0.11696397513151169,-0.0054512098431587219,-0.11707758158445358, 
  /* [76][0][][] */ 0.02019953727722168,0.039263352751731873,0.060448318719863892,-0.086845383048057556,-0.0018472447991371155,0.032745853066444397,-0.077974818646907806,-0.01862180233001709,0.025340527296066284,0.08723604679107666, 0.018019065260887146,0.0023955388460308313,-0.013583464547991753,0.014107055962085724,-0.053694546222686768,0.057604696601629257,-0.11489579081535339,-0.0032980754040181637,-0.04571523517370224,-0.10655714571475983, 0.071312308311462402,0.11455608904361725,0.053458124399185181,0.054577961564064026,0.058015495538711548,-0.10132361948490143,0.11455342173576355,-0.11674423515796661,-0.091808028519153595,0.049931764602661133, 
  /* [77][0][][] */ -0.10195662081241608,-0.058476995676755905,-0.069938138127326965,-0.066761285066604614,0.067810922861099243,-0.11002156883478165,0.10184206068515778,-0.0021447464823722839,-0.018683597445487976,-0.042265318334102631, -0.80190598964691162,-0.45221400260925293,-0.10191617906093597,0.87278151512145996,2.1204402446746826,2.2126541137695312,2.0965235233306885,-0.05814063549041748,-1.1334125995635986,-1.484649658203125, 0.041846811771392822,-0.011222109198570251,0.037304073572158813,-0.05898551270365715,0.11792699992656708,-0.10707436501979828,0.026510268449783325,0.1195424348115921,0.06471659243106842,0.059631690382957458, 
  /* [78][0][][] */ 0.10396081209182739,-0.098757781088352203,-0.064404979348182678,0.02346472442150116,-0.098617859184741974,0.076627448201179504,-0.1036851778626442,0.083277374505996704,0.061197653412818909,0.022548094391822815, -0.071672052145004272,-0.41830095648765564,-0.088428281247615814,0.78006571531295776,2.2492821216583252,2.1423044204711914,2.0410499572753906,0.0981312096118927,-1.0805443525314331,-1.2916477918624878, -0.10333796590566635,0.031526863574981689,0.023666068911552429,-0.11408787220716476,-0.078441232442855835,0.047871410846710205,-0.078468784689903259,-0.1038423478603363,-0.026720017194747925,-0.088154926896095276, 
  /* [79][0][][] */ 0.05630376935005188,0.07492104172706604,-0.0096432268619537354,-0.0098634585738182068,0.072465106844902039,0.015757724642753601,0.074963212013244629,-0.042910970747470856,-0.069254502654075623,-0.016537301242351532, 2.0136406421661377,0.41848549246788025,0.2985682487487793,-0.64894652366638184,-1.8862905502319336,-1.8458923101425171,-2.1445236206054688,0.18726630508899689,1.2252956628799438,1.6204168796539307, 0.10331393778324127,0.09285341203212738,-0.040484286844730377,0.047168433666229248,0.063495784997940063,0.016551226377487183,0.039484217762947083,0.08189450204372406,0.091051951050758362,-0.017149582505226135, 
  /* [80][0][][] */ -0.019659213721752167,-0.11780747771263123,0.082754939794540405,0.026804059743881226,-0.049993366003036499,-0.061605248600244522,-0.083633892238140106,0.11360277235507965,-0.025303080677986145,-0.069024316966533661, -0.0024080052971839905,-0.083363547921180725,0.058324351906776428,-0.054362446069717407,0.025680825114250183,-0.11499132961034775,0.02165539562702179,-0.065314896404743195,0.09175381064414978,0.082094818353652954, -0.031513065099716187,0.048099011182785034,0.10902781784534454,0.018757566809654236,0.10823671519756317,-0.076971963047981262,-0.066612094640731812,-0.002556823194026947,-0.030634172260761261,-0.057835787534713745, 
  /* [81][0][][] */ 0.02470676600933075,0.0038164779543876648,0.0052253603935241699,-0.038421399891376495,-0.052765682339668274,-0.038416720926761627,0.061661511659622192,0.013128966093063354,0.073624849319458008,0.0045948252081871033, -4.2449951171875,-0.68398672342300415,0.0039583956822752953,0.80215173959732056,-0.075174152851104736,0.30991587042808533,0.61749053001403809,-2.6542978286743164,-2.7948780059814453,-2.4515531063079834, -0.087565898895263672,0.094787463545799255,0.039848193526268005,0.084204599261283875,0.073113009333610535,-0.057408437132835388,-0.10553722083568573,0.024478837847709656,0.088531345129013062,0.019182562828063965, 
  /* [82][0][][] */ -0.00017370283603668213,0.0089336186647415161,-0.047099031507968903,-0.089931592345237732,0.007468000054359436,0.027797698974609375,0.095458522439002991,0.062523171305656433,0.057374998927116394,0.073441594839096069, -2.676166296005249,0.056982226669788361,-0.46112224459648132,0.51889371871948242,0.4193556010723114,0.62136936187744141,1.1151845455169678,-1.456403374671936,-2.8583416938781738,-3.598330020904541, 0.0049654841423034668,0.044036209583282471,0.11821585893630981,-0.0032204464077949524,0.029212355613708496,0.054373815655708313,0.068847686052322388,0.099920138716697693,-0.014469020068645477,0.015251502394676208, 
  /* [83][0][][] */ 0.031494006514549255,-0.025793857872486115,0.027425467967987061,-0.023594148457050323,0.01094973087310791,0.028417274355888367,-0.11789872497320175,-0.053205139935016632,0.013100981712341309,-0.062440112233161926, -0.11400041729211807,-0.04019792377948761,0.00065283477306365967,-0.09598078578710556,-0.044607646763324738,-0.024115979671478271,-0.071232780814170837,0.11825869977474213,0.033647969365119934,-0.0096286460757255554, 0.092859759926795959,0.062233433127403259,0.045279458165168762,-0.03820260614156723,-0.034082226455211639,0.1025485098361969,-0.021811194717884064,-0.022311270236968994,0.012657821178436279,0.080093130469322205, 
  /* [84][0][][] */ 0.037824943661689758,-0.0084502249956130981,-0.038237042725086212,-0.063474796712398529,0.11087609827518463,0.067563578486442566,0.020804986357688904,0.019251361489295959,-0.00033277273178100586,-0.040270917117595673, -0.53006637096405029,-4.6982913017272949,-3.5030252933502197,0.59292483329772949,5.8364443778991699,4.5342535972595215,3.580977201461792,6.3883113861083984,5.441617488861084,4.4904847145080566, 0.010882243514060974,0.062091603875160217,0.11417184770107269,0.11743839085102081,-0.014773435890674591,-0.043019436299800873,-0.053896322846412659,0.046946302056312561,0.094090163707733154,0.070783764123916626, 
  /* [85][0][][] */ -0.0025095194578170776,0.11518649756908417,-0.099084645509719849,0.0997762531042099,0.062036037445068359,-0.011871151626110077,0.078939557075500488,-0.064698748290538788,-0.11327166855335236,-0.029764123260974884, 1.9707205295562744,0.56085073947906494,0.22655844688415527,-0.69598889350891113,-1.903164267539978,-2.1375486850738525,-2.2354452610015869,0.083970561623573303,1.0759034156799316,1.2255586385726929, -0.059851229190826416,-0.0058086439967155457,-0.011570557951927185,-0.069018512964248657,-0.0036890432238578796,-0.010920137166976929,0.075383320450782776,0.044603720307350159,0.11416786909103394,-0.072570592164993286, 
  /* [86][0][][] */ -0.045980162918567657,-0.10047957301139832,-0.028040036559104919,-0.10725418478250504,-0.0073473080992698669,0.026987239718437195,0.08226969838142395,-0.093365728855133057,-0.075810953974723816,-0.030341468751430511, -0.054216668009757996,-0.035620495676994324,-0.055597759783267975,-0.067195549607276917,-0.058927275240421295,0.039000928401947021,-0.057794943451881409,-0.045889206230640411,-0.11446820199489594,-0.041155979037284851, -0.026930548250675201,0.080489039421081543,-0.10177716612815857,-0.053226955235004425,0.066862121224403381,0.11626289784908295,-0.078755572438240051,-0.041142374277114868,-0.045791096985340118,-0.047765664756298065, 
  /* [87][0][][] */ -0.097913019359111786,-0.069933399558067322,-0.025398969650268555,0.027651011943817139,-0.11752556264400482,-0.11728193610906601,0.094363674521446228,0.07285405695438385,-0.059955216944217682,-0.086050301790237427, 0.075173765420913696,-0.048678137362003326,-0.066797882318496704,0.11567963659763336,-0.10243717581033707,-0.10909563302993774,-0.049105800688266754,-0.011797361075878143,-0.074247628450393677,0.11168479919433594, -0.10381634533405304,0.08250175416469574,0.092323139309883118,-0.118297278881073,0.07960943877696991,-0.10246188938617706,0.1028938889503479,0.05651719868183136,-0.10428620129823685,-0.050188824534416199, 
  /* [88][0][][] */ 0.0739726722240448,0.0043960586190223694,-0.052645646035671234,-0.019822016358375549,-0.075206086039543152,-0.01886671781539917,-0.06806454062461853,0.038504317402839661,0.079676687717437744,-0.061013896018266678, -3.9880008697509766,-0.59647184610366821,0.72346609830856323,0.50537240505218506,-1.102591872215271,-0.18788668513298035,0.1243617981672287,-1.4456303119659424,0.24092255532741547,1.7769032716751099, -0.036448411643505096,-0.036387220025062561,0.028958827257156372,-0.052039086818695068,-0.018343620002269745,-0.00054812431335449219,0.037196129560470581,-0.10521466284990311,0.005297735333442688,0.10382917523384094, 
  /* [89][0][][] */ -0.10357969999313354,0.01053127646446228,0.042456075549125671,-0.046777166426181793,0.095254048705101013,-0.013161920011043549,-0.090321198105812073,-0.010837644338607788,0.069581970572471619,-0.065795719623565674, -3.8491678237915039,0.32927757501602173,-0.092434689402580261,0.020968807861208916,-1.1527566909790039,-0.68790721893310547,-0.34295085072517395,-3.4761219024658203,-4.2184967994689941,-4.5535974502563477, 0.10399258136749268,0.11439825594425201,0.10691411793231964,-0.035858176648616791,0.04304194450378418,-0.096606463193893433,0.018548473715782166,-0.029062323272228241,-0.060519415885210037,0.084486067295074463, 
  /* [90][0][][] */ 0.11204496026039124,-0.1010688841342926,0.056471452116966248,0.043211832642555237,-0.077776402235031128,-0.042718701064586639,0.034316405653953552,0.052970871329307556,-0.054864987730979919,-0.10455255955457687, -0.20652095973491669,0.0098837418481707573,-0.072576791048049927,0.06801711767911911,0.23450303077697754,0.057378627359867096,0.079451523721218109,0.01084374263882637,-0.17658017575740814,-0.11591391265392303, -0.04125870019197464,-0.077920451760292053,0.075842529535293579,-0.1102730855345726,-0.11421120166778564,0.081123888492584229,0.071217909455299377,0.004349246621131897,0.023627877235412598,-0.0048592016100883484, 
  /* [91][0][][] */ 0.012482106685638428,-0.028540804982185364,-0.093933112919330597,-0.095669649541378021,-4.0270388126373291e-05,0.095751076936721802,0.11075800657272339,0.0030453652143478394,0.06603725254535675,-0.02531743049621582, 0.02154972217977047,-0.12339372932910919,0.081377282738685608,0.038420580327510834,0.048647183924913406,-0.13072870671749115,-0.0085944980382919312,-0.071215137839317322,-0.10029248148202896,-0.096616007387638092, 0.067246496677398682,-0.059231892228126526,0.035604313015937805,-0.027852237224578857,-0.059039987623691559,0.10258886218070984,-0.048360347747802734,0.011474832892417908,0.096298426389694214,0.00020206719636917114, 
  /* [92][0][][] */ 0.091721951961517334,-0.059232551604509354,-0.020566433668136597,0.089597746729850769,0.0075175166130065918,-0.062637090682983398,0.061521872878074646,0.10077035427093506,0.016184896230697632,-0.0391225665807724, -1.324109673500061,0.42978560924530029,0.47054398059844971,-1.1914273500442505,-3.4926514625549316,-2.6919653415679932,-2.2575075626373291,-0.52720862627029419,1.853410005569458,3.0629584789276123, -0.037513665854930878,0.070585370063781738,0.040735572576522827,0.0017325803637504578,-0.02686011791229248,-0.073423475027084351,-0.023830540478229523,0.10217173397541046,0.077615097165107727,-0.049917012453079224, 
  /* [93][0][][] */ 0.015454858541488647,-0.05616365373134613,0.10538986325263977,-0.096894063055515289,0.054370447993278503,0.10602426528930664,0.004729926586151123,0.084044128656387329,-0.07892310619354248,0.097877487540245056, -0.11988014727830887,0.013616964221000671,-0.093818530440330505,-0.1031484454870224,-0.085748299956321716,-0.089700996875762939,0.022404894232749939,-0.099971085786819458,0.045841842889785767,0.059881880879402161, 0.099700942635536194,0.033862590789794922,0.036698266863822937,0.0829877108335495,-0.043619893491268158,-0.10471900552511215,-0.10707315802574158,-0.058784712105989456,-0.050793148577213287,-0.045937821269035339, 
  /* [94][0][][] */ 0.056417316198348999,-0.029039449989795685,0.072635576128959656,0.11684268712997437,0.05262225866317749,0.029664263129234314,-0.0099517181515693665,-0.11100593954324722,-0.085680045187473297,0.017835900187492371, -6.3538789749145508,-0.43004527688026428,0.36393237113952637,0.47313937544822693,-1.9687411785125732,-0.83511865139007568,0.20376181602478027,-2.620750904083252,-1.0123569965362549,0.097290009260177612, -0.019882775843143463,0.072981119155883789,0.01191750168800354,-0.08650505542755127,-0.10453114658594131,0.10986201465129852,-0.019159510731697083,0.0016745999455451965,-0.033376581966876984,-0.068216323852539062, 
  /* [95][0][][] */ -0.02917914092540741,-0.10339827090501785,0.068961918354034424,-0.10448938608169556,-0.10513977706432343,-0.030962727963924408,0.065127760171890259,0.018471941351890564,0.0031627267599105835,0.034978017210960388, -0.11077924817800522,-0.085636503994464874,-0.040687955915927887,0.097196638584136963,-0.086552739143371582,-0.054818406701087952,-0.078678220510482788,-0.070460200309753418,0.056468471884727478,-0.052562788128852844, -0.055342137813568115,0.07446017861366272,0.09623485803604126,-0.080899603664875031,-0.085237622261047363,0.017311573028564453,0.10129787027835846,0.034318417310714722,-0.11733759194612503,-0.01453147828578949, 
  /* [96][0][][] */ -0.0049371570348739624,0.0041020959615707397,-0.0070763900876045227,-0.068799920380115509,-0.041848793625831604,-0.010979838669300079,-0.031778760254383087,0.049049347639083862,0.013686820864677429,-0.063396722078323364, -5.3865442276000977,0.49384671449661255,-0.11815289407968521,0.24032165110111237,-1.0173006057739258,-0.42101073265075684,-0.063692279160022736,-3.8099541664123535,-4.3030056953430176,-4.690526008605957, -0.049287401139736176,0.031367689371109009,-0.0096397250890731812,-0.010864391922950745,-0.013543576002120972,-0.020987212657928467,0.11273846030235291,0.09538598358631134,-0.018476687371730804,-0.055052876472473145, 
  /* [97][0][][] */ 0.10528509318828583,-0.073326520621776581,-0.062028922140598297,0.038053408265113831,-0.092541486024856567,0.10769028961658478,0.064556151628494263,0.11100763082504272,-0.10551480203866959,0.11190721392631531, -0.012577086687088013,-0.10915926843881607,-0.062392007559537888,-0.04242541640996933,-0.063792616128921509,0.035806998610496521,-0.084365397691726685,0.010947719216346741,0.054734453558921814,0.035947784781455994, 0.11703087389469147,0.028075650334358215,0.0027312785387039185,-0.06865304708480835,0.01914602518081665,0.075798064470291138,0.093123733997344971,-0.047756224870681763,-0.031920634210109711,-0.064855806529521942, 
  /* [98][0][][] */ 0.071715757250785828,-0.089975215494632721,-0.054172433912754059,-0.053175091743469238,0.11381359398365021,0.050887495279312134,-0.063940145075321198,0.011178597807884216,0.072665512561798096,0.069627642631530762, -0.085651859641075134,-0.06594809889793396,-0.11082250624895096,-0.083801768720149994,0.024190723896026611,-0.076783530414104462,-0.1068645566701889,0.026092305779457092,0.11915858089923859,-0.046529434621334076, -0.045808374881744385,0.012180328369140625,0.0076660513877868652,-0.076468184590339661,-0.097319252789020538,-0.049810841679573059,0.00069499760866165161,0.057381406426429749,-0.11488593369722366,0.11204995214939117, 
  /* [99][0][][] */ 0.024758458137512207,-0.064230039715766907,0.081192106008529663,-0.016431704163551331,-0.1040835976600647,0.095080316066741943,-0.078565478324890137,0.079773560166358948,0.063371583819389343,0.074597164988517761, -4.5708942413330078,-0.77869349718093872,0.51584124565124512,0.84539204835891724,-0.67866730690002441,0.29614263772964478,1.0393505096435547,-1.4544804096221924,-0.028733277693390846,0.99764400720596313, -0.028704375028610229,0.044663354754447937,0.03205128014087677,0.030808821320533752,0.026717633008956909,-0.098582528531551361,-0.059272877871990204,-0.010888278484344482,-0.072509683668613434,0.013719081878662109, 
  /* [100][0][][] */ 0.010199651122093201,0.11267431080341339,0.057568162679672241,-0.012991517782211304,0.079023391008377075,0.079838588833808899,0.079247996211051941,0.030457943677902222,0.07093462347984314,0.040952771902084351, -1.3472013473510742,-0.10669825971126556,0.76136821508407593,-0.38068914413452148,-2.3876943588256836,-1.884967565536499,-1.6110492944717407,-0.68107402324676514,1.850926399230957,3.4861006736755371, -0.060878824442625046,-0.061068374663591385,-0.030305527150630951,0.016210392117500305,-0.034558311104774475,-0.11152522265911102,-0.037513606250286102,0.1117568165063858,-0.09816548228263855,-0.082978188991546631, 
  /* [101][0][][] */ 0.11192496120929718,-0.038280732929706573,-0.019073918461799622,-0.080669119954109192,-0.11756499856710434,0.065706372261047363,0.068344756960868835,-0.085919618606567383,0.031417280435562134,0.11508619785308838, -0.028418645262718201,0.0011884421110153198,-0.11723380535840988,-0.085248738527297974,0.056332454085350037,0.095206707715988159,-0.068619124591350555,0.021563917398452759,-0.079653814435005188,-0.032047122716903687, -0.010101318359375,0.034214034676551819,0.065631598234176636,-0.081547297537326813,0.055172562599182129,0.0032711923122406006,0.11069285869598389,-0.090096831321716309,0.049162179231643677,-0.1112726703286171, 
  /* [102][0][][] */ 0.026769816875457764,0.10125444829463959,-0.019647359848022461,0.030200853943824768,0.018586128950119019,-0.016789823770523071,0.10302272439002991,0.0090615451335906982,-0.066894009709358215,-0.026995018124580383, 1.2568377256393433,-0.75067681074142456,-0.37390673160552979,0.56063157320022583,2.7001504898071289,2.3591456413269043,2.2714748382568359,1.6899536848068237,0.51135003566741943,-0.32233905792236328, 0.048138365149497986,-0.04803919792175293,-0.083557546138763428,-0.0015973672270774841,-0.10185133665800095,0.082257971167564392,-0.10101877152919769,-0.006679236888885498,-0.091005079448223114,-0.088415935635566711, 
  /* [103][0][][] */ 0.034713670611381531,0.098077654838562012,-0.11081745475530624,-0.018907129764556885,-0.10997768491506577,-0.02342049777507782,-0.10687701404094696,-0.11978962272405624,0.00015008449554443359,-0.08891122043132782, 0.32707127928733826,-0.1344023197889328,0.64524185657501221,-0.34893596172332764,-1.1596075296401978,-1.1819214820861816,-1.1471726894378662,-0.33389467000961304,1.1794557571411133,2.2487978935241699, 0.038329005241394043,-0.045262575149536133,-0.075685963034629822,0.01266692578792572,0.060521513223648071,-0.024921111762523651,0.036862552165985107,-0.072184629738330841,0.01782362163066864,0.018329039216041565, 
  /* [104][0][][] */ 0.10617466270923615,-0.058398924767971039,0.081065356731414795,-0.050605468451976776,0.0085336565971374512,0.061133414506912231,0.09038841724395752,0.058588758111000061,-0.10040778666734695,-0.027468517422676086, -0.19955761730670929,-0.003440922824665904,-0.064401492476463318,0.086362086236476898,0.10732903331518173,0.17132532596588135,0.18993256986141205,-0.068494200706481934,-0.1055472120642662,-0.12061323225498199, 0.047530800104141235,-0.025110974907875061,0.0055708140134811401,0.013281837105751038,-0.0038716718554496765,0.029308900237083435,-0.065513923764228821,0.042001739144325256,0.087796807289123535,-0.079896345734596252, 
  /* [105][0][][] */ 0.044467836618423462,0.10385049879550934,0.0824299156665802,0.090955078601837158,0.070221081376075745,0.032483890652656555,-0.03387422114610672,0.073960036039352417,-0.092276215553283691,0.078422889113426208, -0.087066017091274261,-0.08851303905248642,-0.10097396373748779,0.034152433276176453,0.11545446515083313,-0.0090807527303695679,-0.013230949640274048,0.086803138256072998,0.040925726294517517,-0.077456943690776825, -0.065854556858539581,-0.073388174176216125,-0.11697117984294891,0.0054418295621871948,-0.047454476356506348,0.1031888872385025,0.013475775718688965,-0.07953113317489624,0.013517290353775024,-0.087150454521179199, 
  /* [106][0][][] */ 0.035117954015731812,-0.020442530512809753,0.098836392164230347,-0.051909007132053375,0.066308453679084778,0.082014739513397217,-0.10603876411914825,0.1097831130027771,0.016281589865684509,0.11724023520946503, 0.32374686002731323,-1.3670918941497803,-3.5727686882019043,-4.4070830345153809,-2.9275805950164795,-3.2703661918640137,-3.7616674900054932,0.48551812767982483,0.19043870270252228,-0.32911381125450134, -0.02259238064289093,-0.048422865569591522,-0.11175888776779175,-0.082074843347072601,-0.086441196501255035,-0.058192212134599686,0.11954118311405182,-0.0036004036664962769,-0.051751717925071716,-0.024693816900253296, 
  /* [107][0][][] */ 0.1097036600112915,0.054784134030342102,0.11226536333560944,0.083392277359962463,-0.1128254309296608,0.026348233222961426,-0.01371687650680542,0.1003992110490799,0.093682914972305298,0.033867359161376953, 1.4955421686172485,0.60859346389770508,0.1836857795715332,-0.8095548152923584,-2.1409032344818115,-2.3439779281616211,-2.4535913467407227,-0.37487500905990601,0.30237191915512085,0.37194305658340454, 0.0022807344794273376,-0.057815834879875183,0.064540073275566101,-0.091523304581642151,0.11080063879489899,-0.11666512489318848,0.076770409941673279,0.10061562061309814,0.068671822547912598,-0.088981777429580688, 
  /* [108][0][][] */ 0.054874375462532043,-0.096427217125892639,0.027143672108650208,-0.099068827927112579,-0.10541408509016037,0.013274401426315308,-0.088449373841285706,0.050737068057060242,0.083209678530693054,-0.031732290983200073, -0.1200551763176918,-0.11007432639598846,0.068025991320610046,-0.017753414809703827,-0.038632161915302277,0.075829759240150452,0.046017274260520935,-0.053908489644527435,-0.044683195650577545,-0.064021915197372437, 0.044504612684249878,0.10889710485935211,-0.040391407907009125,-0.0056782737374305725,0.099282115697860718,0.07307279109954834,0.096429944038391113,0.014956101775169373,-0.033564209938049316,0.11726316809654236, 
  /* [109][0][][] */ -0.005511455237865448,0.051185563206672668,0.080305546522140503,-0.117340087890625,0.10895006358623505,0.087550804018974304,0.091638684272766113,-0.019219957292079926,0.022690117359161377,0.072314620018005371, 0.026062546297907829,0.061287824064493179,0.0084475371986627579,-0.097859568893909454,0.088754929602146149,0.0053485347889363766,0.046083956956863403,0.025919279083609581,-0.10656458139419556,0.064177624881267548, -0.11789702624082565,-0.028735235333442688,-0.032517179846763611,-0.095879346132278442,-0.070956066250801086,-0.11053671687841415,0.09948045015335083,-0.11870625615119934,0.0087970942258834839,0.082974106073379517, 
  /* [110][0][][] */ -0.040272980928421021,-0.080202452838420868,0.032148644328117371,0.068047404289245605,0.088919267058372498,0.014346837997436523,-0.047347560524940491,0.042570501565933228,-0.043869338929653168,0.041036024689674377, -0.061134964227676392,-0.073027700185775757,-0.040541604161262512,-0.092903763055801392,0.040438845753669739,-0.035868972539901733,-0.041976399719715118,-0.069492623209953308,-0.036025598645210266,-0.095405131578445435, -0.088868662714958191,0.11426860094070435,-0.026261016726493835,-0.11556962132453918,0.032619878649711609,0.057481974363327026,-0.027738749980926514,-0.079297706484794617,0.013672277331352234,-0.090699315071105957, 
  /* [111][0][][] */ 0.11691226065158844,0.090778827667236328,0.00695018470287323,-0.053916268050670624,0.087746024131774902,0.05815105140209198,0.045578896999359131,0.10780355334281921,-0.014224335551261902,0.075739234685897827, 1.1001021862030029,0.35099542140960693,0.96323567628860474,0.8974224328994751,0.8682900071144104,0.80676162242889404,0.65103322267532349,0.40215796232223511,0.85145431756973267,1.2716192007064819, 0.033613055944442749,-0.013612687587738037,-0.046945415437221527,0.11826020479202271,-0.10972059518098831,-0.020467095077037811,-0.0063155218958854675,-0.07355964183807373,0.018968835473060608,-0.095612883567810059, 
  /* [112][0][][] */ -0.038259521126747131,-0.081119492650032043,0.08575814962387085,0.073977947235107422,-0.063180170953273773,-0.013243265450000763,-0.097428694367408752,-0.1193288117647171,-0.09812452644109726,-0.068799600005149841, -4.0516571998596191,-0.58578300476074219,0.82566112279891968,0.3367314338684082,-1.6892397403717041,-0.77325105667114258,-0.38223597407341003,-2.0551984310150146,-0.027542585507035255,1.3156584501266479, 0.026527568697929382,0.081949293613433838,0.067814484238624573,-0.064915910363197327,-0.011920668184757233,-0.0018779262900352478,-0.068613439798355103,0.027261883020401001,-0.029520384967327118,-0.00089775025844573975, 
  /* [113][0][][] */ -0.029011517763137817,-0.024795137345790863,0.096915185451507568,0.10502731800079346,0.11279278993606567,-0.069882601499557495,-0.097972661256790161,-0.030274815857410431,-0.011461891233921051,0.0056202411651611328, 0.10349078476428986,-0.090742796659469604,-0.046714164316654205,-0.056021429598331451,0.0050593912601470947,-0.0046610981225967407,-0.037885010242462158,-0.073608085513114929,-0.014346033334732056,-0.065769799053668976, 0.074281588196754456,0.04338894784450531,-0.037821151316165924,0.040638074278831482,-0.099221125245094299,0.064407616853713989,0.07754141092300415,0.0045544952154159546,-0.06928272545337677,-0.092972874641418457, 
  /* [114][0][][] */ -0.040776535868644714,-0.087713822722434998,-0.036943264305591583,-0.076060861349105835,-0.03473132848739624,0.010465458035469055,-0.028441578149795532,0.10772967338562012,0.016080796718597412,-0.038578376173973083, -0.10805030167102814,-0.082537062466144562,-0.064247176051139832,-0.057377010583877563,0.019480809569358826,-0.059088781476020813,-0.016828373074531555,-0.097176574170589447,0.035624772310256958,-0.039307035505771637, 0.013315886259078979,-0.013443604111671448,-0.024366609752178192,0.01776731014251709,0.11638778448104858,-0.096679337322711945,0.089382484555244446,0.058335945010185242,-0.098502069711685181,0.073247045278549194, 
  /* [115][0][][] */ 0.10354623198509216,0.018830671906471252,0.09162062406539917,0.080924227833747864,0.099641099572181702,0.074318006634712219,-0.089102953672409058,-0.028997540473937988,0.098926261067390442,0.088793054223060608, -0.034450650215148926,-0.10087525844573975,0.049416393041610718,-0.10776006430387497,-0.072951674461364746,-0.10652405768632889,0.046996191143989563,0.048042416572570801,-0.021407268941402435,-0.048567518591880798, -0.0050147920846939087,0.032792836427688599,-0.023319125175476074,-0.11351773142814636,0.02952459454536438,-0.1159856915473938,-0.10163965821266174,-0.07798999547958374,-0.035638608038425446,0.0027490109205245972, 
  /* [116][0][][] */ -0.00069852918386459351,-0.0078087002038955688,-0.11369772255420685,-0.069400228559970856,0.044019967317581177,-0.039002880454063416,-0.11079540848731995,-0.035987943410873413,-0.023097798228263855,0.11757722496986389, -5.0290341377258301,-0.1869136244058609,0.020581500604748726,0.54950433969497681,-0.54780083894729614,0.012423334643244743,0.4334273636341095,-3.2049181461334229,-3.2645347118377686,-3.2246012687683105, 0.075688540935516357,0.0266084223985672,-0.10376405715942383,0.052552565932273865,-0.07365892082452774,-0.090276218950748444,0.033306986093521118,0.086865589022636414,-0.097746804356575012,-0.068741858005523682, 
  /* [117][0][][] */ -0.049984149634838104,0.10932688415050507,0.032439485192298889,-0.067008331418037415,0.036011382937431335,0.020701795816421509,-0.034261614084243774,-0.076483048498630524,0.11698392033576965,-0.07758156955242157, 2.1949572563171387,0.39342933893203735,0.39237207174301147,-0.72818452119827271,-1.8431707620620728,-1.8568084239959717,-2.2250573635101318,0.48813909292221069,1.5239198207855225,1.9979672431945801, 0.11375515162944794,-0.018417388200759888,-0.096820898354053497,0.09328828752040863,0.11041921377182007,-0.054589793086051941,0.11183787882328033,0.025433018803596497,0.066981092095375061,-0.061750940978527069, 
  /* [118][0][][] */ 0.045139938592910767,-0.118297278881073,-0.050652883946895599,0.099492132663726807,-0.020843386650085449,-0.014884024858474731,-0.017593376338481903,-0.089628636837005615,0.031272023916244507,-0.10433961451053619, 0.055142667144536972,0.016020389273762703,-0.063009984791278839,0.039921615272760391,-0.079065665602684021,-0.075810737907886505,-0.10299953073263168,-0.05083765834569931,0.0829000324010849,-0.055332742631435394, -0.032903999090194702,0.068661406636238098,-0.032242670655250549,-0.028965167701244354,0.070248499512672424,-0.068755663931369781,-0.081487283110618591,-0.019327156245708466,0.0043606981635093689,0.070065110921859741, 
  /* [119][0][][] */ -0.0037042498588562012,-0.085807137191295624,0.07359611988067627,0.10931029915809631,0.04714067280292511,-0.055546469986438751,-0.078529030084609985,-0.014822147786617279,0.0023738741874694824,0.013305008411407471, -0.088835127651691437,-0.0027433899231255054,0.056024074554443359,-0.054204579442739487,-0.11016172915697098,0.014839502982795238,0.050384033471345901,0.089998051524162292,-0.13247276842594147,-0.13628742098808289, 0.071596235036849976,-0.080897852778434753,-0.024126201868057251,-0.038552224636077881,0.079059123992919922,-0.097712993621826172,0.057690978050231934,0.065840378403663635,0.072848767042160034,0.097632914781570435, 
  /* [120][0][][] */ -0.10080066323280334,0.0085397958755493164,-0.099530443549156189,-0.05418916791677475,-0.039659932255744934,0.033283531665802002,-0.033463433384895325,0.10488952696323395,-0.091725274920463562,-0.015416018664836884, -0.35989508032798767,-0.19010770320892334,-0.024481112137436867,0.73871058225631714,2.0700411796569824,1.9231266975402832,1.7816460132598877,-1.166766881942749,-2.5117719173431396,-3.0019605159759521, 0.078802332282066345,0.042581304907798767,-0.035054400563240051,-0.025996148586273193,0.084684789180755615,0.056236356496810913,-0.090276531875133514,-0.02682957798242569,-0.10385943204164505,-0.0068918913602828979, 
  /* [121][0][][] */ 0.075804188847541809,-0.05703909695148468,-0.062773510813713074,0.054602712392807007,0.12034872174263,0.0829630047082901,0.034128546714782715,-0.04918961226940155,-0.04595610499382019,-0.017432183027267456, 1.4724863767623901,0.62995564937591553,0.11474067717790604,-0.87643271684646606,-2.1758790016174316,-2.3270471096038818,-2.4253857135772705,-0.097156740725040436,0.43851584196090698,0.65716737508773804, -0.032948859035968781,0.039631515741348267,0.049970805644989014,0.085873499512672424,-0.019076846539974213,0.090493977069854736,0.0087510496377944946,-0.098854251205921173,0.093088746070861816,-0.054745443165302277, 
  /* [122][0][][] */ -0.11357367038726807,0.022454813122749329,-0.099006339907646179,0.0022984147071838379,-0.003228798508644104,-0.058225821703672409,0.0388774573802948,0.010615080595016479,0.053160592913627625,-0.031705997884273529, 0.086148813366889954,-0.095403410494327545,-0.052334800362586975,0.0088721662759780884,-0.0090276226401329041,0.074206158518791199,0.1078420877456665,0.02992229163646698,-0.024498239159584045,-0.11060815304517746, 0.06029646098613739,0.057136371731758118,0.031700596213340759,-0.027911275625228882,0.060821503400802612,-0.10154829919338226,-0.061944451183080673,0.07041051983833313,0.094964385032653809,-0.098546363413333893, 
  /* [123][0][][] */ -0.082814589142799377,0.01499117910861969,0.033974707126617432,-0.10335243493318558,-0.097096554934978485,-0.088412299752235413,-0.1014392301440239,0.10261915624141693,0.10457822680473328,-0.043653503060340881, -3.8034870624542236,-0.83596616983413696,-0.2279849499464035,1.1161538362503052,0.7662007212638855,1.0047203302383423,1.5457930564880371,-1.4828071594238281,-1.7016324996948242,-1.8445119857788086, -0.086570873856544495,0.088480979204177856,-0.026209034025669098,0.051733806729316711,-0.051920689642429352,0.023517519235610962,0.018405094742774963,-0.095138229429721832,-0.070718206465244293,-0.065804183483123779, 
  /* [124][0][][] */ -0.091005831956863403,-0.085543215274810791,-0.076379574835300446,0.10541537404060364,-0.021610967814922333,-0.087288051843643188,-0.011079691350460052,0.093642443418502808,0.041558727622032166,0.11154936254024506, -3.1283097267150879,-0.23476238548755646,-0.13782714307308197,0.39033263921737671,0.37001138925552368,0.6720929741859436,1.1052052974700928,-1.9588050842285156,-2.4987814426422119,-2.5559313297271729, 0.063759833574295044,0.028181254863739014,-0.082946613430976868,-0.01214282214641571,0.0076484233140945435,0.084749549627304077,0.085327580571174622,0.11153282225131989,0.015166223049163818,-0.0060600712895393372, 
  /* [125][0][][] */ 0.028970479965209961,0.057268425822257996,0.053722292184829712,-0.08828967809677124,0.021215766668319702,0.11617179214954376,-0.06858941912651062,0.11778637766838074,-0.047151759266853333,0.091248184442520142, -0.11530110985040665,0.044483602046966553,-0.11757802963256836,0.01052461564540863,-0.064042553305625916,0.019653037190437317,-0.11134453862905502,-0.094458103179931641,-0.028379842638969421,-0.042941279709339142, 0.093816801905632019,0.10852159559726715,0.025093346834182739,0.0393696129322052,-0.016466438770294189,0.011835470795631409,0.026302427053451538,-0.05547729879617691,-0.056881897151470184,0.0063911527395248413, 
  /* [126][0][][] */ 0.034882038831710815,-0.097701400518417358,-0.11434306204319,0.037926033139228821,0.045420929789543152,0.010751426219940186,-0.044603914022445679,-0.0031441003084182739,0.098263561725616455,-0.095979377627372742, -1.294455885887146,0.060206480324268341,-0.05428532138466835,0.68556767702102661,1.2292094230651855,1.189893364906311,1.2725048065185547,-2.0108001232147217,-3.349428653717041,-3.8098294734954834, 0.073755130171775818,0.063170209527015686,-0.035299025475978851,-0.05369982123374939,0.04971759021282196,-0.11546789854764938,-0.048388935625553131,-0.0057326629757881165,-0.041159853339195251,-0.054033972322940826, 
  /* [127][0][][] */ 0.01734451949596405,-0.047734580934047699,0.069788709282875061,-0.082867681980133057,-0.084729909896850586,0.051129773259162903,-0.047142080962657928,-0.068393267691135406,0.046427220106124878,-0.088614016771316528, -0.11251602321863174,-0.049569949507713318,0.014371976256370544,-0.093253903090953827,0.097583696246147156,-0.10747668147087097,0.040632963180541992,0.079009070992469788,0.0989571213722229,-0.025605052709579468, 0.1146121472120285,-0.082595415413379669,-0.015191860496997833,0.084046512842178345,0.12020218372344971,0.049500375986099243,0.0042897164821624756,-0.018769390881061554,-0.089204102754592896,0.031262204051017761, 
};
const TfArray<4, int> tensor_dimension7 = { 4, { 128,1,3,10 } };
const ALIGN(8) float tensor_data8[32*1*3*128] = { 
  /* [0][0][][] */ -0.068295806646347046,-0.054327502846717834,-0.037710681557655334,0.091891169548034668,0.09537053108215332,-0.093868248164653778,-0.031092949211597443,0.042808234691619873,0.06465795636177063,0.084183961153030396,0.037202402949333191,0.077995508909225464,0.096288770437240601,-0.064551174640655518,-0.0044725313782691956,-0.06997855007648468,0.0050601065158843994,0.09727613627910614,-0.047269284725189209,-0.057660516351461411,-0.085216671228408813,-0.098777726292610168,0.08527904748916626,0.03112773597240448,0.014489322900772095,-0.093484431505203247,0.047088637948036194,0.012298658490180969,0.038613975048065186,-0.059209361672401428,0.0011898726224899292,-0.11156906187534332,-0.10043498128652573,-0.088739581406116486,-0.051602911204099655,0.027591422200202942,-0.080589957535266876,0.079424500465393066,-0.044503405690193176,-0.061960343271493912,0.045968517661094666,0.026897698640823364,0.022861465811729431,-0.087269291281700134,0.046743914484977722,0.041252195835113525,-0.083813950419425964,-0.078788444399833679,0.066655904054641724,-0.050480104982852936,0.060453444719314575,0.057836651802062988,-0.060261528939008713,-0.087425172328948975,-0.083403632044792175,0.066248953342437744,-0.025198854506015778,-0.049192540347576141,0.10344372689723969,0.014862775802612305,0.046481624245643616,-0.0039515644311904907,0.026527419686317444,0.035604268312454224,0.025289803743362427,0.041881754994392395,0.0062521696090698242,0.10179547965526581,0.0062280967831611633,-0.019583500921726227,-0.094099193811416626,0.074763029813766479,0.091121718287467957,-0.021349035203456879,-0.098253190517425537,0.02555634081363678,-0.084863424301147461,-0.10580043494701385,-0.081802435219287872,-0.008214317262172699,0.044588282704353333,-0.025333099067211151,0.049826979637145996,0.018301457166671753,-0.087234824895858765,0.086736962199211121,-0.052770629525184631,-0.012290976941585541,-0.10945039242506027,0.057301297783851624,-0.095160268247127533,0.0087785720825195312,0.04910847544670105,0.071756616234779358,-0.088054656982421875,-0.025942422449588776,-0.0033373609185218811,-0.075406618416309357,-0.096021868288516998,0.031777098774909973,-0.11034067720174789,0.10485658049583435,-0.093217149376869202,-0.071838364005088806,0.01678997278213501,0.061082929372787476,0.030996277928352356,0.020110175013542175,-0.10167168825864792,-0.022697299718856812,0.050329446792602539,-0.10876501351594925,-0.025251716375350952,-0.062998458743095398,-0.0051960274577140808,0.044691726565361023,-0.079247482120990753,0.095635250210762024,0.042723715305328369,-0.010897912085056305,0.010982915759086609,0.082840308547019958,0.026511073112487793,-0.0032454505562782288,0.062458544969558716,-0.049577374011278152,-0.060489572584629059,-0.10609885305166245, -0.8552667498588562,0.096593528985977173,-0.023530565202236176,0.16742992401123047,0.054172277450561523,0.30299541354179382,0.039093483239412308,-0.22604028880596161,-0.033668402582406998,-1.6607460975646973,0.11476695537567139,0.054365813732147217,0.0075692683458328247,-1.4237581491470337,-0.045706897974014282,0.33075085282325745,0.34343928098678589,-0.00098784267902374268,0.27685064077377319,-0.18123777210712433,-0.047484073787927628,0.065866723656654358,-0.028286874294281006,-0.017021670937538147,-0.1104450598359108,-0.014778196811676025,0.073172420263290405,-0.10515392571687698,0.019110679626464844,0.045821402221918106,0.39231929183006287,0.10978043079376221,0.15917915105819702,0.10828972607851028,0.019344136118888855,-0.069370687007904053,-0.093811094760894775,-0.099948301911354065,0.37956854701042175,0.044460583478212357,-1.5463166236877441,0.30841997265815735,0.022341623902320862,0.45158341526985168,0.17558431625366211,0.028573617339134216,0.24166110157966614,0.092500962316989899,0.26341068744659424,-0.10586429387331009,0.33823534846305847,-0.2114274650812149,0.34312215447425842,-0.065119080245494843,-1.4950157403945923,0.35516020655632019,0.18742819130420685,0.096038147807121277,0.048864647746086121,0.40657144784927368,-0.28342148661613464,-0.016938373446464539,0.040869414806365967,-0.16718180477619171,0.080815762281417847,-0.23490510880947113,-0.34994509816169739,0.89561456441879272,-0.065479390323162079,0.077139794826507568,0.072547361254692078,-0.047440573573112488,-0.0030131712555885315,0.15189854800701141,0.12164218723773956,0.046644359827041626,0.051204275339841843,0.16791531443595886,0.14968398213386536,-0.026485545560717583,0.040122941136360168,0.51709651947021484,0.35177153348922729,-0.036181345582008362,-0.37897911667823792,-0.066812902688980103,0.10253638029098511,0.055410459637641907,-0.020821046084165573,-2.4488775730133057,-0.0074262134730815887,0.039557065814733505,-0.099574878811836243,0.062717080116271973,0.0239084642380476,0.013892784714698792,-0.14815643429756165,0.0610666424036026,-0.073840416967868805,0.099869377911090851,-1.4168070554733276,-0.054380785673856735,0.27208980917930603,-1.6991651058197021,-0.10007853806018829,-0.053017251193523407,-0.25724136829376221,-0.5317351222038269,-0.071913108229637146,0.075840473175048828,0.055368095636367798,-1.0188339948654175,-0.030369570478796959,0.092973858118057251,0.07638297975063324,-0.046747438609600067,-0.26680868864059448,-0.11164294928312302,-0.047849908471107483,-0.099597267806529999,0.18365092575550079,-0.060523532330989838,-0.057968206703662872,1.2558504343032837,0.21660001575946808,-0.059737309813499451,-0.10452684015035629,0.011447824537754059, -0.022587768733501434,0.017204239964485168,0.11040171980857849,0.0029121413826942444,0.016657441854476929,0.070466414093971252,0.074134811758995056,0.08405788242816925,0.064050912857055664,-0.10815951973199844,-0.035923577845096588,0.054863020777702332,-0.06992899626493454,0.0054597929120063782,0.095523476600646973,-0.03302108496427536,0.028234198689460754,-0.036706544458866119,-0.11014842987060547,-0.068855717778205872,0.10305580496788025,-0.10946539789438248,0.010071836411952972,0.10988909006118774,0.070398703217506409,-0.017347224056720734,-0.068585611879825592,0.0055354908108711243,-0.090785905718803406,0.090850338339805603,0.042888820171356201,0.088281944394111633,-0.075846657156944275,0.040617510676383972,-0.016547515988349915,-0.047428794205188751,-0.07215176522731781,0.075459793210029602,-0.070351764559745789,-0.11036607623100281,-0.022307023406028748,-0.093287147581577301,0.019583821296691895,0.0031724646687507629,-0.0891222283244133,0.0031461045145988464,0.036573395133018494,0.00039599835872650146,-0.095416858792304993,-0.069521024823188782,-0.078995019197463989,0.057167932391166687,-0.063573107123374939,0.077438816428184509,0.047627881169319153,0.068143516778945923,0.016237586736679077,-0.087678462266921997,-0.10450543463230133,-0.019931122660636902,0.073576197028160095,-0.02902945876121521,-0.028492555022239685,0.087093651294708252,0.061451688408851624,-0.076308920979499817,-0.055557224899530411,0.10631735622882843,-0.044839292764663696,-0.048424743115901947,0.0043837651610374451,-0.035899750888347626,0.095020085573196411,0.094300135970115662,-0.044600695371627808,0.077117502689361572,-0.026030950248241425,-0.093103595077991486,-0.02442082017660141,0.063308075070381165,0.063041135668754578,0.072918087244033813,-0.060919959098100662,0.049592301249504089,-0.00842294842004776,-0.088036715984344482,-0.10375440120697021,0.10614466667175293,0.05492459237575531,0.089722543954849243,-0.053534217178821564,0.093921184539794922,0.011669628322124481,0.038015305995941162,0.079658865928649902,-0.10078868269920349,-0.044453315436840057,-0.057378336787223816,-0.020694978535175323,-0.0066640302538871765,-0.0066369995474815369,-0.016843557357788086,-0.074354000389575958,-0.065654359757900238,-0.023896314203739166,0.10071653127670288,0.0040352120995521545,-0.10229653120040894,-0.077835433185100555,-0.024786673486232758,-0.079028718173503876,-0.039789102971553802,0.097527801990509033,0.057031199336051941,-0.038486607372760773,0.024205759167671204,0.0091541558504104614,0.032654300332069397,-0.039578944444656372,-0.020873785018920898,0.098495170474052429,-0.10879145562648773,-0.086753495037555695,-0.051696471869945526,-0.011134639382362366,-0.051539789885282516,-0.067202620208263397,0.027767345309257507, 
