/* Generated by Edge Impulse
*
* Permission is hereby granted, free of charge, to any person obtaining a copy
* of this software and associated documentation files (the "Software"), to deal
* in the Software without restriction, including without limitation the rights
* to use, copy, modify, merge, publish, distribute, sublicense, and/or sell
* copies of the Software, and to permit persons to whom the Software is
* furnished to do so, subject to the following conditions:
*
* The above copyright notice and this permission notice shall be included in
* all copies or substantial portions of the Software.
*
* THE SOFTWARE IS PROVIDED "AS IS", WITHOUT WARRANTY OF ANY KIND, EXPRESS OR
* IMPLIED, INCLUDING BUT NOT LIMITED TO THE WARRANTIES OF MERCHANTABILITY,
* FITNESS FOR A PARTICULAR PURPOSE AND NONINFRINGEMENT. IN NO EVENT SHALL THE
* AUTHORS OR COPYRIGHT HOLDERS BE LIABLE FOR ANY CLAIM, DAMAGES OR OTHER
* LIABILITY, WHETHER IN AN ACTION OF CONTRACT, TORT OR OTHERWISE, ARISING FROM,
* OUT OF OR IN CONNECTION WITH THE SOFTWARE OR THE USE OR OTHER DEALINGS IN THE
* SOFTWARE.
*/
// Generated on: 16.12.2021 16:57:23

#include <stdio.h>
#include <stdlib.h>
#include <vector>
#include "edge-impulse-sdk/tensorflow/lite/c/builtin_op_data.h"
#include "edge-impulse-sdk/tensorflow/lite/c/common.h"
#include "edge-impulse-sdk/tensorflow/lite/micro/micro_mutable_op_resolver.h"
#include "edge-impulse-sdk/porting/ei_classifier_porting.h"

#if EI_CLASSIFIER_PRINT_STATE
#if defined(__cplusplus) && EI_C_LINKAGE == 1
extern "C" {
    extern void ei_printf(const char *format, ...);
}
#else
extern void ei_printf(const char *format, ...);
#endif
#endif

#if defined __GNUC__
#define ALIGN(X) __attribute__((aligned(X)))
#elif defined _MSC_VER
#define ALIGN(X) __declspec(align(X))
#elif defined __TASKING__
#define ALIGN(X) __align(X)
#endif

using namespace tflite;
using namespace tflite::ops;
using namespace tflite::ops::micro;

namespace {

constexpr int kTensorArenaSize = 3104;

#if defined(EI_CLASSIFIER_ALLOCATION_STATIC)
uint8_t tensor_arena[kTensorArenaSize] ALIGN(16);
#elif defined(EI_CLASSIFIER_ALLOCATION_STATIC_HIMAX)
#pragma Bss(".tensor_arena")
uint8_t tensor_arena[kTensorArenaSize] ALIGN(16);
#pragma Bss()
#elif defined(EI_CLASSIFIER_ALLOCATION_STATIC_HIMAX_GNU)
uint8_t tensor_arena[kTensorArenaSize] ALIGN(16) __attribute__((section(".tensor_arena")));
#else
#define EI_CLASSIFIER_ALLOCATION_HEAP 1
uint8_t* tensor_arena = NULL;
#endif

static uint8_t* tensor_boundary;
static uint8_t* current_location;

template <int SZ, class T> struct TfArray {
  int sz; T elem[SZ];
};
enum used_operators_e {
  OP_RESHAPE, OP_CONV_2D, OP_MAX_POOL_2D, OP_FULLY_CONNECTED, OP_SOFTMAX,  OP_LAST
};
struct TensorInfo_t { // subset of TfLiteTensor used for initialization from constant memory
  TfLiteAllocationType allocation_type;
  TfLiteType type;
  void* data;
  TfLiteIntArray* dims;
  size_t bytes;
};
struct NodeInfo_t { // subset of TfLiteNode used for initialization from constant memory
  struct TfLiteIntArray* inputs;
  struct TfLiteIntArray* outputs;
  void* builtin_data;
  used_operators_e used_op_index;
};

TfLiteContext ctx{};
TfLiteTensor tflTensors[23];
TfLiteEvalTensor tflEvalTensors[23];
TfLiteRegistration registrations[OP_LAST];
TfLiteNode tflNodes[11];

const TfArray<2, int> tensor_dimension0 = { 2, { 1,20 } };
const ALIGN(8) int32_t tensor_data1[2] = { -1, 12, };
const TfArray<1, int> tensor_dimension1 = { 1, { 2 } };
const ALIGN(8) float tensor_data2[96] = { -0.090588010847568512, -0.16382768750190735, -0.009159543551504612, 0.03679434210062027, 0.10147403180599213, 0.15756769478321075, -0.0027781820390373468, -0.20585907995700836, 0.04139941930770874, 0.11113624274730682, 0.035089381039142609, -0.12928637862205505, -0.1517615020275116, -0.14903353154659271, -0.15793038904666901, 0.016721725463867188, 0.031253468245267868, -0.013390985317528248, 0.030476944521069527, -0.17380982637405396, -0.15513071417808533, 0.0037161742802709341, 0, -0.0042444434948265553, 0.021975774317979813, -0.042831152677536011, 0.053864989429712296, 0, -0.15360794961452484, 0.038212891668081284, 0.1698603481054306, 0, -0.1633668839931488, -0.1258331835269928, -0.15852361917495728, -0.13921324908733368, -0.0078855948522686958, 0.020497014746069908, -0.22624842822551727, -0.058023691177368164, -0.12087535113096237, -0.12694929540157318, -0.036600671708583832, 0.19590872526168823, 0, 0.089746363461017609, 0.045843262225389481, -0.1440141499042511, 0.053102899342775345, -0.055186934769153595, 0.034170057624578476, -0.001900665694847703, 0.35527396202087402, -0.0051476135849952698, 0, 0.035927347838878632, -0.13867142796516418, 0.14332962036132812, 0.085675686597824097, 0.040831714868545532, -0.18931403756141663, -0.21533319354057312, 0.054289378225803375, -0.2040923535823822, -0.16702161729335785, 0.15200969576835632, 0.030761009082198143, -0.18643142282962799, -0.20544615387916565, -0.097850464284420013, -0.0042502982541918755, -0.12795636057853699, 0.1533057689666748, -0.1894945353269577, 0.053013559430837631, -0.22970195114612579, -0.13927067816257477, 0.15715909004211426, -0.17593817412853241, -0.1617625504732132, 0.14097355306148529, -0.17498320341110229, -0.1864328533411026, -0.23290419578552246, -0.010668868198990822, -0.10697858035564423, -0.019010303542017937, 0.076068632304668427, 0.083900772035121918, 0, -0.019362408667802811, -0.13070306181907654, -0.089625492691993713, -0.2019074410200119, -0.066174998879432678, -0.087792322039604187, };
const TfArray<1, int> tensor_dimension2 = { 1, { 96 } };
const ALIGN(8) float tensor_data3[32] = { -0.11957290023565292, 0.0092477640137076378, 0.14960579574108124, 0.091559790074825287, -0.073135942220687866, 0.11978068947792053, -0.077341154217720032, 0.1516076922416687, -0.0024829464964568615, -0.025376016274094582, 0.093329742550849915, 0.11658216267824173, -0.075281701982021332, -0.098563551902770996, -0.093225240707397461, 0.012358933687210083, 0.05708017572760582, 0.018040833994746208, 0.15296216309070587, 0.054687879979610443, 0.15534943342208862, 0.068396091461181641, -0.2536560595035553, 0.25889340043067932, -0.025043303146958351, -0.027283336967229843, -0.025873869657516479, -0.089026995003223419, 0.054317284375429153, -0.05844564363360405, 0.099796414375305176, -0.22726255655288696, };
const TfArray<1, int> tensor_dimension3 = { 1, { 32 } };
const ALIGN(8) float tensor_data4[12] = { 0.27421990036964417, -0.09973183274269104, 0.14985497295856476, 0.19690649211406708, 0.1814572662115097, 0.16511601209640503, 0.19014269113540649, 0.20839256048202515, 0.10076416283845901, 0.14225299656391144, 0.19139736890792847, 0.24219687283039093, };
const TfArray<1, int> tensor_dimension4 = { 1, { 12 } };
const ALIGN(8) float tensor_data5[4] = { 0.25222280621528625, 0.82000619173049927, 1.3404291868209839, -2.2913086414337158, };
const TfArray<1, int> tensor_dimension5 = { 1, { 4 } };
const ALIGN(8) float tensor_data6[4*12] = { 
  -1.2349536418914795, 0.87260663509368896, -2.3036234378814697, 0.13018350303173065, -0.73341000080108643, -2.4597313404083252, 0.33830350637435913, 0.63315665721893311, 0.97899407148361206, -1.0208736658096313, -0.80223995447158813, 0.64246022701263428, 
  -1.8660386800765991, -2.2798376083374023, 0.64323532581329346, -1.1321747303009033, -2.9928290843963623, 0.26690241694450378, 0.22924993932247162, 0.031360916793346405, -1.429175853729248, 0.11703521758317947, -2.992095947265625, -0.11977288872003555, 
  -0.39934048056602478, -2.5680310726165771, -3.3927326202392578, -4.316460132598877, 0.77178400754928589, -3.1426572799682617, -2.9572923183441162, -4.0347061157226562, -2.8180468082427979, -3.8779408931732178, 0.4975791871547699, -3.9438958168029785, 
  1.5892671346664429, 0.7869408130645752, 0.74202191829681396, 0.054223451763391495, 0.59351307153701782, 0.4527677595615387, 0.31239661574363708, 0.52920854091644287, 0.82249176502227783, 0.19082848727703094, 0.32854518294334412, 0.54285323619842529, 
};
const TfArray<2, int> tensor_dimension6 = { 2, { 4,12 } };
const ALIGN(8) float tensor_data7[96*1*3*10] = { 
  /* [0][0][][] */ -0.14441440999507904,-0.046911891549825668,0.10559502243995667,-0.12278458476066589,0.028306905180215836,-0.074449457228183746,0.14008422195911407,0.088295146822929382,-0.15124163031578064,-0.079673103988170624, -0.59930604696273804,-0.079636849462985992,-0.01771501824259758,-0.27671387791633606,-0.84518015384674072,-0.79901224374771118,-0.71385514736175537,-0.55853015184402466,-0.57933056354522705,-0.69638127088546753, 0.17899845540523529,0.19095852971076965,0.1774408221244812,0.28795206546783447,-0.0079169385135173798,0.058912087231874466,0.029046541079878807,0.1503424197435379,0.20583678781986237,0.17849190533161163, 
  /* [1][0][][] */ 0.3886931836605072,-0.027348835021257401,-0.034949027001857758,-0.056545160710811615,1.322382926940918,1.2987173795700073,1.4185254573822021,0.54323625564575195,0.4026513397693634,0.4580877423286438, -0.22491535544395447,-0.077663563191890717,0.1284375935792923,-0.07242884486913681,0.43189716339111328,0.40156608819961548,0.33749949932098389,-0.19424742460250854,-0.22122639417648315,-0.17991356551647186, 0.0054711252450942993,0.040855869650840759,-0.078269831836223602,-0.095947816967964172,-0.078524529933929443,0.062452152371406555,-0.054646804928779602,-0.056434951722621918,-0.10238252580165863,0.032034397125244141, 
  /* [2][0][][] */ -0.0087930941954255104,0.074943713843822479,-0.055715370923280716,-0.019361186772584915,-0.051962763071060181,-0.064497426152229309,0.022540507838129997,0.083358027040958405,-0.093879744410514832,-0.080084338784217834, 0.12753058969974518,-0.10495187342166901,0.0078358203172683716,0.074412301182746887,-0.042733985930681229,-0.055713240057229996,-0.082542687654495239,-0.13317450881004333,0.065030910074710846,-0.027020547538995743, 0.0907750204205513,-0.087636567652225494,-0.097916409373283386,-0.0085232974961400032,0.079451419413089752,0.13593389093875885,0.13569124042987823,0.094153247773647308,0.064187131822109222,0.013871434144675732, 
  /* [3][0][][] */ 0.058152616024017334,0.31213822960853577,0.046542517840862274,-0.55590564012527466,-0.61855232715606689,-0.61193794012069702,-0.73058569431304932,0.22069591283798218,0.48450595140457153,0.45258727669715881, 0.42292678356170654,0.24931831657886505,-0.010972523130476475,-0.23320651054382324,-0.54127097129821777,-0.46686366200447083,-0.40759462118148804,0.10185270011425018,0.21968546509742737,0.1705583930015564, -0.6621508002281189,-0.39818704128265381,-0.25480213761329651,-0.40501850843429565,-0.44109591841697693,-0.46100920438766479,-0.44084310531616211,-0.66163265705108643,-0.54616266489028931,-0.53043299913406372, 
  /* [4][0][][] */ -0.47065964341163635,-0.32125943899154663,-0.14534850418567657,-0.027068324387073517,-0.18182863295078278,-0.1965336948633194,-0.24053941667079926,-0.41817566752433777,-0.76085388660430908,-0.66677755117416382, -0.3827594518661499,-0.098745644092559814,-0.02686743251979351,0.29072856903076172,0.44785362482070923,0.3966485857963562,0.49960529804229736,0.096890121698379517,-0.28760549426078796,-0.36579245328903198, -0.88606506586074829,-1.3402249813079834,-0.65799832344055176,0.51406443119049072,0.82196491956710815,0.88131427764892578,0.87585508823394775,0.38853591680526733,0.41911506652832031,0.13863790035247803, 
  /* [5][0][][] */ -0.058200143277645111,-0.026056759059429169,-0.13624438643455505,-0.12949366867542267,-0.23687589168548584,-0.21814289689064026,-0.11801407486200333,-0.080599695444107056,-0.040146123617887497,-0.042987257242202759, -0.46791273355484009,-0.44417357444763184,-0.26967969536781311,0.027837863191962242,-0.25436216592788696,-0.25417071580886841,-0.32036513090133667,-0.66924911737442017,-0.58412563800811768,-0.71031516790390015, -0.2251623272895813,-0.054512675851583481,-0.0078435521572828293,0.37244153022766113,0.42161643505096436,0.30496877431869507,0.27387553453445435,-0.093700610101222992,-0.20105883479118347,-0.24303352832794189, 
  /* [6][0][][] */ -0.10428197681903839,0.027765724807977676,-0.036830954253673553,0.010587182827293873,-0.017356421798467636,0.031467467546463013,-0.084543377161026001,0.010482148267328739,-0.10203482955694199,0.11479596793651581, 0.068858548998832703,-0.096941187977790833,0.050681114196777344,-0.034020617604255676,-0.039104249328374863,-0.027609840035438538,-0.037653982639312744,0.068940699100494385,-0.032205667346715927,-0.027797481045126915, 0.085924461483955383,0.030333027243614197,0.062715783715248108,-0.13347698748111725,-0.054414153099060059,0.087782040238380432,-0.05704016238451004,-0.097344666719436646,0.059746205806732178,-0.054812848567962646, 
  /* [7][0][][] */ 0.27283665537834167,-0.039388354867696762,0.073803938925266266,0.33486005663871765,0.51824027299880981,0.41265362501144409,0.48121815919876099,0.33870294690132141,0.33706918358802795,0.30714717507362366, -0.033082976937294006,0.13857030868530273,-0.093385711312294006,-0.31018635630607605,-0.20329834520816803,-0.17536608874797821,-0.083109170198440552,-0.11090744286775589,-0.2462293952703476,-0.04057672992348671, -0.13564348220825195,-0.082557961344718933,-0.075457841157913208,0.12506429851055145,-0.009444013237953186,0.027022987604141235,-0.09545290470123291,0.11264179646968842,-0.013299949467182159,-0.051644712686538696, 
  /* [8][0][][] */ 0.40131354331970215,0.23547367751598358,0.17715458571910858,-0.13694433867931366,0.72688871622085571,0.75488317012786865,0.83938151597976685,0.48895591497421265,0.27126467227935791,0.43530067801475525, -0.022794479504227638,-0.20325739681720734,-0.20340274274349213,-0.20943830907344818,0.32978379726409912,0.30905526876449585,0.29478356242179871,0.2310195118188858,0.12675639986991882,0.091508194804191589, -0.063404001295566559,-0.084628336131572723,-0.013563260436058044,0.0342693030834198,0.07353799045085907,-0.092113159596920013,0.071979232132434845,0.083702221512794495,0.099975191056728363,-0.063676945865154266, 
  /* [9][0][][] */ -0.12254472821950912,-0.012954885140061378,-0.019706752151250839,-0.034514099359512329,0.70587992668151855,0.70384246110916138,0.67610520124435425,-0.02931777760386467,-0.15692226588726044,-0.17318852245807648, -0.40605905652046204,-0.44614237546920776,-0.15657566487789154,0.31554290652275085,0.89253032207489014,0.78027749061584473,0.99614441394805908,0.23609784245491028,0.22728012502193451,0.0093438867479562759, -0.045147672295570374,-0.021305672824382782,-0.11752356588840485,0.080789506435394287,-0.1124129593372345,0.017905132845044136,0.039028827100992203,-0.056082345545291901,0.040248114615678787,-0.17311188578605652, 
  /* [10][0][][] */ -0.46044248342514038,0.021970219910144806,-0.038886599242687225,-0.21410629153251648,-0.92304074764251709,-0.94597870111465454,-0.9818350076675415,-0.50491553544998169,-0.37655094265937805,-0.56467700004577637, 0.0908832848072052,-0.0057330839335918427,0.10791966319084167,0.3378312885761261,-0.026189744472503662,-0.24104794859886169,-0.11446616798639297,0.060734521597623825,0.17389325797557831,0.30096307396888733, 0.11991609632968903,-0.11557412147521973,-0.30932262539863586,-0.31886529922485352,-0.22723807394504547,-0.12067893147468567,-0.16836819052696228,-0.14495129883289337,-0.39001443982124329,-0.44872757792472839, 
  /* [11][0][][] */ 0.042607203125953674,0.0288808923214674,-0.064426541328430176,0.11615175753831863,0.030037518590688705,0.025705410167574883,0.020630167797207832,-0.12100972235202789,0.0067011336795985699,-0.048964701592922211, -0.19875510036945343,0.052097678184509277,0.036815274506807327,-0.07710101455450058,-0.11144941300153732,0.010779908858239651,0.016242727637290955,-0.11299504339694977,-0.045538458973169327,-0.03959646075963974, -0.021215692162513733,-0.048675637692213058,-0.034964241087436676,-0.067348822951316833,-0.020213969051837921,0.12772844731807709,0.16661766171455383,-0.028327953070402145,0.12462683022022247,-0.020030610263347626, 
  /* [12][0][][] */ 0.40973442792892456,0.01916140504181385,0.018236011266708374,0.29870566725730896,0.42659410834312439,0.3569890558719635,0.49741086363792419,0.25207263231277466,0.39864271879196167,0.41239082813262939, -0.049041114747524261,-0.041585609316825867,0.04713829979300499,-0.37578094005584717,-0.10374765843153,-0.11058321595191956,-0.076278649270534515,-0.13466273248195648,-0.099974729120731354,0.031399667263031006, -0.13329371809959412,0.086521938443183899,-0.10387487709522247,-0.019301004707813263,-0.080195724964141846,-0.050983630120754242,-0.095726035535335541,-0.073652967810630798,-0.043085485696792603,0.12425185739994049, 
  /* [13][0][][] */ 0.040074937045574188,-0.025235414505004883,-0.094916731119155884,-0.091446004807949066,0.100178562104702,-0.14199614524841309,0.068725056946277618,-0.011129608377814293,-0.035955056548118591,0.13552387058734894, -0.017835281789302826,0.030794300138950348,0.014678238891065121,0.11030415445566177,-0.087675265967845917,-0.036128919571638107,0.04638928547501564,-0.0095576811581850052,0.094039328396320343,-0.075006507337093353, -0.074733689427375793,-0.046656034886837006,-0.053897116333246231,-0.09314003586769104,0.082321591675281525,-0.08580385148525238,0.0020318238530308008,-0.07778824120759964,0.062939248979091644,-0.053420055657625198, 
  /* [14][0][][] */ -0.080345913767814636,-0.045951567590236664,-0.11268287152051926,-0.11370150744915009,-0.02293270081281662,0.077642261981964111,-0.11252322047948837,-0.048817723989486694,-0.085538178682327271,-0.054023683071136475, 0.46582069993019104,-0.12022695690393448,-0.097585387527942657,0.0057850014418363571,1.2915558815002441,1.3260748386383057,1.1767462491989136,0.42898669838905334,0.48066386580467224,0.51072275638580322, -0.29516977071762085,-0.010082005523145199,0.10103620588779449,-0.11235808581113815,0.43356782197952271,0.37969017028808594,0.50563466548919678,-0.14876283705234528,-0.16715146601200104,-0.050970662385225296, 
  /* [15][0][][] */ -0.70234107971191406,-0.090245649218559265,0.034975793212652206,-0.17582179605960846,-0.79086846113204956,-0.84674370288848877,-0.73706060647964478,-0.55691623687744141,-0.62956899404525757,-0.64845478534698486, -0.51428520679473877,0.11530719697475433,-0.072283372282981873,0.058359771966934204,-0.17553757131099701,-0.25488242506980896,-0.24856573343276978,-0.16656641662120819,-0.30550426244735718,-0.30641034245491028, -0.44078546762466431,-0.70411980152130127,-0.2149248868227005,0.63562214374542236,0.85668671131134033,1.081537127494812,1.1132674217224121,0.793570876121521,0.56740927696228027,0.4665551483631134, 
  /* [16][0][][] */ -0.1019609123468399,-0.043654203414916992,-0.13441862165927887,-0.0057176649570465088,0.11703900992870331,0.084409013390541077,-0.057042546570301056,0.094235315918922424,-0.069865703582763672,-0.11116638779640198, -0.15859392285346985,-0.187111496925354,0.13343986868858337,-0.081435665488243103,0.36579453945159912,0.47658395767211914,0.43998080492019653,0.036292850971221924,-0.27423191070556641,-0.29589381814002991, -0.26093000173568726,-0.31129071116447449,-0.11148589849472046,0.42916300892829895,0.91570854187011719,0.93656140565872192,1.0135107040405273,0.3590012788772583,0.15028147399425507,0.19601874053478241, 
  /* [17][0][][] */ -0.071875430643558502,-0.044892050325870514,-0.007465822622179985,0.013073734939098358,-0.021346209570765495,0.10789826512336731,-0.072149254381656647,-0.032463826239109039,-0.084973268210887909,-0.12348967045545578, 0.0011672327527776361,-0.043403699994087219,0.059808243066072464,-0.0077308686450123787,0.066694736480712891,-0.14565727114677429,0.018082423135638237,-0.067169427871704102,0.023629060015082359,-0.12922859191894531, 0.080816172063350677,-0.0090924231335520744,-0.12026479840278625,0.10032577067613602,-0.1214192733168602,-0.020782424136996269,0.036274772137403488,0.091509245336055756,-0.12643982470035553,0.046355191618204117, 
  /* [18][0][][] */ -0.13812798261642456,-0.078209772706031799,-0.021824399009346962,-5.1498311222530901e-05,0.050877206027507782,-0.12762677669525146,-0.032850842922925949,0.071877598762512207,-0.10139063000679016,-0.081809096038341522, -0.34654292464256287,0.025754192844033241,-0.02276608906686306,-0.00096978014335036278,0.017950592562556267,-0.058443285524845123,-0.072184942662715912,-0.32601252198219299,-0.28204119205474854,-0.60190576314926147, -0.29815298318862915,-0.36332955956459045,0.1102466806769371,0.43536213040351868,0.73918235301971436,0.71926432847976685,0.58119297027587891,0.35729879140853882,0.39192613959312439,0.15957565605640411, 
  /* [19][0][][] */ 0.48025760054588318,0.014794721268117428,-0.10804936289787292,0.060684747993946075,1.0396744012832642,1.3173882961273193,1.2977066040039062,0.68640697002410889,0.60028684139251709,0.4568617045879364, -0.13036590814590454,0.052903272211551666,-0.096228696405887604,0.025411138311028481,0.26209968328475952,0.456755131483078,0.40442657470703125,0.083838716149330139,-0.1430559903383255,-0.10644878447055817, 0.039770662784576416,-0.12154421210289001,-0.081276774406433105,0.01764814555644989,-0.012668155133724213,-0.024425745010375977,-0.010986313223838806,0.13726253807544708,-0.081997491419315338,0.037416711449623108, 
  /* [20][0][][] */ -0.50159454345703125,-0.46677997708320618,-0.47390580177307129,-0.54667192697525024,-0.44469478726387024,-0.54441744089126587,-0.33874765038490295,-0.52495855093002319,-0.37937760353088379,-0.53990024328231812, 0.085660547018051147,0.010822580195963383,0.10972590744495392,0.34554460644721985,-0.13285684585571289,-0.1111837774515152,-0.090753339231014252,0.089501246809959412,0.10924645513296127,0.18317507207393646, -0.020936433225870132,0.054900776594877243,-0.053234849125146866,-0.44526895880699158,-0.37040281295776367,-0.42330899834632874,-0.51483738422393799,-0.37570473551750183,-0.30920442938804626,-0.097404435276985168, 
  /* [21][0][][] */ 0.43019691109657288,0.047604676336050034,0.15328828990459442,-0.040550943464040756,-0.1620662659406662,-0.17939656972885132,-0.047065574675798416,0.26240521669387817,0.33908885717391968,0.24825426936149597, -0.23846215009689331,0.15257461369037628,-0.15851961076259613,-0.38766050338745117,-0.83869242668151855,-0.97564804553985596,-1.0002347230911255,-0.35786360502243042,-0.41348335146903992,-0.47388720512390137, 0.37013921141624451,0.19741344451904297,0.13383753597736359,0.28810989856719971,-0.047843411564826965,-0.097706831991672516,-0.16838814318180084,0.1449379175901413,0.38360363245010376,0.24292027950286865, 
  /* [22][0][][] */ -0.13356634974479675,0.051504775881767273,-0.11464744061231613,-0.0996236652135849,0.025487601757049561,0.11352075636386871,-0.0083833038806915283,0.10905422270298004,-0.013247124850749969,-0.020074084401130676, -0.10653052479028702,-0.060579180717468262,0.098230466246604919,-0.11905176192522049,-0.061861351132392883,0.13022486865520477,-0.077861413359642029,-0.057792969048023224,-0.076670289039611816,0.0037270635366439819, -0.014674507081508636,-0.072740338742733002,-0.065944172441959381,0.056793227791786194,-0.11302248388528824,0.10845620930194855,-0.046959072351455688,-0.10095757246017456,0.091960549354553223,0.078342825174331665, 
  /* [23][0][][] */ -0.036627091467380524,-0.0042265653610229492,-0.079794183373451233,0.059452906250953674,-0.042103134095668793,0.12472333014011383,-0.13409696519374847,0.087511554360389709,-0.057632789015769958,-0.089601814746856689, 0.083105280995368958,-0.040537372231483459,-0.019967518746852875,0.015159637667238712,0.085752084851264954,-0.082279309630393982,0.03456898033618927,0.08613935112953186,0.1319693922996521,-0.13188189268112183, -0.056102722883224487,0.034903421998023987,-0.056051239371299744,-0.011691941879689693,0.0037555349990725517,-0.13016900420188904,0.12741127610206604,-0.062196485698223114,0.11568082869052887,-0.09232601523399353, 
  /* [24][0][][] */ 0.078452557325363159,-0.090670123696327209,0.028730800375342369,-0.10789089649915695,-0.0074616461060941219,-0.052902810275554657,-0.077012881636619568,0.035882685333490372,0.12766019999980927,-0.035039167851209641, -0.25784972310066223,-0.088123351335525513,0.044594187289476395,-0.057770844548940659,0.41337710618972778,0.4545397162437439,0.43172553181648254,-0.039312440901994705,-0.28168168663978577,-0.48796156048774719, -0.2895025908946991,-0.24788077175617218,-0.18315604329109192,0.4202788770198822,0.90713882446289062,0.87088608741760254,1.0148226022720337,0.4947199821472168,0.090519502758979797,0.096251159906387329, 
  /* [25][0][][] */ 0.16313980519771576,-0.13937518000602722,-0.13439486920833588,0.023147653788328171,1.0061875581741333,1.0116010904312134,1.0991604328155518,0.22509804368019104,0.144585981965065,0.27944403886795044, -0.4196409285068512,0.14280283451080322,0.095789052546024323,-0.14697621762752533,0.28305345773696899,0.081802546977996826,0.30815669894218445,-0.2412441223859787,-0.35733845829963684,-0.2615547776222229, -0.13136133551597595,-0.49349170923233032,-0.11792445927858353,0.41083958745002747,0.93552660942077637,0.83960443735122681,0.76000833511352539,0.46799942851066589,0.34102636575698853,0.3702179491519928, 
  /* [26][0][][] */ 0.12248055636882782,-0.12958784401416779,-0.11531984806060791,-0.02119898796081543,-0.073635116219520569,0.0026225000619888306,-0.088743060827255249,0.058137461543083191,-0.045852996408939362,0.044359266757965088, -0.26869583129882812,0.067743510007858276,-0.13371172547340393,-0.27600389719009399,-0.96995872259140015,-0.81464779376983643,-1.0289375782012939,-0.4451352059841156,-0.28273135423660278,-0.32831379771232605, 0.15092140436172485,0.1752278208732605,0.014937778003513813,0.33464044332504272,-0.2179243415594101,-0.18172065913677216,-0.19013957679271698,0.34412845969200134,0.3077445924282074,0.32349210977554321, 
  /* [27][0][][] */ 0.1321399062871933,-0.094491645693778992,-0.032565124332904816,-0.10326938331127167,0.067785635590553284,-0.11792538315057755,-4.5940279960632324e-05,0.043962210416793823,0.1012919694185257,-0.11574241518974304, 0.0034747719764709473,-0.12411870062351227,0.021861433982849121,-0.049808748066425323,0.048336178064346313,0.13036881387233734,-0.066402070224285126,-0.026063404977321625,0.068297013640403748,0.040598109364509583, -0.10248018801212311,-0.10426367819309235,0.014716625213623047,0.076801389455795288,-0.062881164252758026,0.12169809639453888,-0.086489155888557434,-0.13687796890735626,-0.036139711737632751,0.10095702111721039, 
  /* [28][0][][] */ 0.49457114934921265,-0.17495657503604889,-0.12675973773002625,0.06607133150100708,1.057613730430603,1.3454374074935913,1.3013010025024414,0.47188007831573486,0.52713388204574585,0.44319373369216919, -0.01595708355307579,0.050444718450307846,-0.03007751889526844,-0.05917852371931076,0.4973660409450531,0.56048399209976196,0.4251801073551178,0.021008368581533432,-0.21310026943683624,-0.24892927706241608, -0.22754229605197906,-0.18295826017856598,-0.20244225859642029,-0.1604715883731842,-0.061416745185852051,-0.081701584160327911,0.036019694060087204,-0.2306324690580368,-0.23092667758464813,-0.073569156229496002, 
  /* [29][0][][] */ -0.014096777886152267,-0.013160322792828083,-0.11027193069458008,-0.085656419396400452,-0.17619192600250244,-0.14468672871589661,0.018186070024967194,0.081280946731567383,-0.014134791679680347,-0.11774593591690063, -0.36038163304328918,-0.071579277515411377,-0.0031565998215228319,0.052337195724248886,-0.0076315575279295444,0.16230002045631409,0.18614421784877777,-0.35764718055725098,-0.4919087290763855,-0.56510156393051147, -0.48656231164932251,-0.3623390793800354,-0.036247290670871735,0.51976615190505981,0.75032645463943481,0.82886159420013428,0.9499393105506897,0.33931058645248413,0.35783714056015015,0.25668272376060486, 
  /* [30][0][][] */ -0.29919114708900452,0.003448158036917448,-0.097273193299770355,0.18795023858547211,0.12676392495632172,0.11884886026382446,0.12159895151853561,-0.03603503480553627,-0.13140378892421722,-0.36981984972953796, -0.60277068614959717,-0.31875458359718323,-0.081039361655712128,-0.46825718879699707,-0.1738455593585968,-0.13658082485198975,0.065784737467765808,-0.18615736067295074,-0.42519241571426392,-0.56622534990310669, 0.23548589646816254,0.064168810844421387,0.11240489780902863,0.40740707516670227,0.39659187197685242,0.34677574038505554,0.51804649829864502,0.2922724187374115,0.29676494002342224,0.31223911046981812, 
  /* [31][0][][] */ 0.074071764945983887,0.019790142774581909,-0.11797767877578735,0.044419720768928528,0.03195054829120636,-0.094552233815193176,-0.11996474862098694,0.10166463255882263,-0.030688293278217316,-0.053789235651493073, 0.021076545119285583,0.053795129060745239,-0.093304060399532318,-0.10110880434513092,-0.12639939785003662,0.13122199475765228,0.10930022597312927,0.016398459672927856,0.1109016090631485,0.0044135004281997681, 0.072036519646644592,-0.12263116240501404,-0.089772045612335205,-0.12302231788635254,-0.071684964001178741,0.11291031539440155,-0.059974268078804016,-0.057162016630172729,-0.05043233186006546,-0.09424157440662384, 
  /* [32][0][][] */ 0.615875244140625,-0.16456814110279083,-0.083620533347129822,0.26634037494659424,0.76841235160827637,0.86006045341491699,0.87432491779327393,0.44950121641159058,0.6661037802696228,0.73313599824905396, -0.042344879359006882,0.02331453375518322,0.14522399008274078,-0.20692497491836548,0.18464851379394531,0.18834631145000458,0.32096698880195618,-0.15984661877155304,-0.13337452709674835,0.020686132833361626, 0.075247198343276978,0.057155176997184753,-0.043389268219470978,-0.065767683088779449,-0.12024645507335663,-0.0078389346599578857,-0.081097632646560669,0.036947339773178101,-0.048901624977588654,0.033758148550987244, 
  /* [33][0][][] */ 0.02873062901198864,-0.015321258455514908,-0.088191792368888855,-0.054960779845714569,-0.1280909925699234,0.1041201651096344,-0.10967481881380081,0.081450663506984711,-0.071479521691799164,0.12653891742229462, 0.51725047826766968,-0.011193052865564823,-0.084473967552185059,-0.081229753792285919,1.1811331510543823,1.285153865814209,1.3754768371582031,0.49020001292228699,0.37475505471229553,0.29187563061714172, -0.014078120701014996,0.061848200857639313,-0.051478885114192963,-0.041434429585933685,0.52675622701644897,0.57631790637969971,0.6051180362701416,0.04825504869222641,-0.019718118011951447,0.013223412446677685, 
  /* [34][0][][] */ -0.16037522256374359,0.010382894426584244,-0.13520340621471405,-0.12469834089279175,0.056155409663915634,-0.023933850228786469,0.10052783042192459,-0.0820804163813591,0.085329800844192505,0.10277041792869568, 0.38724714517593384,-0.057173144072294235,-0.10338502377271652,0.021560782566666603,1.0486862659454346,1.1888320446014404,1.3292193412780762,0.46536010503768921,0.31190547347068787,0.42099922895431519, -0.13337375223636627,0.025115048512816429,-0.067386612296104431,-0.026754211634397507,0.58927315473556519,0.48689001798629761,0.48279523849487305,-0.1086461991071701,-0.12780526280403137,-0.030341695994138718, 
  /* [35][0][][] */ 0.13034369051456451,0.034609928727149963,-0.073286630213260651,-0.036406815052032471,-0.041452407836914062,-0.039862625300884247,-0.1187596395611763,0.042475923895835876,0.0078195482492446899,-0.077440686523914337, -0.42656370997428894,0.06327858567237854,-0.14318229258060455,-0.37424001097679138,-0.34618660807609558,-0.45808500051498413,-0.48082724213600159,-0.45689395070075989,-0.54533499479293823,-0.80078291893005371, 0.17382676899433136,0.15243664383888245,0.14576202630996704,0.22784014046192169,0.17715391516685486,0.3763662576675415,0.27031618356704712,0.1375354528427124,0.36545556783676147,0.15372976660728455, 
  /* [36][0][][] */ -0.24535049498081207,-0.26564401388168335,0.0093768322840332985,-0.10370913147926331,-0.24848644435405731,-0.08011627197265625,-0.055212453007698059,-0.27372181415557861,-0.38559097051620483,-0.49193066358566284, -0.30522754788398743,-0.0046743275597691536,0.059690341353416443,0.24384717643260956,0.22456765174865723,0.29126277565956116,0.22734835743904114,-0.028039036318659782,-0.17328274250030518,-0.067734867334365845, -0.70353037118911743,-1.2130582332611084,-0.71166336536407471,0.54190957546234131,0.9012758731842041,0.79793345928192139,1.0401504039764404,0.26815488934516907,0.07823675125837326,-0.013887996785342693, 
  /* [37][0][][] */ -0.33622768521308899,0.066655255854129791,-0.04185422882437706,-0.30737325549125671,-0.84982138872146606,-0.81741189956665039,-0.98035651445388794,-0.25098252296447754,-0.35673487186431885,-0.50592684745788574, 0.10143911093473434,0.11134791374206543,0.078702151775360107,0.27957025170326233,-0.010826978832483292,-0.10928729176521301,-0.026494251564145088,0.2807081937789917,0.13407164812088013,0.11565783619880676, -0.1590677946805954,-0.17032398283481598,-0.32030394673347473,-0.22342194616794586,-0.35130897164344788,-0.16138102114200592,-0.27032098174095154,-0.18286417424678802,-0.38824346661567688,-0.38208040595054626, 
  /* [38][0][][] */ 0.40381678938865662,-0.098635450005531311,0.023368507623672485,0.25176563858985901,0.4898047149181366,0.41621929407119751,0.57837492227554321,0.42294245958328247,0.62573659420013428,0.69448745250701904, -0.19390673935413361,-0.019855398684740067,0.20100401341915131,-0.22239400446414948,0.17083792388439178,-0.059619642794132233,0.011838733218610287,-0.28010553121566772,-0.044614233076572418,-0.16581681370735168, 0.13201098144054413,-0.13717359304428101,0.13052542507648468,0.073159635066986084,-0.088541589677333832,-0.035436064004898071,-0.13417087495326996,-0.0700058713555336,-0.083754457533359528,-0.046024896204471588, 
  /* [39][0][][] */ 0.050538502633571625,-0.091840676963329315,0.10188378393650055,-0.012650182470679283,-0.096437931060791016,0.11588774621486664,-0.13651439547538757,-0.11724729090929031,0.0046220943331718445,-0.096381410956382751, -0.60133981704711914,-0.2544022798538208,0.011545853689312935,-0.15148924291133881,-0.12847523391246796,-0.2407500147819519,-0.30500778555870056,-0.19182460010051727,-0.55686086416244507,-0.48657351732254028, 0.12700790166854858,0.0044944402761757374,0.084403961896896362,0.28400060534477234,0.36454930901527405,0.33720225095748901,0.36955723166465759,0.33297204971313477,0.28083339333534241,0.26592978835105896, 
  /* [40][0][][] */ 0.27898052334785461,-0.098158068954944611,-0.13804163038730621,0.017599606886506081,0.80377161502838135,0.7554013729095459,0.92683929204940796,0.35014435648918152,0.45751389861106873,0.37011569738388062, 0.15156763792037964,-0.11090172827243805,-0.017379403114318848,0.082442522048950195,0.36856645345687866,0.49705046415328979,0.59541064500808716,0.12111638486385345,0.1573912650346756,0.032145548611879349, -0.010595251806080341,-0.17025221884250641,-0.024998694658279419,-0.019903074949979782,0.23908911645412445,0.18742600083351135,0.066239736974239349,-0.024282446131110191,0.15763953328132629,0.18148450553417206, 
  /* [41][0][][] */ 0.13711853325366974,-0.11492997407913208,-0.0050604292191565037,-0.007093425840139389,0.28769302368164062,0.45647114515304565,0.51710855960845947,0.22284913063049316,0.056318916380405426,0.24813637137413025, 0.018681367859244347,0.049211829900741577,-0.11359993368387222,0.057724248617887497,0.15996329486370087,0.34037235379219055,0.35883921384811401,0.021087732166051865,0.064134567975997925,0.050652634352445602, -0.28333163261413574,-0.10768343508243561,-0.18851384520530701,-0.024813177064061165,-0.084187686443328857,-0.00036141066811978817,-0.10536082088947296,-0.037260480225086212,-0.11109321564435959,-0.04218602180480957, 
  /* [42][0][][] */ -0.36588782072067261,0.084446236491203308,0.028062161058187485,-0.28056520223617554,-0.65074115991592407,-0.61898082494735718,-0.56150549650192261,-0.3921542763710022,-0.27209338545799255,-0.20754706859588623, 0.33371251821517944,0.19178713858127594,0.17446348071098328,-0.031212514266371727,-0.060720395296812057,-0.071052089333534241,0.057286836206912994,0.25716772675514221,0.281473308801651,0.34911748766899109, 0.39888682961463928,0.32273945212364197,-0.11241623014211655,-0.81503200531005859,-0.9519001841545105,-0.8045964241027832,-1.0583096742630005,-0.59512513875961304,-0.48326995968818665,-0.50988924503326416, 
  /* [43][0][][] */ 0.16372716426849365,-0.023317335173487663,0.013753565028309822,0.024842243641614914,-0.15177546441555023,-0.037459991872310638,-0.18699027597904205,0.063756577670574188,0.086902692914009094,0.26059472560882568, 0.16587130725383759,0.18987447023391724,-0.21841484308242798,-0.59839445352554321,-1.0764874219894409,-1.0194158554077148,-1.0935084819793701,-0.55670803785324097,-0.39260262250900269,-0.36539825797080994, 0.2851431667804718,0.22233505547046661,0.041816394776105881,-0.12837226688861847,-0.042137071490287781,-0.0022713351063430309,-0.20557194948196411,0.17869004607200623,0.20554631948471069,0.28203481435775757, 
  /* [44][0][][] */ -0.081669732928276062,-0.099063485860824585,-0.11002369225025177,0.068971678614616394,-0.038311190903186798,0.11772675812244415,-0.12027773261070251,0.037363097071647644,-0.031646966934204102,0.0076600909233093262, 0.057891115546226501,0.028913617134094238,-0.059004165232181549,-0.034042216837406158,-0.13698326051235199,0.029216676950454712,0.079628497362136841,-0.12902788817882538,-0.020256690680980682,-0.034155175089836121, 0.1334749311208725,-0.065615043044090271,0.052505820989608765,0.022301360964775085,-0.13264743983745575,-0.1116538941860199,-0.073049165308475494,0.081367522478103638,0.088157311081886292,-0.078246124088764191, 
  /* [45][0][][] */ 0.10625070333480835,0.31039655208587646,0.21159771084785461,-0.21824802458286285,0.41780871152877808,0.58053386211395264,0.69177299737930298,0.19994640350341797,0.17614097893238068,0.018230035901069641, -0.23172244429588318,-0.10566134005784988,-0.26040586829185486,-0.21545743942260742,-0.34406405687332153,-0.47767296433448792,-0.55243486166000366,-0.30842852592468262,-0.36246353387832642,-0.51092714071273804, 0.084674514830112457,0.11970796436071396,0.098879322409629822,0.31251567602157593,-0.14047831296920776,-0.094276897609233856,-0.0072507723234593868,0.17872534692287445,0.10002511739730835,0.31610342860221863, 
  /* [46][0][][] */ -0.73812019824981689,-0.79468542337417603,-0.85144490003585815,-0.83356088399887085,-0.76193791627883911,-0.83425235748291016,-0.66647905111312866,-0.64041870832443237,-0.73578011989593506,-0.65145015716552734, 0.59751629829406738,0.31987142562866211,0.002333048963919282,-0.49971911311149597,0.040947001427412033,0.081588134169578552,0.10739546269178391,0.33686748147010803,0.53874874114990234,0.77091217041015625, 0.70465147495269775,0.35824733972549438,0.0023875909391790628,-0.42995136976242065,-0.34868377447128296,-0.45279160141944885,-0.60600394010543823,-0.1526695042848587,0.055895797908306122,0.23515857756137848, 
  /* [47][0][][] */ 0.43749639391899109,-0.077275946736335754,0.033683791756629944,0.055837944149971008,1.130657434463501,1.3437796831130981,1.4183741807937622,0.6407434344291687,0.69833308458328247,0.57240802049636841, 0.09662153571844101,-0.035220026969909668,-0.00042569992365315557,-0.11214453727006912,0.40996894240379333,0.45413720607757568,0.5077788233757019,0.027574187144637108,0.022059636190533638,-0.15188536047935486, -0.088895216584205627,0.056877985596656799,0.010942205786705017,-0.13619521260261536,0.1361992210149765,-0.12716595828533173,0.1159224659204483,0.11788146197795868,0.011446729302406311,-0.13409423828125, 
  /* [48][0][][] */ 0.05012550950050354,-0.05299077183008194,-0.092557534575462341,0.094423592090606689,-0.027252793312072754,-0.11654866486787796,-0.072088725864887238,-0.07029174268245697,0.035842254757881165,-0.057847984135150909, -0.60280704498291016,-0.10167072713375092,-0.0071198912337422371,-0.29542180895805359,-1.0052011013031006,-1.017065167427063,-0.84281980991363525,-0.4805302619934082,-0.41441488265991211,-0.47341814637184143, 0.34189727902412415,0.20201282203197479,0.10287048667669296,0.23922556638717651,0.0652647465467453,0.097737111151218414,-0.12382615357637405,0.23009686172008514,0.15446622669696808,0.11628375947475433, 
  /* [49][0][][] */ 0.041500743478536606,-0.10831543803215027,-0.11409499496221542,0.021176662296056747,0.10481232404708862,0.10971097648143768,0.27757987380027771,0.086430110037326813,-0.050442703068256378,0.0064021940343081951, -0.26483508944511414,0.0043461872264742851,0.070653282105922699,0.07356368750333786,0.15802216529846191,0.078672565519809723,0.070813268423080444,-0.21578988432884216,-0.25268423557281494,-0.21753948926925659, -0.57656025886535645,-0.41685831546783447,-0.28662541508674622,0.21864451467990875,0.32165694236755371,0.4098888635635376,0.42487981915473938,0.089598193764686584,0.013365156017243862,-0.084186837077140808, 
  /* [50][0][][] */ -0.13909703493118286,-0.04866071417927742,-0.11137466877698898,-0.051737844944000244,0.062505416572093964,-0.09154665470123291,-0.032687153667211533,0.031829942017793655,-0.054983917623758316,-0.014803359284996986, -0.3862471878528595,-0.056809496134519577,0.059671279042959213,0.030401580035686493,-0.15671165287494659,0.008669690228998661,-0.0071286517195403576,-0.21103884279727936,-0.52502572536468506,-0.65407878160476685, -0.32013893127441406,-0.35674700140953064,-0.097200043499469757,0.48184233903884888,0.73235177993774414,0.86720973253250122,0.72683370113372803,0.41505581140518188,0.18064412474632263,0.13138310611248016, 
  /* [51][0][][] */ -0.012834512628614902,-0.12028130143880844,0.026489360257983208,0.035138323903083801,-0.058645967394113541,-0.026860078796744347,0.11478471755981445,0.026686569675803185,-0.11154564470052719,0.073172956705093384, -0.2665783166885376,0.027613811194896698,0.00373036228120327,-0.030019233003258705,0.29454332590103149,0.30205702781677246,0.45858100056648254,0.051951982080936432,-0.29023104906082153,-0.31139954924583435, -0.34262958168983459,-0.40273967385292053,-0.085272811353206635,0.4800371527671814,0.94855177402496338,0.94468146562576294,0.83964866399765015,0.60405492782592773,0.32223069667816162,0.21401241421699524, 
  /* [52][0][][] */ -0.25518938899040222,-0.32036846876144409,-0.30263695120811462,-0.33579155802726746,-0.4080694317817688,-0.38523098826408386,-0.23440822958946228,-0.19334439933300018,-0.14072160422801971,-0.23320403695106506, -0.90815037488937378,-0.96282309293746948,-0.91872298717498779,-0.53614598512649536,-0.31465184688568115,-0.55837202072143555,-0.46492919325828552,-0.67756527662277222,-0.80290877819061279,-0.90347832441329956, -0.21424584090709686,0.018241250887513161,0.27634650468826294,0.61293017864227295,0.54243755340576172,0.48062396049499512,0.44380497932434082,0.1107095405459404,0.13929757475852966,0.027352333068847656, 
  /* [53][0][][] */ -0.039474785327911377,-0.051576308906078339,0.12470689415931702,-0.11309118568897247,-0.038196936249732971,0.07495194673538208,0.041053742170333862,-0.013580368831753731,0.024108279496431351,0.12376445531845093, -0.087302707135677338,-0.1292785257101059,-0.02828347310423851,-0.068049319088459015,0.028185475617647171,0.12345752120018005,-0.086351960897445679,0.13387632369995117,-0.12529981136322021,0.10794913768768311, 0.096678450703620911,-0.076513975858688354,-0.049401186406612396,-0.032235898077487946,-0.068479031324386597,-0.076779738068580627,-0.022800788283348083,-0.068290397524833679,0.098774150013923645,-0.12650449573993683, 
  /* [54][0][][] */ 0.13499291241168976,-0.0043961703777313232,-0.13497748970985413,-0.031993746757507324,-0.11789652705192566,-0.10064199566841125,-0.023782350122928619,0.030792504549026489,-0.024879522621631622,0.10558167099952698, -0.10226649791002274,-0.086500488221645355,0.052752003073692322,-0.10053291171789169,0.076807275414466858,-0.040643073618412018,0.087347060441970825,0.066911101341247559,0.059649303555488586,-0.067236162722110748, -8.2239508628845215e-05,0.079959005117416382,-0.10378828644752502,-0.052359692752361298,0.10966476798057556,-0.040382586419582367,-0.049250505864620209,-0.030727826058864594,-0.049775578081607819,-0.05363599956035614, 
  /* [55][0][][] */ 0.27939882874488831,0.40376386046409607,-0.15474782884120941,-0.43264013528823853,-0.41754284501075745,-0.42441928386688232,-0.46771034598350525,0.10021103918552399,0.46314001083374023,0.69467800855636597, 0.40253099799156189,0.28659555315971375,0.056305859237909317,-0.32530298829078674,-0.5845298171043396,-0.58808690309524536,-0.58385789394378662,-0.14001806080341339,0.079081349074840546,0.19091236591339111, -0.50591766834259033,-0.48012632131576538,-0.30180671811103821,-0.39172369241714478,-0.28319209814071655,-0.30937302112579346,-0.54427272081375122,-0.63486909866333008,-0.49388584494590759,-0.49809309840202332, 
  /* [56][0][][] */ 0.044260803610086441,-0.1038951575756073,-0.034963503479957581,-0.1048612967133522,0.083018086850643158,-0.072764404118061066,-0.088796459138393402,-0.057519014924764633,-0.14691092073917389,-0.066207826137542725, 0.53822869062423706,-0.0016854488058015704,-0.098511986434459686,-0.0051627145148813725,1.327991247177124,1.2893562316894531,1.3911606073379517,0.58711981773376465,0.57076436281204224,0.43581965565681458, 0.0077324551530182362,-0.068750008940696716,0.028321148827672005,-0.0028760314453393221,0.39611342549324036,0.47124186158180237,0.41165649890899658,-0.087872564792633057,-0.24480214715003967,-0.26835760474205017, 
  /* [57][0][][] */ -0.24964682757854462,0.077766247093677521,-0.11017090082168579,-0.25706386566162109,-0.77080398797988892,-0.77661967277526855,-0.55696099996566772,-0.21671459078788757,-0.060765273869037628,-0.006824372336268425, 0.21468488872051239,0.15437963604927063,-0.090554140508174896,0.019330194219946861,-0.37155124545097351,-0.17201191186904907,-0.10055150091648102,-0.00054110848577693105,0.13353858888149261,0.048961170017719269, 0.49731728434562683,0.30030938982963562,-0.15517430007457733,-0.99782359600067139,-1.2357265949249268,-1.1607458591461182,-1.2709836959838867,-0.52249133586883545,-0.45608264207839966,-0.41385969519615173, 
  /* [58][0][][] */ 0.25807103514671326,0.32210329174995422,0.12311550974845886,0.088869236409664154,-0.55823725461959839,-0.41646713018417358,-0.55027234554290771,-0.1196153461933136,0.040843870490789413,0.19725048542022705, 0.17650136351585388,0.012184971012175083,-0.1671004444360733,-0.58595412969589233,-0.48920634388923645,-0.51400190591812134,-0.67605161666870117,-0.2220185399055481,-0.0053234915249049664,0.17361132800579071, -0.13653543591499329,-0.14309445023536682,0.026421584188938141,-0.021949188783764839,-0.19721964001655579,-0.19617678225040436,-0.22757831215858459,-0.1613946259021759,-0.23862250149250031,-0.10131362825632095, 
  /* [59][0][][] */ 0.080430224537849426,-0.083279915153980255,0.0010161612881347537,-0.12332383543252945,0.12042981386184692,-0.018358582630753517,-0.12655831873416901,0.096016190946102142,-0.13515228033065796,0.087255731225013733, -0.2425931841135025,-0.088291071355342865,-0.041836373507976532,0.030195584520697594,0.19057740271091461,0.017303589731454849,0.26656505465507507,-0.17769534885883331,-0.20626553893089294,-0.32112196087837219, -0.25970748066902161,-0.3598843514919281,0.06771019846200943,0.29142016172409058,0.72720462083816528,0.8335883617401123,0.75210660696029663,0.39998516440391541,0.15918570756912231,0.092189207673072815, 
  /* [60][0][][] */ -0.0051298150792717934,-0.093278571963310242,-0.12604446709156036,-0.051935192197561264,-0.079772785305976868,0.027651257812976837,-0.052359580993652344,-0.093505911529064178,-0.13438211381435394,0.08936493843793869, 0.42319044470787048,-0.10694973915815353,-0.20547355711460114,0.097467914223670959,0.85598468780517578,1.0666574239730835,1.1230862140655518,0.3021145761013031,0.31329038739204407,0.45461392402648926, 0.039108768105506897,-0.024051245301961899,0.068533912301063538,-0.13599836826324463,0.21757842600345612,0.49425190687179565,0.43581458926200867,-0.079283334314823151,-0.064733915030956268,-0.073549941182136536, 
  /* [61][0][][] */ 0.52246218919754028,-0.037272054702043533,-0.015696743503212929,0.24268576502799988,1.0386534929275513,1.1895536184310913,1.2164888381958008,0.71752655506134033,0.55408340692520142,0.53868526220321655, 0.02652963250875473,-0.056661799550056458,0.016219113022089005,-0.14031258225440979,-0.028863837942481041,0.16305717825889587,0.037450756877660751,-0.10565230995416641,-0.18896818161010742,-0.27577152848243713, -0.12994660437107086,-0.072381965816020966,-0.12704439461231232,-0.11406724900007248,0.07957322895526886,-0.080389663577079773,-0.048996113240718842,0.11375902593135834,0.083564057946205139,-0.088573098182678223, 
  /* [62][0][][] */ -0.099956519901752472,-0.051159009337425232,-0.077385060489177704,0.16416186094284058,0.25674816966056824,0.03371000662446022,0.13375429809093475,-0.046700816601514816,-0.16532157361507416,-0.13096843659877777, -0.47704502940177917,-0.15869252383708954,-0.20445780456066132,-0.26800239086151123,-0.68619173765182495,-0.5086359977722168,-0.69088870286941528,-0.48153385519981384,-0.46301987767219543,-0.80641043186187744, 0.15676707029342651,0.19299754500389099,0.18572744727134705,0.31391271948814392,-0.038526963442564011,0.040599752217531204,-0.10412897914648056,0.149916872382164,0.20325596630573273,0.06357923150062561, 
  /* [63][0][][] */ 0.045915495604276657,-0.1312849223613739,-0.069155730307102203,0.064062707126140594,-0.14418253302574158,-0.058047283440828323,-0.11029477417469025,-0.045957211405038834,-0.051055934280157089,0.048516090959310532, 0.40373006463050842,-0.1621260941028595,-0.042502272874116898,0.2796015739440918,0.64702534675598145,0.71823108196258545,0.96520435810089111,0.42770043015480042,0.44924983382225037,0.57015138864517212, -0.18905627727508545,0.098980940878391266,0.14652170240879059,-0.21497130393981934,0.082371972501277924,0.093145303428173065,0.14221727848052979,-0.14236600697040558,-0.018392205238342285,-0.19861318171024323, 
  /* [64][0][][] */ 0.024927606806159019,-0.1798638254404068,-0.14832153916358948,-0.079027734696865082,-0.094588138163089752,-0.014256697148084641,-0.043279726058244705,-0.072801075875759125,-0.031767178326845169,0.044312223792076111, 0.37784996628761292,-0.084301970899105072,-0.13157097995281219,0.17890250682830811,1.0364129543304443,1.0863100290298462,1.1876884698867798,0.56921666860580444,0.47812369465827942,0.56012660264968872, -0.025413481518626213,0.050124086439609528,0.12137840688228607,-0.20981438457965851,0.31464028358459473,0.26023277640342712,0.39550572633743286,-0.13018146157264709,-0.011172291822731495,-0.10437574237585068, 
  /* [65][0][][] */ -0.35727295279502869,-0.085212498903274536,0.037491343915462494,-0.23584753274917603,-0.59824001789093018,-0.65712708234786987,-0.75365644693374634,-0.27012911438941956,-0.46117442846298218,-0.44123575091362, 0.15147745609283447,-0.10092731565237045,0.11523552983999252,0.27040711045265198,-0.13079957664012909,-0.27022340893745422,-0.030431158840656281,0.19687098264694214,0.22764691710472107,-0.0017469857120886445, -0.18001420795917511,-0.41799765825271606,-0.50449240207672119,-0.49928030371665955,-0.62384134531021118,-0.47810542583465576,-0.51542520523071289,-0.32552745938301086,-0.54721605777740479,-0.73927199840545654, 
  /* [66][0][][] */ -0.35871791839599609,-0.42205774784088135,-0.234607994556427,-0.39782121777534485,-0.26452010869979858,-0.326771080493927,-0.4678821861743927,-0.25995776057243347,-0.43382999300956726,-0.30565142631530762, 0.48662331700325012,0.17524386942386627,-0.14584980905056,-0.041859842836856842,-0.17660224437713623,-0.22275595366954803,-0.13524805009365082,0.17831113934516907,0.46133702993392944,0.7438122034072876, 0.47558191418647766,0.39931318163871765,0.061361294239759445,-0.5135384202003479,-0.50442761182785034,-0.66121768951416016,-0.79294443130493164,-0.30373010039329529,-0.00077019992750138044,0.086765661835670471, 
  /* [67][0][][] */ -0.084786534309387207,-0.043802503496408463,-0.071676619350910187,0.032799974083900452,-0.036224965006113052,0.011539031751453876,-0.01990443654358387,0.05536738783121109,-0.13350532948970795,-0.19026607275009155, 0.44711896777153015,-0.062684372067451477,-0.080618485808372498,0.027343546971678734,1.1211258172988892,1.3236703872680664,1.4130204916000366,0.38717544078826904,0.56569463014602661,0.29980835318565369, -0.073484145104885101,0.027127809822559357,0.026708651334047318,-0.043184209614992142,0.28723552823066711,0.36593443155288696,0.32849451899528503,-0.11657065898180008,-0.16285111010074615,-0.062914960086345673, 
  /* [68][0][][] */ 0.42681041359901428,-0.11848330497741699,0.006211480125784874,0.21571066975593567,1.1296080350875854,1.0931367874145508,1.0582334995269775,0.67431104183197021,0.74249964952468872,0.750191330909729, -0.17650644481182098,0.083924934267997742,0.0063646747730672359,-0.18597102165222168,0.038689285516738892,0.33201766014099121,0.19406644999980927,-0.097088567912578583,-0.17735601961612701,-0.10136738419532776, -0.10002477467060089,-0.047310143709182739,0.039796203374862671,-0.11600326001644135,0.097868457436561584,-0.1071314737200737,-0.0092385858297348022,-0.069462887942790985,-0.01953260600566864,0.13706587255001068, 
  /* [69][0][][] */ 0.066654354333877563,-0.0026166080497205257,-0.11485061049461365,-0.021750586107373238,0.056545782834291458,-0.085302278399467468,0.0063409591093659401,0.074983969330787659,0.086735337972640991,-0.074293866753578186, 0.54364949464797974,-0.081339776515960693,-0.091833613812923431,-0.072328850626945496,1.3386533260345459,1.2736096382141113,1.2226885557174683,0.4972003698348999,0.35049065947532654,0.48556843400001526, -0.21592383086681366,0.12019641697406769,0.0022989318240433931,-0.057929255068302155,0.30219689011573792,0.33390071988105774,0.40067088603973389,-0.059828422963619232,-0.031659457832574844,-0.16178442537784576, 
  /* [70][0][][] */ -0.10194551944732666,-0.06343347579240799,-0.029671594500541687,-0.022417686879634857,-0.078190088272094727,0.076009154319763184,-0.085143417119979858,-0.019157230854034424,-0.13369345664978027,0.084879204630851746, -0.065053433179855347,-0.076396353542804718,-0.13034555315971375,0.050406113266944885,0.096244573593139648,-0.064227722585201263,0.064025416970252991,0.13269224762916565,0.025492936372756958,0.077309325337409973, 0.10827523469924927,-0.014801683835685253,-0.093774117529392242,0.12177847325801849,-0.055222861468791962,0.041182294487953186,-0.035469815135002136,0.054855853319168091,-0.014189991168677807,-0.035629801452159882, 
  /* [71][0][][] */ -0.067614011466503143,0.039767086505889893,-0.0055960630998015404,-0.1867293119430542,-0.0088083911687135696,0.066490121185779572,-0.16112591326236725,-0.068632535636425018,-0.099139265716075897,-0.16953971982002258, 0.41791170835494995,-0.07965271919965744,-0.1351291686296463,0.122148796916008,1.2804561853408813,1.233251690864563,1.3718129396438599,0.5903889536857605,0.54216098785400391,0.50733023881912231, -0.11975341290235519,-0.056203979998826981,-0.16090051829814911,0.04370749369263649,0.71361547708511353,0.7589375376701355,0.60225522518157959,0.11185985058546066,0.001544624799862504,-0.14869639277458191, 
  /* [72][0][][] */ -0.19098404049873352,0.17360879480838776,0.13569064438343048,0.21399010717868805,-0.25494822859764099,-0.14474208652973175,-0.25752034783363342,-0.03247871994972229,-0.056330464780330658,-0.12269348651170731, -0.22635604441165924,-0.36244472861289978,-0.2135636955499649,-0.18712092936038971,-0.33010518550872803,-0.19350910186767578,-0.35891714692115784,0.082613937556743622,0.13017399609088898,-0.18319237232208252, -0.1040133461356163,-0.11954564601182938,0.045026045292615891,-0.068291492760181427,0.0068674921058118343,-0.10531791299581528,0.066900670528411865,0.058700863271951675,0.021389108151197433,-0.095079287886619568, 
  /* [73][0][][] */ 0.67120254039764404,-0.034784227609634399,-0.1334754079580307,0.19577331840991974,1.2327498197555542,1.2442266941070557,1.2827337980270386,0.67556166648864746,0.65533179044723511,0.73936480283737183, -0.1552901566028595,-0.03214278444647789,0.062698446214199066,-0.11534387618303299,0.36709314584732056,0.21815042197704315,0.33682632446289062,0.091362453997135162,0.022860229015350342,0.030259182676672935, 0.067427590489387512,-0.040647309273481369,-0.015639310702681541,0.076728753745555878,0.11491928994655609,-0.012343916110694408,-0.018606215715408325,-0.096547327935695648,-0.063582971692085266,0.087272018194198608, 
  /* [74][0][][] */ 0.042791631072759628,0.091546118259429932,-0.19590909779071808,0.18402518332004547,-0.7995685338973999,-0.84631705284118652,-0.99838775396347046,-0.041123300790786743,0.070592455565929413,0.11195778101682663, 0.24006776511669159,0.30452835559844971,0.077287204563617706,-0.39108714461326599,-0.76137304306030273,-0.8735044002532959,-0.87629961967468262,-0.42339682579040527,-0.160116046667099,0.09135475754737854, -0.15893149375915527,-0.052239805459976196,-0.081743903458118439,-0.13246491551399231,-0.26935553550720215,-0.30626222491264343,-0.41986912488937378,-0.37646526098251343,-0.31301796436309814,-0.19639760255813599, 
  /* [75][0][][] */ 0.47580954432487488,-0.073171935975551605,-0.18946856260299683,0.34124797582626343,0.64223027229309082,0.60345351696014404,0.5012054443359375,0.39366066455841064,0.45411083102226257,0.60624217987060547, -0.12601113319396973,0.11866031587123871,0.14093229174613953,-0.2313133180141449,0.092138916254043579,0.099182479083538055,-0.10707445442676544,-0.16392068564891815,-0.22387400269508362,-0.10903769731521606, -0.01053676288574934,0.036363538354635239,-0.042469989508390427,0.010860024020075798,0.069827698171138763,0.10565434396266937,-0.10595022886991501,-0.010588433593511581,-0.12632286548614502,0.084242053329944611, 
  /* [76][0][][] */ 0.43211829662322998,-0.1300627738237381,-0.15130092203617096,0.0026655944529920816,0.97368377447128296,1.1218230724334717,1.1154384613037109,0.50247013568878174,0.34856137633323669,0.4866366982460022, 0.0085120853036642075,0.0352194644510746,0.044568464159965515,-0.12779177725315094,0.20452894270420074,0.19400908052921295,0.34097772836685181,-0.082454264163970947,-0.19764554500579834,-0.16290701925754547, 0.39706912636756897,0.072508454322814941,0.054667267948389053,-0.24993950128555298,-0.17828391492366791,-0.04399387538433075,-0.262562096118927,0.11741304397583008,0.25896012783050537,0.23258385062217712, 
  /* [77][0][][] */ 0.20829112827777863,0.10247575491666794,-0.078896969556808472,0.041968211531639099,-0.20263257622718811,-0.012963205575942993,-0.12933626770973206,0.19009001553058624,0.23295308649539948,0.12020223587751389, -0.26151901483535767,-0.10832332074642181,-0.25995329022407532,-0.3149644136428833,-0.47694507241249084,-0.45111885666847229,-0.52091199159622192,-0.4038311243057251,-0.52716100215911865,-0.55391979217529297, 0.2732481062412262,0.032747574150562286,0.18004025518894196,0.32605576515197754,0.039782755076885223,0.18550945818424225,0.14067405462265015,0.047175567597150803,0.16950123012065887,0.21462845802307129, 
  /* [78][0][][] */ 0.55025744438171387,-0.11656077951192856,0.013089654035866261,0.085593976080417633,1.0785410404205322,1.0682458877563477,1.2595046758651733,0.52047401666641235,0.37753024697303772,0.49537718296051025, -0.28468579053878784,-0.023553567007184029,0.090107351541519165,-0.074730448424816132,0.36758220195770264,0.27251070737838745,0.4344647228717804,0.050423417240381241,-0.15551541745662689,-0.085773520171642303, 0.030516982078552246,-0.089591957628726959,0.069562584161758423,-0.079291254281997681,-0.11045107245445251,-0.079605907201766968,-0.078250706195831299,-0.10139936208724976,0.035972237586975098,-0.025318101048469543, 
  /* [79][0][][] */ 0.027705280110239983,-0.081328541040420532,-0.15431523323059082,-0.054159361869096756,-0.06650158017873764,0.071019895374774933,-0.17435459792613983,0.029723180457949638,0.047813475131988525,-0.13976550102233887, 0.61693525314331055,-0.11692914366722107,-0.090413019061088562,0.16724815964698792,1.0236903429031372,1.2182564735412598,1.2209076881408691,0.52186661958694458,0.43026226758956909,0.46951362490653992, 0.038879033178091049,0.073699973523616791,0.035254817456007004,-0.15808264911174774,0.25380593538284302,0.38351094722747803,0.22181791067123413,-0.017581449821591377,0.0023352645803242922,-0.15628625452518463, 
  /* [80][0][][] */ 0.11985084414482117,0.11266651749610901,0.071357809007167816,-0.034870937466621399,-0.17916716635227203,-0.28716000914573669,-0.27095711231231689,-0.053340520709753036,-0.14409798383712769,0.04365919902920723, -0.60664641857147217,-0.18963348865509033,-0.18343345820903778,-0.40787437558174133,-0.52957791090011597,-0.44388887286186218,-0.45294713973999023,-0.40227282047271729,-0.52292394638061523,-0.76825940608978271, 0.037450093775987625,0.16697657108306885,0.11612984538078308,0.42054793238639832,0.12382109463214874,0.16111400723457336,-0.016913808882236481,0.18589776754379272,0.21024893224239349,0.27026188373565674, 
  /* [81][0][][] */ -0.099295966327190399,-0.21720565855503082,-0.1953611820936203,-0.028317764401435852,-0.18388672173023224,-0.21184733510017395,-0.1154787540435791,-0.2075488269329071,-0.058425039052963257,-0.047039683908224106, 0.38532471656799316,-0.1333303302526474,-0.088012896478176117,0.2891792356967926,0.7661471962928772,0.76046216487884521,1.0071892738342285,0.55199241638183594,0.42432740330696106,0.62584871053695679, -0.11695129424333572,0.039689816534519196,0.18612109124660492,-0.23082016408443451,-0.0094049349427223206,0.18537428975105286,0.13889400660991669,-0.062073796987533569,-0.057376451790332794,-0.22725860774517059, 
  /* [82][0][][] */ -0.3597051203250885,-0.4174310564994812,-0.41355788707733154,-0.4189431369304657,-0.50086909532546997,-0.41939395666122437,-0.28627666831016541,-0.35915708541870117,-0.27284124493598938,-0.27251583337783813, 0.36459767818450928,-0.11079946160316467,0.015174281783401966,0.38547870516777039,0.28007006645202637,0.11960244178771973,0.12287814170122147,0.3167654275894165,0.50921648740768433,0.62156766653060913, -0.25456878542900085,-0.020165141671895981,0.21677228808403015,-0.24822111427783966,-0.10719271004199982,-0.20035456120967865,-0.20830762386322021,-0.19008761644363403,-0.13169446587562561,-0.25120469927787781, 
  /* [83][0][][] */ 0.57717055082321167,-0.039268173277378082,-0.16680456697940826,0.18947328627109528,1.0263080596923828,1.2160919904708862,1.3164806365966797,0.65137839317321777,0.4279538094997406,0.69928258657455444, -0.1823878288269043,0.10048454999923706,-0.09009774774312973,-0.13663291931152344,0.23934586346149445,0.054982587695121765,0.18953026831150055,-0.28955405950546265,-0.19960542023181915,-0.26560512185096741, -0.047224000096321106,0.07126355916261673,-0.035993251949548721,0.032176375389099121,0.016255814582109451,-0.052918463945388794,0.11054527759552002,-0.025528799742460251,0.051030561327934265,-0.065395653247833252, 
  /* [84][0][][] */ 0.043158352375030518,0.020243823528289795,-0.12169905006885529,-0.12972937524318695,-0.072424903512001038,0.12425766885280609,0.11913575232028961,-0.044502377510070801,0.02373853325843811,0.066048935055732727, 0.017680101096630096,-0.037023920565843582,-0.056618481874465942,0.10940412431955338,-0.10091792047023773,0.033041365444660187,0.05018167570233345,0.058023996651172638,0.098612681031227112,0.045831453055143356, -0.079062558710575104,-0.11892667412757874,-0.013165607117116451,-0.024479875341057777,0.056609395891427994,0.10521766543388367,-0.10701744258403778,0.080965429544448853,0.065137431025505066,-0.082294024527072906, 
  /* [85][0][][] */ -0.016939716413617134,0.074499577283859253,-0.055984213948249817,0.022471960633993149,0.1007920429110527,0.061236675828695297,-0.035930301994085312,0.0095951911062002182,0.075796492397785187,-0.028648765757679939, -0.027801055461168289,0.036999959498643875,-0.11512228101491928,-0.0035531967878341675,0.10638723522424698,0.20146912336349487,0.094484731554985046,0.040871340781450272,0.0050313831306993961,0.0045893783681094646, -0.00067435496021062136,0.077383138239383698,-0.09643486887216568,0.022746814414858818,0.28232130408287048,0.17507311701774597,0.088062837719917297,0.18978552520275116,0.039132978767156601,0.11086052656173706, 
  /* [86][0][][] */ -0.052544761449098587,0.013507792726159096,-0.013729026541113853,-0.0578763447701931,-0.12245858460664749,0.033960778266191483,0.053492460399866104,-0.01706402562558651,0.093788646161556244,0.081911750137805939, -0.15926988422870636,-0.32639294862747192,-0.24048581719398499,0.079446472227573395,-0.15655520558357239,-0.11317247897386551,-0.2241930216550827,-0.31493127346038818,-0.25166749954223633,-0.38563317060470581, -0.046480573713779449,0.14702673256397247,0.19869129359722137,0.051932219415903091,0.12119952589273453,0.15592436492443085,0.22331617772579193,0.058755844831466675,0.1601419597864151,-0.046375922858715057, 
  /* [87][0][][] */ 0.23255054652690887,0.22222793102264404,-0.063880234956741333,0.0043668155558407307,-0.14576138556003571,-0.14468167722225189,-0.32511875033378601,0.010651309974491596,0.23056511580944061,0.15346130728721619, -0.39347946643829346,-0.02196693979203701,-0.21883459389209747,-0.40433034300804138,-0.70680689811706543,-0.63787323236465454,-0.74200993776321411,-0.37882614135742188,-0.69628703594207764,-0.7728874683380127, 0.034411001950502396,0.13849200308322906,0.18120551109313965,0.37443956732749939,-0.12541893124580383,-0.13341483473777771,-0.073898807168006897,0.21332138776779175,0.23251098394393921,0.15328457951545715, 
  /* [88][0][][] */ 0.2386726588010788,0.10181926935911179,0.13892494142055511,-0.02858600951731205,0.52912247180938721,0.70766794681549072,0.69252115488052368,0.38716652989387512,0.1868060976266861,0.14093382656574249, -0.26551532745361328,-0.15372265875339508,-0.17903372645378113,-0.27059629559516907,-0.72511386871337891,-0.58513182401657104,-0.60918200016021729,-0.42796942591667175,-0.57103621959686279,-0.43828657269477844, 0.33574095368385315,0.11675825715065002,0.12256495654582977,0.33063969016075134,-0.22467005252838135,-0.015800677239894867,-0.048189729452133179,0.28487241268157959,0.17992441356182098,0.30701097846031189, 
  /* [89][0][][] */ -0.11818469315767288,-0.11327327787876129,-0.076809346675872803,-0.071624733507633209,-0.053372859954833984,0.11813347041606903,0.12243194878101349,0.09466099739074707,-0.10305670648813248,-0.0093970149755477905, -0.081230923533439636,-0.052436031401157379,-0.075073078274726868,-0.048255123198032379,-0.1083366796374321,0.08824513852596283,0.032111257314682007,-0.10913088172674179,0.012389779090881348,-0.013246245682239532, 0.023227617144584656,-0.076238423585891724,-0.064438819885253906,0.068948522210121155,-0.080360159277915955,0.048088401556015015,0.12280662357807159,-0.037594735622406006,0.13052870333194733,-0.096200019121170044, 
  /* [90][0][][] */ 0.11191646754741669,0.055137023329734802,0.055611584335565567,-0.12742005288600922,0.034920740872621536,0.032961692661046982,-0.025613866746425629,-0.080980725586414337,0.023981142789125443,-0.14742279052734375, -0.1248735636472702,0.042197491973638535,-0.13701923191547394,-0.11959683895111084,-0.037157695740461349,-0.12482479959726334,0.0033745509572327137,-0.026665885001420975,-0.087397240102291107,-0.025601979345083237, -0.083844549953937531,-0.10446456074714661,-0.006616637110710144,0.034141421318054199,-0.11614333093166351,0.053586483001708984,-0.053424999117851257,0.068798407912254333,-0.088907435536384583,0.048443734645843506, 
  /* [91][0][][] */ 0.035890024155378342,-0.12457401305437088,-0.013643490150570869,0.016064664348959923,-0.10461331903934479,-0.080948196351528168,-0.065800540149211884,-0.071830421686172485,0.15545974671840668,0.15518887341022491, 0.20941153168678284,0.020054155960679054,-0.11320145428180695,0.15139314532279968,0.19124920666217804,0.12820330262184143,0.34084805846214294,0.18746472895145416,0.058225564658641815,0.12384794652462006, -0.24392473697662354,-0.055179975926876068,-0.018257057294249535,-0.089388921856880188,-0.03429843857884407,0.17633479833602905,0.15686230361461639,-0.14783641695976257,-0.11623458564281464,-0.0073755127377808094, 
  /* [92][0][][] */ 0.22854511439800262,-0.050620187073945999,-0.076985552906990051,-0.063844725489616394,0.16730517148971558,0.1700376570224762,0.11801662296056747,0.013610423542559147,0.18713323771953583,0.21517719328403473, 0.048793133348226547,0.02267499640583992,-0.064991526305675507,0.10360787808895111,0.12532851099967957,0.23477426171302795,0.2045879065990448,0.067797757685184479,-0.0061289560981094837,0.051132503896951675, -0.064147487282752991,-0.060079295188188553,-0.037233773618936539,-0.11649248003959656,0.15032258629798889,0.0049914638511836529,0.17354317009449005,0.024335816502571106,0.033979333937168121,-0.11295700818300247, 
  /* [93][0][][] */ 0.5209077000617981,-0.17405259609222412,-0.014794493094086647,0.19776678085327148,0.79185503721237183,1.0697389841079712,0.90419447422027588,0.64843291044235229,0.57423555850982666,0.7709355354309082, -0.1115671843290329,-0.01012568362057209,0.20396752655506134,-0.20499879121780396,0.29289817810058594,0.28280368447303772,0.13528446853160858,-0.1260317862033844,-0.12296079844236374,-0.17740567028522491, -0.10234905779361725,-0.038803540170192719,0.0087295621633529663,-0.10777692496776581,0.052305653691291809,-0.11329970508813858,-0.11364760249853134,0.10704520344734192,0.038637310266494751,0.018639892339706421, 
  /* [94][0][][] */ 0.010973161086440086,0.031337793916463852,0.057219989597797394,-0.19043548405170441,0.075650185346603394,-0.11374203115701675,-0.059298932552337646,-0.037280775606632233,-0.061384595930576324,0.010976384393870831, -0.19168975949287415,-0.18107274174690247,-0.05294225737452507,-0.028145045042037964,-0.0046383501030504704,0.17707642912864685,0.18031427264213562,-0.23109279572963715,-0.22877025604248047,-0.20023241639137268, -0.19706690311431885,-0.047810304909944534,0.19798091053962708,0.23375535011291504,0.61127805709838867,0.52138650417327881,0.40229442715644836,0.32585138082504272,0.26310279965400696,0.24193401634693146, 
  /* [95][0][][] */ 0.10148104280233383,0.1147959977388382,-0.078424610197544098,0.19180364906787872,-0.11620757728815079,-0.00037033384433016181,-0.076300449669361115,0.08076079934835434,0.076368078589439392,0.088107340037822723, -0.43241119384765625,0.066216796636581421,-0.063775986433029175,-0.4850618839263916,-0.58908802270889282,-0.58793121576309204,-0.58283811807632446,-0.44126546382904053,-0.78809797763824463,-0.75129973888397217, 0.11990978568792343,0.16113059222698212,0.15586060285568237,0.32260659337043762,0.094711177051067352,0.054432373493909836,0.17513574659824371,0.25236353278160095,0.22002279758453369,0.04480217769742012, 
};
const TfArray<4, int> tensor_dimension7 = { 4, { 96,1,3,10 } };
const ALIGN(8) float tensor_data8[32*1*3*96] = { 
  /* [0][0][][] */ -0.076357036828994751,-0.060739994049072266,-0.042161822319030762,0.10273745656013489,0.10662749409675598,-0.10494789481163025,-0.034762978553771973,0.047861069440841675,0.072289794683456421,0.094120532274246216,0.041593551635742188,0.087201625108718872,0.10765412449836731,-0.072170406579971313,-0.0050004422664642334,-0.078238397836685181,0.0056573748588562012,0.10875803232192993,-0.052848666906356812,-0.064466416835784912,-0.095275133848190308,-0.11043685674667358,0.095344871282577515,0.034801870584487915,0.016199558973312378,-0.10451877117156982,0.0526466965675354,0.013750314712524414,0.043171733617782593,-0.066198080778121948,0.0013303160667419434,-0.12473800778388977,-0.11228972673416138,-0.099213868379592896,-0.057693809270858765,0.030848145484924316,-0.090102314949035645,0.08879929780960083,-0.049756318330764771,-0.069273769855499268,0.051394373178482056,0.030072540044784546,0.025559902191162109,-0.097570031881332397,0.052261292934417725,0.046121358871459961,-0.093706846237182617,-0.088088154792785645,0.074523568153381348,-0.056438475847244263,0.067589014768600464,0.064663350582122803,-0.067374438047409058,-0.09774431586265564,-0.093248099088668823,0.074068576097488403,-0.028173178434371948,-0.054998934268951416,0.11565360426902771,0.016617089509963989,0.051968038082122803,-0.0044179856777191162,0.02965855598449707,0.039806783199310303,0.028274863958358765,0.046825230121612549,0.0069901347160339355,0.11381080746650696,0.0069632232189178467,-0.021895021200180054,-0.10520610213279724,0.083587616682052612,0.10187718272209167,-0.023868948221206665,-0.10985040664672852,0.02857285737991333,-0.094880193471908569,-0.11828848719596863,-0.091457903385162354,-0.0091838836669921875,0.049851208925247192,-0.028323262929916382,0.055708259344100952,0.02046164870262146,-0.097531497478485107,0.096974879503250122,-0.058999359607696533,-0.013741731643676758,-0.12236925959587097,0.06406480073928833,-0.10639241337776184,0.0098147392272949219,0.054904937744140625,0.080226331949234009,-0.098448097705841064,-0.029004514217376709, 0.084087356925010681,-1.0120420455932617,-0.10243651270866394,0.084598176181316376,-1.444977879524231,-1.4322000741958618,-0.1042199432849884,0.096791476011276245,0.051639005541801453,-0.3239847719669342,0.15248705446720123,-0.12506978213787079,-0.0088510820642113686,-0.095365874469280243,-0.33083423972129822,-0.98350375890731812,-1.8637040853500366,-0.069823041558265686,-1.4692864418029785,-0.39657989144325256,0.059071201831102371,0.65342491865158081,0.047766566276550293,-0.012184232473373413,-1.3856750726699829,-0.99392765760421753,0.26274138689041138,-0.0036285221576690674,-0.3052217960357666,-1.7918440103530884,-0.067122437059879303,-0.11862212419509888,0.0812944695353508,-0.3085896372795105,-0.43384221196174622,-0.070494189858436584,-0.9894365668296814,-0.025734413415193558,0.21461726725101471,-0.53099870681762695,-0.34410920739173889,-0.09960503876209259,0.12301509082317352,0.50655388832092285,0.0084626972675323486,0.013475074432790279,0.064906492829322815,-0.052887890487909317,0.090474344789981842,-0.17635913193225861,-1.3533830642700195,-1.7770737409591675,-1.3148572444915771,0.07364124059677124,-0.031625688076019287,-0.024175504222512245,-1.0779080390930176,0.80844235420227051,0.020262110978364944,-1.1976882219314575,-0.24599084258079529,0.064177721738815308,-0.14624632894992828,0.16001152992248535,0.23914369940757751,0.29697707295417786,0.53164756298065186,-0.5171704888343811,0.018994705751538277,-0.88386517763137817,0.030949056148529053,-0.83167499303817749,0.042298566550016403,-0.070131115615367889,0.81120622158050537,0.28953301906585693,0.80121910572052002,0.26814994215965271,-0.41116729378700256,-0.067347675561904907,0.34512200951576233,0.19664932787418365,0.14378274977207184,0.15058508515357971,0.045522131025791168,-0.2369178980588913,-0.72216737270355225,0.47250723838806152,-0.0086215054616332054,0.1073739230632782,-0.044251251965761185,-0.034423302859067917,-0.27682003378868103,0.14798267185688019,-0.41264235973358154,0.60304093360900879, -0.0021236538887023926,-0.022242933511734009,-0.023015439510345459,-0.071995854377746582,-0.07320818305015564,0.086244910955429077,0.08111041784286499,-0.053040176630020142,-0.0033688247203826904,0.033619880676269531,0.055398702621459961,0.052149981260299683,0.057309001684188843,-0.067836403846740723,-0.09328538179397583,0.076813578605651855,0.044858813285827637,-0.099470585584640503,0.10709139704704285,-0.040451973676681519,-0.035928994417190552,0.093153327703475952,0.11463916301727295,0.061950773000717163,-0.096235156059265137,-0.020583510398864746,-0.0081344544887542725,0.044253081083297729,0.069335669279098511,0.07011982798576355,-0.094361305236816406,0.015532612800598145,-0.013670742511749268,0.068274587392807007,-0.082556098699569702,-0.059470206499099731,0.026465773582458496,-0.060799568891525269,-0.046235561370849609,-0.038789182901382446,-0.11179542541503906,-0.05927509069442749,0.013166368007659912,-0.08472403883934021,-0.080401301383972168,0.084906309843063354,0.061903417110443115,-0.10417258739471436,-0.028484940528869629,0.10394793748855591,0.085398763418197632,-0.0522652268409729,0.015580594539642334,-0.013131469488143921,-0.053497821092605591,-0.11131572723388672,0.078320115804672241,0.067728519439697266,-0.064810425043106079,0.068376779556274414,0.076865226030349731,-0.066788345575332642,-0.02245253324508667,0.012799054384231567,-0.025253891944885254,0.019234925508499146,0.12343287467956543,0.0032558739185333252,0.018623590469360352,0.07878383994102478,0.082885235548019409,0.093979567289352417,0.071611106395721436,-0.12092602252960205,-0.040163785219192505,0.061338722705841064,-0.078182995319366455,0.0061042308807373047,0.10679849982261658,-0.036918699741363525,0.031566798686981201,-0.041039168834686279,-0.12314969301223755,-0.076983034610748291,0.11521989107131958,-0.12238603830337524,0.011260658502578735,0.12285974621772766,0.078708142042160034,-0.019394785165786743,-0.076681047677993774,0.0061888694763183594,-0.10150173306465149,0.10157376527786255,0.047951161861419678,0.098702222108840942, 
  /* [1][0][][] */ -0.078429490327835083,-0.098410129547119141,0.0035513937473297119,0.07961389422416687,-0.10128045082092285,-0.049343258142471313,-0.080430656671524048,-0.017688632011413574,0.070550620555877686,0.036213427782058716,0.077662765979766846,-0.080020427703857422,0.11385893821716309,-0.013729333877563477,0.062867790460586548,0.020011097192764282,-0.064496546983718872,0.12460264563560486,0.026478976011276245,-0.085765659809112549,-0.042566776275634766,0.12377989292144775,-0.024092614650726318,0.098543316125869751,0.11086034774780273,0.078955143690109253,-0.10205858945846558,-0.07900691032409668,-0.047510415315628052,-0.041444540023803711,0.021287083625793457,-0.083193928003311157,-0.067418187856674194,0.012392550706863403,0.081144452095031738,0.11311182379722595,-0.016084730625152588,0.052457958459854126,0.037104040384292603,0.093267112970352173,0.10662025213241577,-0.10590222477912903,0.081860661506652832,0.10088059306144714,0.029750645160675049,0.062975615262985229,-0.098703444004058838,-0.062261432409286499,-0.10499045252799988,-0.011364102363586426,0.048466533422470093,0.016679555177688599,0.038480669260025024,0.010065913200378418,0.062181085348129272,0.07206687331199646,-0.00054383277893066406,-0.030847638845443726,-0.067566037178039551,0.040335386991500854,-0.016277700662612915,0.11323416233062744,0.036845892667770386,-0.067868024110794067,-0.12103730440139771,0.092269271612167358,0.044386744499206543,0.011770159006118774,-0.04416191577911377,0.07190096378326416,0.042126089334487915,0.067205071449279785,0.025135934352874756,-0.12431696057319641,-0.019703388214111328,-0.031687080860137939,0.065361171960830688,0.017154425382614136,0.055691391229629517,0.041233360767364502,-0.016237616539001465,-0.00047424435615539551,-0.063564330339431763,0.087223559617996216,-0.015646070241928101,-0.0055068433284759521,0.072649359703063965,0.062661141157150269,0.042821109294891357,0.045878946781158447,-0.055359512567520142,-0.046017289161682129,-0.12065950036048889,0.045944184064865112,0.078858017921447754,0.10874283313751221, -0.078725896775722504,-1.147407054901123,0.10918435454368591,0.94830071926116943,-1.0305192470550537,-1.3107807636260986,-0.10138177871704102,-0.050315078347921371,0.029463859274983406,-0.40837246179580688,0.092516973614692688,-0.11351385712623596,0.0083509553223848343,-0.11141958087682724,-0.56656044721603394,-0.21809904277324677,-1.003455638885498,-0.014880239963531494,-0.72438472509384155,-0.56556522846221924,-0.095319561660289764,0.30800819396972656,0.068833321332931519,0.071004927158355713,-1.0181281566619873,-1.2217057943344116,0.25570741295814514,-0.084226071834564209,-0.15072880685329437,-0.74415552616119385,0.093927115201950073,-0.12138888239860535,0.37310975790023804,-0.38774162530899048,-0.34761565923690796,-0.13828809559345245,-1.0227254629135132,0.075185954570770264,0.040147051215171814,-0.67846900224685669,-0.19988530874252319,-0.28601780533790588,0.21303264796733856,0.12741048634052277,0.10677823424339294,0.011078429408371449,0.27779355645179749,0.0025151323061436415,0.13262781500816345,-0.19892658293247223,-0.79916280508041382,-0.64972037076950073,-0.96418893337249756,-0.046326696872711182,0.11043170094490051,0.82599538564682007,-0.63785010576248169,0.59631043672561646,-0.02481619268655777,-0.74550837278366089,-0.012903773225843906,0.088094048202037811,0.043301768600940704,0.33716189861297607,0.093985021114349365,0.23189689218997955,0.5421411395072937,-0.6851799488067627,0.11193250119686127,-0.98478269577026367,-0.01243281364440918,-0.1033945232629776,-0.0070324726402759552,0.02995845302939415,0.86420375108718872,0.44617924094200134,0.61497628688812256,0.20359577238559723,-0.70164799690246582,0.21059331297874451,0.22110210359096527,0.40202498435974121,0.039631526917219162,0.30488932132720947,0.0098364055156707764,-0.083338789641857147,-0.73891907930374146,0.44940325617790222,-0.046568199992179871,-0.020016610622406006,0.07358977198600769,-0.15757808089256287,-0.18402814865112305,0.16644752025604248,-0.62864518165588379,0.35153111815452576, -0.015182852745056152,0.038573175668716431,-0.12065932154655457,0.069344282150268555,-0.086053222417831421,-0.046527713537216187,-0.097241371870040894,-0.11791422963142395,0.066945165395736694,0.034129530191421509,-0.12213602662086487,0.084653913974761963,-0.0071890652179718018,-0.044782817363739014,0.014804691076278687,0.041885942220687866,0.10174587368965149,0.084802746772766113,0.074539452791213989,0.024491190910339355,0.044707685708999634,-0.054267525672912598,0.048158764839172363,0.10622599720954895,0.1150982677936554,-0.10371655225753784,-0.11665451526641846,0.022233247756958008,-0.01019248366355896,-0.024828314781188965,-0.025167346000671387,0.020925223827362061,0.079149395227432251,0.036769688129425049,-0.059085816144943237,0.095772206783294678,-0.0047512948513031006,0.082782238721847534,-0.039240509271621704,0.1127837598323822,0.013640046119689941,-0.11216515302658081,0.0046380758285522461,4.4584274291992188e-05,-0.096407473087310791,-0.048990041017532349,-0.059489309787750244,0.047827094793319702,0.11169266700744629,-0.099989831447601318,-0.086869746446609497,0.06875687837600708,-0.034404784440994263,-0.09625360369682312,0.11452630162239075,-0.087176650762557983,0.04423224925994873,0.12077197432518005,0.054020732641220093,-0.10257226228713989,-0.046577334403991699,0.0022518932819366455,0.090832263231277466,-0.071361780166625977,0.027171939611434937,-0.063078880310058594,-0.043960303068161011,0.044311106204986572,0.013546258211135864,-0.10179147124290466,0.094321876764297485,0.10457345843315125,-0.1002410352230072,-0.10881996154785156,-0.026880949735641479,0.0055895447731018066,0.078367441892623901,-0.053312748670578003,-0.015217095613479614,0.058596432209014893,0.12002292275428772,0.084713280200958252,0.03078615665435791,-0.1068330705165863,-0.068722158670425415,-0.052899628877639771,0.092709600925445557,0.068317145109176636,-0.093373894691467285,-0.05167427659034729,-0.048473924398422241,0.11167967319488525,0.07966950535774231,0.095161080360412598,-0.1203971803188324,-0.099546134471893311, 
  /* [2][0][][] */ -0.093997031450271606,-0.091064721345901489,0.01483193039894104,-0.086508035659790039,0.0976523756980896,-0.027405798435211182,0.02841612696647644,-0.08845752477645874,-0.033174246549606323,-0.051376640796661377,0.019056737422943115,0.049716979265213013,0.074998825788497925,0.11253529787063599,0.05876651406288147,-0.00059661269187927246,0.078427046537399292,-0.07162553071975708,0.041766732931137085,-0.049185663461685181,0.05625450611114502,0.08253750205039978,0.001464158296585083,-0.096828669309616089,0.011613577604293823,0.096674174070358276,0.055009186267852783,0.065826863050460815,0.049744606018066406,-0.021228164434432983,0.043088436126708984,-0.021849304437637329,0.031378030776977539,0.078246265649795532,-0.087904751300811768,0.04614567756652832,-0.051048189401626587,-0.078418046236038208,0.11100348830223083,-0.11600759625434875,0.06763148307800293,-0.004002302885055542,-0.10205057263374329,-0.059436410665512085,0.049378246068954468,0.082364886999130249,0.059468299150466919,0.097768813371658325,-0.046229541301727295,-0.032744675874710083,0.0015747249126434326,-0.062894225120544434,0.10958892107009888,-0.11907809972763062,0.011195063591003418,-0.086680591106414795,0.076449841260910034,-0.12285646796226501,-0.016104787588119507,-0.00061282515525817871,0.11696624755859375,0.061923027038574219,0.016816556453704834,0.0071445107460021973,-0.035149902105331421,-0.033623576164245605,0.08031386137008667,-0.045664489269256592,-0.040389418601989746,-0.077432483434677124,-0.10168558359146118,0.041498959064483643,0.055034905672073364,-0.10229629278182983,0.06553533673286438,-0.083335816860198975,-0.093742907047271729,-0.021459221839904785,-0.09822651743888855,0.084701478481292725,0.10842233896255493,0.073978304862976074,0.071847409009933472,0.039520233869552612,0.091845601797103882,-0.095513075590133667,-0.010088443756103516,-0.035026997327804565,-0.015129327774047852,0.038145333528518677,0.062951326370239258,0.071257829666137695,0.017638742923736572,-0.083361327648162842,-0.10895794630050659,-0.11827284097671509, -0.16397793591022491,-0.45869758725166321,-0.065682835876941681,-0.39646413922309875,-0.083458803594112396,-0.062206145375967026,0.083976373076438904,-0.03551633283495903,-1.0547577142715454,-0.18637603521347046,-0.020084613934159279,0.042305871844291687,0.048274587839841843,0.086133904755115509,-0.49384108185768127,-0.30126336216926575,0.025040650740265846,-0.10752545297145844,-0.028723115101456642,-0.26123705506324768,-0.43942418694496155,0.0078257042914628983,0.11595764756202698,-0.036582257598638535,-0.00447490019723773,-0.47462588548660278,-0.10165471583604813,0.00046122074127197266,-0.170059934258461,0.041474413126707077,-1.4006501436233521,0.02775418758392334,0.031008122488856316,0.20309655368328094,-0.29945287108421326,-0.28031161427497864,-0.043938785791397095,-0.094474591314792633,0.073734931647777557,-0.087698958814144135,0.4263685941696167,-0.0024713336024433374,-0.28569495677947998,-0.56931406259536743,-0.021106570959091187,-1.022331714630127,-0.61576157808303833,-0.50135087966918945,-0.039905648678541183,-0.085815921425819397,0.0051552220247685909,-0.04559064656496048,-0.073701173067092896,-0.054861485958099365,0.039764761924743652,-0.66170811653137207,-0.23536530137062073,-0.3688141405582428,-1.5609874725341797,0.028453154489398003,0.031192393973469734,-0.29390162229537964,-0.31950804591178894,0.055253636091947556,-0.28131332993507385,-0.025830553844571114,-1.0674012899398804,-0.46470916271209717,-0.236774742603302,-0.58458584547042847,0.018961653113365173,0.95232206583023071,-1.4632989168167114,-0.22282777726650238,-1.4616031646728516,0.073400326073169708,0.15920402109622955,-0.48267549276351929,-0.078976467251777649,-0.34494167566299438,-1.4169130325317383,-0.035034406930208206,0.14905434846878052,-0.35695943236351013,-0.097111158072948456,-0.05563056468963623,0.064115285873413086,-0.9417949914932251,-0.49394825100898743,-0.084396243095397949,0.010729889385402203,0.066045798361301422,0.00026862925733439624,-0.10985027253627777,-0.055374722927808762,-0.81260287761688232, 0.05280458927154541,-0.091664731502532959,-0.070415109395980835,0.021259784698486328,-0.054204314947128296,0.028210073709487915,0.013100951910018921,-0.041689842939376831,0.0091893970966339111,0.094994038343429565,0.091368645429611206,-0.12020459771156311,-0.0499764084815979,0.087382376194000244,-0.010790705680847168,0.076795250177383423,-0.056007534265518188,-0.1162552535533905,-0.089675456285476685,-0.092269033193588257,-0.090017557144165039,0.035487145185470581,0.087874770164489746,0.081069141626358032,0.032126933336257935,-0.11381259560585022,-0.10813868045806885,0.0018024444580078125,0.0066017806529998779,0.0057887732982635498,0.015902161598205566,0.088192790746688843,0.098326653242111206,0.026852399110794067,0.048138707876205444,-0.0090589821338653564,-0.057806193828582764,-0.016035228967666626,-0.036683320999145508,-0.086898624897003174,0.030334830284118652,0.10340020060539246,-0.12107366323471069,-0.078072398900985718,0.10161805152893066,0.099379837512969971,0.042193889617919922,0.011695414781570435,0.10256585478782654,-0.061426222324371338,-0.10012525320053101,-0.081897646188735962,-0.040282130241394043,-0.03783068060874939,-0.054480910301208496,-0.1165732741355896,0.12437990307807922,-0.093585759401321411,-0.11888208985328674,-0.016907721757888794,-0.085455566644668579,-0.0072622597217559814,0.053128927946090698,0.0075053274631500244,-0.086221247911453247,0.014875173568725586,0.010957956314086914,-0.065986931324005127,-0.078715354204177856,0.11129626631736755,-0.087425291538238525,0.0063703656196594238,0.010425597429275513,-0.050311535596847534,0.09460940957069397,-0.072662711143493652,-0.090716034173965454,-0.10044363141059875,-0.026409626007080078,0.025108128786087036,-0.025049537420272827,-0.056809127330780029,0.06426769495010376,0.021621167659759521,0.061854809522628784,-0.011478781700134277,0.10377821326255798,-0.0078070759773254395,-0.10479748249053955,0.040984183549880981,-0.10078755021095276,-0.071639925241470337,0.043086349964141846,-0.069990545511245728,-0.10997989773750305,-0.033747464418411255, 
  /* [3][0][][] */ -0.079231828451156616,0.010521650314331055,-0.035468786954879761,-0.041882038116455078,-0.036675691604614258,0.02581787109375,0.084401518106460571,0.094673782587051392,0.0026908516883850098,0.061963081359863281,-0.050949603319168091,0.090815633535385132,6.8515539169311523e-05,-0.039924532175064087,0.098872095346450806,-0.0085802674293518066,0.018455207347869873,0.11610934138298035,-0.034552931785583496,0.03798985481262207,-0.037866085767745972,-0.045875877141952515,0.002283632755279541,-0.004103541374206543,-0.12216612696647644,0.071407407522201538,-0.093565881252288818,-0.098474562168121338,-0.1153484582901001,0.089186221361160278,-0.065461277961730957,0.1080472469329834,-0.072509229183197021,0.057197988033294678,-0.0052826404571533203,0.089612066745758057,0.03101193904876709,-0.10409218072891235,-0.061637073755264282,0.069724708795547485,-0.056249439716339111,0.11896488070487976,0.11593011021614075,-0.038813591003417969,-0.064053058624267578,0.017745107412338257,0.085646510124206543,-0.0073899626731872559,0.014372378587722778,0.073365867137908936,-0.094619691371917725,0.050261080265045166,-0.02378767728805542,-0.06877252459526062,-0.042486906051635742,-0.026760071516036987,-0.028717935085296631,0.056643307209014893,0.09389728307723999,0.019719421863555908,-0.083098381757736206,-0.11057624220848083,-0.087206244468688965,-0.11255341768264771,-0.047085672616958618,-0.075180262327194214,-0.091078370809555054,-0.070912033319473267,0.09444737434387207,0.00046363472938537598,0.12096762657165527,-0.11853376030921936,0.099779844284057617,-0.086081713438034058,0.096342176198959351,-0.088086396455764771,0.099332690238952637,-0.10407871007919312,-0.028654605150222778,0.058576405048370361,0.11812594532966614,0.010001003742218018,-0.10729131102561951,-0.031475961208343506,-0.097607195377349854,-0.11337298154830933,0.024746447801589966,0.032416641712188721,-0.12129366397857666,0.1139197051525116,-0.079933643341064453,0.11078178882598877,0.12303277850151062,0.064605832099914551,0.044962167739868164,-0.12463977932929993, 0.51879185438156128,-0.91716247797012329,0.096813693642616272,-0.93330460786819458,0.12996096909046173,0.13328024744987488,0.03117823600769043,-0.51582115888595581,-1.0711079835891724,-0.26240319013595581,0.39644163846969604,0.024129491299390793,-0.38067960739135742,0.070434920489788055,-0.99787014722824097,-0.19820292294025421,0.072602003812789917,-0.11530519276857376,0.075785890221595764,-0.067704178392887115,-0.32058003544807434,0.54992687702178955,0.11176928877830505,-0.020361244678497314,0.071597933769226074,-0.17049483954906464,0.67530745267868042,0.014405667781829834,-0.70116263628005981,0.013168847188353539,-0.41228175163269043,-0.016842156648635864,-0.26418182253837585,-0.71432292461395264,-0.45271259546279907,0.14673572778701782,0.31136873364448547,0.20214079320430756,-0.11956501752138138,0.16494977474212646,-0.095634698867797852,0.0030402860138565302,0.19907744228839874,-0.54776370525360107,0.022621840238571167,-0.37587994337081909,-1.525797963142395,-0.3807435929775238,0.48665326833724976,0.076656095683574677,0.081625968217849731,0.03744836151599884,1.9045976400375366,0.12442752718925476,0.035413771867752075,-1.0715289115905762,-0.35926690697669983,-0.56415289640426636,-1.355115532875061,0.058828584849834442,-1.1357773542404175,-0.43767708539962769,0.32035869359970093,-0.2946208119392395,-0.39312982559204102,0.024884173646569252,-0.81758308410644531,-0.74699223041534424,-0.60303008556365967,-0.33574050664901733,0.063563227653503418,-1.0308383703231812,-1.1541506052017212,-0.36405134201049805,-0.73553282022476196,-0.33541569113731384,-0.93785625696182251,-0.13059592247009277,-0.096235647797584534,-0.52002733945846558,-0.052036836743354797,-0.2894313633441925,-0.11368432641029358,-0.43065574765205383,-0.11742617189884186,0.0051084337756037712,0.32739117741584778,-0.07520420104265213,-0.0079211937263607979,0.10079824924468994,0.062213186174631119,0.045528098940849304,-0.012516525574028492,-0.15101040899753571,0.12444041669368744,0.34403389692306519, -0.062103450298309326,-0.047480463981628418,-0.11543533205986023,0.026287436485290527,0.059938728809356689,-0.017197161912918091,-0.11056944727897644,0.098155379295349121,0.065701097249984741,0.065358459949493408,0.011129558086395264,0.0048615932464599609,-0.08917003870010376,-0.0010479986667633057,-0.098394811153411865,0.0019631087779998779,0.054020106792449951,-0.1168074905872345,-0.031577587127685547,0.034265816211700439,0.023833602666854858,-0.11791321635246277,0.014471977949142456,-0.11391568183898926,-0.049273371696472168,0.076972037553787231,-0.074706226587295532,0.060347229242324829,-0.052364110946655273,-0.089187353849411011,0.0078542828559875488,-0.098862797021865845,-0.082340329885482788,0.057376682758331299,-0.080157697200775146,0.094615250825881958,0.019275873899459839,-0.058197647333145142,-0.092543989419937134,-0.014995813369750977,0.0749015212059021,-0.030119776725769043,-0.077988207340240479,0.028229862451553345,-0.021309882402420044,0.026836603879928589,0.095433294773101807,0.12050071358680725,0.076970577239990234,-0.12041780352592468,0.056883871555328369,0.053380489349365234,0.068776130676269531,-0.010149180889129639,0.047683238983154297,0.017181068658828735,-0.11591419577598572,0.082988053560256958,-0.057057499885559082,-0.11082962155342102,-0.093983918428421021,0.080813139677047729,-0.027064681053161621,-0.030046582221984863,-0.085635840892791748,-0.098822563886642456,-0.079011440277099609,-0.02696382999420166,0.037287473678588867,-0.021006971597671509,-0.04660072922706604,-0.070458173751831055,-0.052882552146911621,0.029754579067230225,0.12144765257835388,-0.022789984941482544,0.11746743321418762,-0.11550483107566833,-0.093744188547134399,0.035377800464630127,-0.037880390882492065,0.036676645278930664,0.042191177606582642,0.048044294118881226,0.028109848499298096,0.068647831678390503,0.036923617124557495,0.033670246601104736,0.10724499821662903,0.12158128619194031,-0.08298686146736145,-0.069607287645339966,-0.11917960643768311,-0.09573739767074585,-0.098339170217514038,0.0010738372802734375, 
