/* Generated by Edge Impulse
*
* Permission is hereby granted, free of charge, to any person obtaining a copy
* of this software and associated documentation files (the "Software"), to deal
* in the Software without restriction, including without limitation the rights
* to use, copy, modify, merge, publish, distribute, sublicense, and/or sell
* copies of the Software, and to permit persons to whom the Software is
* furnished to do so, subject to the following conditions:
*
* The above copyright notice and this permission notice shall be included in
* all copies or substantial portions of the Software.
*
* THE SOFTWARE IS PROVIDED "AS IS", WITHOUT WARRANTY OF ANY KIND, EXPRESS OR
* IMPLIED, INCLUDING BUT NOT LIMITED TO THE WARRANTIES OF MERCHANTABILITY,
* FITNESS FOR A PARTICULAR PURPOSE AND NONINFRINGEMENT. IN NO EVENT SHALL THE
* AUTHORS OR COPYRIGHT HOLDERS BE LIABLE FOR ANY CLAIM, DAMAGES OR OTHER
* LIABILITY, WHETHER IN AN ACTION OF CONTRACT, TORT OR OTHERWISE, ARISING FROM,
* OUT OF OR IN CONNECTION WITH THE SOFTWARE OR THE USE OR OTHER DEALINGS IN THE
* SOFTWARE.
*/
// Generated on: 10.01.2022 10:11:01

#include <stdio.h>
#include <stdlib.h>
#include <vector>
#include "edge-impulse-sdk/tensorflow/lite/c/builtin_op_data.h"
#include "edge-impulse-sdk/tensorflow/lite/c/common.h"
#include "edge-impulse-sdk/tensorflow/lite/micro/micro_mutable_op_resolver.h"
#include "edge-impulse-sdk/porting/ei_classifier_porting.h"

#if EI_CLASSIFIER_PRINT_STATE
#if defined(__cplusplus) && EI_C_LINKAGE == 1
extern "C" {
    extern void ei_printf(const char *format, ...);
}
#else
extern void ei_printf(const char *format, ...);
#endif
#endif

#if defined __GNUC__
#define ALIGN(X) __attribute__((aligned(X)))
#elif defined _MSC_VER
#define ALIGN(X) __declspec(align(X))
#elif defined __TASKING__
#define ALIGN(X) __align(X)
#endif

using namespace tflite;
using namespace tflite::ops;
using namespace tflite::ops::micro;

namespace {

constexpr int kTensorArenaSize = 5696;

#if defined(EI_CLASSIFIER_ALLOCATION_STATIC)
uint8_t tensor_arena[kTensorArenaSize] ALIGN(16);
#elif defined(EI_CLASSIFIER_ALLOCATION_STATIC_HIMAX)
#pragma Bss(".tensor_arena")
uint8_t tensor_arena[kTensorArenaSize] ALIGN(16);
#pragma Bss()
#elif defined(EI_CLASSIFIER_ALLOCATION_STATIC_HIMAX_GNU)
uint8_t tensor_arena[kTensorArenaSize] ALIGN(16) __attribute__((section(".tensor_arena")));
#else
#define EI_CLASSIFIER_ALLOCATION_HEAP 1
uint8_t* tensor_arena = NULL;
#endif

static uint8_t* tensor_boundary;
static uint8_t* current_location;

template <int SZ, class T> struct TfArray {
  int sz; T elem[SZ];
};
enum used_operators_e {
  OP_RESHAPE, OP_CONV_2D, OP_MAX_POOL_2D, OP_FULLY_CONNECTED, OP_SOFTMAX,  OP_LAST
};
struct TensorInfo_t { // subset of TfLiteTensor used for initialization from constant memory
  TfLiteAllocationType allocation_type;
  TfLiteType type;
  void* data;
  TfLiteIntArray* dims;
  size_t bytes;
};
struct NodeInfo_t { // subset of TfLiteNode used for initialization from constant memory
  struct TfLiteIntArray* inputs;
  struct TfLiteIntArray* outputs;
  void* builtin_data;
  used_operators_e used_op_index;
};

TfLiteContext ctx{};
TfLiteTensor tflTensors[35];
TfLiteEvalTensor tflEvalTensors[35];
TfLiteRegistration registrations[OP_LAST];
TfLiteNode tflNodes[17];

const TfArray<2, int> tensor_dimension0 = { 2, { 1,20 } };
const ALIGN(8) int32_t tensor_data1[2] = { -1, 20, };
const TfArray<1, int> tensor_dimension1 = { 1, { 2 } };
const ALIGN(16) float tensor_data2[128] = { 0.016598464921116829, -0.13029174506664276, -0.019058337435126305, -0.0040156031027436256, -0.13096588850021362, -0.074072495102882385, -0.091407455503940582, -0.21182291209697723, -0.15789121389389038, -0.1418738067150116, 0.088172562420368195, -0.0014893403276801109, 0, -0.089959457516670227, -0.013518109917640686, 0.18138651549816132, -0.15556818246841431, 0, -0.023414285853505135, -0.048211783170700073, -0.029443142935633659, 0.030960865318775177, -0.08269789069890976, -0.073461629450321198, -0.0045842770487070084, 0, 0.18510915338993073, -0.0056102462112903595, -0.0040775430388748646, -0.1273125559091568, -0.052336707711219788, 0.11404158920049667, -0.027799062430858612, 0.057853996753692627, -0.004328050184994936, 0.032786436378955841, -0.059541236609220505, 0, 0.099524997174739838, -0.039286907762289047, 0.058655750006437302, 0.095602251589298248, -0.092434108257293701, 0.069251708686351776, -0.11548347026109695, 0, -0.065098613500595093, 0.024788407608866692, -0.10181616991758347, 0, 0.13982753455638885, -0.090856768190860748, -0.16848960518836975, -0.12862776219844818, 0.06533396989107132, -0.093867942690849304, -0.10689780861139297, 0, -0.021231802180409431, -0.17407152056694031, -0.070771165192127228, -0.018577119335532188, -0.10609184205532074, 0.050039246678352356, -0.19090957939624786, -0.090094015002250671, -0.16958758234977722, -0.073427893221378326, -0.022318681702017784, -0.023311104625463486, -0.11238535493612289, -0.027777422219514847, -0.04348299652338028, -0.064787030220031738, -0.078306898474693298, -0.048836328089237213, -0.1706012487411499, -0.043904513120651245, 0.001859762822277844, -0.016039552167057991, -0.035686962306499481, -0.11873817443847656, -0.10127981007099152, 0.078815661370754242, -0.16342975199222565, 0.0096942093223333359, 0, -0.12133155763149261, 0.049200605601072311, -0.14729802310466766, 0.044253129512071609, 0.041255947202444077, -0.0022689912002533674, -0.099202066659927368, -0.095270581543445587, -0.045246671885251999, 0.054936137050390244, 0, 0, -0.071416206657886505, 0.020554399117827415, -0.0077307312749326229, -0.058325890451669693, -0.083658769726753235, 0.034884404391050339, -0.066519565880298615, -0.10220310091972351, -0.061785642057657242, -0.064346469938755035, -0.10634002834558487, 0.17365109920501709, 0.17426034808158875, -0.19730262458324432, -0.060906179249286652, 0, -0.069769866764545441, 0.034066874533891678, -0.013800713233649731, -0.0023515489883720875, -0.16514779627323151, -0.0427577905356884, -0.092789553105831146, 0.26171839237213135, -0.16569222509860992, -0.029264640063047409, -0.066358812153339386, -0.0021308334544301033, -0.0038186251185834408, };
const TfArray<1, int> tensor_dimension2 = { 1, { 128 } };
const ALIGN(16) float tensor_data3[20] = { 0.091878637671470642, 0.14485456049442291, 0.072141923010349274, 0.22219070792198181, 0.11783749610185623, -0.12216496467590332, 0.20882263779640198, 0.1401689201593399, 0.21595486998558044, 0.093609340488910675, 0.23026980459690094, 0.14270512759685516, 0.10844603925943375, 0.053095981478691101, -0.0071531226858496666, 0.077738359570503235, 0.15583355724811554, 0.029020009562373161, 0.06546299159526825, -0.068721853196620941, };
const TfArray<1, int> tensor_dimension3 = { 1, { 20 } };
const ALIGN(8) float tensor_data4[3] = { 0.028897574171423912, 1.3201098442077637, -1.150370717048645, };
const TfArray<1, int> tensor_dimension4 = { 1, { 3 } };
const ALIGN(16) float tensor_data5[128] = { -0.0090696774423122406, 0.061812199652194977, -0.07036755234003067, -0.016603043302893639, 0.046062655746936798, -0.035762224346399307, 0.014361943118274212, 0.0031774761155247688, 0.0017571902135387063, -0.016997054219245911, 0.040494423359632492, -0.012318592518568039, 0.013230500742793083, 0, -0.029233312234282494, -0.1295010894536972, 0.1343504786491394, 0.070156879723072052, -0.083698928356170654, -0.0029828420374542475, -0.015417349524796009, 0.080134131014347076, -0.028138766065239906, -0.065966449677944183, 0.16215381026268005, -0.17429263889789581, 0.053418874740600586, -0.036578331142663956, -0.0098826652392745018, 0.03270706906914711, -0.0049419039860367775, 0.013325524516403675, -0.031869947910308838, -0.13775357604026794, -0.085075818002223969, -0.024129217490553856, -0.021812772378325462, -0.19511710107326508, -0.057031672447919846, 0.050009656697511673, -0.040493577718734741, -0.014615051448345184, 0.17176119983196259, 0.024257149547338486, -0.013293328694999218, -0.00026831679861061275, -0.030730759724974632, -0.0039462530985474586, -0.023567128926515579, 0.029341250658035278, -0.016611872240900993, -0.11391420662403107, -0.026307903230190277, -0.01973019540309906, 0.0043893828988075256, -0.031995527446269989, -0.029451025649905205, 0.046336758881807327, 0.0060484535060822964, -0.13689115643501282, -0.14398699998855591, -0.23669721186161041, -0.13703545928001404, -0.011573978699743748, -0.10290093719959259, 0.037402454763650894, -0.028660044074058533, -0.083781413733959198, -0.023301545530557632, -0.022026814520359039, -0.029466094449162483, -0.039404906332492828, 0, 0.043698146939277649, 0.10652182251214981, -0.11889799684286118, -0.0043022483587265015, 0.041548352688550949, -0.024118946865200996, 0.011099708266556263, -0.017761958763003349, -0.037592697888612747, 0.14235740900039673, 0.039001930505037308, -0.11991395801305771, -0.026102520525455475, -0.025077544152736664, -0.025807846337556839, -0.011816960759460926, -0.025078028440475464, -0.019395690411329269, 0.020848361775279045, 0.033667728304862976, -0.072942629456520081, -0.11932500451803207, -0.021282099187374115, -0.027265293523669243, -0.063530966639518738, 0.13552598655223846, -0.11393006891012192, -0.17058439552783966, -0.033104062080383301, -0.020995846018195152, -0.0075102481059730053, -0.065246902406215668, 0.009344358928501606, -0.087042473256587982, -0.079990245401859283, -0.014898727647960186, -0.15124893188476562, -0.038947682827711105, 0.02697262354195118, 0.053744018077850342, -0.13356156647205353, -0.096239790320396423, 0.0063250232487916946, -0.097685106098651886, 0.050920896232128143, 0.1154465526342392, -0.19023661315441132, -0.19675129652023315, 0.10407182574272156, 0.043042398989200592, -0.035850647836923599, 0.047832794487476349, -0.025431815534830093, -0.01641467958688736, -0.14999358355998993, };
const TfArray<1, int> tensor_dimension5 = { 1, { 128 } };
const ALIGN(16) float tensor_data6[32] = { -0.39979755878448486, -0.21060782670974731, -0.20225735008716583, -0.088208399713039398, -0.086508370935916901, -0.0011070421896874905, 0.13123957812786102, -0.14264291524887085, -0.24888899922370911, 0.0083322860300540924, -0.11009456962347031, 0.048914715647697449, 0.14045770466327667, 0.018717369064688683, 0.020845266059041023, -0.057423926889896393, 0.038100086152553558, -0.10557509958744049, -0.32434600591659546, -0.23406246304512024, 0.13279660046100616, -0.58946222066879272, 0.084269292652606964, 0.019618457183241844, -0.027389442548155785, 0.0029599959962069988, -0.42238020896911621, -0.040400251746177673, -0.52415740489959717, 0.25091436505317688, -0.23900784552097321, 0.039566252380609512, };
const TfArray<1, int> tensor_dimension6 = { 1, { 32 } };
const ALIGN(16) float tensor_data7[32] = { 0.062630563974380493, -0.015715936198830605, -0.15766040980815887, -0.026810821145772934, -0.058985516428947449, 0.047074820846319199, 0.0099382782354950905, -0.31320694088935852, -0.24780175089836121, 0.082205541431903839, 0.021534070372581482, 0.029291009530425072, 0.07105526328086853, -0.10718472301959991, -0.13211911916732788, -0.062689624726772308, -0.10117945075035095, -0.013106766156852245, 0.012257101014256477, -0.11573974043130875, 0.10014162957668304, 0.057589717209339142, 0.010941306129097939, 0.078450508415699005, -0.027659423649311066, -0.074381031095981598, 0.019684853032231331, -0.0052350042387843132, 0.14615698158740997, 0.056019339710474014, 0.023437345400452614, -0.046314351260662079, };
const TfArray<1, int> tensor_dimension7 = { 1, { 32 } };
const ALIGN(16) float tensor_data8[20] = { 0.095984838902950287, -0.073031298816204071, -0.0061594401486217976, 0.04882156103849411, 0.10821403563022614, 0.30680334568023682, 0.35016158223152161, 0.05582062155008316, 0.094052806496620178, 0.23322789371013641, -0.053644571453332901, 0.14818093180656433, 0.082663469016551971, -0.060241188853979111, 0.17517645657062531, -0.042370844632387161, 0.22294904291629791, 0.20286250114440918, -0.68102610111236572, -0.014185374602675438, };
const TfArray<1, int> tensor_dimension8 = { 1, { 20 } };
const ALIGN(16) float tensor_data9[3*20] = { 
  -0.84014147520065308, -0.44981929659843445, 0.02422620914876461, -0.19981618225574493, -0.33537325263023376, -0.0028820224106311798, -0.11908123642206192, -0.29034757614135742, -0.23004676401615143, 0.44917261600494385, -0.60444855690002441, -0.14825576543807983, -0.33382925391197205, -0.13609114289283752, -0.074709340929985046, -0.14815214276313782, -0.64037668704986572, 0.25041985511779785, -0.27935698628425598, -0.29197734594345093, 
  -0.017625974491238594, -0.5249485969543457, -1.4770821332931519, 0.050339281558990479, -1.5624674558639526, -0.33668777346611023, -0.30985143780708313, -1.440433144569397, -0.27168136835098267, -0.75646430253982544, -0.66489070653915405, -1.3966954946517944, -0.3708290159702301, 0.0017081644618883729, 0.26696959137916565, -1.3396705389022827, 0.17854034900665283, -0.88849645853042603, -0.34677970409393311, -0.0052931029349565506, 
  -0.22761635482311249, 0.037057895213365555, 0.0089333923533558846, -0.87316006422042847, -0.35964414477348328, -0.12128859758377075, 0.64981800317764282, -0.31118857860565186, 0.49103614687919617, 0.43071860074996948, 0.27032199501991272, -0.17808432877063751, 0.56528115272521973, -0.50794798135757446, -0.70626360177993774, -0.16112469136714935, 0.021609257906675339, 0.22224190831184387, 0.26163506507873535, -0.31231716275215149, 
};
const TfArray<2, int> tensor_dimension9 = { 2, { 3,20 } };
const ALIGN(16) float tensor_data10[128*1*3*10] = { 
  /* [0][0][][] */ -0.16910542547702789,-0.12632213532924652,-0.1526576429605484,-0.038778543472290039,-0.098805084824562073,-0.07008698582649231,-0.19622494280338287,-0.056097846478223801,-0.21599450707435608,-0.10473319888114929, 0.097254902124404907,0.091887637972831726,0.0058137020096182823,-0.32213857769966125,-0.29440152645111084,-0.2608678936958313,-0.2571890652179718,-0.03185587003827095,0.050809241831302643,0.097052879631519318, 0.32888132333755493,0.07512279599905014,-0.086632654070854187,-0.26668539643287659,-0.25532001256942749,-0.31749936938285828,-0.33798685669898987,-0.036288119852542877,-0.066380739212036133,0.16940514743328094, 
  /* [1][0][][] */ 0.52622509002685547,-0.13193339109420776,-0.04450283944606781,0.28738009929656982,0.71684426069259644,0.54426378011703491,0.69969218969345093,0.50130230188369751,0.52630043029785156,0.77266240119934082, 0.067633286118507385,-0.00072524941060692072,-0.11971425265073776,0.02735367976129055,0.54216313362121582,0.45157095789909363,0.47281581163406372,0.2094307541847229,0.17942705750465393,0.30226659774780273, 0.068261235952377319,-0.089730329811573029,0.11091753840446472,-0.075861677527427673,-0.10725576430559158,-0.0037118867039680481,0.093736037611961365,-0.11165917664766312,0.10968133807182312,0.065674275159835815, 
  /* [2][0][][] */ -0.046976048499345779,-0.014207321219146252,0.035754814743995667,-0.095119304955005646,-0.048407360911369324,-0.15661697089672089,-0.12918415665626526,0.069271393120288849,-0.030196111649274826,-0.032715056091547012, 0.070370368659496307,-0.13644196093082428,-0.13835228979587555,-0.057339340448379517,0.31496196985244751,0.48978093266487122,0.44374182820320129,0.051168214529752731,0.029164185747504234,-0.088064529001712799, 0.032568026334047318,0.05215027928352356,0.054529480636119843,0.14828698337078094,0.75869375467300415,0.70083403587341309,0.64833337068557739,0.31810015439987183,0.26292523741722107,0.026653649285435677, 
  /* [3][0][][] */ -0.11693677306175232,0.026339134201407433,-0.011606656946241856,-0.037422135472297668,-0.036796126514673233,0.0061783445999026299,0.094175837934017181,-0.068264663219451904,0.037171550095081329,-0.048713386058807373, -0.066411979496479034,-0.084974467754364014,0.058961104601621628,-0.01267167367041111,0.10969513654708862,-0.091816172003746033,0.081300772726535797,0.0078568030148744583,0.063760124146938324,0.11489465087652206, -0.1118256151676178,0.03430311381816864,-0.08768492192029953,-0.10403841733932495,-0.067064553499221802,-0.0041761994361877441,-0.066886633634567261,0.066821306943893433,0.005492866039276123,-0.11361552029848099, 
  /* [4][0][][] */ -0.031140938401222229,-0.0050874417647719383,0.067620366811752319,-0.037285517901182175,0.0092267151921987534,-0.095140285789966583,-0.12476987391710281,0.0041068135760724545,-0.12053972482681274,-0.049479078501462936, 0.10491476953029633,-0.23440088331699371,0.023369140923023224,-0.05025627464056015,0.12643431127071381,0.10140611976385117,0.17207230627536774,0.065734148025512695,-0.045832093805074692,-0.079301334917545319, -0.028823474422097206,0.047607209533452988,-0.065480224788188934,0.17106816172599792,0.22625385224819183,0.16760000586509705,0.31438648700714111,0.15967024862766266,0.14767862856388092,0.13436548411846161, 
  /* [5][0][][] */ 0.05988745391368866,0.058402195572853088,-0.10066889226436615,-0.09617266058921814,-0.014340117573738098,0.0055461376905441284,0.067534863948822021,-0.10984952747821808,0.11781299114227295,-0.035256840288639069, 0.063453242182731628,0.0033786932472139597,-0.1699269711971283,0.017966544255614281,0.075730584561824799,0.2167862206697464,0.13553079962730408,0.011899166740477085,0.07757248729467392,0.10862142592668533, -0.053693380206823349,-0.081119343638420105,0.010133522562682629,0.054861851036548615,0.11052039265632629,0.18020443618297577,0.073067076504230499,0.02358255535364151,0.07189275324344635,0.024855853989720345, 
  /* [6][0][][] */ -0.09463375061750412,0.04824133962392807,-0.038354620337486267,-0.023324113339185715,-0.10855298489332199,-0.083149261772632599,-0.095339059829711914,0.0080837616696953773,-0.062078028917312622,0.041668705642223358, -0.58642309904098511,0.039910890161991119,-0.056861601769924164,-0.30248618125915527,-0.39848321676254272,-0.35349306464195251,-0.55868977308273315,-0.54909223318099976,-0.65046316385269165,-0.74733752012252808, -0.13061833381652832,0.11328607797622681,0.069889537990093231,0.28286054730415344,0.075436048209667206,-0.093141317367553711,-0.076589658856391907,-0.0028351275250315666,-0.17006208002567291,-0.20541691780090332, 
  /* [7][0][][] */ -0.070511214435100555,-0.14159302413463593,-0.016479833051562309,0.0173958670347929,0.053099736571311951,-0.16247545182704926,-0.062789417803287506,-0.10388962924480438,-0.042177993804216385,-0.13599859178066254, 0.17173068225383759,-0.10141946375370026,-0.092949129641056061,0.18251781165599823,0.47714442014694214,0.31110179424285889,0.48942989110946655,0.11741089820861816,0.27185505628585815,0.3480890691280365, -0.064122088253498077,-0.10359449684619904,0.010191270150244236,-0.0056621064431965351,0.12768071889877319,0.23426797986030579,0.26941761374473572,0.15911002457141876,0.12572067975997925,0.089946255087852478, 
  /* [8][0][][] */ 0.036579892039299011,-0.013017259538173676,-0.024746254086494446,-0.025372281670570374,-0.10825922340154648,-0.051839374005794525,-0.093764312565326691,-0.0060279816389083862,-0.041901111602783203,-0.016404241323471069, 0.051473073661327362,-0.17592918872833252,0.046762295067310333,-0.04138333722949028,0.20754401385784149,0.10928788781166077,0.068212710320949554,0.039103664457798004,0.074510812759399414,0.026605581864714622, 0.036870803683996201,0.087941855192184448,0.13943606615066528,0.32492163777351379,0.55031216144561768,0.1465219110250473,0.16091738641262054,0.085114262998104095,-0.10900531709194183,-0.13937239348888397, 
  /* [9][0][][] */ -0.045086614787578583,-0.037107869982719421,-0.11969178169965744,0.051497966051101685,-0.023253593593835831,-0.057719919830560684,-0.15185536444187164,0.036941099911928177,-0.11380931735038757,-0.067639678716659546, 0.28718596696853638,-0.0012050552759319544,0.043476901948451996,0.0082354107871651649,0.30952772498130798,0.22733348608016968,0.33271998167037964,0.11980347335338593,0.078334592282772064,0.20616038143634796, -0.0027568181976675987,0.035912647843360901,-0.10347840934991837,-0.071088239550590515,-0.04670272022485733,0.06916317343711853,-0.092989176511764526,0.0080568725243210793,-0.10964571684598923,0.010968486778438091, 
  /* [10][0][][] */ -0.6300310492515564,0.14711788296699524,-0.016712581738829613,-0.32073524594306946,-0.81390649080276489,-0.97592025995254517,-0.88729721307754517,-0.42880195379257202,-0.5061798095703125,-0.59554803371429443, -0.040406037122011185,0.1088489294052124,0.14429476857185364,0.18312518298625946,-0.27013871073722839,-0.13387316465377808,-0.28366589546203613,-0.082354061305522919,-0.12114887684583664,-0.0021304341498762369, -0.062733612954616547,-0.1528097540140152,-0.19905650615692139,-0.20398931205272675,-0.25504150986671448,-0.16393405199050903,-0.2133166640996933,-0.25677645206451416,-0.27011939883232117,-0.44951456785202026, 
  /* [11][0][][] */ 0.027339080348610878,-0.021972551941871643,-0.081811174750328064,0.058403078466653824,-0.034376364201307297,-0.12168470770120621,0.018570354208350182,0.013196860440075397,-0.0084724100306630135,0.003303880337625742, -0.11578536778688431,0.085218682885169983,-0.057159226387739182,-0.24314816296100616,-0.33416146039962769,-0.35555842518806458,-0.28061956167221069,-0.20985431969165802,-0.21707524359226227,-0.034140337258577347, -0.059688512235879898,0.090413883328437805,-0.0071273106150329113,-0.051528304815292358,-0.11555070430040359,-0.29150265455245972,-0.26024091243743896,-0.17912130057811737,-0.016193941235542297,0.058970756828784943, 
  /* [12][0][][] */ 0.044890418648719788,-0.08682144433259964,-0.046220339834690094,-0.014303438365459442,0.10317835211753845,-0.03803340345621109,-0.011626265943050385,0.00671347975730896,0.094105988740921021,0.05010010302066803, -0.029835358262062073,-0.070744611322879791,0.063908800482749939,-0.11308291554450989,-0.080428317189216614,-0.11682158708572388,-0.057506486773490906,0.048308283090591431,-0.070285320281982422,-0.097855955362319946, -0.073212601244449615,-0.037761077284812927,-0.068576648831367493,0.063363060355186462,0.073596000671386719,0.059548333287239075,-0.098360024392604828,0.053476005792617798,-0.11772099882364273,0.021462887525558472, 
  /* [13][0][][] */ -0.015797747299075127,0.051796384155750275,-0.051747418940067291,0.047399360686540604,-0.023745657876133919,-0.0086950883269309998,-0.10004164278507233,-0.12531913816928864,0.048807907849550247,0.046394351869821548, -0.063917197287082672,-0.019933655858039856,0.012003875337541103,-0.17049890756607056,0.015682676807045937,0.051731567829847336,0.0647750124335289,0.065802551805973053,0.0038522309623658657,-0.034537289291620255, 0.024115078151226044,0.03162137046456337,0.086629576981067657,-0.0035849695559591055,-0.075119741261005402,0.053182758390903473,-0.07135484367609024,-0.09749285876750946,-0.10843615233898163,-0.06684952974319458, 
  /* [14][0][][] */ 0.19728201627731323,-0.0017622008454054594,0.10869188606739044,-0.029990736395120621,-0.21164065599441528,-0.10374043881893158,-0.27283605933189392,0.051840417087078094,-0.035724148154258728,0.15517677366733551, 0.13068871200084686,0.27104490995407104,-0.087144322693347931,-0.52476775646209717,-0.54492276906967163,-0.43484678864479065,-0.35778608918190002,-0.061674140393733978,0.076632872223854065,0.10108718276023865, -0.025882059708237648,0.042110703885555267,-0.014642178080976009,0.094630755484104156,0.054645463824272156,0.1208631843328476,-0.064035467803478241,0.0563950315117836,0.08862767368555069,0.038735128939151764, 
  /* [15][0][][] */ -0.4417509138584137,-0.13541193306446075,-0.19390015304088593,-0.15740057826042175,-0.29977387189865112,-0.50374102592468262,-0.41357877850532532,-0.51729047298431396,-0.55553042888641357,-0.76916855573654175, -0.37660804390907288,-0.030292453244328499,0.059826228767633438,0.079511523246765137,0.0031869891099631786,0.0015512825921177864,0.15984630584716797,-0.082143038511276245,-0.30626916885375977,-0.41932755708694458, -0.47193443775177002,-0.55196535587310791,-0.29114633798599243,0.60930019617080688,0.72485601902008057,0.68967735767364502,0.82995033264160156,0.25380745530128479,-0.075010500848293304,-0.16488538682460785, 
  /* [16][0][][] */ 0.53481113910675049,-0.20056748390197754,0.018896544352173805,0.33993878960609436,0.49456486105918884,0.6174159049987793,0.61146432161331177,0.38182634115219116,0.49413102865219116,0.82414311170578003, 0.088141649961471558,-0.021550631150603294,-0.016439164057374001,-0.058579094707965851,0.3530789315700531,0.37323680520057678,0.38953793048858643,0.12441752105951309,0.24446330964565277,0.32323572039604187, -0.079356953501701355,-0.10641982406377792,-0.13949108123779297,-0.0058904341422021389,-0.067831099033355713,0.059788960963487625,0.05331658199429512,-0.092345371842384338,0.057021435350179672,-0.032081753015518188, 
  /* [17][0][][] */ -0.052693352103233337,0.039998099207878113,-0.049214787781238556,-0.0082443952560424805,-0.04061763733625412,0.021368086338043213,-0.064207479357719421,0.0098034143447875977,-0.10768294334411621,0.064529627561569214, 0.10188907384872437,-0.050210319459438324,0.028474792838096619,-0.053089618682861328,-0.10007874667644501,0.073495715856552124,0.069814369082450867,0.11409403383731842,-0.10258746147155762,-0.062029611319303513, -0.0041321739554405212,-0.1078493520617485,-0.097144775092601776,0.029527902603149414,-0.095074743032455444,0.038492947816848755,0.041811272501945496,-0.11455629020929337,-0.013884961605072021,0.078919723629951477, 
  /* [18][0][][] */ 0.10177955031394958,-0.1744653582572937,-0.15227897465229034,0.068481080234050751,0.17403210699558258,0.39388963580131531,0.28677961230278015,0.099093854427337646,0.17278116941452026,0.097515232861042023, 0.021113727241754532,0.045368317514657974,-0.0425131656229496,0.14191187918186188,0.61726135015487671,0.51538419723510742,0.53566771745681763,0.30763822793960571,0.23850777745246887,0.21375294029712677, -0.38570547103881836,-0.40816614031791687,-0.10291774570941925,0.45053032040596008,0.64038211107254028,0.80951160192489624,0.64442753791809082,0.38205984234809875,0.18730948865413666,0.17412784695625305, 
  /* [19][0][][] */ -0.40042543411254883,-0.0056793955154716969,0.064896628260612488,-0.23297487199306488,-0.51853835582733154,-0.39271333813667297,-0.49609160423278809,-0.22494322061538696,-0.40829798579216003,-0.54952210187911987, -0.2144610732793808,0.098878227174282074,-0.055839333683252335,0.049201313406229019,-0.2359447181224823,-0.20081174373626709,-0.21278491616249084,-0.15025803446769714,-0.17201143503189087,-0.12459287792444229, 0.019387863576412201,-0.19532677531242371,-0.15490075945854187,-0.012703086249530315,-0.061230789870023727,-0.21675065159797668,-0.033612512052059174,-0.27516663074493408,-0.13011977076530457,-0.28682556748390198, 
  /* [20][0][][] */ -0.082563184201717377,-0.023672044277191162,-0.10665976256132126,0.019195050001144409,-0.08773331344127655,0.104413241147995,0.029189988970756531,0.036930441856384277,0.02268122136592865,0.069486826658248901, -0.083354867994785309,-0.12519529461860657,0.018776847049593925,0.044564560055732727,0.42813897132873535,0.45289599895477295,0.32840988039970398,0.1838165670633316,0.21838165819644928,0.092864014208316803, -0.21124090254306793,-0.24422505497932434,0.04965345561504364,0.42157992720603943,0.74253135919570923,0.46206378936767578,0.55592703819274902,0.17175933718681335,0.15910559892654419,0.15165764093399048, 
  /* [21][0][][] */ -0.33101925253868103,0.083395235240459442,0.014313559047877789,-0.22508350014686584,-0.66572052240371704,-0.78660136461257935,-0.72537869215011597,-0.20230254530906677,-0.39744216203689575,-0.54225260019302368, 0.1159382164478302,0.022155269980430603,0.037775058299303055,0.26932206749916077,-0.25272330641746521,-0.10824930667877197,-0.28925111889839172,-0.072531580924987793,0.058571577072143555,0.035529144108295441, 0.08333132416009903,0.20971515774726868,-0.17759713530540466,-0.49960753321647644,-0.5674368143081665,-0.6937822699546814,-0.61468911170959473,-0.32180175185203552,-0.33439961075782776,-0.20944951474666595, 
  /* [22][0][][] */ -0.11823316663503647,-0.0055348849855363369,-0.013643138110637665,0.020787701010704041,-0.089619755744934082,0.045257449150085449,-0.013569749891757965,0.0915847048163414,0.079449780285358429,0.084947764873504639, -0.0082678878679871559,-0.14772593975067139,-0.12160617858171463,0.066121846437454224,0.25194138288497925,0.23152743279933929,0.35767915844917297,0.099725633859634399,-0.034692849963903427,0.058516453951597214, 0.046862080693244934,0.11145180463790894,0.040431234985589981,0.36262211203575134,0.55961102247238159,0.37706369161605835,0.30287221074104309,0.2580471932888031,0.24542468786239624,0.18470169603824615, 
  /* [23][0][][] */ -0.044101130217313766,0.069258600473403931,-0.049149718135595322,-0.050874821841716766,0.058214306831359863,-0.11106328666210175,-0.064171254634857178,0.0065924418158829212,-0.066051721572875977,-0.029326668009161949, -0.026696749031543732,-0.13339331746101379,-0.021192260086536407,-0.11760591715574265,-0.034932631999254227,0.020247187465429306,-0.013100633397698402,0.064012259244918823,-0.025206036865711212,0.043982300907373428, -0.10383971780538559,0.032960463315248489,-0.032828152179718018,0.07096545398235321,0.061193067580461502,0.18271841108798981,0.022943638265132904,-0.044472288340330124,-0.051305931061506271,0.058125700801610947, 
  /* [24][0][][] */ 0.066876351833343506,-0.051846791058778763,0.048960182815790176,-0.014547336846590042,-0.02555358037352562,0.066109731793403625,0.10935012996196747,-0.026714671403169632,0.025181513279676437,0.0068926732055842876, -0.0078471489250659943,-0.095635361969470978,-0.0094136260449886322,0.059877339750528336,-0.11003819853067398,0.047466699033975601,-0.072314776480197906,0.020406868308782578,0.066526174545288086,-0.030742105096578598, 0.039862573146820068,-0.086227685213088989,-0.11431346833705902,-0.051182150840759277,-0.12006763368844986,0.091151207685470581,0.068754285573959351,0.10581405460834503,0.089902773499488831,-0.067550510168075562, 
  /* [25][0][][] */ -0.067382834851741791,-0.023411862552165985,-0.067317426204681396,0.075095981359481812,-0.084054037928581238,0.10730208456516266,-0.10972458869218826,0.030822262167930603,-0.07119259238243103,0.046906158328056335, -0.0021135136485099792,-0.094948679208755493,0.067445427179336548,-0.11599671095609665,0.010858684778213501,0.10962063074111938,-0.11815411597490311,-0.056475616991519928,0.099100664258003235,0.050280094146728516, 0.10763047635555267,-0.059823013842105865,-0.0053403675556182861,0.0035581290721893311,-0.06517539918422699,0.050768867135047913,-0.088955402374267578,-0.070841535925865173,-0.1062924861907959,0.035117924213409424, 
  /* [26][0][][] */ 0.32299450039863586,0.099191009998321533,-0.045973088592290878,-0.30668485164642334,-0.15463259816169739,-0.32795849442481995,-0.39078903198242188,0.011623028665781021,-0.0449381023645401,0.026503685861825943, 0.2323688268661499,0.15402880311012268,-0.083781808614730835,-0.32217258214950562,-0.29571613669395447,-0.2525402307510376,-0.21396438777446747,0.010638938285410404,0.029285222291946411,0.11874819546937943, -0.17857120931148529,-0.05637296661734581,-0.093238815665245056,-0.19994759559631348,-0.20015013217926025,-0.035531207919120789,-0.063335053622722626,-0.23422136902809143,-0.09817533940076828,-0.041625000536441803, 
  /* [27][0][][] */ 0.11549712717533112,-0.06450527161359787,0.0043874173425137997,0.053793638944625854,-0.0058789597824215889,-0.064920194447040558,0.085415735840797424,0.087858349084854126,0.096200816333293915,0.018850790336728096, 0.037202015519142151,-0.025056364014744759,-0.062814503908157349,0.024484654888510704,-0.036773044615983963,-0.090828008949756622,-0.052962794899940491,0.050150390714406967,-0.055264055728912354,0.075043193995952606, 0.083058446645736694,-0.031673647463321686,0.014245405793190002,0.028167679905891418,-0.1079946756362915,0.083979114890098572,-0.11448679864406586,0.10439446568489075,0.026603639125823975,-0.096603646874427795, 
  /* [28][0][][] */ 0.048288971185684204,-0.056824035942554474,-0.1014227569103241,-0.11072933673858643,0.04847438633441925,0.047522306442260742,0.047227099537849426,0.098652243614196777,-0.038191981613636017,0.0036089867353439331, 0.10441990196704865,-0.09161907434463501,-0.0099580492824316025,-0.070399031043052673,-0.091059580445289612,-0.10778173059225082,-0.011241702362895012,0.04954824224114418,0.029700562357902527,0.10793672502040863, 0.11305923759937286,-0.11074649542570114,0.020435169339179993,0.10160335898399353,0.086663037538528442,-0.038733746856451035,0.055600050836801529,0.04268178716301918,-0.019873283803462982,0.087325036525726318, 
  /* [29][0][][] */ -0.043375700712203979,0.02621573768556118,0.029206370934844017,-0.1804184764623642,-0.016701055690646172,-0.16256493330001831,-0.054190441966056824,-0.18788164854049683,-0.087621137499809265,-0.16089023649692535, 0.17683947086334229,-0.030572742223739624,-0.051483400166034698,0.048712890595197678,0.17272678017616272,0.10158373415470123,0.13294605910778046,0.076398342847824097,0.018773848190903664,0.026101775467395782, -0.11276914179325104,-0.014020312577486038,-0.16438859701156616,0.05585840716958046,0.10585194081068039,0.13012321293354034,0.041127678006887436,0.11868304759263992,0.078484982252120972,-0.08843645453453064, 
  /* [30][0][][] */ -0.064726054668426514,-0.2539421021938324,0.048339448869228363,-0.018411587923765182,0.079706072807312012,0.19571635127067566,0.31665220856666565,0.1911119669675827,0.20224961638450623,0.23693132400512695, -0.21303829550743103,-0.037071455270051956,0.13189950585365295,0.14249123632907867,0.65813964605331421,0.49432861804962158,0.61105215549468994,0.30430984497070312,0.13329921662807465,0.079522639513015747, -0.53184831142425537,-0.67105484008789062,-0.35434436798095703,0.59368836879730225,0.66402781009674072,0.63745808601379395,0.76360547542572021,0.38320451974868774,0.15506507456302643,0.036790184676647186, 
  /* [31][0][][] */ -0.042580671608448029,-0.27107179164886475,-0.21001777052879333,-0.10869650542736053,-0.12888720631599426,-0.13419200479984283,-0.11605009436607361,-0.031455919146537781,-0.074078164994716644,-0.19683545827865601, -0.2663494348526001,-0.10752111673355103,0.094126045703887939,-0.065922431647777557,0.057338036596775055,0.24283155798912048,0.25379300117492676,0.066920682787895203,-0.21950148046016693,-0.33192873001098633, -0.19948504865169525,-0.27788674831390381,-0.12313754856586456,0.45287495851516724,0.59819519519805908,0.60443389415740967,0.57459527254104614,0.33132386207580566,0.076569005846977234,-0.19426640868186951, 
  /* [32][0][][] */ -0.14325679838657379,0.01032439898699522,-0.041600044816732407,-0.11295398324728012,-0.32072851061820984,-0.28279304504394531,-0.31601911783218384,-0.083789855241775513,-0.21895323693752289,-0.19814267754554749, -0.012320066802203655,-0.020878320559859276,0.088568679988384247,0.0075073870830237865,-0.15299169719219208,-0.14273093640804291,-0.23455750942230225,-0.11728204786777496,-0.20955292880535126,-0.12661899626255035, -0.11272281408309937,-0.1544443666934967,-0.14090436697006226,-0.14591045677661896,-0.20555025339126587,-0.077119491994380951,-0.22981955111026764,-0.16876345872879028,-0.24663208425045013,-0.088836908340454102, 
  /* [33][0][][] */ -0.44671732187271118,0.070472963154315948,0.11891619116067886,-0.30721259117126465,-0.87333530187606812,-0.80159932374954224,-0.96821266412734985,-0.30895897746086121,-0.53664582967758179,-0.58997297286987305, 0.17951604723930359,0.02681611105799675,0.1176903173327446,0.23742251098155975,-0.18701626360416412,-0.13847693800926208,-0.29384684562683105,-0.11505965143442154,0.031393729150295258,0.12507051229476929, 0.017035029828548431,0.080327153205871582,-0.19023118913173676,-0.41914078593254089,-0.51570218801498413,-0.55046886205673218,-0.48310363292694092,-0.37829270958900452,-0.40562722086906433,-0.44190767407417297, 
  /* [34][0][][] */ -0.11842718720436096,-0.074540019035339355,-0.013858175836503506,0.074749916791915894,0.019710896536707878,0.07819734513759613,0.096869572997093201,0.02275720052421093,-0.085365727543830872,0.018180264160037041, 0.0088695371523499489,-0.04415540024638176,0.061918888241052628,-0.11593551933765411,-0.016926439478993416,-0.029671231284737587,0.067169860005378723,-0.0074473624117672443,0.097513541579246521,-0.006555639673024416, 0.082541108131408691,-0.044795133173465729,-0.033832460641860962,-0.11032784730195999,0.039703592658042908,-0.062578976154327393,0.027046278119087219,0.059393718838691711,-0.067809402942657471,-0.091311648488044739, 
  /* [35][0][][] */ 0.11423611640930176,0.018179014325141907,-0.07157878577709198,-0.036329813301563263,0.036402881145477295,0.069885730743408203,0.0068532228469848633,-0.11818157881498337,-0.036807157099246979,-0.068730004131793976, -0.31672468781471252,0.032922275364398956,-0.16549117863178253,-0.29923534393310547,-0.70022815465927124,-0.69647258520126343,-0.67097800970077515,-0.31384718418121338,-0.40396752953529358,-0.48698723316192627, 0.025486350059509277,0.29096093773841858,0.31397238373756409,0.026746639981865883,-0.36337310075759888,-0.20308007299900055,-0.14121124148368835,0.0575297512114048,0.059856802225112915,0.084263376891613007, 
  /* [36][0][][] */ 0.082777537405490875,-0.0029056789353489876,0.080256633460521698,-0.12959122657775879,0.006077831145375967,0.053722474724054337,0.029150795191526413,0.052845168858766556,0.075074829161167145,0.01569688506424427, 0.045914772897958755,-0.1497059166431427,-0.086066454648971558,0.05019364133477211,0.20988330245018005,0.34080439805984497,0.26719215512275696,0.024783788248896599,0.14298391342163086,0.058399505913257599, -0.045293711125850677,-0.087837778031826019,0.18235032260417938,0.30211919546127319,0.64999943971633911,0.48749807476997375,0.41957104206085205,0.21498250961303711,0.083163969218730927,0.024904888123273849, 
  /* [37][0][][] */ 0.0064721256494522095,-0.002304472029209137,0.0051356852054595947,-0.064445048570632935,-0.074772074818611145,0.027117148041725159,-0.0037009790539741516,-0.065124057233333588,-0.056701041758060455,0.034262791275978088, -0.035888001322746277,-0.059582889080047607,-0.03939182311296463,-0.016196608543395996,0.031347170472145081,-0.087992094457149506,0.081700220704078674,0.10341040790081024,-0.11566666513681412,-0.10152450203895569, -0.066032193601131439,-0.040195830166339874,-0.033848650753498077,0.048135355114936829,-0.036099791526794434,0.010675624012947083,-0.11114127188920975,0.1180470883846283,0.084247767925262451,-0.0005383417010307312, 
  /* [38][0][][] */ -0.28934043645858765,-0.1568572074174881,-0.033689223229885101,-0.057243727147579193,-0.051083918660879135,-0.099656537175178528,-0.019003443419933319,-0.17966130375862122,-0.42016571760177612,-0.28668010234832764, -0.32255649566650391,-0.037109307944774628,-0.074850887060165405,0.065497793257236481,0.038939774036407471,0.19294722378253937,0.06732003390789032,-0.25213086605072021,-0.32101079821586609,-0.29763224720954895, -0.30373463034629822,-0.36830297112464905,-0.13300821185112,0.34351500868797302,0.70722109079360962,0.78804093599319458,0.60664111375808716,0.33164933323860168,0.12195303291082382,-0.12019165605306625, 
  /* [39][0][][] */ 0.059288054704666138,0.082730427384376526,0.072007551789283752,-0.15767152607440948,-0.062517866492271423,-0.098055973649024963,-0.14919441938400269,-0.18564094603061676,0.068444617092609406,0.040837258100509644, 0.11380782723426819,-0.026942476630210876,-0.14538924396038055,-0.15366199612617493,-0.17803509533405304,-0.14097034931182861,-0.27277356386184692,-0.049315165728330612,-0.091912850737571716,0.0076140575110912323, 0.0828351229429245,0.052128419280052185,-0.14406900107860565,-0.0050413478165864944,-0.025392051786184311,-0.015486349351704121,-0.048806380480527878,-0.03283088281750679,-0.023490233346819878,-0.10668113082647324, 
  /* [40][0][][] */ -0.49559363722801208,0.23108488321304321,-0.037421587854623795,-0.32590851187705994,-0.75895398855209351,-0.79240524768829346,-0.8172917366027832,-0.30396750569343567,-0.49836942553520203,-0.47609761357307434, 0.25572073459625244,0.091698847711086273,0.13176289200782776,0.14199672639369965,-0.12888017296791077,-0.15685544908046722,-0.25068625807762146,0.090551003813743591,0.18302534520626068,0.051833581179380417, 0.20287097990512848,0.14752379059791565,-0.16360577940940857,-0.5024915337562561,-0.51380056142807007,-0.67179954051971436,-0.67992454767227173,-0.36095491051673889,-0.30028504133224487,-0.3280177116394043, 
  /* [41][0][][] */ -0.51573288440704346,0.16066482663154602,0.04407128319144249,-0.3554232120513916,-0.80738931894302368,-0.96956336498260498,-0.99440097808837891,-0.34961870312690735,-0.57471436262130737,-0.69853496551513672, 0.10434418171644211,0.047938644886016846,0.17539840936660767,0.25755995512008667,-0.14313383400440216,-0.33018767833709717,-0.24379035830497742,0.043815631419420242,-0.070509240031242371,0.0045805373229086399, 0.033516965806484222,-0.11384408175945282,-0.050124745815992355,-0.44952556490898132,-0.35082820057868958,-0.39253336191177368,-0.498238205909729,-0.2713339626789093,-0.32556724548339844,-0.36118566989898682, 
  /* [42][0][][] */ -0.093747518956661224,0.016486302018165588,-0.051913484930992126,-0.014625765383243561,-0.016520023345947266,-0.080045878887176514,-0.047864258289337158,-0.090049728751182556,-0.042382910847663879,0.092848911881446838, -0.087604492902755737,-0.16737961769104004,0.02138093113899231,-0.087547451257705688,0.32978078722953796,0.31210616230964661,0.17144742608070374,0.057767260819673538,-0.053636401891708374,0.082336023449897766, -0.034988619387149811,-0.14500205218791962,0.042816750705242157,0.18365612626075745,0.38063204288482666,0.39528784155845642,0.33770057559013367,0.060031242668628693,-0.052772711962461472,-0.097211830317974091, 
  /* [43][0][][] */ 0.24491295218467712,0.20181941986083984,0.056665148586034775,-0.33855506777763367,-0.13742668926715851,-0.21393977105617523,-0.26602357625961304,0.093086786568164825,0.33275306224822998,0.20675195753574371, 0.27205753326416016,-0.054802142083644867,-0.18864290416240692,-0.19197624921798706,0.0048320498317480087,0.07680947333574295,0.063013464212417603,-0.01543651707470417,0.22837339341640472,0.31660500168800354, -0.15660642087459564,-0.17838937044143677,-0.08119376003742218,-0.070818334817886353,-0.089225158095359802,-0.062570177018642426,0.11603688448667526,-0.077457234263420105,-0.095692873001098633,-0.10527845472097397, 
  /* [44][0][][] */ -0.11999545991420746,-0.033551093190908432,0.1027049645781517,-0.036977816373109818,0.016464320942759514,-0.058847744017839432,-0.027157310396432877,0.028422951698303223,-0.12437951564788818,-0.1041545644402504, 0.076767779886722565,-0.091083027422428131,-0.022695871070027351,-0.028425190597772598,0.47356054186820984,0.51353687047958374,0.38149863481521606,0.081013888120651245,-0.033938456326723099,0.19395677745342255, -0.040939003229141235,0.03915809839963913,0.031151983886957169,0.0067967134527862072,0.33819162845611572,0.38327181339263916,0.46134465932846069,0.049202416092157364,0.15313273668289185,0.051704458892345428, 
  /* [45][0][][] */ -0.022362276911735535,0.036312252283096313,-0.047631800174713135,-0.075422473251819611,0.115627720952034,-0.034263484179973602,-0.037231720983982086,-0.0053288862109184265,0.11585704982280731,-0.097321346402168274, 0.074231386184692383,0.00050972402095794678,-0.10749953240156174,0.057772845029830933,-0.08996591717004776,-0.083974957466125488,0.0014829263091087341,0.011210829019546509,-0.021257184445858002,0.1197514533996582, -0.04359801858663559,-0.054836802184581757,0.032129272818565369,-0.032178238034248352,-0.10309620946645737,0.01410241425037384,0.011753559112548828,0.013738721609115601,-0.090358301997184753,-0.05731084942817688, 
  /* [46][0][][] */ -0.05251682922244072,-0.069238066673278809,-0.18089661002159119,-0.073368474841117859,-0.095195278525352478,-0.10577839612960815,-0.06299881637096405,-0.06352996826171875,-0.033013414591550827,-0.00039125917828641832, 0.091335877776145935,0.0055768545717000961,-0.12313397228717804,0.021018771454691887,0.46660616993904114,0.49622520804405212,0.33142122626304626,0.14196449518203735,0.16308632493019104,0.035961806774139404, -0.01166430301964283,-0.17914626002311707,-0.086222924292087555,0.1730312705039978,0.72249764204025269,0.61854958534240723,0.70686382055282593,0.28708583116531372,0.16752533614635468,0.2271016538143158, 
  /* [47][0][][] */ -0.4882206916809082,0.17746412754058838,-0.0017854804173111916,-0.3001193106174469,-0.64133536815643311,-0.77598810195922852,-0.73623919486999512,-0.423392653465271,-0.28177452087402344,-0.53510206937789917, 0.23982912302017212,0.069553084671497345,0.14879652857780457,0.12420757859945297,-0.19277194142341614,-0.25253668427467346,-0.16762526333332062,-0.079364486038684845,0.16918593645095825,0.17748050391674042, 0.090731255710124969,0.09882829338312149,-0.091556079685688019,-0.46764788031578064,-0.5518420934677124,-0.51485353708267212,-0.64974492788314819,-0.32499280571937561,-0.41847673058509827,-0.35237863659858704, 
  /* [48][0][][] */ 0.056985616683959961,-0.01707817055284977,0.0013260262785479426,-0.037810031324625015,-0.032395858317613602,0.10198329389095306,0.05393509566783905,0.100481316447258,-0.089654020965099335,0.0074239480309188366, -0.17851629853248596,-0.04799211397767067,-0.018738413229584694,-0.010961427353322506,0.32289758324623108,0.43767893314361572,0.39380526542663574,0.13548600673675537,0.075320348143577576,0.12989965081214905, -0.12574265897274017,-0.26903542876243591,0.0037787100300192833,0.16570697724819183,0.53293377161026001,0.54309231042861938,0.56233632564544678,0.32302048802375793,-0.0050177332013845444,0.00062845327192917466, 
  /* [49][0][][] */ 0.010945707559585571,-0.06847497820854187,0.021801948547363281,-0.043902434408664703,-0.063039958477020264,-0.018175393342971802,-0.092461347579956055,0.072139889001846313,-0.026024878025054932,0.10134109854698181, 0.10973340272903442,-0.11502470821142197,0.052484378218650818,0.062569677829742432,-0.10115174949169159,-0.058069996535778046,0.011039018630981445,0.092043012380599976,-0.11845729500055313,0.042909488081932068, 0.083419054746627808,-0.063890434801578522,-0.072746478021144867,-0.025248713791370392,-0.093957617878913879,-0.0086669251322746277,-0.048882186412811279,0.10025236010551453,-0.024648033082485199,0.074527502059936523, 
  /* [50][0][][] */ -0.25061151385307312,-0.29755076766014099,-0.19796054065227509,-0.12220113724470139,-0.034846775233745575,0.094932079315185547,-0.042109660804271698,-0.15022727847099304,-0.27054274082183838,-0.32841691374778748, -0.062627986073493958,-0.033904716372489929,-0.031171439215540886,0.13894698023796082,0.3937736451625824,0.58999240398406982,0.43972644209861755,0.19903576374053955,0.076609618961811066,-0.1080092117190361, -0.26893007755279541,-0.61852455139160156,-0.31546369194984436,0.49646028876304626,1.0495896339416504,1.055700421333313,1.0741556882858276,0.53249472379684448,0.23583871126174927,0.16640929877758026, 
  /* [51][0][][] */ -0.57277649641036987,0.055393848568201065,-0.054912053048610687,-0.2330094575881958,-0.40047243237495422,-0.42294120788574219,-0.62325173616409302,-0.38182318210601807,-0.57831853628158569,-0.86066412925720215, -0.23321808874607086,0.10948149114847183,0.22285567224025726,0.043732468038797379,-0.0070748557336628437,-0.076788187026977539,0.028770452365279198,-0.12909884750843048,-0.10648409277200699,-0.33577644824981689, -0.27334186434745789,-0.57075107097625732,-0.18380413949489594,0.52262187004089355,0.72873944044113159,0.85723906755447388,0.85168910026550293,0.24167497456073761,-0.014138366095721722,-0.10495252907276154, 
  /* [52][0][][] */ 0.018834460526704788,-0.0055885780602693558,-0.096588633954524994,-0.13011720776557922,0.1001887172460556,-0.11094336956739426,0.10786855220794678,0.056352857500314713,0.032052420079708099,-0.086489088833332062, 0.65108329057693481,-0.13881714642047882,-0.10542271286249161,0.29901310801506042,0.62252092361450195,0.51899755001068115,0.56832414865493774,0.3722597062587738,0.58369678258895874,0.79698550701141357, 0.11130854487419128,0.14017640054225922,-0.092864401638507843,-0.02370259165763855,0.25489038228988647,0.41305151581764221,0.43601545691490173,0.066894218325614929,0.10212609171867371,0.31814706325531006, 
  /* [53][0][][] */ -0.042009282857179642,0.063866175711154938,-0.064845621585845947,-0.048047337681055069,0.052852831780910492,0.07050912082195282,0.0092162061482667923,-0.018743675202131271,0.10082245618104935,-0.031754892319440842, -0.026094751432538033,-0.19191074371337891,-0.14247149229049683,-0.04842907190322876,0.018438337370753288,0.23062442243099213,0.28062012791633606,-0.067112922668457031,-0.15208987891674042,-0.075761683285236359, -0.078559160232543945,0.079793117940425873,0.11612040549516678,0.27728608250617981,0.47181987762451172,0.090625211596488953,0.30910170078277588,0.17005446553230286,0.030030509456992149,0.035202823579311371, 
  /* [54][0][][] */ -0.41492477059364319,0.095549449324607849,-0.065947569906711578,-0.3386017382144928,-0.68665742874145508,-0.65646129846572876,-0.81563639640808105,-0.35420343279838562,-0.57001984119415283,-0.58225840330123901, 0.072044238448143005,0.21861866116523743,0.1949383020401001,-0.017180835828185081,-0.2699027955532074,-0.27120873332023621,-0.19642902910709381,-0.063529141247272491,-0.033777311444282532,-0.22937513887882233, -0.084399521350860596,-0.13664743304252625,-0.24587483704090118,-0.13544631004333496,-0.096922360360622406,-0.15159898996353149,-0.067471466958522797,-0.098738856613636017,-0.30730301141738892,-0.35709798336029053, 
  /* [55][0][][] */ -0.056515324860811234,0.047045744955539703,-0.020574633032083511,0.046988241374492645,0.20327918231487274,0.24397160112857819,0.14805121719837189,0.010255283676087856,-0.033260691910982132,-0.016406349837779999, -0.18628449738025665,-0.25446474552154541,-0.1656513512134552,0.048613157123327255,-0.016488589346408844,0.10645674169063568,0.14660216867923737,-0.028007490560412407,0.066812440752983093,-0.13004527986049652, -0.087103269994258881,-0.018538996577262878,-0.023375650867819786,0.047710597515106201,-0.012535081245005131,-0.14353369176387787,0.022205071523785591,-0.12987260520458221,0.063498087227344513,0.029621323570609093, 
  /* [56][0][][] */ 0.11258362978696823,-0.10547454655170441,-0.20455420017242432,0.093984968960285187,0.27756127715110779,0.22785407304763794,0.11794218420982361,0.010899107903242111,0.077857717871665955,0.049737878143787384, -0.14568698406219482,-0.050744276493787766,-0.035058598965406418,-0.051426075398921967,0.18505315482616425,0.4384290874004364,0.35916885733604431,0.15822066366672516,0.0032076968345791101,0.097151070833206177, -0.060216799378395081,-0.33974689245223999,-0.0064492071978747845,0.26533856987953186,0.34427443146705627,0.49134078621864319,0.30577889084815979,0.26496130228042603,0.18891678750514984,0.1077156662940979, 
  /* [57][0][][] */ -0.11292382329702377,-0.099275223910808563,0.02532254159450531,-0.094354346394538879,0.10353480279445648,-0.10651510208845139,0.030653461813926697,-0.0082357600331306458,0.10784989595413208,-0.067485183477401733, -0.04229186475276947,-0.10988792777061462,0.11964227259159088,-0.095644742250442505,0.067892447113990784,0.068714022636413574,-0.066817060112953186,-0.096656404435634613,-0.096159681677818298,0.0421457439661026, -0.053741931915283203,0.031243428587913513,-0.084311842918395996,0.041028857231140137,-0.092612288892269135,0.043421149253845215,-0.095380768179893494,0.080320537090301514,-0.08123914897441864,-0.064860425889492035, 
  /* [58][0][][] */ 0.056098196655511856,0.01895856112241745,-0.06026989221572876,-0.096510544419288635,0.0060524754226207733,0.016240445896983147,-0.030150942504405975,-0.14748486876487732,0.042030565440654755,-0.10093523561954498, -0.2572324275970459,0.026799309998750687,-0.0072053833864629269,-0.064445741474628448,0.32032930850982666,0.32967570424079895,0.28276202082633972,0.19221951067447662,-0.03573613241314888,0.0066266204230487347, -0.042396165430545807,-0.26365935802459717,0.076874516904354095,0.52714478969573975,0.6645742654800415,0.44028052687644958,0.61842405796051025,0.17844066023826599,0.23589935898780823,0.084002487361431122, 
  /* [59][0][][] */ 0.2901688814163208,-0.093762844800949097,-0.082816958427429199,0.20347030460834503,0.12354177236557007,0.24533423781394958,0.11440453678369522,0.26995840668678284,0.096729621291160583,0.22202199697494507, 0.19054010510444641,-0.043799106031656265,-0.048633471131324768,0.0042049079202115536,0.32605421543121338,0.42799392342567444,0.35006421804428101,0.17212998867034912,0.14974808692932129,0.2696588933467865, -0.20255394279956818,-0.16367542743682861,-0.088763013482093811,0.031669516116380692,0.21992215514183044,0.29209098219871521,0.10711904615163803,0.080269075930118561,-0.058450698852539062,-0.036202307790517807, 
  /* [60][0][][] */ 0.065599627792835236,-0.12350738793611526,0.04657309502363205,-0.022886764258146286,0.23870685696601868,0.10058299452066422,0.057859607040882111,0.15928354859352112,0.14565873146057129,-0.023734575137495995, 0.010298529639840126,0.030956203117966652,0.043366793543100357,-0.043556652963161469,-0.020651878789067268,0.16476008296012878,0.10526775568723679,-0.059265438467264175,-0.1111389696598053,-0.054601468145847321, -0.20125895738601685,-0.11417515575885773,-0.15891899168491364,-0.085718274116516113,0.089349180459976196,0.086288623511791229,-0.023142222315073013,-0.031712021678686142,0.076926812529563904,0.047831520438194275, 
  /* [61][0][][] */ -0.12882739305496216,-0.10477055609226227,-0.11823458969593048,-0.10666319727897644,0.019770435988903046,0.020213492214679718,-0.13467817008495331,0.019541628658771515,-0.10264652967453003,-0.086833029985427856, -0.46716347336769104,-0.0055555473081767559,-0.21674072742462158,-0.24801947176456451,-0.64901942014694214,-0.72665351629257202,-0.68066054582595825,-0.22993072867393494,-0.28437307476997375,-0.50600564479827881, -0.10396070778369904,0.15757837891578674,0.13089177012443542,0.042182605713605881,-0.31417778134346008,-0.24632681906223297,-0.37141275405883789,-0.13155250251293182,-0.069588594138622284,0.047349102795124054, 
  /* [62][0][][] */ 0.1968408077955246,0.027855129912495613,0.034562408924102783,0.069517508149147034,-0.18644702434539795,-0.10317961871623993,-0.13287301361560822,0.041175514459609985,-0.060158833861351013,-0.011239220388233662, 0.11301740258932114,0.068635754287242889,-0.091650649905204773,-0.40550625324249268,-0.3567747175693512,-0.45575913786888123,-0.40988543629646301,-0.10960381478071213,-0.094096571207046509,-0.074409171938896179, -0.058232881128787994,-0.029349766671657562,0.049892731010913849,-0.065994955599308014,-0.14269699156284332,-0.11259013414382935,-0.072345942258834839,-0.12180215120315552,0.067994080483913422,-0.12825831770896912, 
  /* [63][0][][] */ -0.40047365427017212,0.21438825130462646,0.053467925637960434,-0.38523086905479431,-0.76557743549346924,-0.72424644231796265,-0.8980487585067749,-0.29066815972328186,-0.40512651205062866,-0.48311597108840942, -0.0065541118383407593,0.14424656331539154,0.14158718287944794,0.19893741607666016,-0.22178159654140472,-0.21964339911937714,-0.15676936507225037,-0.14920420944690704,-0.058014087378978729,0.04408770427107811, 0.0075523252598941326,0.11073058098554611,-0.17408426105976105,-0.46914038062095642,-0.27469047904014587,-0.39269861578941345,-0.55010741949081421,-0.44267839193344116,-0.32948371767997742,-0.52846240997314453, 
  /* [64][0][][] */ 0.01679118350148201,0.048107903450727463,0.048911653459072113,-0.07453889399766922,0.066071249544620514,-0.095991931855678558,-0.024970130994915962,-0.10435253381729126,-0.087761089205741882,-0.10591099411249161, 0.29339790344238281,-0.19948548078536987,-0.058949928730726242,0.17357614636421204,0.60907649993896484,0.55568820238113403,0.6786077618598938,0.22418084740638733,0.46047401428222656,0.56191873550415039, 0.11058324575424194,0.071297787129878998,0.027883237227797508,0.1419743150472641,0.37975442409515381,0.30144378542900085,0.46736574172973633,0.19699981808662415,0.23770059645175934,0.24924492835998535, 
  /* [65][0][][] */ -0.0023230023216456175,-0.025479482486844063,-0.12607398629188538,-0.042311202734708786,0.21423026919364929,0.22531376779079437,0.15128129720687866,0.022546971216797829,0.11806856095790863,0.12165691703557968, -0.23205681145191193,-0.047129832208156586,-0.0028291747439652681,-0.14742884039878845,-0.033792737871408463,0.12036211788654327,0.010368990711867809,-0.063256047666072845,-0.26613995432853699,-0.29497846961021423, -0.092534922063350677,-0.18915474414825439,-0.14130081236362457,0.30311185121536255,0.47677713632583618,0.35567626357078552,0.51931631565093994,0.13025692105293274,-0.018232598900794983,0.063915655016899109, 
  /* [66][0][][] */ -0.10098373144865036,-0.15632756054401398,-0.19393472373485565,-0.037669669836759567,-0.073393911123275757,-0.14616976678371429,-0.18895778059959412,0.058462362736463547,0.0074273324571549892,-0.054019249975681305, 0.58522951602935791,-0.13968959450721741,-0.046179637312889099,0.31301480531692505,0.62880367040634155,0.73259508609771729,0.58914685249328613,0.45628789067268372,0.66986662149429321,0.86580199003219604, 0.0077425073832273483,-0.0043094228021800518,0.018202964216470718,-0.041895337402820587,0.10252763330936432,0.21648189425468445,0.27198144793510437,-0.018369540572166443,0.066611438989639282,0.13151396811008453, 
  /* [67][0][][] */ -0.013291288167238235,0.07400745153427124,-0.027066845446825027,-0.057004760950803757,0.25574427843093872,0.49418926239013672,0.43060868978500366,0.35578444600105286,0.34629255533218384,0.19801145792007446, -0.42625322937965393,-0.19534358382225037,0.062293350696563721,0.37067404389381409,0.59677428007125854,0.41840055584907532,0.44722822308540344,0.04031684622168541,-0.18230897188186646,-0.12296241521835327, -0.60520792007446289,-0.79733008146286011,-0.54409945011138916,0.18421070277690887,0.21909993886947632,0.26754984259605408,0.29300272464752197,-0.069275178015232086,-0.23100300133228302,-0.24830667674541473, 
  /* [68][0][][] */ 0.1368623822927475,0.027259496971964836,-0.068446479737758636,0.14700987935066223,-0.17263765633106232,-0.13228274881839752,-0.060143489390611649,0.033574260771274567,0.14788781106472015,0.10446580499410629, 0.24391363561153412,0.19831688702106476,-0.033067956566810608,-0.55647748708724976,-0.51312214136123657,-0.61878800392150879,-0.5280146598815918,-0.32481986284255981,-0.011976446025073528,-0.12138550728559494, -0.14370419085025787,-0.056077189743518829,-0.073208607733249664,0.064262062311172485,-0.014813649468123913,-0.075738400220870972,-0.15649837255477905,0.058796778321266174,-0.018091458827257156,0.0018797253724187613, 
  /* [69][0][][] */ 0.035802345722913742,-0.0064183990471065044,-0.07707851380109787,0.033410873264074326,-0.012030620127916336,0.082513473927974701,0.057372435927391052,-0.041371114552021027,0.053770340979099274,-0.013100214302539825, -0.088387973606586456,-0.24807049334049225,-0.20649372041225433,0.026443921029567719,0.064098812639713287,0.087391160428524017,0.17026220262050629,-0.041409105062484741,-0.23187848925590515,-0.25098899006843567, 0.09492124617099762,0.051654785871505737,0.091521456837654114,0.15074972808361053,0.44861707091331482,0.42148342728614807,0.34770399332046509,0.17576180398464203,0.079070642590522766,-0.1644209623336792, 
  /* [70][0][][] */ -0.089347325265407562,-0.029797501862049103,-0.02478279173374176,-0.068527534604072571,-0.071479931473731995,0.044036909937858582,-0.11717192083597183,0.063144832849502563,-0.019943684339523315,-0.11417627334594727, -0.049878183752298355,-0.25285917520523071,0.047829564660787582,-0.057620696723461151,0.1198844239115715,0.28285729885101318,0.28674218058586121,0.10633567720651627,-0.0050242091529071331,-0.013907192274928093, -0.097066670656204224,-0.06008269265294075,0.1230190321803093,0.33910447359085083,0.38493725657463074,0.3691539466381073,0.39675226807594299,0.02852938324213028,0.077246151864528656,-0.060610093176364899, 
  /* [71][0][][] */ 0.19560393691062927,0.11742470413446426,-0.0290250014513731,-0.030513787642121315,-0.20830172300338745,-0.34984421730041504,-0.31501859426498413,-0.038164641708135605,0.0557890385389328,0.053689822554588318, 0.072507806122303009,0.06383495032787323,-0.011561192572116852,-0.58149665594100952,-0.57525140047073364,-0.64991122484207153,-0.63792085647583008,-0.19074870645999908,-0.024705421179533005,-0.10233217477798462, 0.044213037937879562,-0.057664539664983749,-0.013904050923883915,-0.15501946210861206,-0.13681632280349731,0.066731907427310944,-0.023344444110989571,0.05799870565533638,-0.011754310689866543,-0.098090976476669312, 
  /* [72][0][][] */ 0.015969075262546539,0.13161675631999969,-0.0062348931096494198,-0.15209868550300598,-0.21707835793495178,-0.29817408323287964,-0.16509951651096344,-0.14950565993785858,-0.037091311067342758,0.066473864018917084, 0.21470163762569427,0.085867643356323242,-0.053005337715148926,-0.21821406483650208,-0.39794650673866272,-0.40563857555389404,-0.27840247750282288,-0.23352941870689392,-0.028154056519269943,0.10901182144880295, -0.1488630473613739,-0.042418614029884338,-0.002254066988825798,-0.0017338874749839306,-0.17358823120594025,-0.020069964230060577,-0.061188668012619019,-0.14479494094848633,-0.0014236788265407085,-0.0073167728260159492, 
  /* [73][0][][] */ 0.13138206303119659,-0.095305107533931732,-0.10586599260568619,0.0040835496038198471,0.20647740364074707,0.25120660662651062,0.23998087644577026,-0.0092338332906365395,0.14794960618019104,0.051619265228509903, -0.060842819511890411,0.041975438594818115,-0.048847369849681854,0.12751533091068268,0.45277503132820129,0.4903128445148468,0.33312335610389709,0.12569732964038849,0.16848279535770416,0.074832148849964142, -0.20011843740940094,-0.45136609673500061,-0.20124341547489166,0.38477087020874023,0.64927023649215698,0.83493250608444214,0.89254063367843628,0.44455811381340027,0.2431907057762146,0.088002815842628479, 
  /* [74][0][][] */ -0.056618757545948029,-0.039942070841789246,-0.074861317873001099,-0.035778872668743134,-0.032691314816474915,-0.11487344652414322,-0.0044525787234306335,-0.048832759261131287,0.04494863748550415,-0.033143691718578339, 0.25076907873153687,-0.1316637396812439,0.021323937922716141,0.055968645960092545,0.51286953687667847,0.38830387592315674,0.40703633427619934,0.080826126039028168,0.23458839952945709,0.23978462815284729, -0.041482172906398773,-0.067077964544296265,-0.079748243093490601,0.084768690168857574,0.49551030993461609,0.55119073390960693,0.40147086977958679,0.22450438141822815,0.18258270621299744,0.11290786415338516, 
  /* [75][0][][] */ 0.11595159769058228,-0.0127231664955616,-0.0066021797247231007,0.086288660764694214,0.01579214446246624,-0.11158569157123566,-0.10363214462995529,-0.016170008108019829,-0.022565867751836777,0.10513296723365784, -0.062801972031593323,0.052384305745363235,-0.14192552864551544,-0.24814249575138092,-0.3719228208065033,-0.27521291375160217,-0.29430964589118958,-0.26146891713142395,-0.034939620643854141,0.013371557928621769, -0.023120785132050514,-0.11137098073959351,-0.04291519895195961,0.078069895505905151,-0.036811575293540955,0.054024830460548401,-0.10007531940937042,-0.12862652540206909,-0.017141591757535934,-0.12878552079200745, 
  /* [76][0][][] */ 0.02019953727722168,0.039263352751731873,0.060448318719863892,-0.086845383048057556,-0.0018472447991371155,0.032745853066444397,-0.077974818646907806,-0.01862180233001709,0.025340527296066284,0.08723604679107666, 0.018246835097670555,-0.14714407920837402,-0.11883614212274551,-0.029981546103954315,0.11432214081287384,0.2444864809513092,0.098273031413555145,0.012864008545875549,-0.023543544113636017,-0.06691858172416687, 0.020021084696054459,0.023955602198839188,-0.013837439008057117,0.087916918098926544,0.36246985197067261,0.13453470170497894,0.35884597897529602,-0.056624375283718109,-0.056142508983612061,0.069691754877567291, 
  /* [77][0][][] */ -0.10195662081241608,-0.058476995676755905,-0.069938138127326965,-0.066761285066604614,0.067810922861099243,-0.11002156883478165,0.10184206068515778,-0.0021447464823722839,-0.018683597445487976,-0.042265318334102631, -0.036356322467327118,-0.091784648597240448,0.0075345202349126339,0.084335483610630035,-0.029776323586702347,0.12685835361480713,0.056785508990287781,0.10218681395053864,0.031189771369099617,0.015936914831399918, 0.043284427374601364,-0.030930647626519203,0.026039013639092445,-0.041064724326133728,0.18087927997112274,-0.044942375272512436,0.091021090745925903,0.13899222016334534,0.079878628253936768,0.070007205009460449, 
  /* [78][0][][] */ -0.2262239009141922,0.01151218730956316,-0.025412306189537048,-0.1484220027923584,-0.78737831115722656,-0.64596903324127197,-0.86708372831344604,-0.17194978892803192,-0.22332064807415009,-0.32762739062309265, 0.25286665558815002,-0.013349381275475025,0.090430483222007751,0.19641746580600739,-0.26392349600791931,-0.24310708045959473,-0.23166587948799133,-0.047718673944473267,-0.11311396956443787,0.10536754131317139, 0.044287916272878647,0.15638813376426697,-0.0066901068203151226,-0.54937887191772461,-0.57897013425827026,-0.43576905131340027,-0.59176421165466309,-0.44337916374206543,-0.28761833906173706,-0.32785400748252869, 
  /* [79][0][][] */ 0.25797337293624878,0.10160351544618607,-0.03411116823554039,-0.064100988209247589,-0.17363828420639038,-0.26331016421318054,-0.21536058187484741,-0.13090319931507111,-0.060467500239610672,0.084149174392223358, 0.22389999032020569,0.15265671908855438,-0.045475918799638748,-0.51821613311767578,-0.65738922357559204,-0.3349606990814209,-0.46216276288032532,-0.33829659223556519,-0.061661414802074432,0.060142796486616135, 0.019695663824677467,0.022225575521588326,-0.11072333157062531,-0.022431114688515663,-0.0091754412278532982,-0.055942557752132416,-0.032963350415229797,-0.0034608507994562387,0.0067229988053441048,-0.10110799968242645, 
  /* [80][0][][] */ -0.021857770159840584,-0.11534459143877029,0.085217826068401337,0.029237145557999611,-0.051331490278244019,-0.062857218086719513,-0.084891371428966522,0.11160393059253693,-0.027258913964033127,-0.071042127907276154, -0.16279849410057068,-0.20301561057567596,-0.031193157657980919,-0.15765027701854706,0.089747369289398193,-0.036712154746055603,0.11644823849201202,-0.24530418217182159,-0.1742384135723114,-0.23845109343528748, -0.051418989896774292,0.021544968709349632,0.12511530518531799,0.17131043970584869,0.52077341079711914,0.23073993623256683,0.249762162566185,0.037421591579914093,-0.080596469342708588,-0.18146418035030365, 
  /* [81][0][][] */ 0.02470676600933075,0.0038164779543876648,0.0052253603935241699,-0.038421399891376495,-0.052765682339668274,-0.038416720926761627,0.061661511659622192,0.013128966093063354,0.073624849319458008,0.0045948252081871033, 0.10358437150716782,-0.072436884045600891,-0.011857202276587486,0.0098086856305599213,0.11914621293544769,0.13466261327266693,0.058028809726238251,0.13724441826343536,-0.062335748225450516,0.087848827242851257, -0.12578490376472473,0.015425846911966801,-0.028585044667124748,0.061759281903505325,0.18712779879570007,0.057928621768951416,0.013903201557695866,0.04838012158870697,0.10074408352375031,0.02204744890332222, 
  /* [82][0][][] */ -0.00017370283603668213,0.0089336186647415161,-0.047099031507968903,-0.089931592345237732,0.007468000054359436,0.027797698974609375,0.095458522439002991,0.062523171305656433,0.057374998927116394,0.073441594839096069, 0.025919187813997269,-0.10985993593931198,-0.19774091243743896,0.008360457606613636,0.02058965340256691,0.049891989678144455,0.28741887211799622,0.0015788823366165161,-0.15065884590148926,-0.21676714718341827, 0.014983085915446281,0.049362316727638245,0.16192242503166199,0.179221510887146,0.53186637163162231,0.42130330204963684,0.44615322351455688,0.21481721103191376,0.045014750212430954,0.039071731269359589, 
  /* [83][0][][] */ 0.26076692342758179,0.0043834797106683254,0.086266808211803436,0.14238664507865906,0.1154523566365242,0.082087628543376923,-0.078133940696716309,0.006497582420706749,0.09312950074672699,0.042525418102741241, -0.41583967208862305,0.10370717942714691,0.022214435040950775,-0.43628692626953125,-0.8318169116973877,-0.8795931339263916,-0.98138391971588135,-0.37038081884384155,-0.50563240051269531,-0.64461225271224976, 0.14579965174198151,0.22123105823993683,0.23006324470043182,0.12947902083396912,-0.36938706040382385,-0.13891048729419708,-0.2565588653087616,0.010358770377933979,0.099513806402683258,0.19900107383728027, 
  /* [84][0][][] */ 0.037824943661689758,-0.0084502249956130981,-0.038237042725086212,-0.063474796712398529,0.11087609827518463,0.067563578486442566,0.020804986357688904,0.019251361489295959,-0.00033277273178100586,-0.040270917117595673, 0.066896222531795502,-0.24135641753673553,0.047372821718454361,0.064489342272281647,0.25906312465667725,0.15159192681312561,0.29153618216514587,0.037454485893249512,0.1486096978187561,0.11629043519496918, 0.02589726448059082,0.067528054118156433,0.1802942305803299,0.3343639075756073,0.45552748441696167,0.21563109755516052,0.20932658016681671,0.13681086897850037,0.13594087958335876,0.092608518898487091, 
  /* [85][0][][] */ 0.30466103553771973,0.14817732572555542,-0.13081808388233185,0.095359630882740021,-0.056002844125032425,-0.16478671133518219,-0.081892773509025574,-0.065809652209281921,-0.0015506668714806437,0.196698397397995, 0.2577764093875885,0.31112053990364075,-0.071157112717628479,-0.4976094663143158,-0.46203425526618958,-0.38158950209617615,-0.32880589365959167,-0.18223685026168823,0.154842808842659,0.09647909551858902, -0.08155909925699234,-0.027516582980751991,-0.033278472721576691,-0.090726397931575775,-0.025396989658474922,-0.032628048211336136,0.053675424307584763,0.022895809262990952,0.092459984123706818,-0.094278477132320404, 
  /* [86][0][][] */ -0.045980162918567657,-0.10047957301139832,-0.028040036559104919,-0.10725418478250504,-0.0073473080992698669,0.026987239718437195,0.08226969838142395,-0.093365728855133057,-0.075810953974723816,-0.030341468751430511, -0.054216668009757996,-0.035620495676994324,-0.055597759783267975,-0.067195549607276917,-0.058927275240421295,0.039000928401947021,-0.057794943451881409,-0.045889206230640411,-0.11446820199489594,-0.041155979037284851, -0.026930548250675201,0.080489039421081543,-0.10177716612815857,-0.053226955235004425,0.066862121224403381,0.11626289784908295,-0.078755572438240051,-0.041142374277114868,-0.045791096985340118,-0.047765664756298065, 
  /* [87][0][][] */ -0.14870055019855499,-0.19739249348640442,-0.15210737287998199,-0.09773709625005722,-0.20600053668022156,-0.20530551671981812,0.0067707565613090992,0.021383469924330711,-0.11353474855422974,-0.14102286100387573, 0.64863580465316772,-0.1204548254609108,-0.094169370830059052,0.35839438438415527,0.30336329340934753,0.31439599394798279,0.40570279955863953,0.30983981490135193,0.3871116042137146,0.72027355432510376, 0.081784911453723907,0.14549826085567474,0.051120676100254059,-0.28466632962226868,0.11828414350748062,0.034384042024612427,0.240971639752388,0.12382307648658752,0.073028616607189178,0.20584386587142944, 
  /* [88][0][][] */ -0.38352465629577637,0.16640962660312653,0.001702176290564239,-0.27331292629241943,-0.83465415239334106,-0.81394380331039429,-0.91226989030838013,-0.32427844405174255,-0.37233823537826538,-0.62910151481628418, 0.12952291965484619,0.063639163970947266,0.12625899910926819,0.12272924929857254,-0.19420905411243439,-0.085383482277393341,-0.30012860894203186,0.087890863418579102,-0.09968007355928421,0.14390696585178375, 0.0092220539227128029,-0.0078172199428081512,-0.052177641540765762,-0.38741469383239746,-0.3856482207775116,-0.43852394819259644,-0.4321434497833252,-0.46399787068367004,-0.34748390316963196,-0.28695392608642578, 
  /* [89][0][][] */ -0.10357969999313354,0.01053127646446228,0.042456075549125671,-0.046777166426181793,0.095254048705101013,-0.013161920011043549,-0.090321198105812073,-0.010837644338607788,0.069581970572471619,-0.065795719623565674, -0.54577791690826416,0.0040673599578440189,-0.04367605596780777,-0.35098978877067566,-0.62184399366378784,-0.49512612819671631,-0.55735540390014648,-0.60321253538131714,-0.81684494018554688,-1.0006123781204224, 0.0042879078537225723,0.19865179061889648,0.2459099292755127,0.15701127052307129,0.096260018646717072,-0.1439172625541687,-0.01560245081782341,-0.18170170485973358,-0.2543167769908905,-0.13944675028324127, 
  /* [90][0][][] */ 0.12362860888242722,-0.26955375075340271,-0.083780951797962189,-0.02445710264146328,0.03560931608080864,0.078769035637378693,0.16903658211231232,-0.055079635232686996,-0.19493046402931213,-0.25371193885803223, -0.27202478051185608,0.079074382781982422,-0.049901150166988373,0.089156754314899445,0.59989428520202637,0.40173068642616272,0.42491620779037476,0.17023463547229767,-0.064101025462150574,-0.052572555840015411, -0.3148810863494873,-0.60169744491577148,-0.12684538960456848,0.33385977149009705,0.85094332695007324,1.0814064741134644,1.0861824750900269,0.37578821182250977,0.16090616583824158,0.011884542182087898, 
  /* [91][0][][] */ -0.50300127267837524,0.10749933868646622,0.0094118323177099228,-0.27884095907211304,-0.79655605554580688,-0.73817431926727295,-0.77077251672744751,-0.4009229838848114,-0.42943057417869568,-0.63972091674804688, 0.062896929681301117,-0.03264148160815239,0.21732820570468903,0.20768387615680695,-0.16375745832920074,-0.34416791796684265,-0.23562233150005341,-0.1087472066283226,-0.13780587911605835,-0.13767074048519135, 0.03309943899512291,-0.15123102068901062,-0.11869875341653824,-0.25775784254074097,-0.25116872787475586,-0.14666195213794708,-0.31610649824142456,-0.24716055393218994,-0.20956410467624664,-0.38156870007514954, 
  /* [92][0][][] */ 0.39798709750175476,-0.073140271008014679,-0.0017707729712128639,0.23860403895378113,0.011905347928404808,-0.11151212453842163,0.013201143592596054,0.11242038011550903,0.11643926054239273,0.1601928174495697, 0.33651736378669739,0.34272667765617371,-0.036388758569955826,-0.54290354251861572,-0.52547997236251831,-0.36615678668022156,-0.55370825529098511,-0.2257249653339386,0.13435478508472443,0.28509247303009033, 0.19146603345870972,0.17651377618312836,0.059410195797681808,-0.069457434117794037,-0.099102199077606201,-0.1266280859708786,-0.064333781599998474,0.2924865186214447,0.37833026051521301,0.34174755215644836, 
  /* [93][0][][] */ 0.015472565777599812,-0.056145958602428436,0.10540752857923508,-0.096876397728919983,0.054388143122196198,0.10604193061590195,0.0047476375475525856,0.084061793982982635,-0.078905440866947174,0.097895152866840363, -0.15420396625995636,-0.049917835742235184,-0.1194620206952095,-0.10682330280542374,0.039657097309827805,0.042137593030929565,0.16483218967914581,-0.07656368613243103,0.044649075716733932,0.043243382126092911, 0.051984615623950958,-0.031821899116039276,-0.0019276369130238891,0.13978816568851471,0.13200624287128448,0.038884326815605164,0.043203197419643402,-0.007414103951305151,-0.024155739694833755,-0.045701030641794205, 
  /* [94][0][][] */ 0.61017149686813354,-0.26153922080993652,-0.074167050421237946,0.32941541075706482,0.61296695470809937,0.6235194206237793,0.62876421213150024,0.29374822974205017,0.48749977350234985,0.7447095513343811, 0.11041738092899323,0.14210087060928345,0.069383710622787476,-0.083684690296649933,-0.027451852336525917,0.0025136223994195461,0.16044771671295166,0.11140622943639755,0.24473285675048828,0.35596692562103271, 0.21387162804603577,0.22207909822463989,0.048277821391820908,-0.30761101841926575,-0.32952019572257996,-0.076833568513393402,-0.21621218323707581,0.037600744515657425,0.12448623031377792,0.17707762122154236, 
  /* [95][0][][] */ -0.02917914092540741,-0.10339827090501785,0.068961918354034424,-0.10448938608169556,-0.10513977706432343,-0.030962727963924408,0.065127760171890259,0.018471941351890564,0.0031627267599105835,0.034978017210960388, -0.083769269287586212,-0.1685316264629364,-0.099184274673461914,0.068859763443470001,0.040993358939886093,0.078307367861270905,0.061641011387109756,-0.018792133778333664,0.099250636994838715,-0.013414989225566387, -0.056154754012823105,0.028475159779191017,0.065862610936164856,-0.045290123671293259,0.062503859400749207,0.15751545131206512,0.24636365473270416,0.10205277800559998,-0.061389259994029999,0.028036447241902351, 
  /* [96][0][][] */ -0.45208564400672913,0.13429459929466248,0.05222809687256813,-0.31148946285247803,-0.79703992605209351,-0.80139851570129395,-0.87105578184127808,-0.31228652596473694,-0.4395662248134613,-0.63074547052383423, 0.12784923613071442,0.11076654493808746,0.064006052911281586,0.13307869434356689,-0.17792004346847534,-0.042756393551826477,-0.21510274708271027,-0.065846368670463562,0.12212096154689789,-0.0072508757002651691, 0.01247166283428669,0.048666074872016907,-0.11017661541700363,-0.41074889898300171,-0.42490175366401672,-0.51892930269241333,-0.41894441843032837,-0.28955373167991638,-0.40146830677986145,-0.48549127578735352, 
  /* [97][0][][] */ 0.10528509318828583,-0.073326520621776581,-0.062028922140598297,0.038053408265113831,-0.092541486024856567,0.10769028961658478,0.064556151628494263,0.11100763082504272,-0.10551480203866959,0.11190721392631531, -0.012577086687088013,-0.10915926843881607,-0.062392007559537888,-0.04242541640996933,-0.063792616128921509,0.035806998610496521,-0.084365397691726685,0.010947719216346741,0.054734453558921814,0.035947784781455994, 0.11703087389469147,0.028075650334358215,0.0027312785387039185,-0.06865304708480835,0.01914602518081665,0.075798064470291138,0.093123733997344971,-0.047756224870681763,-0.031920634210109711,-0.064855806529521942, 
  /* [98][0][][] */ 0.071715757250785828,-0.089975215494632721,-0.054172433912754059,-0.053175091743469238,0.11381359398365021,0.050887495279312134,-0.063940145075321198,0.011178597807884216,0.072665512561798096,0.069627642631530762, -0.085651859641075134,-0.06594809889793396,-0.11082250624895096,-0.083801768720149994,0.024190723896026611,-0.076783530414104462,-0.1068645566701889,0.026092305779457092,0.11915858089923859,-0.046529434621334076, -0.045808374881744385,0.012180328369140625,0.0076660513877868652,-0.076468184590339661,-0.097319252789020538,-0.049810841679573059,0.00069499760866165161,0.057381406426429749,-0.11488593369722366,0.11204995214939117, 
  /* [99][0][][] */ -0.024966461583971977,-0.13941729068756104,0.005589773878455162,-0.091666817665100098,-0.1697455495595932,0.029182992875576019,-0.14486865699291229,0.031098531559109688,0.013410859741270542,0.023969618603587151, 0.050178170204162598,-0.028118809685111046,0.038173079490661621,0.04660748690366745,-0.0090373065322637558,0.076353475451469421,0.18540787696838379,0.11884179711341858,0.08164919912815094,0.041674904525279999, -0.051275622099637985,-0.037652537226676941,-0.052964512258768082,-0.030100045725703239,0.072216592729091644,-0.058213774114847183,-0.015981089323759079,-0.018888168036937714,-0.079875916242599487,0.0046088192611932755, 
  /* [100][0][][] */ 0.30492335557937622,0.11924999952316284,-0.0020037733484059572,-0.051857937127351761,-0.10434965044260025,-0.13555662333965302,-0.14194309711456299,0.02485797181725502,0.19884078204631805,0.29458731412887573, 0.13782554864883423,0.29848545789718628,0.1041509211063385,-0.55677658319473267,-0.60472315549850464,-0.55077385902404785,-0.59551888704299927,-0.31090560555458069,-0.057367309927940369,0.22868773341178894, 0.030227120965719223,0.016226401552557945,-0.004845871590077877,-0.040111351758241653,-0.092229731380939484,-0.17188414931297302,-0.098319336771965027,0.1548994779586792,-0.014950952492654324,0.030303740873932838, 
  /* [101][0][][] */ 0.11192496120929718,-0.038280732929706573,-0.019073918461799622,-0.080669119954109192,-0.11756499856710434,0.065706372261047363,0.068344756960868835,-0.085919618606567383,0.031417280435562134,0.11508619785308838, -0.029912667348980904,-0.0063026463612914085,-0.12466710060834885,-0.092613339424133301,0.051575407385826111,0.090511977672576904,-0.073251329362392426,0.019985754042863846,-0.081381507217884064,-0.033864084631204605, -0.013840307481586933,0.026463272050023079,0.057868149131536484,-0.089332297444343567,0.048177361488342285,-0.0036946479231119156,0.10375753790140152,-0.093566387891769409,0.045562081038951874,-0.11501170694828033, 
  /* [102][0][][] */ 0.10307982563972473,-0.018792508170008659,-0.072355173528194427,-0.037598300725221634,0.14481331408023834,0.21505023539066315,0.38070759177207947,0.21481633186340332,0.16523301601409912,0.21673858165740967, -0.024512464180588722,0.016193833202123642,0.13416893780231476,0.28992626070976257,0.69434720277786255,0.51073151826858521,0.59280377626419067,0.32974115014076233,0.17914071679115295,-0.11875838041305542, -0.36222493648529053,-0.77949374914169312,-0.40945520997047424,0.39884352684020996,0.50324124097824097,0.6947517991065979,0.53316581249237061,0.23427702486515045,-0.054486215114593506,-0.096956819295883179, 
  /* [103][0][][] */ -0.24253711104393005,0.1204230934381485,-0.090132445096969604,-0.086457349359989166,-0.30772626399993896,-0.21803292632102966,-0.3073347806930542,-0.32858201861381531,-0.30584821105003357,-0.48567241430282593, -0.31865367293357849,0.064673557877540588,0.17394749820232391,-0.07502429187297821,0.045638192445039749,-0.13232007622718811,-0.049604915082454681,-0.0025449218228459358,-0.2182965874671936,-0.3434012234210968, -0.30390298366546631,-0.40643522143363953,-0.17636531591415405,0.4037952721118927,0.4684918224811554,0.3953978419303894,0.46468979120254517,0.11897335201501846,-0.019145136699080467,-0.15153217315673828, 
  /* [104][0][][] */ -0.43108287453651428,0.06396128237247467,0.15684354305267334,-0.32606813311576843,-0.82944637537002563,-0.81119513511657715,-0.83116012811660767,-0.37265461683273315,-0.63666707277297974,-0.69253033399581909, -0.056915558874607086,0.11830893903970718,0.06045261025428772,0.18434201180934906,-0.27139809727668762,-0.22288677096366882,-0.23512877523899078,-0.080483958125114441,-0.068086646497249603,-0.059064384549856186, 0.086789555847644806,-0.026414418593049049,-0.083299897611141205,-0.31996029615402222,-0.33009561896324158,-0.36941653490066528,-0.49360805749893188,-0.29878473281860352,-0.28129842877388,-0.51484930515289307, 
  /* [105][0][][] */ -0.0011619578581303358,0.069480739533901215,0.023401448503136635,0.0081258872523903847,-0.068093076348304749,-0.10676240921020508,-0.17600548267364502,-0.012314655818045139,-0.1589696854352951,0.026660330593585968, -0.11869994550943375,-0.1130535677075386,-0.17276325821876526,-0.14963197708129883,-0.09362281858921051,-0.21970449388027191,-0.22897863388061523,-0.050864625722169876,-0.069283835589885712,-0.16544616222381592, -0.065854556858539581,-0.073388174176216125,-0.11697117984294891,0.0054418295621871948,-0.047454476356506348,0.1031888872385025,0.013475775718688965,-0.07953113317489624,0.013517290353775024,-0.087150454521179199, 
  /* [106][0][][] */ 0.30778536200523376,-0.10403335839509964,0.027354180812835693,-0.01386665366590023,0.74620670080184937,0.80127787590026855,0.66007095575332642,0.36605703830718994,0.29516598582267761,0.45157894492149353, 0.12833733856678009,-0.022070091217756271,-0.16167415678501129,0.060716886073350906,0.80222541093826294,0.79299628734588623,0.72825127840042114,0.38138645887374878,0.27455371618270874,0.088629446923732758, -0.033560276031494141,-0.031759735196828842,-0.0977669358253479,-0.074258677661418915,-0.088889986276626587,-0.061503671109676361,0.11552492529153824,-0.026518670842051506,-0.072475790977478027,-0.043136350810527802, 
  /* [107][0][][] */ 0.29618567228317261,0.0053935577161610126,0.027546636760234833,0.018317675217986107,-0.21569755673408508,-0.08913295716047287,-0.12868160009384155,0.090203367173671722,0.1780126690864563,0.19836173951625824, 0.04809136688709259,0.19558294117450714,-0.10792302340269089,-0.42366084456443787,-0.36215648055076599,-0.37128144502639771,-0.36929678916931152,-0.17223052680492401,0.0046142940409481525,-0.052380889654159546, 0.07193727046251297,0.028053183108568192,0.13073983788490295,-0.055282175540924072,0.13815398514270782,-0.08785063773393631,0.10693671554327011,0.17417500913143158,0.16585415601730347,0.029699211940169334, 
  /* [108][0][][] */ 0.054874375462532043,-0.096427217125892639,0.027143672108650208,-0.099068827927112579,-0.10541408509016037,0.013274401426315308,-0.088449373841285706,0.050737068057060242,0.083209678530693054,-0.031732290983200073, -0.11083138734102249,-0.2152717262506485,-0.0074727344326674938,-0.047282297164201736,0.11258754134178162,0.23753668367862701,0.22516000270843506,-0.013659136369824409,-0.007936408743262291,-0.022840332239866257, 0.043916113674640656,0.05683474987745285,-0.071215510368347168,0.04873405396938324,0.36432397365570068,0.29596519470214844,0.32697427272796631,0.11695188283920288,0.048042487353086472,0.17894960939884186, 
  /* [109][0][][] */ 0.03023257665336132,-0.033704135566949844,0.011121980845928192,-0.14539605379104614,0.28346535563468933,0.27055072784423828,0.28339600563049316,0.043535131961107254,0.075181975960731506,0.11994217336177826, 0.038254246115684509,0.027547683566808701,-0.015951285138726234,-0.090413361787796021,0.21398848295211792,0.12858216464519501,0.17465350031852722,0.067743547260761261,-0.07388131320476532,0.090582489967346191, -0.13148312270641327,-0.042070437222719193,-0.048875778913497925,-0.11486963182687759,-0.092486090958118439,-0.13189984858036041,0.078416608273983002,-0.13847862184047699,-0.0093386434018611908,0.064104326069355011, 
  /* [110][0][][] */ -0.36336863040924072,-0.052972156554460526,0.014710464514791965,0.045045070350170135,0.2159714549779892,0.16541589796543121,0.10471262782812119,-0.010905012488365173,-0.19862818717956543,-0.20360888540744781, -0.43987411260604858,-0.50094544887542725,-0.18701770901679993,0.32609352469444275,0.6808164119720459,0.63107830286026001,0.63909655809402466,0.079504065215587616,-0.12092151492834091,-0.32919394969940186, -0.14774486422538757,0.045258354395627975,-0.077699325978755951,-0.1116412878036499,0.060065459460020065,0.084397435188293457,-0.0046984786167740822,-0.13829715549945831,-0.079749301075935364,-0.23879499733448029, 
  /* [111][0][][] */ 0.3020290732383728,0.17040109634399414,-0.081242755055427551,-0.29482713341712952,-0.19220671057701111,-0.27037256956100464,-0.31632071733474731,0.049236241728067398,0.043808784335851669,0.21367561817169189, 0.2511502206325531,0.086149334907531738,-0.16348324716091156,-0.2859075665473938,-0.46133744716644287,-0.39948427677154541,-0.36157715320587158,-0.13194696605205536,0.017867935821413994,0.16431772708892822, -0.095069445669651031,-0.10463149845600128,-0.15369971096515656,-0.027787668630480766,-0.27646011114120483,-0.19001944363117218,-0.17736493051052094,-0.23632292449474335,-0.13850681483745575,-0.24890881776809692, 
  /* [112][0][][] */ -0.17046964168548584,-0.23665392398834229,-0.068712003529071808,-0.078413479030132294,-0.21276156604290009,-0.16259752213954926,-0.24661135673522949,-0.25337624549865723,-0.23494206368923187,-0.20824794471263885, 0.39754948019981384,-0.099914915859699249,-0.029353385791182518,0.20441806316375732,0.39293533563613892,0.52622538805007935,0.45741370320320129,0.37713348865509033,0.4323219358921051,0.41821151971817017, 0.15570017695426941,0.10787642747163773,0.0025067545939236879,-0.2350318431854248,0.021366588771343231,0.099121622741222382,0.031578782945871353,0.03977300226688385,0.068154036998748779,0.16473501920700073, 
  /* [113][0][][] */ -0.02409978024661541,-0.053123544901609421,0.052880004048347473,0.045341040939092636,0.009313562884926796,-0.17261339724063873,-0.20192137360572815,-0.07653508335351944,-0.037869859486818314,-0.0048403344117105007, 0.10354132950305939,-0.090763121843338013,-0.1071430966258049,-0.24398535490036011,-0.20061828196048737,-0.21425473690032959,-0.25334492325782776,-0.20370618999004364,-0.1130644902586937,-0.1459275484085083, 0.034683484584093094,-0.0082878721877932549,-0.089319556951522827,-0.010149973444640636,-0.14829094707965851,0.015462556853890419,0.028679937124252319,-0.03374568372964859,-0.1083151176571846,-0.13239794969558716, 
  /* [114][0][][] */ -0.040776535868644714,-0.087713822722434998,-0.036943264305591583,-0.076060861349105835,-0.03473132848739624,0.010465458035469055,-0.028441578149795532,0.10772967338562012,0.016080796718597412,-0.038578376173973083, -0.10805030167102814,-0.082537062466144562,-0.064247176051139832,-0.057377010583877563,0.019480809569358826,-0.059088781476020813,-0.016828373074531555,-0.097176574170589447,0.035624772310256958,-0.039307035505771637, 0.013315886259078979,-0.013443604111671448,-0.024366609752178192,0.01776731014251709,0.11638778448104858,-0.096679337322711945,0.089382484555244446,0.058335945010185242,-0.098502069711685181,0.073247045278549194, 
  /* [115][0][][] */ 0.34600859880447388,0.010265299119055271,0.10241046547889709,0.082580767571926117,-0.089395374059677124,-0.13786378502845764,-0.29985606670379639,-0.06067020446062088,0.15894359350204468,0.23232677578926086, 0.16140195727348328,0.10174665600061417,0.012254188768565655,-0.62514740228652954,-0.69146710634231567,-0.68969649076461792,-0.55601590871810913,-0.2419716864824295,-0.14932951331138611,-0.09493766725063324, -0.0050147920846939087,0.032792836427688599,-0.023319125175476074,-0.11351773142814636,0.02952459454536438,-0.1159856915473938,-0.10163965821266174,-0.07798999547958374,-0.035638608038425446,0.0027490109205245972, 
  /* [116][0][][] */ -0.44623008370399475,0.17642770707607269,-0.038833647966384888,-0.28120210766792297,-0.74399399757385254,-0.86848694086074829,-0.98984533548355103,-0.40063124895095825,-0.45613634586334229,-0.41972252726554871, 0.2178092747926712,0.058184660971164703,0.17373593151569366,0.17692486941814423,-0.22722403705120087,-0.20021504163742065,-0.31688728928565979,-0.080831296741962433,0.019913172349333763,-0.060812991112470627, 0.08430694043636322,-4.0017599530983716e-05,-0.23963342607021332,-0.27417120337486267,-0.4189111590385437,-0.49641948938369751,-0.39743682742118835,-0.25965341925621033,-0.43764334917068481,-0.44732388854026794, 
  /* [117][0][][] */ 0.15405458211898804,0.14340542256832123,-0.0045266319066286087,-0.11211810261011124,-0.18214261531829834,-0.23773466050624847,-0.31480559706687927,-0.13369075953960419,0.1354694664478302,0.013773134909570217, 0.16216960549354553,0.13092434406280518,0.0072444076649844646,-0.50873935222625732,-0.63701546192169189,-0.39274954795837402,-0.56597340106964111,-0.20736242830753326,-0.097823329269886017,-0.013486219570040703, 0.029327008873224258,-0.042926859110593796,-0.12139327079057693,0.068540014326572418,0.075690917670726776,-0.089760445058345795,0.076249174773693085,-0.066001690924167633,-0.020057279616594315,-0.14581643044948578, 
  /* [118][0][][] */ -0.13679604232311249,-0.35719239711761475,-0.29746943712234497,-0.16594073176383972,-0.2986845076084137,-0.29173558950424194,-0.2926541268825531,-0.27050694823265076,-0.1522253155708313,-0.290718674659729, 0.32823657989501953,0.070996709167957306,-0.06395440548658371,0.049301054328680038,-0.24257475137710571,-0.2716711163520813,-0.30641326308250427,-0.064557433128356934,0.18583329021930695,0.16357326507568359, 0.17558223009109497,0.26090547442436218,-0.02487846277654171,-0.43008244037628174,-0.47831723093986511,-0.46193349361419678,-0.4830363392829895,-0.18067249655723572,0.028440443798899651,0.22508794069290161, 
  /* [119][0][][] */ 0.66990464925765991,-0.19939319789409637,0.017634693533182144,0.35461744666099548,0.59961748123168945,0.52241778373718262,0.53782045841217041,0.39732471108436584,0.57975727319717407,0.76026564836502075, 0.11189911514520645,0.048408139497041702,0.019287096336483955,-0.17875893414020538,0.064947150647640228,0.26463666558265686,0.29918596148490906,0.20656135678291321,0.059326659888029099,0.12996971607208252, 0.072052478790283203,-0.075154155492782593,-0.018498599529266357,-0.033231098204851151,0.080761551856994629,-0.096074551343917847,0.059274449944496155,0.066173292696475983,0.073241397738456726,0.098064668476581573, 
  /* [120][0][][] */ -0.13045743107795715,-0.0063521778210997581,-0.11416050046682358,-0.068429939448833466,-0.058536138385534286,0.014706823043525219,-0.051971431821584702,0.076114058494567871,-0.11950068920850754,-0.042702723294496536, 0.070538222789764404,0.0012177731841802597,-0.010065070353448391,0.047821365296840668,0.067958764731884003,0.045416206121444702,-0.032398797571659088,0.0011134984670206904,-0.041371345520019531,-0.1191323921084404, 0.075966857373714447,0.02808368019759655,-0.050196971744298935,-0.046415939927101135,0.080729186534881592,0.04507417231798172,-0.10122852772474289,-0.051089093089103699,-0.12615010142326355,-0.027360297739505768, 
  /* [121][0][][] */ 0.075804188847541809,-0.05703909695148468,-0.062773510813713074,0.054602712392807007,0.12034872174263,0.0829630047082901,0.034128546714782715,-0.04918961226940155,-0.04595610499382019,-0.017432183027267456, -0.22995194792747498,-0.036392576992511749,-0.14978070557117462,-0.13365833461284637,-0.0033803281839936972,-0.05556458979845047,-0.069684535264968872,0.011755470186471939,-0.099239498376846313,-0.085355378687381744, -0.088231630623340607,-0.025626968592405319,0.016006190329790115,0.14354115724563599,0.13673053681850433,0.1978769451379776,0.12199033051729202,-0.06269720196723938,0.10607635974884033,-0.065756253898143768, 
  /* [122][0][][] */ -0.13815201818943024,-0.14935788512229919,-0.2530541718006134,-0.10062899440526962,-0.061547797173261642,-0.11212345957756042,-0.011679816991090775,-0.030026374384760857,0.018288498744368553,-0.060856595635414124, -0.06348603218793869,-0.37810412049293518,-0.28384226560592651,-0.14495165646076202,0.012727371416985989,0.10505502671003342,0.14684218168258667,-0.096482150256633759,-0.20025894045829773,-0.31958884000778198, -0.023874802514910698,-0.073021873831748962,-0.061841420829296112,-0.011272900737822056,0.22091323137283325,0.057256076484918594,0.10262851417064667,0.10221051424741745,0.093808434903621674,-0.15592934191226959, 
  /* [123][0][][] */ -0.082814589142799377,0.01499117910861969,0.033974707126617432,-0.10335243493318558,-0.097096554934978485,-0.088412299752235413,-0.1014392301440239,0.10261915624141693,0.10457822680473328,-0.043653503060340881, 0.50703263282775879,-0.24049943685531616,-0.1202351450920105,0.30173185467720032,0.54594248533248901,0.49119946360588074,0.70300751924514771,0.36741340160369873,0.57564258575439453,0.58750873804092407, 0.02808760479092598,0.11701705306768417,-0.011429827660322189,0.099382519721984863,0.32293993234634399,0.40815719962120056,0.40522363781929016,0.099253714084625244,0.13784295320510864,0.18563908338546753, 
  /* [124][0][][] */ -0.23501724004745483,-0.057046562433242798,-0.081493504345417023,0.051506362855434418,-0.27102178335189819,-0.34729757905006409,-0.28133982419967651,-0.034547016024589539,-0.08881804347038269,-0.032118551433086395, 0.0047683082520961761,0.013980630785226822,0.080386966466903687,-0.064977869391441345,-0.23474153876304626,-0.26010018587112427,-0.14065240323543549,-0.073145166039466858,-0.028554784134030342,0.04175996407866478, 0.13365674018859863,0.087412282824516296,-0.11503571271896362,-0.23049028217792511,-0.26125696301460266,-0.1312662661075592,-0.13818417489528656,-0.0010635521030053496,-0.043922431766986847,-0.0376133993268013, 
  /* [125][0][][] */ -0.00092963979113847017,0.019894683733582497,0.014844696968793869,-0.1253817081451416,-0.01389433816075325,0.081633836030960083,-0.10294980555772781,0.091588802635669708,-0.074365675449371338,0.063366793096065521, -0.38835093379020691,-0.060230068862438202,-0.22202669084072113,-0.17697055637836456,-0.075731456279754639,0.025949012488126755,-0.085589997470378876,-0.40454345941543579,-0.4402005672454834,-0.51491367816925049, 0.11394356191158295,0.13983958959579468,0.075344793498516083,0.19642579555511475,0.50839215517044067,0.4871581494808197,0.51522475481033325,0.045951761305332184,-0.055517114698886871,-0.070517443120479584, 
  /* [126][0][][] */ -0.29118001461029053,-0.25906264781951904,-0.2836621105670929,-0.22079133987426758,-0.47961816191673279,-0.52260899543762207,-0.58820593357086182,-0.33544948697090149,-0.22922205924987793,-0.42633816599845886, 0.098090179264545441,0.10684943944215775,-0.014509743079543114,0.058044958859682083,-0.14530332386493683,-0.2151956707239151,-0.20926272869110107,-0.11389331519603729,-0.062713772058486938,0.0039318529888987541, 0.32447555661201477,0.28728258609771729,-0.026909304782748222,-0.54117286205291748,-0.54772394895553589,-0.56103652715682983,-0.50541555881500244,-0.20499056577682495,-0.058057211339473724,0.034130062907934189, 
  /* [127][0][][] */ 0.01734451949596405,-0.047734580934047699,0.069788709282875061,-0.082867681980133057,-0.084729909896850586,0.051129773259162903,-0.047142080962657928,-0.068393267691135406,0.046427220106124878,-0.088614016771316528, -0.11251618713140488,-0.049570124596357346,0.014371789991855621,-0.093254067003726959,0.097583532333374023,-0.1074768453836441,0.040632788091897964,0.079008907079696655,0.098956957459449768,-0.025605235248804092, 0.11461198329925537,-0.082595579326152802,-0.015192046761512756,0.084046348929405212,0.12020201981067657,0.049500200897455215,0.0042895288206636906,-0.018769573420286179,-0.089204266667366028,0.031262028962373734, 
};
const TfArray<4, int> tensor_dimension10 = { 4, { 128,1,3,10 } };
const ALIGN(16) float tensor_data11[128*1*3*128] = { 
