/* Generated by Edge Impulse
 *
 * Permission is hereby granted, free of charge, to any person obtaining a copy
 * of this software and associated documentation files (the "Software"), to deal
 * in the Software without restriction, including without limitation the rights
 * to use, copy, modify, merge, publish, distribute, sublicense, and/or sell
 * copies of the Software, and to permit persons to whom the Software is
 * furnished to do so, subject to the following conditions:
 *
 * The above copyright notice and this permission notice shall be included in
 * all copies or substantial portions of the Software.
 *
 * THE SOFTWARE IS PROVIDED "AS IS", WITHOUT WARRANTY OF ANY KIND, EXPRESS OR
 * IMPLIED, INCLUDING BUT NOT LIMITED TO THE WARRANTIES OF MERCHANTABILITY,
 * FITNESS FOR A PARTICULAR PURPOSE AND NONINFRINGEMENT. IN NO EVENT SHALL THE
 * AUTHORS OR COPYRIGHT HOLDERS BE LIABLE FOR ANY CLAIM, DAMAGES OR OTHER
 * LIABILITY, WHETHER IN AN ACTION OF CONTRACT, TORT OR OTHERWISE, ARISING FROM,
 * OUT OF OR IN CONNECTION WITH THE SOFTWARE OR THE USE OR OTHER DEALINGS IN THE
 * SOFTWARE.
 */
// Generated on: 12.10.2022 09:14:05

#include <stdio.h>
#include <stdlib.h>
#include "edge-impulse-sdk/tensorflow/lite/c/builtin_op_data.h"
#include "edge-impulse-sdk/tensorflow/lite/c/common.h"
#include "edge-impulse-sdk/tensorflow/lite/micro/micro_mutable_op_resolver.h"
#include "edge-impulse-sdk/porting/ei_classifier_porting.h"

#if EI_CLASSIFIER_PRINT_STATE
#if defined(__cplusplus) && EI_C_LINKAGE == 1
extern "C" {
    extern void ei_printf(const char *format, ...);
}
#else
extern void ei_printf(const char *format, ...);
#endif
#endif

#if defined __GNUC__
#define ALIGN(X) __attribute__((aligned(X)))
#elif defined _MSC_VER
#define ALIGN(X) __declspec(align(X))
#elif defined __TASKING__
#define ALIGN(X) __align(X)
#endif

#ifndef EI_MAX_SCRATCH_BUFFER_COUNT
#define EI_MAX_SCRATCH_BUFFER_COUNT 4
#endif // EI_MAX_SCRATCH_BUFFER_COUNT

#ifndef EI_MAX_OVERFLOW_BUFFER_COUNT
#define EI_MAX_OVERFLOW_BUFFER_COUNT 10
#endif // EI_MAX_OVERFLOW_BUFFER_COUNT

using namespace tflite;
using namespace tflite::ops;
using namespace tflite::ops::micro;

namespace {

constexpr int kTensorArenaSize = 1888;

#if defined(EI_CLASSIFIER_ALLOCATION_STATIC)
uint8_t tensor_arena[kTensorArenaSize] ALIGN(16);
#elif defined(EI_CLASSIFIER_ALLOCATION_STATIC_HIMAX)
#pragma Bss(".tensor_arena")
uint8_t tensor_arena[kTensorArenaSize] ALIGN(16);
#pragma Bss()
#elif defined(EI_CLASSIFIER_ALLOCATION_STATIC_HIMAX_GNU)
uint8_t tensor_arena[kTensorArenaSize] ALIGN(16) __attribute__((section(".tensor_arena")));
#else
#define EI_CLASSIFIER_ALLOCATION_HEAP 1
uint8_t* tensor_arena = NULL;
#endif

static uint8_t* tensor_boundary;
static uint8_t* current_location;

template <int SZ, class T> struct TfArray {
  int sz; T elem[SZ];
};
enum used_operators_e {
  OP_RESHAPE, OP_CONV_2D, OP_MAX_POOL_2D, OP_FULLY_CONNECTED, OP_SOFTMAX,  OP_LAST
};
struct TensorInfo_t { // subset of TfLiteTensor used for initialization from constant memory
  TfLiteAllocationType allocation_type;
  TfLiteType type;
  void* data;
  TfLiteIntArray* dims;
  size_t bytes;
};
struct NodeInfo_t { // subset of TfLiteNode used for initialization from constant memory
  struct TfLiteIntArray* inputs;
  struct TfLiteIntArray* outputs;
  void* builtin_data;
  used_operators_e used_op_index;
};

TfLiteContext ctx{};
TfLiteTensor tflTensors[29];
TfLiteEvalTensor tflEvalTensors[29];
TfLiteRegistration registrations[OP_LAST];
TfLiteNode tflNodes[14];

const TfArray<2, int> tensor_dimension0 = { 2, { 1,8 } };
const ALIGN(16) float tensor_data1[4] = { 0.33242255449295044, -0.84148931503295898, 0.34198391437530518, 0.070025019347667694, };
const TfArray<1, int> tensor_dimension1 = { 1, { 4 } };
const ALIGN(16) float tensor_data2[48] = { -0.46648329496383667, -0.16351820528507233, -0.091896884143352509, -0.20061670243740082, -0.099471107125282288, -0.052666150033473969, -0.04006020724773407, -0.43282145261764526, 0.036905128508806229, -0.47932451963424683, -1.0251553058624268, -0.25940164923667908, -0.010944468900561333, -0.64221668243408203, -0.069663770496845245, -0.54221600294113159, -0.015117278322577477, -0.1248030886054039, -0.3334580659866333, -0.25502324104309082, -0.097010716795921326, -0.1228993684053421, -0.058537542819976807, -0.10961174219846725, -0.16279204189777374, -0.73999881744384766, -0.30212953686714172, 0.016904324293136597, -0.36277011036872864, 0.18958370387554169, 0.047223590314388275, -0.093738526105880737, -0.23097583651542664, -0.33866813778877258, -0.031583927571773529, -0.095730729401111603, -0.12398124486207962, -0.30777254700660706, -0.27703636884689331, -0.27047538757324219, 0.041642505675554276, -0.10237903892993927, -0.14967511594295502, 0.34578174352645874, -0.07144203782081604, 0.30552336573600769, -0.12314488738775253, -0.65098416805267334, };
const TfArray<1, int> tensor_dimension2 = { 1, { 48 } };
const ALIGN(16) float tensor_data3[24] = { 0.11291418224573135, 0.16760434210300446, -0.037760011851787567, 0.23396928608417511, 0.019806703552603722, -0.22786329686641693, 0.048125457018613815, -0.049994897097349167, 0.13563226163387299, -0.21302175521850586, -0.23832103610038757, 0.12841726839542389, -0.12447008490562439, -0.26954847574234009, -0.21366797387599945, 0.016738830134272575, 0.1643836498260498, 0.16897431015968323, 0.26092693209648132, -0.041302245110273361, 0.031628545373678207, -0.11712467670440674, 0.11334778368473053, 0.19053836166858673, };
const TfArray<1, int> tensor_dimension3 = { 1, { 24 } };
const ALIGN(16) float tensor_data4[12] = { -0.49584457278251648, -0.039821721613407135, 0.073464684188365936, 0.10929062217473984, 0.63007020950317383, -0.27725714445114136, 0.50675028562545776, 0.18641436100006104, -0.09111998975276947, -0.48966410756111145, 0.81934291124343872, -0.51993405818939209, };
const TfArray<1, int> tensor_dimension4 = { 1, { 12 } };
const ALIGN(16) float tensor_data5[4*48] = { 
  -10.653932571411133, 0.16162396967411041, -6.9813928604125977, 0.29949504137039185, -0.062387820333242416, -5.0146713256835938, 0.5329211950302124, 0.61934775114059448, 0.58655887842178345, -5.3196067810058594, -2.3550190925598145, 0.51696991920471191, 0.16843156516551971, 0.871620774269104, 0.29531270265579224, -3.5848948955535889, -6.8826570510864258, -0.052479352802038193, -6.3424630165100098, 0.51243549585342407, 0.24865469336509705, -0.17497384548187256, -0.18878549337387085, -0.19837617874145508, 0.16480924189090729, -6.3979282379150391, -10.685526847839355, 0.56209754943847656, 0.91205757856369019, -0.64732944965362549, -5.4580907821655273, -0.016432555392384529, 0.73483890295028687, 0.99783438444137573, -0.26249375939369202, 0.25985747575759888, -4.1431794166564941, 0.83192259073257446, 0.81718921661376953, -7.6737480163574219, -6.2486023902893066, 0.0064127249643206596, -0.30615469813346863, -1.4663330316543579, -0.32061779499053955, -2.1336963176727295, 0.10787717252969742, 2.3373665809631348, 
  0.73951339721679688, -0.17998194694519043, 0.19998008012771606, -5.2156147956848145, -0.26054015755653381, 0.4777909517288208, -0.27799114584922791, 1.1162688732147217, -5.1741299629211426, 0.90662169456481934, -4.4933114051818848, -4.6175985336303711, -2.9685029983520508, -5.0468635559082031, -0.27846637368202209, 0.80668765306472778, 0.48652532696723938, 0.18030281364917755, -2.1832695007324219, 1.0919005870819092, -0.19953647255897522, -0.20327365398406982, -0.20809625089168549, -0.067010261118412018, -0.08200102299451828, 1.3549394607543945, 1.0607154369354248, -4.285285472869873, 0.92945694923400879, 0.44629281759262085, 0.77362537384033203, -0.23685392737388611, 0.94497025012969971, -4.6840033531188965, -0.31930390000343323, -0.25924965739250183, -0.33645078539848328, 0.85432499647140503, 0.794758141040802, 0.15826262533664703, 1.1318995952606201, 0.18560081720352173, -0.089146248996257782, 0.83251327276229858, -0.19159969687461853, 0.72549974918365479, -0.041852932423353195, -4.8846511840820312, 
  0.74896365404129028, -0.1403643935918808, -1.5899063348770142, 0.82829958200454712, -0.094545289874076843, -2.0951173305511475, -1.0031051635742188, -5.8802037239074707, 0.77338337898254395, 0.41066396236419678, 3.5555675029754639, 0.66343706846237183, 0.35012263059616089, 0.79117178916931152, -0.14881972968578339, 0.87683427333831787, -1.2086669206619263, 0.089915193617343903, -5.9423871040344238, -9.3141069412231445, -0.26592296361923218, 0.019862940534949303, -0.076669834554195404, 0.16520030796527863, 0.18889148533344269, 1.0025297403335571, 0.90099358558654785, 0.72993654012680054, -1.9908679723739624, -3.5535194873809814, -1.9367597103118896, -0.18288922309875488, -3.0662269592285156, 1.4470838308334351, -0.34765538573265076, 0.05765843391418457, -0.16893662512302399, -1.9239660501480103, -2.5597803592681885, -0.76761376857757568, -0.62225693464279175, -0.18273402750492096, 0.060830753296613693, -2.6800417900085449, 0.30694547295570374, -2.8127241134643555, 0.02402244508266449, -0.23775705695152283, 
  -2.7236111164093018, 0.19502699375152588, 0.19779424369335175, -0.80940449237823486, 0.14385890960693359, 0.61821216344833374, 0.65738928318023682, -1.8803738355636597, 0.34243097901344299, -1.4776139259338379, -2.5797336101531982, 0.41036325693130493, 0.10260918736457825, -0.6385311484336853, -0.28828555345535278, -1.192090630531311, 0.38886809349060059, 0.014736678451299667, 2.8613729476928711, -3.5642440319061279, 0.23911058902740479, 0.046725410968065262, -0.2576163113117218, -0.1070520281791687, -0.12328563630580902, -3.1961662769317627, -4.0982303619384766, 0.39822977781295776, -2.5416965484619141, 0.26734578609466553, 0.75581490993499756, -0.17867724597454071, -0.22193059325218201, -2.589648962020874, -0.05424962192773819, 0.051143210381269455, 1.5750753879547119, -1.7068226337432861, -2.7369213104248047, 0.20343470573425293, 0.10300024598836899, -0.040304385125637054, -0.024128729477524757, 0.54766923189163208, -0.058029919862747192, 0.63692367076873779, 0.050441991537809372, -10.951023101806641, 
};
const TfArray<2, int> tensor_dimension5 = { 2, { 4,48 } };
const ALIGN(16) float tensor_data6[12*1*3*1] = { 
  /* [0][0][][] */ -0.091027013957500458, 0.73475116491317749, 0.9944840669631958, 
  /* [1][0][][] */ 0.014809360727667809, 0.025478320196270943, -0.22802947461605072, 
  /* [2][0][][] */ 0.52024030685424805, -2.1961555480957031, 0.48591762781143188, 
  /* [3][0][][] */ -1.772314190864563, -0.91049718856811523, 0.67015594244003296, 
  /* [4][0][][] */ -0.070107452571392059, -1.9775407314300537, 0.0052357944659888744, 
  /* [5][0][][] */ 0.88780385255813599, -0.72466391324996948, 0.30842888355255127, 
  /* [6][0][][] */ -2.8033938407897949, -0.45501729846000671, -1.0124979019165039, 
  /* [7][0][][] */ -1.5602875947952271, -0.81175178289413452, 0.51069587469100952, 
  /* [8][0][][] */ 0.68961668014526367, -1.3024998903274536, 1.0027353763580322, 
  /* [9][0][][] */ 0.071285732090473175, 0.17905093729496002, 0.3510155975818634, 
  /* [10][0][][] */ -1.183432936668396, -1.2970879077911377, -0.5729554295539856, 
  /* [11][0][][] */ 0.090185880661010742, 0.12986685335636139, 0.43085604906082153, 
};
const TfArray<4, int> tensor_dimension6 = { 4, { 12,1,3,1 } };
const ALIGN(16) float tensor_data7[24*1*3*12] = { 
  /* [0][0][][] */ -0.87712001800537109,-0.10479707270860672,-0.98247110843658447,0.98781508207321167,1.386744499206543,0.87495177984237671,-0.81659948825836182,1.8904321193695068,-1.2851073741912842,-0.35789018869400024,1.7969508171081543,-0.044719509780406952, 0.28800109028816223,-0.20110867917537689,1.045391321182251,0.11834054440259933,-0.11007709801197052,-0.97424197196960449,-0.17629651725292206,0.083886072039604187,-0.13950538635253906,0.098726086318492889,-4.7254805564880371,-0.015128034166991711, 0.20316441357135773,0.12530604004859924,-3.3441832065582275,-1.4697446823120117,-2.0320720672607422,0.56041944026947021,-1.3305203914642334,-1.496735692024231,1.0695163011550903,0.071699038147926331,-1.2310860157012939,0.43478909134864807, 
  /* [1][0][][] */ -0.51187103986740112,-0.14352799952030182,-0.55499303340911865,-5.0061707496643066,0.81659024953842163,0.50561040639877319,0.87947231531143188,-1.015539288520813,-1.2498581409454346,-0.19732996821403503,1.7363361120223999,-0.78098213672637939, 0.10973840951919556,0.0097615486010909081,0.56238079071044922,-1.1544317007064819,-0.38696017861366272,-0.09328104555606842,-0.67591887712478638,-1.0076658725738525,0.042002920061349869,-0.15690667927265167,0.64036953449249268,0.16222475469112396, 0.54916572570800781,0.22321844100952148,2.1703886985778809,1.0761516094207764,-0.85879123210906982,0.30355769395828247,-0.33358222246170044,-0.80632078647613525,3.8549697399139404,0.22052977979183197,-0.74686801433563232,-0.50017112493515015, 
  /* [2][0][][] */ -4.6092715263366699,0.035348031669855118,0.50956010818481445,-0.62671482563018799,1.7785429954528809,1.5577540397644043,0.050316110253334045,-0.30863320827484131,-0.69767564535140991,-2.3528783321380615,1.9936850070953369,-1.2429672479629517, -0.18469840288162231,-0.1949286162853241,-0.23922616243362427,0.088399507105350494,-0.13302342593669891,-4.3681559562683105,0.20407845079898834,-0.19641430675983429,-0.14449791610240936,0.030817111954092979,-1.2458961009979248,0.044441469013690948, -2.0081605911254883,-0.13848106563091278,0.46131205558776855,-0.32234779000282288,-0.62207835912704468,0.26444581151008606,1.0147175788879395,-0.65208983421325684,1.991358757019043,-0.56426060199737549,-1.254502534866333,-0.61951661109924316, 
  /* [3][0][][] */ -0.99171888828277588,-0.14446315169334412,1.2825603485107422,-2.0353214740753174,1.5122220516204834,0.92489343881607056,-1.0857707262039185,-1.8593306541442871,0.6849479079246521,-0.56004172563552856,1.9129340648651123,-0.13158763945102692, 0.17093370854854584,0.1359427273273468,-0.44784849882125854,0.84770971536636353,0.42858278751373291,-0.83274447917938232,-0.14108124375343323,0.6619911789894104,-0.46627616882324219,0.050338543951511383,-0.10212919861078262,0.06579764187335968, 0.70769107341766357,-0.0091291815042495728,-4.3910880088806152,-0.097977638244628906,-2.725428581237793,-0.53162413835525513,-7.4991259574890137,-3.1602733135223389,-0.97693336009979248,0.26347169280052185,0.37737694382667542,-1.1287388801574707, 
  /* [4][0][][] */ -1.3889602422714233,0.0035785024520009756,-0.36779037117958069,-1.803804874420166,1.6127616167068481,0.67363095283508301,-2.9914824962615967,0.95315647125244141,0.57952100038528442,-0.90026623010635376,3.3974993228912354,-1.3673945665359497, 0.31371787190437317,-0.15345960855484009,0.11108671128749847,-0.010450376197695732,-0.61258023977279663,-0.44931891560554504,-0.34456470608711243,0.12326700240373611,-0.29248669743537903,0.094675116240978241,-3.889519214630127,-0.0095026865601539612, 1.8665015697479248,0.061439383774995804,-1.0805226564407349,-1.4593122005462646,-1.773093581199646,-0.23141337931156158,-5.5042557716369629,-3.1538364887237549,-0.1522432267665863,0.85437911748886108,0.8190997838973999,-0.2894146740436554, 
  /* [5][0][][] */ -0.6062970757484436,0.089520737528800964,-0.19551609456539154,-2.4758079051971436,0.036170154809951782,-0.28989303112030029,-1.0905807018280029,-2.3446621894836426,0.9637107253074646,-0.42626401782035828,-0.84981405735015869,0.061870668083429337, -0.020326130092144012,0.12462568283081055,0.062208522111177444,0.99793803691864014,1.2928758859634399,0.49976176023483276,-0.23862606287002563,0.84517961740493774,0.12445581704378128,0.11524593830108643,0.64870238304138184,-0.14475415647029877, 1.3561719655990601,0.18782147765159607,-1.5457167625427246,-0.18994954228401184,-0.4160824716091156,-0.83839386701583862,-0.64876413345336914,-1.1492403745651245,-2.4567844867706299,0.49925225973129272,-0.72264742851257324,0.27829635143280029, 
  /* [6][0][][] */ 0.35949677228927612,0.039394333958625793,0.59574013948440552,0.27624577283859253,0.84383755922317505,0.24101066589355469,0.0021561235189437866,0.2171873152256012,0.38149642944335938,0.16983594000339508,-1.5518456697463989,0.13779482245445251, 0.4067695140838623,-0.14980420470237732,-5.1131014823913574,-0.33730563521385193,0.15859092772006989,-0.58887529373168945,-0.17699119448661804,-0.29947975277900696,-3.9049007892608643,0.076286293566226959,-0.46281349658966064,0.966064453125, -0.095882125198841095,-0.17753793299198151,1.1721981763839722,-0.63608360290527344,0.27550455927848816,1.482418417930603,0.99187278747558594,-0.75067728757858276,0.41754287481307983,-0.055229313671588898,0.57474470138549805,-0.043760485947132111, 
  /* [7][0][][] */ -0.11288218200206757,0.12739494442939758,0.36156049370765686,-0.90224605798721313,-0.025664448738098145,-0.11533669382333755,-1.5747882127761841,-0.78233259916305542,0.15351912379264832,0.10932260006666183,1.3093398809432983,0.28983509540557861, -0.88131952285766602,-0.2004573792219162,-0.68064463138580322,-1.635351300239563,-0.19533738493919373,0.34737223386764526,0.095685131847858429,-1.8439840078353882,1.2010805606842041,-0.45039963722229004,0.38900399208068848,-1.6698881387710571, -0.002931046299636364,0.16630065441131592,0.15377268195152283,1.1205253601074219,-0.2424531877040863,-0.26127862930297852,-0.51735812425613403,1.0610779523849487,-0.079260848462581635,0.039435233920812607,-0.77521932125091553,0.16498444974422455, 
  /* [8][0][][] */ -0.260689377784729,-0.085345625877380371,-1.1189080476760864,-1.7372874021530151,0.12257777899503708,0.37567046284675598,-1.101764440536499,0.58224892616271973,-0.83495622873306274,-0.10929204523563385,1.1612347364425659,0.073913000524044037, 0.20742231607437134,0.095746226608753204,0.64644467830657959,-0.4984147846698761,0.11434910446405411,-0.33249515295028687,-1.426246166229248,-0.58420133590698242,0.25174340605735779,-0.043105620890855789,0.30620568990707397,-0.11623220145702362, -0.64029568433761597,-0.080177716910839081,2.9427149295806885,-0.77932649850845337,-0.45605394244194031,-0.15044853091239929,-0.79773932695388794,-2.1117379665374756,1.2747831344604492,-0.64588826894760132,-0.22644318640232086,-0.1296735554933548, 
  /* [9][0][][] */ -0.44034057855606079,-0.20397728681564331,-2.3992118835449219,-0.3983905017375946,-1.1521751880645752,-0.14469018578529358,0.22225762903690338,-0.28114831447601318,0.69002038240432739,-0.19009649753570557,-1.9993019104003906,0.52632182836532593, 0.17940890789031982,0.12454354763031006,1.8087853193283081,0.33981949090957642,1.2517108917236328,1.1387094259262085,-4.3962774276733398,0.38335534930229187,0.019225930795073509,-0.26086649298667908,-0.069080628454685211,-0.45254543423652649, 0.73300719261169434,-0.15467345714569092,-2.0124804973602295,1.3734694719314575,-0.12646040320396423,-1.0440673828125,-1.8040280342102051,1.6424307823181152,-0.9194716215133667,0.58801150321960449,-0.21264317631721497,0.29658612608909607, 
  /* [10][0][][] */ -0.56133186817169189,-0.1533825546503067,0.40780872106552124,-3.2593867778778076,0.35354951024055481,0.16483274102210999,-0.99992018938064575,-6.5354299545288086,0.39219558238983154,-0.3090730607509613,-1.1832300424575806,-0.36030265688896179, -0.39564570784568787,0.022149350494146347,0.55297011137008667,0.82038217782974243,0.11737770587205887,-0.089917242527008057,0.46897321939468384,0.92639374732971191,-0.045917559415102005,-0.12099739909172058,-3.3426711559295654,-0.14054484665393829, -5.9781284332275391,-0.071854986250400543,-0.00037617923226207495,0.70210248231887817,1.126158595085144,0.56074047088623047,-0.70379960536956787,3.2627525329589844,-2.004755973815918,-1.7045820951461792,-0.27005752921104431,-0.55125135183334351, 
  /* [11][0][][] */ 0.10278291255235672,0.036216814070940018,-0.41926515102386475,0.15845519304275513,-0.09466109424829483,-0.21034559607505798,-4.1038155555725098,0.1646200567483902,-0.092968545854091644,0.16863565146923065,-0.56969559192657471,-0.083144918084144592, -2.0569589138031006,-0.078259430825710297,-4.0430421829223633,-0.51878881454467773,-1.4717499017715454,0.8001524806022644,0.64157283306121826,-0.45946300029754639,1.9733701944351196,-0.67556363344192505,-1.1141067743301392,0.21021389961242676, -0.36950570344924927,0.11096969246864319,-0.23353751003742218,-0.31998324394226074,0.21772703528404236,-0.36639368534088135,3.4238002300262451,-0.13424475491046906,-0.27273541688919067,-0.13154536485671997,2.2437896728515625,0.35240951180458069, 
  /* [12][0][][] */ 0.024480350315570831,0.17797963321208954,-0.16466712951660156,-0.1143159493803978,0.11881867796182632,-0.28518393635749817,-0.01959991455078125,-0.080542571842670441,0.028039911761879921,-0.055679049342870712,0.014739237725734711,-0.24111288785934448, -0.28193995356559753,-0.12061832100152969,0.091104686260223389,0.12773968279361725,-0.14869368076324463,-0.33439159393310547,0.0057993987575173378,-0.10569341480731964,-0.15952564775943756,-0.31638213992118835,-0.026107367128133774,-0.23313850164413452, 0.037164725363254547,-0.21183371543884277,0.086467593908309937,-0.18176765739917755,-0.2320098876953125,-0.2183927595615387,-0.144430011510849,-0.0090695898979902267,-0.094742290675640106,0.022070383653044701,0.034281626343727112,-0.039486642926931381, 
  /* [13][0][][] */ -0.10174418240785599,-0.22985713183879852,0.48179036378860474,-0.32610529661178589,-0.01807638444006443,-0.37177687883377075,-0.74656325578689575,-0.43543809652328491,-0.015669753775000572,-0.15396648645401001,0.88094902038574219,0.095545925199985504, -0.62805271148681641,0.14903643727302551,1.9385429620742798,-0.96186560392379761,0.23038536310195923,-0.31225860118865967,-0.070617303252220154,-2.0357389450073242,0.86392605304718018,-0.4442470371723175,-0.46469339728355408,-0.23692961037158966, 0.10236538946628571,-0.12573392689228058,-1.0434056520462036,1.34885573387146,-0.59246343374252319,-1.5003756284713745,-0.65809261798858643,1.1414769887924194,-0.36004593968391418,0.038460567593574524,-0.79722774028778076,0.24182678759098053, 
  /* [14][0][][] */ -0.61856639385223389,0.08338591456413269,-1.4988698959350586,-0.022452803328633308,0.2989763617515564,0.42915335297584534,0.11986260116100311,-0.29570391774177551,0.0031593625899404287,-0.61009097099304199,-0.90612334012985229,-0.55633825063705444, 0.14850915968418121,0.11103712022304535,-0.027613935992121696,-0.12433556467294693,0.19403377175331116,0.59379154443740845,-1.2314059734344482,-0.061292652040719986,0.63280797004699707,0.10790381580591202,0.85129904747009277,0.082000002264976501, 1.0033115148544312,0.18344268202781677,-1.3358955383300781,1.088193416595459,-1.2624815702438354,-0.69220161437988281,-1.1414579153060913,1.0253112316131592,-0.3547356128692627,1.0240538120269775,0.3723626434803009,0.64056336879730225, 
  /* [15][0][][] */ -1.0011831521987915,0.20471373200416565,1.5370275974273682,-0.8683159351348877,0.96501964330673218,0.20502261817455292,-0.9394795298576355,-0.99540287256240845,0.78182011842727661,-0.54744905233383179,-1.2757419347763062,-0.41096112132072449, -0.38501688838005066,0.11326473206281662,-0.42274844646453857,1.0983057022094727,0.43066737055778503,-0.64664894342422485,0.12026199698448181,1.0179072618484497,-0.14674632251262665,-0.39390984177589417,-0.10627388954162598,-0.25637179613113403, -1.4093989133834839,0.014675159938633442,-2.8550922870635986,0.39800927042961121,0.14888639748096466,1.0254536867141724,-5.2655391693115234,-0.99148941040039062,-2.735175609588623,-0.24848249554634094,-0.59194618463516235,0.33309835195541382, 
  /* [16][0][][] */ 0.24589571356773376,0.18586477637290955,-1.4398139715194702,0.36894157528877258,-0.62959998846054077,-0.19923536479473114,-1.2158432006835938,-0.32473757863044739,-0.56214368343353271,0.12557926774024963,-1.9202330112457275,-0.17630197107791901, 0.093500107526779175,-0.002034312579780817,1.4100768566131592,-0.065487131476402283,0.22388444840908051,-0.071886457502841949,-1.4576824903488159,-0.29324936866760254,0.46810567378997803,0.08867046982049942,1.5388369560241699,0.053434297442436218, -1.0058292150497437,-0.047915048897266388,-2.5844423770904541,0.86346608400344849,-0.1058073565363884,0.31059631705284119,2.3318111896514893,1.9526879787445068,-0.68399423360824585,-0.74164283275604248,0.44634011387825012,0.18448133766651154, 
  /* [17][0][][] */ -0.12017319351434708,0.047222308814525604,-0.50725042819976807,-0.03576374426484108,-0.16417792439460754,0.57623779773712158,0.0033242290373891592,-0.38497886061668396,0.1123766303062439,0.17938604950904846,-0.78391569852828979,-0.21300171315670013, 0.63923084735870361,0.025393504649400711,-1.7479832172393799,-1.5193181037902832,-1.1949044466018677,-1.434130072593689,-0.75845277309417725,-1.3952083587646484,-0.56913691759109497,0.11409846693277359,-0.27862486243247986,0.17928554117679596, -0.2022993415594101,0.13772280514240265,-1.4488111734390259,-4.4142684936523438,0.65691447257995605,0.88667058944702148,1.2063372135162354,-3.5287747383117676,1.2575541734695435,-0.23479051887989044,1.9831429719924927,0.46641337871551514, 
  /* [18][0][][] */ 0.12629605829715729,0.16254369914531708,-0.027494603767991066,-1.9937702417373657,0.976032555103302,1.1568896770477295,0.34830927848815918,-1.527353048324585,0.17187324166297913,0.11770531535148621,0.26298514008522034,0.10569868981838226, -0.45345589518547058,-0.11965364217758179,0.16445310413837433,-0.1434604674577713,-0.82760989665985107,-0.20019625127315521,2.6318511962890625,0.023728521540760994,-0.44642987847328186,-0.390115886926651,-1.4946670532226562,-0.17901431024074554, -2.0259654521942139,-0.21321670711040497,1.3198670148849487,-0.41200566291809082,0.14116327464580536,0.30261513590812683,0.67379462718963623,-0.28846055269241333,1.4663099050521851,-0.99712264537811279,-0.92481935024261475,-0.41181758046150208, 
  /* [19][0][][] */ -0.70420622825622559,-0.061055425554513931,0.87261217832565308,-1.4042093753814697,1.3270232677459717,0.17864637076854706,-0.85060608386993408,-1.3673954010009766,0.99448716640472412,-0.63747483491897583,1.6448520421981812,-0.36169996857643127, 0.10596321523189545,0.17039075493812561,-0.37051492929458618,0.58303999900817871,0.055483613163232803,-1.0270041227340698,-0.34971308708190918,0.61484944820404053,-0.35817062854766846,0.088120333850383759,-0.00035430071875452995,-0.10551931709051132, 1.4440441131591797,0.035727974027395248,-0.44696637988090515,-0.67722010612487793,-1.6598790884017944,-0.56665921211242676,-6.9695358276367188,-3.97662353515625,-2.7911531925201416,0.85210168361663818,0.79556524753570557,-0.60236620903015137, 
  /* [20][0][][] */ 0.13984602689743042,-0.21021561324596405,-1.0175576210021973,-0.09647957980632782,-0.98479825258255005,0.18809254467487335,-1.8298330307006836,-0.21704339981079102,-0.2159707248210907,0.15402005612850189,-0.10822860151529312,0.28320693969726562, -2.0003304481506348,-0.020303061231970787,1.6486008167266846,-0.34865128993988037,1.5090316534042358,0.74788397550582886,-1.0097242593765259,-1.5809656381607056,0.72639429569244385,-0.56432616710662842,1.0266045331954956,-0.44270637631416321, 0.37174525856971741,-0.21123892068862915,0.0059999031946063042,1.5398281812667847,-0.18503774702548981,-0.5553593635559082,-0.70163947343826294,1.6062136888504028,-0.25108733773231506,0.36324527859687805,-2.4528834819793701,-0.17476101219654083, 
  /* [21][0][][] */ -0.20792731642723083,-0.1563057005405426,0.095360912382602692,-0.28510287404060364,0.10369490087032318,-0.28069671988487244,-0.27389335632324219,-0.19596263766288757,0.092001795768737793,-0.29561823606491089,-0.12395623326301575,-0.33620396256446838, -0.088896147906780243,-0.016060629859566689,-0.27143695950508118,-0.22868078947067261,0.025099469348788261,0.034300122410058975,-0.39518356323242188,-0.16596110165119171,0.078212328255176544,-0.19129222631454468,-0.00080234918277710676,-0.30447292327880859, -0.13676692545413971,-0.095330208539962769,-0.131104975938797,-0.22150607407093048,-0.0027615854050964117,-0.17031039297580719,0.23000518977642059,0.031784281134605408,-0.30589422583580017,-0.11872046440839767,-0.12441946566104889,-0.032664898782968521, 
  /* [22][0][][] */ -0.12026256322860718,0.18638782203197479,-0.099175833165645599,0.17561611533164978,-0.32202571630477905,-0.32047292590141296,1.3008279800415039,-0.034518089145421982,0.47703912854194641,-0.054711803793907166,0.38164404034614563,0.20353373885154724, -2.6508300304412842,4.2683179344749078e-05,-1.9641332626342773,-0.32364183664321899,1.791236400604248,1.2074234485626221,-1.0976486206054688,0.07667706161737442,-2.3438200950622559,-1.0313199758529663,-1.4236893653869629,-0.86576205492019653, 0.29515665769577026,0.09624587744474411,-0.030249711126089096,-0.27014261484146118,-1.0529381036758423,-1.1788215637207031,1.0075641870498657,-0.3647824227809906,0.18268802762031555,0.27634376287460327,-5.238835334777832,0.3367779552936554, 
  /* [23][0][][] */ -1.5010335445404053,-0.046228855848312378,-0.47428449988365173,-1.0357894897460938,0.14586010575294495,-0.74641674757003784,2.1738722324371338,-0.96999633312225342,-0.35916110873222351,-1.2782806158065796,0.34978431463241577,-0.43658125400543213, -1.2244893312454224,-0.066124141216278076,-0.51228410005569458,-0.66506868600845337,0.25363555550575256,-0.42896568775177002,2.5562496185302734,0.18512852489948273,-0.92093688249588013,-1.0283410549163818,0.96100735664367676,-0.26643466949462891, -0.46200487017631531,0.059258583933115005,-0.076829686760902405,0.5548279881477356,0.12828813493251801,-1.2357420921325684,0.49503269791603088,0.75755995512008667,-0.1684013158082962,-0.91971981525421143,0.23086638748645782,-0.23448628187179565, 
};
const TfArray<4, int> tensor_dimension7 = { 4, { 24,1,3,12 } };
const ALIGN(16) float tensor_data8[48*1*3*24] = { 
  /* [0][0][][] */ -0.32857000827789307,-0.60071569681167603,-1.5999306440353394,-1.5959259271621704,1.975868821144104,-0.047744087874889374,0.80094265937805176,-0.22207124531269073,-0.6489219069480896,0.44607678055763245,0.20066516101360321,-3.7405750751495361,-0.047152124345302582,0.22052042186260223,0.56102687120437622,-0.15844658017158508,-0.13234952092170715,4.5559849739074707,-0.39028671383857727,3.0804054737091064,-0.37194481492042542,-0.046613536775112152,1.3406568765640259,1.0304807424545288, 0.13399298489093781,0.54108768701553345,-0.35056278109550476,0.73505514860153198,0.42983031272888184,-1.0119445323944092,-2.6600778102874756,0.34703299403190613,0.19134394824504852,-2.099001407623291,0.57095581293106079,0.80330348014831543,-0.12360139936208725,0.1198967769742012,-3.8700070381164551,0.13013164699077606,-0.16670003533363342,-4.7352113723754883,0.3537384569644928,0.67446988821029663,0.0095322681590914726,0.12769033014774323,-0.30066052079200745,1.1804350614547729, -0.34312564134597778,-0.51196408271789551,-0.32214301824569702,-0.88945043087005615,-0.35458368062973022,-0.12925568222999573,-0.37972596287727356,-0.52612167596817017,-0.76018798351287842,-0.34182223677635193,-0.014437684789299965,-0.22782424092292786,-0.055850625038146973,-0.57535469532012939,-0.3977939784526825,-0.3144085705280304,0.35914614796638489,-0.30228808522224426,-0.52669775485992432,-0.7049860954284668,-0.4558752179145813,-0.12709729373455048,-0.17450352013111115,-0.21663115918636322, 
  /* [1][0][][] */ 0.0090600969269871712,-0.22002144157886505,0.001342521165497601,-0.034486673772335052,-0.069344796240329742,0.014632973819971085,0.14923758804798126,-0.21486777067184448,0.15129800140857697,-0.19389459490776062,-0.14687025547027588,-0.10172204673290253,0.10237593948841095,0.011115965433418751,0.075747661292552948,-0.1436021625995636,-0.077053390443325043,-0.11664831638336182,-0.08921215683221817,-0.098047800362110138,-0.15197543799877167,0.015390157699584961,0.13672679662704468,0.13892413675785065, -0.13770397007465363,-0.021383175626397133,-0.074242092669010162,0.037842601537704468,-0.18402066826820374,0.017843274399638176,-0.077380850911140442,-0.16325931251049042,-0.21436630189418793,-0.058426491916179657,-0.078025124967098236,-0.21617874503135681,0.030504748225212097,-0.20312416553497314,-0.19290769100189209,-0.092857785522937775,-0.11515853554010391,0.01383534912019968,-0.05353035032749176,-0.22326679527759552,-0.008600698783993721,-0.02456367015838623,0.036770105361938477,-0.054282426834106445, -0.17323344945907593,-0.022233905270695686,-0.18323856592178345,-0.022214673459529877,0.031189432367682457,-0.03693871945142746,0.064816974103450775,-0.017374206334352493,-0.19121527671813965,-0.015520410612225533,-0.24417267739772797,-0.073248550295829773,0.10298313200473785,-0.016595311462879181,-0.025238392874598503,0.0082181943580508232,-0.022038636729121208,-0.15069818496704102,-0.17671939730644226,-0.063404664397239685,0.04432813823223114,0.094728156924247742,-0.054793402552604675,-0.010986904613673687, 
  /* [2][0][][] */ -0.68063288927078247,-0.23688484728336334,-0.62399399280548096,-0.27539658546447754,-0.045730438083410263,-0.24308918416500092,-0.65396153926849365,-0.25378480553627014,-0.28777462244033813,-0.28871157765388489,-0.3544062077999115,-0.025028236210346222,0.018896505236625671,-0.27733549475669861,-0.26932364702224731,-0.16947537660598755,-0.16995462775230408,-0.011200428009033203,-0.16037245094776154,-0.19904293119907379,-0.053470693528652191,-0.16114668548107147,-0.52150017023086548,-0.05653207004070282, -0.31700539588928223,-1.1115731000900269,-1.0578449964523315,0.17472429573535919,0.40902438759803772,0.21716950833797455,0.40977296233177185,-0.48914703726768494,-1.2234693765640259,-0.23273618519306183,1.2869762182235718,-0.83807915449142456,-0.082571074366569519,-0.63450896739959717,0.023844160139560699,0.42761203646659851,-0.27037510275840759,-0.99816012382507324,-0.13944675028324127,-1.9925714731216431,-0.27738919854164124,-0.042284451425075531,-0.28806951642036438,0.35464984178543091, 0.82914155721664429,1.4159332513809204,0.96044588088989258,-0.4539094865322113,-1.883491039276123,-0.10927678644657135,-1.3594080209732056,0.47446936368942261,0.69198399782180786,-0.55579322576522827,-0.1143258810043335,1.5001434087753296,0.051318883895874023,1.0130517482757568,-1.5546627044677734,-0.69746345281600952,0.11735149472951889,1.8602272272109985,0.24406522512435913,-0.041542660444974899,0.96756976842880249,-0.083625204861164093,0.10323217511177063,0.61177575588226318, 
  /* [3][0][][] */ -1.4400418996810913,-1.8872749805450439,-0.67337954044342041,0.66684192419052124,-1.4496276378631592,-0.28204280138015747,0.29450550675392151,-0.44638505578041077,-0.61658453941345215,-1.0327568054199219,0.67320871353149414,-0.73067700862884521,-0.031265899538993835,-0.3473246693611145,-2.3308801651000977,-0.18385523557662964,-0.63675284385681152,-0.53873252868652344,0.75139904022216797,-0.69566786289215088,0.2282460629940033,-0.13947872817516327,0.40207594633102417,0.43717476725578308, 0.48847231268882751,1.1640020608901978,0.12523402273654938,-1.7661575078964233,0.13628239929676056,0.37296465039253235,-0.86371952295303345,-0.11025269329547882,0.38730105757713318,0.58201503753662109,-0.11367444694042206,-0.15491324663162231,-0.092281654477119446,1.4115411043167114,-0.32573425769805908,-0.94870364665985107,-0.58710414171218872,2.7564430236816406,-0.14178091287612915,-0.11925917863845825,0.31749540567398071,0.22943617403507233,-1.536365270614624,0.011062503792345524, -1.1118426322937012,-2.8985955715179443,-1.7005206346511841,0.24777472019195557,-0.22646757960319519,1.081845760345459,0.34139978885650635,-0.40187448263168335,-0.68103593587875366,0.84971052408218384,1.546483039855957,-0.52713125944137573,0.063252516090869904,-0.20690524578094482,1.1338939666748047,1.2891663312911987,0.69042462110519409,-1.6522605419158936,-1.2312204837799072,-0.1223650723695755,0.24576783180236816,0.076192907989025116,0.75074827671051025,-0.75891053676605225, 
  /* [4][0][][] */ -0.1214907169342041,0.065713837742805481,0.066244713962078094,-0.28277462720870972,0.029917063191533089,-0.11076526343822479,0.19457182288169861,-0.0344664566218853,-0.11513013392686844,-0.088228851556777954,-0.053924944251775742,-0.23461022973060608,0.073686912655830383,-0.069572404026985168,-0.13086153566837311,0.012934921309351921,-0.081853114068508148,-0.0079922638833522797,-0.093086190521717072,-0.0773501917719841,0.04330926388502121,0.11435763537883759,-0.10954704135656357,0.077532961964607239, -0.16236397624015808,-0.20935037732124329,0.04691285640001297,-0.13852283358573914,-0.015201766043901443,-0.073777362704277039,0.097122848033905029,-0.19827894866466522,-0.22954604029655457,-0.069897964596748352,-0.13265645503997803,-0.20267279446125031,-0.088783584535121918,-0.10325898975133896,-0.0025228387676179409,-0.11435391753911972,-0.25293898582458496,-0.16148892045021057,0.011501881293952465,0.065930560231208801,-0.2201167494058609,0.080608800053596497,-0.061880778521299362,-0.073298417031764984, -0.085241556167602539,0.04915638267993927,-0.16416463255882263,-0.15357530117034912,-0.15232221782207489,-0.064959689974784851,-0.15559665858745575,0.049127385020256042,-0.051512204110622406,0.019470095634460449,0.019716337323188782,-0.10491498559713364,-0.070498630404472351,-0.12968862056732178,0.017644524574279785,0.14562244713306427,-0.16062462329864502,-0.076676055788993835,-0.098882399499416351,-0.13899454474449158,-0.14972996711730957,-0.10949691385030746,-0.13123595714569092,-0.078462801873683929, 
  /* [5][0][][] */ -0.42267349362373352,-1.5083681344985962,-0.044866524636745453,0.066790357232093811,0.089092180132865906,1.4626507759094238,-0.56638026237487793,-0.054335720837116241,-0.27763405442237854,-0.2483956515789032,2.2809629440307617,-0.036583803594112396,-0.093293905258178711,-0.22053095698356628,-0.39652389287948608,0.98408013582229614,0.55691593885421753,-0.17548179626464844,-0.25647571682929993,-0.82833534479141235,-0.0099061327055096626,-0.070491477847099304,0.62029135227203369,0.033397376537322998, 1.2340526580810547,1.5878342390060425,-0.30880790948867798,0.50229513645172119,0.13271121680736542,-1.8145451545715332,-0.1599227637052536,0.12160347402095795,0.1398308277130127,-0.71104663610458374,-1.2147096395492554,0.039437353610992432,0.036149259656667709,1.0122137069702148,0.27768611907958984,-0.87776190042495728,-0.56158930063247681,1.992530345916748,0.53699040412902832,-0.56963878870010376,-0.63625496625900269,-0.046362195163965225,-1.0154426097869873,-2.8760030269622803, -0.38601982593536377,0.15905752778053284,5.1038398742675781,-3.9561142921447754,-6.8139224052429199,-0.80374312400817871,-1.481755256652832,0.79162806272506714,0.55819553136825562,0.041315179318189621,1.4327577352523804,-0.35809805989265442,0.13864444196224213,1.2722311019897461,-0.65946400165557861,-2.0645613670349121,0.35393741726875305,-2.4425947666168213,0.86439520120620728,-1.6968433856964111,1.645751953125,0.074163906276226044,0.33195462822914124,0.082923091948032379, 
  /* [6][0][][] */ 0.35167557001113892,0.5382724404335022,0.40098294615745544,0.13461826741695404,0.27284497022628784,-0.74959772825241089,-0.53201937675476074,-0.035880528390407562,-0.075929000973701477,-1.3445074558258057,1.0548837184906006,0.63890087604522705,0.070099435746669769,0.070746704936027527,0.27535039186477661,3.2455358505249023,-0.23806509375572205,-2.4748585224151611,0.70539557933807373,-0.75774377584457397,-0.017963262274861336,-0.02701413631439209,1.2866450548171997,-0.21475854516029358, -0.47363436222076416,0.17908990383148193,1.3947105407714844,-0.35637298226356506,0.027759473770856857,-0.56806671619415283,-0.11001525819301605,-1.1123836040496826,-0.047059334814548492,-1.6797858476638794,-2.6009128093719482,-0.24251577258110046,0.081773310899734497,0.20034053921699524,-0.23611077666282654,-1.9982362985610962,-0.82730013132095337,0.95474940538406372,-0.27193915843963623,-0.18617114424705505,-2.1205861568450928,0.14152263104915619,1.3929531574249268,-0.029113307595252991, -0.19334065914154053,-0.27132835984230042,-0.14584925770759583,-0.022114437073469162,0.082063287496566772,-0.019314246252179146,-0.14792560040950775,-0.010624045506119728,-0.18757829070091248,0.023709118366241455,0.068226747214794159,-0.14845640957355499,-0.019921824336051941,0.010017594322562218,-0.19859781861305237,-0.15403416752815247,-0.091528929769992828,0.020090114325284958,-0.17569194734096527,-0.14815130829811096,-0.19750544428825378,-0.1220543384552002,-0.098831571638584137,0.12924356758594513, 
  /* [7][0][][] */ -0.15601544082164764,-0.15497893095016479,0.12634842097759247,-0.093225009739398956,0.3560737669467926,-1.240260124206543,-0.084678225219249725,-0.23555439710617065,-0.35963287949562073,-1.0056848526000977,-0.051244337111711502,-0.19336067140102386,-0.042830869555473328,-0.48802316188812256,-0.33009281754493713,-1.5551372766494751,-1.1464492082595825,0.2277829647064209,-0.6949341893196106,-0.48927265405654907,-0.79825258255004883,0.087300941348075867,-2.1881945133209229,-0.028005644679069519, 0.46928784251213074,0.53009563684463501,-0.29446867108345032,0.64427089691162109,0.39699128270149231,0.3402191698551178,-0.62340021133422852,0.75047141313552856,-0.39965420961380005,1.0532300472259521,-0.20007279515266418,0.32808956503868103,-0.029885126277804375,-0.2673211395740509,-0.29632610082626343,-0.7666429877281189,-0.98813366889953613,1.3285493850708008,0.09992014616727829,0.75920969247817993,0.016110433265566826,-0.10749761760234833,0.37993893027305603,0.090430572628974915, -1.8112149238586426,-0.86554825305938721,-0.78544080257415771,-2.4938488006591797,-0.84563547372817993,-1.0747256278991699,0.50431203842163086,0.53313368558883667,0.38601371645927429,0.98163521289825439,-0.15440930426120758,0.011771703138947487,-0.12928213179111481,0.28953275084495544,0.25305277109146118,0.78519302606582642,0.87621647119522095,-0.88678109645843506,0.3914390504360199,0.18310663104057312,-7.0428266525268555,0.047058787196874619,0.12460754811763763,-0.089484855532646179, 
  /* [8][0][][] */ -3.3068528175354004,-0.98164403438568115,-0.37802040576934814,-0.51441848278045654,-0.68409073352813721,-0.33424943685531616,0.055396128445863724,-0.015962664037942886,0.0036310188006609678,-0.10859259963035583,0.68037217855453491,-1.393052339553833,-0.15815111994743347,-0.079835839569568634,-1.9821019172668457,-0.34708070755004883,-0.22044162452220917,-0.21451002359390259,0.51106363534927368,-0.82219511270523071,0.28595486283302307,0.082061842083930969,0.20671705901622772,0.25065717101097107, 0.36704543232917786,1.046970009803772,0.2635422945022583,-1.564994215965271,0.40055009722709656,-0.8134801983833313,-1.3295717239379883,-0.1179141104221344,0.19698259234428406,0.40542057156562805,-0.18586838245391846,-0.46781247854232788,0.081177465617656708,0.90532368421554565,-0.2842731773853302,-1.8250852823257446,-0.5586249828338623,-0.63355576992034912,-0.033552557229995728,-1.6950623989105225,0.25685903429985046,-0.023813631385564804,-1.1499735116958618,0.12323859333992004, -0.7509002685546875,-1.0469167232513428,-2.6083221435546875,0.11829778552055359,-0.37355649471282959,1.2660142183303833,0.39623343944549561,-0.84066259860992432,-0.38368985056877136,-1.1094435453414917,1.1327328681945801,0.70719063282012939,0.15778306126594543,0.23604090511798859,-0.081618458032608032,2.1698257923126221,0.29284229874610901,1.3335213661193848,-0.57173329591751099,-0.43915680050849915,0.93408370018005371,0.024893676862120628,1.1096726655960083,-0.97767561674118042, 
  /* [9][0][][] */ -0.11054591089487076,-0.33512607216835022,-0.14742256700992584,-0.2730557918548584,-0.25277552008628845,-0.31439772248268127,-0.072873204946517944,-0.19011999666690826,-0.030245380476117134,-0.13890540599822998,-0.17462934553623199,-0.13463394343852997,-0.06170634925365448,0.088136546313762665,-0.14403347671031952,-0.28541299700737,-0.35466915369033813,-0.2052704393863678,-0.13512061536312103,0.1343654990196228,-0.36305528879165649,0.11146880686283112,-0.11272132396697998,0.040778040885925293, -0.60819607973098755,-0.99025809764862061,-1.5131521224975586,-2.3786454200744629,-0.47647571563720703,-0.47543987631797791,0.75621438026428223,-0.23977851867675781,-0.96448993682861328,0.1689583957195282,-0.18226337432861328,0.24648301303386688,-0.032030463218688965,-0.55307126045227051,-0.055031239986419678,0.17472228407859802,0.089874990284442902,0.030548391863703728,0.36179131269454956,-0.093813024461269379,-0.36932721734046936,0.070213556289672852,1.0615367889404297,1.416777491569519, 0.37317639589309692,0.13623857498168945,-0.15478569269180298,0.45087924599647522,0.51796466112136841,-0.64207470417022705,-1.9827539920806885,-0.22307577729225159,0.41445353627204895,-2.2029471397399902,0.54144811630249023,1.1460410356521606,-0.027801945805549622,0.15685951709747314,-2.5996572971343994,0.38544633984565735,-0.096490740776062012,-4.4418516159057617,0.16786582767963409,0.452678382396698,0.2417718768119812,0.027871057391166687,-0.041298609226942062,1.2498223781585693, 
  /* [10][0][][] */ -0.47469696402549744,-0.24858716130256653,0.50641113519668579,-0.8364250659942627,-0.68981450796127319,-1.7452338933944702,0.16674494743347168,0.18593169748783112,0.69663983583450317,0.55329078435897827,1.0705434083938599,0.49777483940124512,-0.15641359984874725,0.56485593318939209,0.32212474942207336,0.70488208532333374,0.38526597619056702,-0.21203590929508209,0.96652513742446899,-0.74534082412719727,-0.12565144896507263,0.11113931238651276,0.73798906803131104,-0.29029479622840881, 0.39189553260803223,-0.61976277828216553,-1.6422685384750366,0.51184374094009399,0.4007580578327179,0.32694831490516663,-0.35715818405151367,-1.369868278503418,-1.7422335147857666,-0.04340536892414093,2.0838990211486816,-1.1716551780700684,-0.008697892539203167,-1.5051774978637695,0.054891102015972137,-0.1881290078163147,-3.4683136940002441,1.2020788192749023,-0.64843851327896118,0.43604975938796997,-0.001955544576048851,-0.04452187567949295,-0.6686476469039917,-0.17608849704265594, -1.1472060680389404,-0.22694335877895355,-0.28722736239433289,1.3909661769866943,-0.78334718942642212,-0.22452861070632935,-0.13030239939689636,0.044432420283555984,-0.05401904508471489,-0.86262035369873047,-0.77622520923614502,-1.483311653137207,0.069464586675167084,-0.16106075048446655,-0.18796597421169281,2.0617377758026123,0.1996549665927887,-0.68848443031311035,-0.26067319512367249,0.2999114990234375,-0.21864855289459229,0.080998919904232025,-0.32577264308929443,-0.47414425015449524, 
  /* [11][0][][] */ 0.082065731287002563,-3.1499781608581543,-0.43867415189743042,0.29139536619186401,-0.20757490396499634,-0.090512782335281372,0.71984767913818359,0.14681915938854218,-0.9691084623336792,-0.86838412284851074,-0.23735055327415466,0.18434266746044159,-0.029859516769647598,-0.51757961511611938,0.099880479276180267,0.29620739817619324,-0.82636421918869019,7.0045719146728516,1.2495183944702148,8.4855985641479492,-0.53319066762924194,-0.12880146503448486,-0.16962014138698578,0.13582144677639008, -0.16415427625179291,1.091486930847168,0.74982345104217529,-0.53012531995773315,-0.92711746692657471,-0.27249550819396973,-1.7394176721572876,-0.021350603550672531,0.80199283361434937,-0.7659572958946228,-1.0828008651733398,-1.0798439979553223,0.27059566974639893,0.23674054443836212,-0.25500118732452393,-0.64338809251785278,0.15773317217826843,1.1695816516876221,0.33749881386756897,0.20043274760246277,0.82208305597305298,-0.00725132180377841,-0.10322296619415283,-0.81214582920074463, 0.12152093648910522,-1.6221582889556885,-1.3503735065460205,0.12438318878412247,-0.18640175461769104,1.3665071725845337,0.48173031210899353,0.20351710915565491,-0.61253494024276733,0.85609143972396851,-0.034208521246910095,0.48953992128372192,0.018738284707069397,-0.22759158909320831,0.60804134607315063,1.1549255847930908,0.51789194345474243,-3.221290111541748,-1.3380435705184937,-0.20726069808006287,-0.028667062520980835,0.15075971186161041,0.79473048448562622,-0.35830622911453247, 
  /* [12][0][][] */ 0.14123265445232391,1.1190255880355835,-0.67601495981216431,-0.61370450258255005,0.66130208969116211,-0.65486127138137817,-0.18532375991344452,0.60742950439453125,0.65272670984268188,0.06626051664352417,-0.94044369459152222,-0.66633474826812744,-0.10243461281061172,0.87450885772705078,-1.1480581760406494,0.092837385833263397,0.54722094535827637,-0.96726381778717041,-0.42734503746032715,-0.19675573706626892,1.0217030048370361,-0.092102646827697754,-0.67386817932128906,-0.22631506621837616, -0.060244254767894745,-1.1379629373550415,-2.1355128288269043,0.31406790018081665,-0.35264375805854797,0.093899764120578766,-0.0091340402141213417,-0.98810172080993652,-0.31810775399208069,-0.91186898946762085,-0.44499614834785461,0.69832414388656616,-0.0049975141882896423,0.59584397077560425,-0.22074952721595764,1.3783830404281616,-0.63185495138168335,1.2250208854675293,-0.12347603589296341,-0.6478583812713623,-1.2049410343170166,-0.1734139621257782,0.5092659592628479,-0.18373103439807892, -2.7785525321960449,0.076430089771747589,0.45739585161209106,0.52561885118484497,-3.3962290287017822,0.90487098693847656,-0.8556598424911499,0.24333411455154419,0.37566584348678589,-1.1998655796051025,-1.7457762956619263,-0.37032365798950195,-0.069435909390449524,-0.26923951506614685,2.4479284286499023,-0.78549504280090332,0.35496228933334351,1.8135852813720703,0.14759986102581024,0.73289299011230469,0.62387365102767944,0.069306090474128723,0.4447573721408844,-1.8908482789993286, 
  /* [13][0][][] */ 0.0036701865028589964,-0.31730541586875916,-0.63246637582778931,0.09059450775384903,0.31808272004127502,-0.0025456200819462538,1.0087817907333374,-0.99768537282943726,-0.79702538251876831,-0.24537645280361176,1.1654156446456909,-0.65612238645553589,0.063634864985942841,-1.4539095163345337,0.35382705926895142,0.27947854995727539,-0.62703043222427368,1.5401331186294556,-0.17545604705810547,2.2208850383758545,-1.0382193326950073,0.1549333781003952,-0.1367451399564743,-0.077760867774486542, -0.30663397908210754,0.59534710645675659,1.204491138458252,0.49339833855628967,-0.048773773014545441,-1.7377520799636841,0.51084816455841064,-0.11382570862770081,0.75576841831207275,0.03281841054558754,-0.42738226056098938,-0.62104451656341553,0.088279217481613159,0.36922794580459595,-0.061296701431274414,-0.24437402188777924,-0.045490894466638565,-0.4778711199760437,-0.61024397611618042,0.56510990858078003,-0.5724523663520813,0.025029951706528664,0.60520642995834351,-0.3777959942817688, -0.77712738513946533,-2.5377030372619629,-0.56319195032119751,0.50722259283065796,0.30251598358154297,1.1831077337265015,1.0248441696166992,0.029047600924968719,-1.6721639633178711,1.3051483631134033,1.7278411388397217,-0.29670247435569763,0.032767795026302338,-1.6092064380645752,0.60574573278427124,0.98995780944824219,-1.2764366865158081,0.73990923166275024,-0.17236246168613434,0.50565844774246216,0.89520889520645142,0.010475072078406811,-0.63834661245346069,-0.13580702245235443, 
  /* [14][0][][] */ 0.023192306980490685,0.082897812128067017,6.2542669184040278e-05,-0.1982426792383194,-0.16478948295116425,0.028598081320524216,0.068491771817207336,-0.11349023133516312,-0.0055741956457495689,0.058354422450065613,-0.15147386491298676,-0.068378917872905731,-0.09108436107635498,-0.018419437110424042,-0.022949215024709702,-0.019060481339693069,-0.18791431188583374,-0.10031029582023621,0.13002198934555054,0.050579488277435303,-0.062500715255737305,-0.035102441906929016,0.047491002827882767,0.060316398739814758, -0.059261761605739594,-0.20237556099891663,-0.18239295482635498,-0.21565604209899902,-0.20433196425437927,-0.22075158357620239,-0.16138635575771332,-0.11668926477432251,0.071066930890083313,-0.063057944178581238,0.054132357239723206,-0.025747574865818024,-0.092783413827419281,0.056053433567285538,-0.17866891622543335,0.0094762686640024185,-0.022661397233605385,-0.075296178460121155,-0.12207247316837311,-0.13662183284759521,-0.19883936643600464,0.055706307291984558,-0.16345901787281036,0.11548544466495514, 0.055070355534553528,-0.087443947792053223,-0.015925288200378418,0.09354265034198761,0.046533748507499695,-0.1407148540019989,-0.10649459064006805,-0.051707826554775238,0.10236267745494843,0.077792838215827942,0.102219358086586,-0.14905235171318054,0.035206243395805359,0.058693245053291321,-0.050134740769863129,-0.14742815494537354,-0.063099823892116547,0.028849288821220398,0.097136065363883972,-0.10358675569295883,-0.12843057513237,-0.034354403614997864,-0.073465943336486816,-0.15380136668682098, 
  /* [15][0][][] */ -0.87197840213775635,-1.1680817604064941,0.10239367932081223,-0.37791803479194641,-0.051924396306276321,-0.43977868556976318,0.20516112446784973,-0.46932893991470337,0.74389529228210449,-0.32967016100883484,1.4768310785293579,-0.43677863478660583,0.16310946643352509,-0.11442099511623383,-0.27305623888969421,-1.681065559387207,-1.0705207586288452,1.9652578830718994,0.21799302101135254,1.8488248586654663,-0.82898259162902832,-0.090908646583557129,-0.29561987519264221,0.83006900548934937, -0.57091540098190308,-0.4182460606098175,-0.25331786274909973,0.73354369401931763,-1.8290339708328247,0.19587309658527374,-0.06449909508228302,0.20636798441410065,-0.50966453552246094,0.86717188358306885,-0.21661621332168579,0.55205339193344116,0.15945000946521759,0.39861130714416504,-0.077186755836009979,0.42788633704185486,-0.050719033926725388,-0.19709968566894531,0.026756957173347473,1.3810665607452393,-0.3697684109210968,0.025844931602478027,1.0028842687606812,1.6099363565444946, 1.0050143003463745,0.91497993469238281,-0.0001910196733660996,0.58761841058731079,0.91657280921936035,-0.94498956203460693,-0.14749543368816376,-1.2820303440093994,0.19995409250259399,-0.69084203243255615,1.7628506422042847,-0.60835081338882446,-0.11505910009145737,-0.19959092140197754,0.9512600302696228,-0.48227259516716003,-0.39043116569519043,-1.2728475332260132,-0.40281841158866882,0.42140871286392212,-0.12485089153051376,-0.094857573509216309,-0.68551826477050781,0.16901238262653351, 
  /* [16][0][][] */ -0.36285167932510376,-0.39117684960365295,-0.31747961044311523,-0.36526185274124146,-0.26194325089454651,-0.52313327789306641,-0.14942607283592224,-0.3906504213809967,-0.36146873235702515,-0.5717281699180603,-0.45324009656906128,0.14602980017662048,-0.065951548516750336,-0.48642838001251221,-0.65101724863052368,-0.4405217170715332,-0.48351320624351501,-0.23946951329708099,-0.37701064348220825,-0.24482014775276184,-0.56225639581680298,0.13838042318820953,-0.44873285293579102,0.032555416226387024, -0.28627666831016541,-0.94646596908569336,-1.5179392099380493,0.35358685255050659,0.26856827735900879,0.31902840733528137,0.57624650001525879,-0.31253111362457275,-1.1293348073959351,-0.77642256021499634,1.3004751205444336,-0.98909217119216919,0.11481194198131561,-0.1066620722413063,-0.51709836721420288,0.96661031246185303,-0.28154534101486206,-0.87959301471710205,-0.55167305469512939,-2.2993550300598145,-0.48264104127883911,-0.10824060440063477,0.37555995583534241,0.67969018220901489, 1.2336653470993042,1.244263768196106,1.6236199140548706,-0.074562251567840576,-0.93850421905517578,-0.19052432477474213,-1.833451509475708,0.49478468298912048,0.68270272016525269,-0.81186372041702271,-0.057749096304178238,1.811854362487793,-0.040407698601484299,0.38054749369621277,-1.4498296976089478,-0.95559418201446533,0.30904707312583923,1.2471951246261597,0.25862100720405579,-0.22129090130329132,0.11308956146240234,-0.16565626859664917,0.10968951135873795,1.1696527004241943, 
  /* [17][0][][] */ -0.040482990443706512,-0.19837893545627594,-0.070188008248806,-0.15091606974601746,0.045759964734315872,-0.14048425853252411,0.065187014639377594,-0.0051908264867961407,0.057667560875415802,-0.09013240784406662,0.064464196562767029,-0.14395944774150848,-0.10756397247314453,-0.12352073192596436,-0.14363963901996613,-0.0062522268854081631,0.085068695247173309,-0.070871070027351379,-0.16592645645141602,-0.0040396666154265404,-0.23864920437335968,0.00028407573699951172,0.16133825480937958,-0.1162903755903244, -0.17901371419429779,-0.17231246829032898,-0.19848673045635223,-0.14387954771518707,-0.061023041605949402,-0.15723809599876404,-0.11158467829227448,-0.027445727959275246,-0.094331532716751099,0.071699321269989014,-0.20284508168697357,-0.15629035234451294,-0.13250875473022461,-0.099670670926570892,-0.18392160534858704,-0.0029395534656941891,-0.075015030801296234,-0.12371712923049927,-0.061656180769205093,-0.12912988662719727,-0.0091589493677020073,0.094784930348396301,-0.24195125699043274,-0.072811365127563477, 0.047720063477754593,-0.13235072791576385,-0.050709862262010574,-0.10859328508377075,0.052133884280920029,0.030470872297883034,-0.024705110117793083,-0.15779335796833038,-0.13697449862957001,0.010095585137605667,0.081077121198177338,0.056640919297933578,-0.14045402407646179,-0.15388491749763489,0.070731006562709808,-0.0096097672358155251,0.10625088214874268,-0.03480042889714241,-0.18804074823856354,0.007656383328139782,0.12069351971149445,0.01266343891620636,0.027460513636469841,-0.072192274034023285, 
  /* [18][0][][] */ -2.5685334205627441,-0.64194190502166748,-0.4356418251991272,-0.12053259462118149,-0.67323756217956543,-0.63157719373703003,0.37278321385383606,0.14776206016540527,0.55594527721405029,-0.50826930999755859,0.5966835618019104,-1.6409300565719604,0.16469268500804901,0.38970106840133667,-0.56384754180908203,-0.60860151052474976,-0.15084904432296753,-0.41274535655975342,0.38108325004577637,-0.75387251377105713,0.39710137248039246,0.050844356417655945,-0.38734576106071472,-0.20369355380535126, -0.15219828486442566,0.47301879525184631,0.57534891366958618,-2.206289529800415,-1.6559135913848877,2.1258363723754883,-0.43533667922019958,0.14754371345043182,-0.022449003532528877,-0.83777433633804321,0.029459048062562943,-0.99663221836090088,0.15395303070545197,0.31718921661376953,3.9974431991577148,-1.1664924621582031,-0.34837257862091064,2.8795680999755859,0.25082361698150635,-1.0326099395751953,0.57234287261962891,0.070144489407539368,-1.205249547958374,0.062900282442569733, -0.53971105813980103,-0.29390057921409607,-0.18368329107761383,-0.44123867154121399,-0.57219016551971436,-0.5726923942565918,-0.36834707856178284,-0.27330830693244934,-0.33414363861083984,-0.30656418204307556,-0.25627493858337402,-0.65068131685256958,0.15915124118328094,-0.062186982482671738,-0.4262252151966095,-0.56469219923019409,-0.40855517983436584,-0.36767983436584473,-0.21385182440280914,-0.4707566499710083,-0.14378601312637329,0.094275310635566711,-0.38427248597145081,-0.076341964304447174, 
  /* [19][0][][] */ -0.38029938936233521,-0.75817859172821045,-0.74075573682785034,-0.098009102046489716,0.30197086930274963,0.027155864983797073,0.11184901744127274,-0.55909144878387451,-0.74154645204544067,-0.27277946472167969,-0.2021595686674118,-0.3428548276424408,-0.10295995324850082,-0.47571772336959839,-0.64223682880401611,-0.32339116930961609,-0.89550000429153442,0.0051611382514238358,-0.19729012250900269,-0.17361822724342346,-0.78010159730911255,0.048853114247322083,-0.88824492692947388,-0.097560368478298187, 0.58460086584091187,0.66306084394454956,-0.2600477933883667,0.87875139713287354,0.8821137547492981,0.26333639025688171,-1.0410226583480835,-0.12393000721931458,-0.38547605276107788,1.2724149227142334,-0.20969700813293457,-0.15835265815258026,-0.11773574352264404,-0.61823856830596924,-0.047748692333698273,-2.7567527294158936,-0.85507440567016602,0.92062503099441528,-0.46218356490135193,0.64348018169403076,-0.73212379217147827,-0.073510929942131042,-0.6625291109085083,-0.12641334533691406, -2.0382113456726074,-0.3450743556022644,-0.35916545987129211,-2.9715747833251953,-1.1716004610061646,-1.6782159805297852,0.18446175754070282,0.29214736819267273,0.3197692334651947,0.027815662324428558,-0.0017497923690825701,0.4620223343372345,-0.13298161327838898,0.58735698461532593,-0.044507581740617752,-0.89835798740386963,0.45590570569038391,-0.37033224105834961,0.36443483829498291,0.15175651013851166,-5.9142818450927734,0.0038618489634245634,-0.32216089963912964,-0.15054933726787567, 
  /* [20][0][][] */ -0.071159258484840393,-0.13372796773910522,0.094441801309585571,0.018835892900824547,-0.02476675808429718,-0.081151194870471954,-0.029381966218352318,-0.12045448273420334,-0.14953617751598358,-0.0014504230348393321,-0.077374637126922607,-0.19931614398956299,0.14999683201313019,-0.12098794430494308,0.075010955333709717,0.045618772506713867,0.02016298845410347,-0.17697250843048096,-0.1740991622209549,0.12240926921367645,-0.13900835812091827,0.050630882382392883,0.043002583086490631,-0.07698523998260498, -0.16290581226348877,-0.01289790403097868,0.042023666203022003,-0.14262671768665314,-0.03964976966381073,-0.15987062454223633,0.030919985845685005,0.019153047353029251,-0.088882461190223694,-0.15062229335308075,0.020977392792701721,-0.13324686884880066,0.038930892944335938,-0.072878032922744751,0.09498915821313858,0.058523081243038177,-0.15288296341896057,0.081338733434677124,-0.0079751349985599518,-0.028310995548963547,-0.21168965101242065,0.13436324894428253,-0.077568165957927704,0.11565263569355011, -0.11583151668310165,0.13541726768016815,-0.14349135756492615,-0.028547534719109535,-0.15043747425079346,-0.0027028925251215696,0.094462588429450989,-0.097874566912651062,-0.14836061000823975,-0.16994668543338776,-0.013384457677602768,0.14554993808269501,0.050353959202766418,0.057914026081562042,-0.16636867821216583,0.062142174690961838,-0.13878731429576874,-0.11653310060501099,-0.011768504977226257,0.13288839161396027,0.0556449294090271,-0.10224390029907227,-0.15003988146781921,-0.076971292495727539, 
  /* [21][0][][] */ 0.027942830696702003,0.10659103840589523,0.051556173712015152,0.13403710722923279,-0.040281474590301514,-0.012645862996578217,0.10932683199644089,0.051875639706850052,0.12516170740127563,-0.027952669188380241,0.062382292002439499,-0.11608394980430603,0.16204728186130524,0.001750510185956955,0.078542515635490417,-0.17740468680858612,-0.094392009079456329,0.14228810369968414,0.089006073772907257,0.030010946094989777,-0.16150113940238953,-0.026629924774169922,-0.11928902566432953,0.11111064255237579, -0.031091745942831039,-0.085962593555450439,-0.19795382022857666,-0.10257211327552795,-0.15677927434444427,-0.023500928655266762,-0.13355888426303864,-0.16522417962551117,-0.15553414821624756,-0.14292547106742859,-0.040858928114175797,0.06973700225353241,0.11182732880115509,0.075165674090385437,-0.046017337590456009,-0.22655461728572845,-0.25543749332427979,-0.13749594986438751,-0.15256066620349884,-0.15009331703186035,-0.079365275800228119,-0.066765189170837402,-0.20944274961948395,-0.0024400625843554735, -0.15093748271465302,-0.1233547106385231,-0.15619969367980957,-0.1721034049987793,-0.11033274978399277,0.067289434373378754,0.028886973857879639,-0.059680603444576263,-0.014277391135692596,0.096775755286216736,0.096492774784564972,0.056783657521009445,-0.0073182582855224609,0.046670213341712952,-0.20261272788047791,0.030896415933966637,-0.16558457911014557,-0.087267525494098663,-0.21028201282024384,-0.11445979028940201,0.074134692549705505,-0.078660011291503906,-0.1899264007806778,0.065819390118122101, 
  /* [22][0][][] */ -0.040877297520637512,-0.23813073337078094,0.010468387976288795,-0.17704135179519653,-0.031015390530228615,-0.054509453475475311,0.15002758800983429,-0.046708684414625168,0.026419684290885925,-0.12124785780906677,-0.11735335737466812,0.021745026111602783,0.059371516108512878,-0.0642070472240448,0.05848587304353714,-0.04579702764749527,0.047491833567619324,-0.25968602299690247,-0.15169887244701385,0.029795348644256592,-0.1060970276594162,0.13671700656414032,-0.14815382659435272,-0.1642606258392334, -0.12668538093566895,0.063182041049003601,-0.0025201032403856516,-0.17507950961589813,-0.13181698322296143,-0.0923323854804039,0.015068858861923218,-0.17486566305160522,0.026458069682121277,0.0047415024600923061,-0.16820938885211945,-0.15360744297504425,-0.12010928243398666,-0.069970458745956421,0.068754851818084717,-0.05470426008105278,-0.016910389065742493,-0.19406391680240631,-0.22337117791175842,-0.18291468918323517,-0.10681691020727158,-0.033835694193840027,-0.17309132218360901,-0.13180379569530487, 0.076207563281059265,-0.16315114498138428,-0.038092330098152161,-0.014161445200443268,0.026997599750757217,-0.18679729104042053,0.1150331124663353,0.10787623375654221,-0.090879395604133606,0.056895188987255096,0.075502291321754456,0.1287824809551239,-0.018273875117301941,0.023094847798347473,0.13549225032329559,-0.034700740128755569,-0.012355804443359375,0.055522087961435318,0.11132717132568359,0.016777181997895241,0.068496271967887878,-0.033312007784843445,-0.1558157354593277,-0.029435992240905762, 
  /* [23][0][][] */ -0.093678280711174011,-0.10016877204179764,-0.15820033848285675,-0.16519011557102203,-0.15223954617977142,0.011996254324913025,-0.12220329791307449,0.018643982708454132,0.053445585072040558,0.051365964114665985,-0.11331123113632202,-0.11862276494503021,-0.00072331726551055908,-0.070221059024333954,0.052685979753732681,-0.24175463616847992,0.13473720848560333,-0.15107780694961548,-0.09640173614025116,-0.13373616337776184,-0.092388369143009186,-0.020660832524299622,-0.15434467792510986,-0.032514140009880066, -0.20859347283840179,-0.19165182113647461,-0.13056430220603943,-0.15589547157287598,-0.057334296405315399,-0.058212295174598694,-0.11946388334035873,0.0025664411950856447,-0.086531996726989746,-0.09271867573261261,-0.15944969654083252,-0.18900972604751587,-0.13257384300231934,0.014175295829772949,-0.25270318984985352,0.010908957570791245,0.12927617132663727,-0.012294025160372257,-0.26616552472114563,-0.053120322525501251,-0.15064927935600281,-0.075664162635803223,-0.056124046444892883,-0.13047382235527039, 0.08392728865146637,-0.14793956279754639,0.046240374445915222,-0.15924316644668579,0.02196049690246582,0.0013348273932933807,-0.089492067694664001,-0.0067154616117477417,0.11660327017307281,-0.069637015461921692,-0.013199687004089355,0.029001951217651367,0.020775273442268372,0.03770756721496582,0.042593110352754593,-0.10164344310760498,-0.00075359910260885954,0.04401903972029686,-0.136975958943367,-0.081940904259681702,-0.095137119293212891,-0.15171226859092712,0.088955998420715332,-0.12700673937797546, 
  /* [24][0][][] */ -0.15881443023681641,-0.034904032945632935,-0.027494663372635841,-0.18512563407421112,-0.13783359527587891,0.033058702945709229,-0.032846853137016296,-0.25196978449821472,-0.2060120701789856,0.13261061906814575,-0.17728221416473389,-0.16765177249908447,-0.0081021338701248169,-0.1168333888053894,-0.095882393419742584,-0.028491361066699028,-0.01162254810333252,-0.043383829295635223,-0.13301576673984528,-0.19079235196113586,-0.083313435316085815,-0.12133511155843735,0.080278113484382629,-0.013792708516120911, 0.075418740510940552,-0.12226603925228119,-0.04338548332452774,-0.012902219779789448,0.093414589762687683,-0.028337543830275536,-0.15916118025779724,-0.078252039849758148,0.03441169485449791,-0.11266686022281647,0.00084011786384508014,-0.13720832765102386,-0.061455532908439636,-0.10872209817171097,-0.10922113806009293,0.061365649104118347,-0.15048106014728546,-0.1458929032087326,-0.25045564770698547,-0.06621783971786499,-0.042513389140367508,0.16294480860233307,-0.17686967551708221,0.089532032608985901, -0.10004627704620361,-0.126887246966362,-0.11146589368581772,-0.087850570678710938,-0.034218832850456238,0.071245670318603516,-0.072106838226318359,-0.076701723039150238,-0.047165915369987488,-0.033972978591918945,-0.13223016262054443,-0.072940871119499207,-0.11062860488891602,-0.051675841212272644,0.15280036628246307,0.078886345028877258,0.097518816590309143,-0.087581157684326172,-0.069211766123771667,-0.088110648095607758,-0.16175143420696259,-0.071255289018154144,-0.032826855778694153,-0.11139678955078125, 
  /* [25][0][][] */ -0.28020268678665161,-1.1190999746322632,-0.98736864328384399,-2.8703610897064209,-1.0234973430633545,-0.024640569463372231,1.3440810441970825,0.057441450655460358,-0.56913787126541138,0.36135783791542053,-0.064990423619747162,-3.3666729927062988,0.053185705095529556,-0.37169563770294189,-0.21698985993862152,0.30965077877044678,0.33863291144371033,-0.16346748173236847,-0.4139808714389801,-0.17407228052616119,0.37543728947639465,-0.034838035702705383,0.90349692106246948,-0.42841446399688721, 0.91031748056411743,0.23608483374118805,-0.61991381645202637,0.54160177707672119,0.43695041537284851,-1.1873008012771606,-2.291623592376709,-0.25192534923553467,0.1997641921043396,-1.12370765209198,0.23785336315631866,0.66242939233779907,-0.011908511631190777,0.77626645565032959,-0.95605248212814331,-0.31547015905380249,-0.73264896869659424,-2.9146561622619629,0.37957519292831421,0.47805225849151611,-0.38923203945159912,-0.04301830381155014,-0.10786265134811401,0.04614005982875824, -0.083246484398841858,1.0475332736968994,-0.61631399393081665,1.9032444953918457,-2.5807998180389404,0.95993620157241821,-1.0939518213272095,0.34350338578224182,0.35127526521682739,-1.2975788116455078,-1.4251024723052979,0.78286606073379517,0.2306475043296814,0.087112709879875183,-0.97441059350967407,1.4869579076766968,0.76664173603057861,-0.28855594992637634,0.61127203702926636,1.6132762432098389,-0.89045923948287964,0.1427043229341507,-0.50771838426589966,0.49304658174514771, 
  /* [26][0][][] */ -0.27115285396575928,-0.46185088157653809,-0.26354765892028809,-0.32854178547859192,-0.26203519105911255,-0.30278366804122925,-0.12765704095363617,-0.3633691668510437,-0.062194596976041794,-0.19255103170871735,-0.0073302811942994595,-0.13874702155590057,-0.166446253657341,-0.21351690590381622,-0.42617031931877136,-0.26959708333015442,-0.12742297351360321,-0.18969188630580902,-0.15216605365276337,-0.065063461661338806,-0.22858715057373047,0.00476817786693573,-0.28435447812080383,-0.075417958199977875, -0.47365853190422058,-0.34540435671806335,-1.2968192100524902,-4.0573344230651855,-1.4085148572921753,-0.045139268040657043,0.76948195695877075,-0.17360098659992218,-0.78892755508422852,0.24770514667034149,-0.51627117395401001,-2.7611336708068848,0.16075265407562256,-0.2543448805809021,0.09474857896566391,0.17136609554290771,-0.029324442148208618,0.16909603774547577,-0.62714284658432007,-0.295256108045578,-0.027287445962429047,-0.13683855533599854,1.0779381990432739,0.87351310253143311, 0.96796977519989014,0.096609458327293396,-0.61452281475067139,0.68559050559997559,0.6827513575553894,-0.92919385433197021,-3.4328672885894775,0.1280609667301178,0.39560553431510925,-2.2997889518737793,0.51705789566040039,0.7138512134552002,0.23371192812919617,0.31980609893798828,-3.12644362449646,0.27620136737823486,-0.36431646347045898,-4.0612955093383789,0.22046440839767456,0.45249414443969727,0.033027946949005127,-0.18276308476924896,-0.34662297368049622,0.98500210046768188, 
  /* [27][0][][] */ -3.8501632213592529,-0.9122767448425293,-0.63210529088973999,-0.58499819040298462,-0.81791174411773682,-0.47753950953483582,0.24881276488304138,0.093307517468929291,0.12656266987323761,-0.1953563392162323,0.63322186470031738,-1.5762420892715454,-0.059966802597045898,0.089023634791374207,-1.8236223459243774,-0.37850028276443481,-0.21080553531646729,-0.47454553842544556,0.1303221732378006,-0.75774645805358887,0.42802682518959045,0.042966365814208984,0.13958518207073212,0.62957984209060669, 0.31747370958328247,0.89498281478881836,0.15303890407085419,-1.517052173614502,0.37755566835403442,-0.87833690643310547,-1.09013831615448,0.3024231493473053,0.27086198329925537,0.39841556549072266,-0.076720789074897766,-0.56579387187957764,-0.016757937148213387,0.83209967613220215,-0.47642672061920166,-1.7536910772323608,-0.46132203936576843,-0.664634108543396,-0.01862110011279583,-1.4639191627502441,0.29117730259895325,0.27135980129241943,-0.92901283502578735,0.12034378200769424, -0.52844291925430298,-1.0427099466323853,-2.7986733913421631,0.15153712034225464,-0.15922270715236664,1.1309932470321655,0.31744620203971863,-0.54053676128387451,-0.3016924262046814,-0.48799511790275574,0.82295209169387817,0.89129233360290527,0.19721218943595886,0.20385268330574036,0.036599528044462204,2.3216683864593506,0.20875349640846252,1.2659938335418701,-0.5632699728012085,-0.84529876708984375,0.70297211408615112,0.040309552103281021,1.0921076536178589,-0.66757291555404663, 
  /* [28][0][][] */ 0.37567192316055298,1.0045812129974365,0.42750215530395508,-0.12930989265441895,-0.66737937927246094,-0.97408193349838257,0.13816863298416138,0.15337276458740234,0.73468047380447388,-2.097132682800293,-0.14365591108798981,0.61261290311813354,-0.13403020799160004,-0.046355649828910828,0.63895970582962036,1.2349170446395874,-0.33204171061515808,1.9487175941467285,-1.1621725559234619,-1.3755347728729248,0.33941876888275146,-0.014399051666259766,-0.94156235456466675,0.49861016869544983, -1.5855579376220703,-1.8694884777069092,-0.20864048600196838,-1.5088365077972412,-0.0019347737543284893,0.84378057718276978,0.6891903281211853,-0.18164397776126862,-0.70574897527694702,1.4364374876022339,2.0247783660888672,-1.6532524824142456,-0.019185207784175873,0.0029759558383375406,-0.4600348174571991,-1.7701125144958496,-0.15825748443603516,0.7466118335723877,-0.082161739468574524,0.93310582637786865,-2.3684148788452148,0.1760486513376236,2.2749118804931641,0.42879766225814819, -0.020521633327007294,0.0072822226211428642,-0.10041550546884537,-0.0076753455214202404,-0.19589754939079285,-0.2656477689743042,0.029167335480451584,-0.042893324047327042,-0.043040990829467773,-0.13461276888847351,-0.06864812970161438,-0.20515450835227966,0.16457395255565643,-0.27000871300697327,-0.27655208110809326,-0.079962573945522308,-0.073901504278182983,-0.17532907426357269,-0.26823580265045166,-0.087615221738815308,-0.27762326598167419,0.045578837394714355,-0.19025655090808868,-0.077090069651603699, 
  /* [29][0][][] */ -1.6170215606689453,0.9148561954498291,0.055648915469646454,-1.6785284280776978,-0.58389610052108765,-0.73906892538070679,-0.6684110164642334,-0.55526763200759888,-0.057351909577846527,-1.4182165861129761,-0.98401021957397461,-0.26855772733688354,0.099822685122489929,-0.93008595705032349,-0.93825149536132812,-1.6046874523162842,-0.47216388583183289,-0.34008577466011047,-0.53798651695251465,-0.68969309329986572,-0.956368088722229,0.14825655519962311,-1.6079703569412231,0.60965722799301147, -0.42295348644256592,-1.0349116325378418,-0.47038766741752625,0.023229926824569702,0.62652117013931274,1.8103481531143188,0.80537766218185425,0.34557053446769714,-0.19804993271827698,-0.21991828083992004,1.0836466550827026,-0.62098407745361328,-0.11771423369646072,0.28805243968963623,-0.21124996244907379,1.4952220916748047,0.023966852575540543,-0.002289115684106946,-1.1943033933639526,0.5501716136932373,-0.066221162676811218,0.14131517708301544,1.4133591651916504,2.8415145874023438, 0.9622536301612854,1.6377689838409424,0.2075047492980957,0.34894129633903503,0.62503659725189209,-1.5840489864349365,-0.53547501564025879,0.048118416219949722,0.4291553795337677,-0.096475251019001007,-0.45200273394584656,-0.0050363112241029739,-0.16071049869060516,0.12490619719028473,0.63888043165206909,-0.88382166624069214,0.090340055525302887,-0.076043210923671722,0.3645290732383728,-1.0531774759292603,-1.3100920915603638,-0.19507256150245667,-1.4437123537063599,1.7008452415466309, 
  /* [30][0][][] */ 0.39878800511360168,-0.0028620664961636066,-0.810771644115448,-0.044759016484022141,-0.13538886606693268,0.0065382332541048527,0.87233209609985352,-1.1152182817459106,-1.843241810798645,-1.2842187881469727,-0.35742887854576111,2.030153751373291,0.21310664713382721,-1.447932243347168,-0.30193433165550232,0.33889436721801758,-0.33817505836486816,-0.18188726902008057,-2.4837319850921631,-1.8142298460006714,-0.15638093650341034,0.054709360003471375,0.24079550802707672,-0.0017037731595337391, -0.4871101975440979,-1.5091911554336548,-0.65276551246643066,-0.93303292989730835,0.30170992016792297,1.5000245571136475,-4.2458977699279785,0.13957923650741577,-0.44816064834594727,-0.39469131827354431,2.1901843547821045,-0.30236262083053589,-0.0015877096448093653,-0.25012218952178955,-0.66181600093841553,0.7989041805267334,0.40055137872695923,-2.6068351268768311,0.028858834877610207,-1.6321563720703125,-0.11602669209241867,-0.054966907948255539,0.23406349122524261,1.324188232421875, 1.2352300882339478,1.7898200750350952,-0.020290596410632133,0.75978529453277588,0.066054537892341614,-1.9121228456497192,-0.21895197033882141,-0.1338927149772644,0.43735846877098083,-0.70883661508560181,-1.4843786954879761,0.3830772340297699,0.075684785842895508,0.017979547381401062,0.38687849044799805,-0.65438413619995117,-0.10579052567481995,2.8573541641235352,0.62345260381698608,-0.65853273868560791,-0.76041305065155029,0.010829427279531956,-0.94990110397338867,0.97139579057693481, 
  /* [31][0][][] */ -0.16657349467277527,-0.24931161105632782,-0.11379861086606979,0.0069667603820562363,0.055487446486949921,-0.064551025629043579,-0.1706472784280777,-0.042251735925674438,0.053997553884983063,-0.16103002429008484,-0.068025685846805573,-0.017030388116836548,0.13393963873386383,-0.031073454767465591,-0.16136837005615234,0.1392824798822403,0.031281892210245132,0.08453863114118576,-0.0706319659948349,-0.0058547919616103172,0.020400205627083778,0.15244726836681366,0.088812336325645447,0.062496393918991089, 0.030912840738892555,-0.29922842979431152,-0.10427940636873245,-0.18784619867801666,-0.20420773327350616,0.079543508589267731,-0.16478249430656433,-0.061794206500053406,0.017376948148012161,-0.11580052226781845,-0.23879937827587128,0.030931936576962471,-0.059481620788574219,-0.21980726718902588,0.040990643203258514,-0.10671400278806686,-0.24304595589637756,0.15038050711154938,-0.10047128051519394,0.011861724779009819,0.037762951105833054,-0.13736788928508759,-0.12625214457511902,-0.15579967200756073, -0.04300941526889801,0.045110028237104416,-0.10098478198051453,-0.024143779650330544,-0.029754713177680969,0.10451319813728333,-0.039492256939411163,0.048758473247289658,-0.032782193273305893,0.042926814407110214,0.064639903604984283,-0.00074137060437351465,0.14708633720874786,-0.019912034273147583,-0.17904461920261383,-0.19442161917686462,0.042014740407466888,-0.038360200822353363,-0.2492748349905014,-0.21010081470012665,-0.22186872363090515,-0.085841178894042969,-0.17948691546916962,0.080315515398979187, 
  /* [32][0][][] */ -2.8033161163330078,-0.12641558051109314,-0.78082609176635742,-1.6115584373474121,-0.82491540908813477,0.012664640322327614,0.0014626476913690567,-0.25779324769973755,0.46997135877609253,-1.0158973932266235,-0.1855674535036087,0.26938268542289734,-0.12772099673748016,-0.3427162766456604,-2.3460819721221924,-0.78732758760452271,0.00071677757659927011,0.026585165411233902,-0.28434246778488159,-0.1853378564119339,-0.63729971647262573,-0.10705801099538803,-0.87426131963729858,1.1406639814376831, 0.1483767032623291,0.2698512077331543,-0.7124437689781189,0.5492783784866333,1.0441288948059082,0.11919770389795303,0.4651239812374115,0.26048332452774048,-0.028480373322963715,-0.94023901224136353,0.4993259608745575,0.11974521726369858,-0.117826908826828,0.29705533385276794,-0.10660462081432343,1.1693753004074097,0.14173881709575653,1.1615921258926392,-1.3343327045440674,0.47976997494697571,-0.20413975417613983,-0.14495047926902771,0.65837103128433228,3.7301614284515381, -0.75499933958053589,-1.4914636611938477,-0.8712770938873291,-1.3941665887832642,-0.55691474676132202,0.62534487247467041,1.4074051380157471,-0.43790590763092041,0.17020554840564728,1.3693941831588745,1.448886513710022,-0.4436224102973938,-0.18433839082717896,-0.29971015453338623,0.66351491212844849,0.035820107907056808,0.28655120730400085,-1.4449445009231567,-0.1923784613609314,-2.7751331329345703,-1.3931074142456055,-0.050980560481548309,-0.90727794170379639,0.63181281089782715, 
  /* [33][0][][] */ -0.69046229124069214,-1.3848450183868408,-1.2101105451583862,-0.10985563695430756,-0.012184119783341885,0.35985398292541504,1.4623775482177734,-1.5869776010513306,-0.12862169742584229,0.52473175525665283,0.079199731349945068,-1.79082190990448,-0.12511980533599854,-1.1721168756484985,0.23908951878547668,-0.54194074869155884,-1.6773040294647217,0.78725630044937134,-0.073093168437480927,2.5000112056732178,-3.0000643730163574,0.14298467338085175,-0.1420644074678421,-0.22244152426719666, 0.36185565590858459,1.2006704807281494,0.39400750398635864,-0.36631801724433899,-0.18245646357536316,-0.86562502384185791,-0.096558064222335815,0.19127410650253296,1.1187702417373657,-0.40489098429679871,-1.5240451097488403,-0.18927443027496338,0.12723585963249207,1.2396811246871948,-0.29331529140472412,-0.48057162761688232,-0.085404403507709503,-0.45346912741661072,0.40843698382377625,1.1324433088302612,-0.11582959443330765,0.13370490074157715,-0.31055891513824463,0.19013431668281555, -0.7511175274848938,-2.4158592224121094,-0.813038170337677,0.095192663371562958,-0.042312562465667725,0.35826092958450317,1.0889602899551392,-1.1631549596786499,-1.0405647754669189,1.7326586246490479,1.1559807062149048,0.08453754335641861,-0.043089199811220169,-1.0884584188461304,0.15547505021095276,1.26973557472229,-0.53656810522079468,-0.1642296314239502,-0.64311408996582031,-0.79737997055053711,0.73493403196334839,0.16382844746112823,0.61185252666473389,-0.31987905502319336, 
  /* [34][0][][] */ -0.031022381037473679,-0.052103213965892792,-0.090931452810764313,-0.18061184883117676,-0.078317500650882721,-0.13038510084152222,0.0027435570955276489,0.035335544496774673,-0.23240946233272552,0.085264578461647034,-0.1669316440820694,0.038268212229013443,0.13221628963947296,-0.10036195069551468,0.04422377422451973,-0.19643619656562805,0.0054915766231715679,-0.23006895184516907,-0.1917765885591507,-0.18614935874938965,-0.2066262811422348,-0.14867834746837616,0.02372412383556366,-0.12647561728954315, 0.067465998232364655,-0.19687756896018982,-0.2551233172416687,0.090567655861377716,0.014355963096022606,-0.16474048793315887,-0.10574822127819061,0.078764766454696655,-0.23054413497447968,0.019502319395542145,-0.14487427473068237,-0.1935698390007019,-0.042761966586112976,0.017537174746394157,-0.12209533154964447,-0.019332952797412872,-0.052095919847488403,0.05504782497882843,0.060150079429149628,0.048050027340650558,0.032042115926742554,-0.070543050765991211,-0.12289238721132278,-0.085605673491954803, 0.038080506026744843,-0.025736354291439056,-0.17440643906593323,0.046504095196723938,-0.1864028126001358,-0.15670880675315857,-0.013510510325431824,0.081332556903362274,-0.0023924559354782104,-0.10035659372806549,0.10118137300014496,0.017442526295781136,-0.089962445199489594,-0.16556563973426819,0.13317358493804932,-0.11570867151021957,0.051494881510734558,-0.14157311618328094,-0.10915718972682953,-0.14051230251789093,0.022941837087273598,-0.094179987907409668,-0.042000602930784225,0.010277792811393738, 
  /* [35][0][][] */ -0.17585991322994232,0.085351131856441498,0.086757928133010864,-0.13527843356132507,-0.12780284881591797,0.034091241657733917,0.12121255695819855,0.096230141818523407,0.034172818064689636,0.025490997359156609,0.11883294582366943,-0.18169093132019043,-0.052846238017082214,-0.088184118270874023,0.11960013955831528,-0.043507114052772522,0.07527642697095871,-0.037472814321517944,0.070498004555702209,-0.18230284750461578,-0.17474791407585144,-0.0074215680360794067,0.12385445088148117,0.16396833956241608, -0.031715411692857742,-0.17050258815288544,-0.21277914941310883,-0.11100908368825912,-0.20472082495689392,-0.071009896695613861,0.10985077917575836,-0.14034105837345123,-0.085140548646450043,-0.10577651113271713,0.007230500690639019,-0.056164640933275223,-0.064036250114440918,-0.0055906795896589756,-0.091816827654838562,-0.14384062588214874,-0.1280120313167572,-0.12661336362361908,-0.16484591364860535,-0.074927665293216705,-0.17913526296615601,-0.16117975115776062,0.059108134359121323,-0.14285027980804443, 0.12516315281391144,-0.1093996986746788,-0.24145334959030151,-0.23411887884140015,0.06051163375377655,0.010997483506798744,-0.039588376879692078,0.074217237532138824,0.027681708335876465,0.083988025784492493,-0.14205412566661835,-0.16042055189609528,0.073986336588859558,-0.16616465151309967,-0.026459693908691406,0.068023696541786194,-0.0098955444991588593,-0.23747141659259796,-0.21435678005218506,-0.06501353532075882,0.086715519428253174,0.057358548045158386,-0.12135910242795944,-0.14895033836364746, 
  /* [36][0][][] */ -0.0058858869597315788,0.66823393106460571,-1.8440760374069214,0.52837073802947998,0.68064647912979126,0.22524189949035645,0.10021910071372986,-2.6883480548858643,-1.0752534866333008,-0.016140714287757874,-0.14560376107692719,-0.056115765124559402,-0.11961912363767624,-0.89674991369247437,0.50117325782775879,-1.3605344295501709,-4.1509361267089844,1.4186686277389526,-0.28723099827766418,0.4277414083480835,-2.8238341808319092,0.040824964642524719,-0.70649451017379761,0.10220673680305481, -0.33992430567741394,-2.0522537231445312,0.39223134517669678,-2.2018592357635498,-2.4675750732421875,-0.14465215802192688,-1.4378690719604492,0.53295695781707764,0.22632299363613129,-1.2858419418334961,1.0888960361480713,-0.44095951318740845,-0.071960568428039551,0.24311335384845734,0.03573169931769371,0.35761874914169312,0.44252800941467285,-0.12273234128952026,0.020325111225247383,-0.3700394332408905,0.57926791906356812,-0.1167052686214447,0.5578387975692749,-0.26804855465888977, 0.73646879196166992,0.66717779636383057,-0.71537822484970093,-0.61843705177307129,-0.24774178862571716,0.79267829656600952,0.48459142446517944,-0.87460160255432129,0.077281773090362549,-1.6410276889801025,-1.0261155366897583,0.076166555285453796,-0.09159744530916214,0.70904123783111572,-0.30533486604690552,-0.50856977701187134,-0.45826074481010437,3.8038716316223145,-0.084892056882381439,-0.32073944807052612,-0.29975959658622742,0.1421060711145401,-0.18858066201210022,-0.80860668420791626, 
  /* [37][0][][] */ 0.52196931838989258,1.0964620113372803,0.39322921633720398,-0.085526600480079651,-0.68015033006668091,-0.96992999315261841,0.33845728635787964,-0.17097267508506775,0.67839115858078003,-2.1029865741729736,0.48405289649963379,0.55903452634811401,0.07724347710609436,0.021276587620377541,0.46319454908370972,1.3464201688766479,-0.25480279326438904,1.6806304454803467,-1.4985908269882202,-1.9055142402648926,0.34796014428138733,0.06527256965637207,-0.88749223947525024,0.17907032370567322, -1.572489857673645,-1.9406676292419434,-0.49923023581504822,-1.3744934797286987,-0.29195526242256165,1.0252549648284912,0.55288410186767578,-0.080757953226566315,-0.69856905937194824,1.4151582717895508,2.0383756160736084,-1.4249283075332642,0.025880660861730576,0.13812063634395599,-0.51844877004623413,-1.9246081113815308,-0.23363243043422699,0.58198344707489014,-0.19425764679908752,1.0379849672317505,-2.9385874271392822,0.32029739022254944,2.0713579654693604,0.22166505455970764, -0.10344133526086807,-0.010733773931860924,-0.17423000931739807,-0.072569802403450012,-0.037263453006744385,-0.11242465674877167,-0.065675824880599976,-0.049085620790719986,-0.1060570627450943,0.0057044927962124348,-0.091465339064598083,-0.10433237999677658,-0.090228602290153503,-0.00095856969710439444,-0.24016483128070831,0.15983898937702179,-0.2311587780714035,-0.071136035025119781,-0.014053476043045521,-0.19066496193408966,-0.18179118633270264,-0.06454169750213623,-0.013105025514960289,-0.062652990221977234, 
  /* [38][0][][] */ -0.061844799667596817,-0.177472785115242,0.10383949428796768,0.067291133105754852,-0.070876799523830414,-0.16337360441684723,0.77364653348922729,-0.66904169321060181,-0.4940159022808075,-0.4324474036693573,-0.66158503293991089,0.12299661338329315,-0.097097598016262054,-0.64792776107788086,-0.55938601493835449,-0.41047537326812744,-0.32654967904090881,-0.59540575742721558,0.2474503219127655,-0.32687178254127502,-0.32829186320304871,0.020776748657226562,0.15441896021366119,0.32603973150253296, 0.48065173625946045,1.3381671905517578,0.24931341409683228,-0.0738702192902565,-0.75066661834716797,-0.78376495838165283,0.40231478214263916,0.36410859227180481,0.86751526594161987,-1.0501912832260132,-0.011388435959815979,0.75922834873199463,-0.16724735498428345,1.8153878450393677,0.38633936643600464,0.86732947826385498,-0.25792974233627319,1.1889935731887817,-0.58189928531646729,-1.9799007177352905,0.12746435403823853,-0.14372929930686951,-1.147392749786377,0.25475332140922546, -1.5720853805541992,-2.0773975849151611,-0.36225908994674683,-1.0709261894226074,-0.2678249180316925,0.90888655185699463,0.29928377270698547,-0.31132987141609192,-0.87707746028900146,1.4643580913543701,2.7894113063812256,-1.2398746013641357,-0.14885640144348145,0.13850189745426178,-0.45714524388313293,-1.4100587368011475,-0.28438994288444519,0.62556344270706177,-0.28443390130996704,1.1992295980453491,-3.6949319839477539,0.064786702394485474,2.2740099430084229,0.021490802988409996, 
  /* [39][0][][] */ -0.23009522259235382,-0.19551382958889008,0.055810779333114624,-1.1485620737075806,-1.2183640003204346,-0.029826616868376732,-1.0011534690856934,-0.052834294736385345,-0.25622445344924927,-0.17299681901931763,0.93780583143234253,0.2791772186756134,-0.099490247666835785,-0.41622114181518555,0.080625340342521667,1.2745175361633301,0.42922401428222656,-0.24509689211845398,-0.32132074236869812,-0.090503036975860596,-0.25791490077972412,-0.13952577114105225,1.0490138530731201,-0.030966855585575104, 0.50339198112487793,-0.60365992784500122,0.18132264912128448,0.1653381884098053,0.18951334059238434,-0.24642764031887054,-0.32605695724487305,0.16113804280757904,0.088829271495342255,-0.31118267774581909,0.22284485399723053,-0.31169506907463074,-0.086720377206802368,1.235110878944397,0.27874112129211426,-0.068213731050491333,-1.0960057973861694,0.66526532173156738,0.41001376509666443,0.4792749285697937,0.012282777577638626,0.13030047714710236,-1.1270327568054199,-2.4577839374542236, -0.023413563147187233,1.2803939580917358,2.5719161033630371,-2.4235103130340576,-5.1445541381835938,0.16458214819431305,-1.495248556137085,-0.1271657794713974,0.53754466772079468,-0.089055195450782776,0.95377069711685181,0.57157957553863525,-0.11798713356256485,0.59135103225708008,-1.4992127418518066,-0.28985264897346497,0.3891371488571167,1.3441189527511597,0.86563163995742798,-0.92295122146606445,1.5927188396453857,0.063552320003509521,0.091082446277141571,-0.71195864677429199, 
  /* [40][0][][] */ -0.67113876342773438,-0.27931457757949829,-1.1931926012039185,0.25899869203567505,-0.16908738017082214,0.48697531223297119,0.44601908326148987,-0.010266422294080257,-0.9792054295539856,-1.2152738571166992,-0.11160968989133835,-0.69601923227310181,-0.099810443818569183,-0.48401230573654175,-1.3939708471298218,0.47263076901435852,-0.16935057938098907,0.10919248312711716,-0.74133503437042236,-0.9374125599861145,-0.078661881387233734,-0.056747160851955414,0.044301159679889679,0.13390496373176575, 0.2568696141242981,0.19739767909049988,0.14991448819637299,0.86923390626907349,1.2061654329299927,-1.919792652130127,-0.63331979513168335,0.41056990623474121,0.35807526111602783,-2.2096874713897705,0.34424334764480591,0.73290270566940308,-0.049563810229301453,0.094696439802646637,-1.5201957225799561,-0.46562144160270691,0.30983826518058777,-6.5316734313964844,0.12417624145746231,-0.91662275791168213,-0.21706677973270416,0.020744919776916504,0.60848450660705566,0.72938013076782227, -0.60336017608642578,-0.16489933431148529,-0.23165719211101532,0.99701106548309326,-0.32806506752967834,-0.40364858508110046,-0.84926009178161621,0.26021674275398254,-0.15688450634479523,-0.44154390692710876,0.46587786078453064,-1.0129765272140503,0.084294155240058899,0.26581266522407532,-0.85931909084320068,-0.038182668387889862,-0.52791851758956909,-0.80352455377578735,-0.55849069356918335,0.8762783408164978,-0.080880224704742432,0.089888378977775574,0.045728791505098343,-0.16541649401187897, 
  /* [41][0][][] */ -0.1609504371881485,-0.085849978029727936,-0.24992558360099792,0.054485075175762177,-0.017397822812199593,-0.11992572993040085,0.15157000720500946,-0.0076650320552289486,-0.053922969847917557,-0.042823798954486847,0.049614675343036652,-0.0031485368963330984,0.0089612752199172974,-0.03377135843038559,-0.13333207368850708,-0.14493656158447266,-0.23981644213199615,0.01589522697031498,-0.037907622754573822,-0.078618757426738739,-0.11709148436784744,-0.12463836371898651,-0.18144737184047699,-0.11225744336843491, 0.096659630537033081,-0.017823252826929092,-0.0066768280230462551,-0.13838662207126617,0.011850534938275814,0.099567659199237823,0.071274682879447937,-0.038107354193925858,-0.02718920074403286,0.10708608478307724,-0.11499995738267899,-0.12942184507846832,-0.055025778710842133,-0.26669469475746155,-0.14819373190402985,-0.013402657583355904,-0.20324009656906128,0.084384970366954803,-0.028681360185146332,-0.2539055347442627,-0.066086813807487488,-0.039544463157653809,-0.11698681116104126,-0.028539413586258888, 0.011327698826789856,-0.14421598613262177,-0.028595879673957825,-0.10033071041107178,0.07120688259601593,0.068537279963493347,-0.07027193158864975,-0.14770793914794922,0.083011671900749207,-0.12831449508666992,-0.060791373252868652,-0.096363663673400879,0.048671528697013855,-0.037122055888175964,-0.089530467987060547,-0.075699649751186371,-0.095835372805595398,-0.023212268948554993,0.11404313147068024,-0.11180341243743896,-0.047799788415431976,0.011168554425239563,0.14218144118785858,-0.061849117279052734, 
  /* [42][0][][] */ 0.047749597579240799,-0.1733081191778183,-0.31625381112098694,-0.050805449485778809,-0.22785766422748566,-0.041277702897787094,-0.2008490264415741,-0.19976983964443207,-0.21930329501628876,-0.22528189420700073,-0.021318331360816956,-0.081579066812992096,-0.061149835586547852,-0.047491874545812607,-0.1838146448135376,-0.18124936521053314,-0.10096322000026703,0.047124475240707397,-0.021084679290652275,0.023570787161588669,-0.21415804326534271,-0.034857913851737976,-0.24248282611370087,0.065530374646186829, -0.14907157421112061,0.039378762245178223,-0.26374161243438721,-0.075066521763801575,-0.18237455189228058,-0.25033268332481384,-0.10878567397594452,-0.080209001898765564,-0.12437915802001953,-0.086112096905708313,-0.23652823269367218,-0.23348982632160187,0.091916367411613464,-0.089592680335044861,0.050916697829961777,-0.14492690563201904,-0.15112331509590149,-0.34376534819602966,-0.15479888021945953,-0.074403755366802216,0.060773629695177078,0.089325472712516785,-0.26116761565208435,0.10045665502548218, -0.090622499585151672,-0.21087966859340668,-0.28323987126350403,0.01436330284923315,0.04122576117515564,0.092145346105098724,0.067799553275108337,-0.037139523774385452,-0.30628728866577148,-0.019657852128148079,0.17580969631671906,0.015729662030935287,0.07878565788269043,-0.19888101518154144,-0.11254054307937622,-0.049456123262643814,-0.21254774928092957,-0.22643117606639862,-0.36550009250640869,-0.066811569035053253,-0.24891155958175659,0.11554105579853058,-0.20484195649623871,-0.12617138028144836, 
  /* [43][0][][] */ -1.241295337677002,-0.25538569688796997,-0.54203683137893677,-0.53349095582962036,-0.71274375915527344,-1.040008544921875,-0.42202040553092957,-0.57314205169677734,-0.80017751455307007,-1.1398112773895264,-0.6070447564125061,-0.26252540946006775,-0.016003891825675964,0.0044743986800312996,-0.27599865198135376,-1.3811880350112915,-1.1239523887634277,-0.19629231095314026,-0.29324391484260559,-0.46340563893318176,-0.68396472930908203,-0.059958934783935547,-0.75232410430908203,0.052675172686576843, -0.63065260648727417,-0.89028471708297729,-0.38564741611480713,-0.094493389129638672,-0.40664875507354736,2.0452382564544678,0.70222967863082886,-0.1054956465959549,-0.31756851077079773,-0.14448405802249908,1.3957810401916504,-0.71853256225585938,0.005439308937638998,-0.59995114803314209,-0.91339218616485596,1.2562853097915649,0.27909114956855774,-0.19306610524654388,-0.16784173250198364,-0.33743718266487122,-0.087770096957683563,0.089159861207008362,0.39013466238975525,2.2055377960205078, 0.81144571304321289,1.5540859699249268,-0.046996891498565674,0.7991793155670166,0.48104894161224365,-1.6152150630950928,-0.89284813404083252,0.8587031364440918,0.37137147784233093,-0.64605432748794556,-0.77429139614105225,0.76159995794296265,0.16611093282699585,-0.096054509282112122,-0.12132197618484497,-1.0181877613067627,-0.16507607698440552,-3.8278005123138428,-0.055090140551328659,-0.1135522723197937,-1.1655154228210449,0.18065369129180908,-0.60548996925354004,1.0189251899719238, 
  /* [44][0][][] */ -0.031694866716861725,0.15878227353096008,0.0063953399658203125,-0.024843260645866394,-0.063273951411247253,0.037359364330768585,-0.14042830467224121,0.025589630007743835,-0.048190798610448837,0.089803054928779602,0.084032520651817322,-0.040480758994817734,0.1287347823381424,-0.14154279232025146,-0.14177724719047546,0.15485981106758118,-0.088483095169067383,-0.052636902779340744,-0.089773952960968018,-0.14777660369873047,-0.15343247354030609,0.16234834492206573,-0.1073760986328125,0.10025839507579803, -0.0019582873210310936,-0.1760968416929245,-0.067454688251018524,-0.070736266672611237,-0.18296098709106445,-0.16851012408733368,-0.029967188835144043,-0.1380467414855957,-0.17551682889461517,-0.14033560454845428,-0.030401671305298805,0.0035578187089413404,0.072805240750312805,-0.12191543728113174,0.059442281723022461,-0.18016527593135834,0.015140702947974205,-0.15484265983104706,0.039605628699064255,0.10441103577613831,0.035525299608707428,0.14208020269870758,-0.21966904401779175,-0.014867382124066353, 0.098962157964706421,0.096962764859199524,-0.2222912460565567,-0.020792767405509949,-0.13668665289878845,-0.075631260871887207,-0.041160032153129578,0.069731622934341431,0.022299971431493759,-0.0049659013748168945,-0.095626220107078552,0.089536130428314209,0.092140033841133118,0.023275045678019524,-0.041228964924812317,-0.14486806094646454,-0.080384522676467896,-0.0093199014663696289,-0.01122751459479332,0.068476483225822449,0.063302591443061829,0.0096523929387331009,-0.1766020804643631,-0.089321494102478027, 
  /* [45][0][][] */ -0.24415716528892517,-1.2525296211242676,-0.33345627784729004,0.09740784764289856,-0.023376908153295517,1.7946149110794067,0.93494957685470581,0.064717203378677368,-0.14599545300006866,0.34967249631881714,1.6970920562744141,-0.41753238439559937,0.24717479944229126,-0.045100774616003036,-0.72200733423233032,1.6285829544067383,0.33168965578079224,0.087446704506874084,-0.46111482381820679,-0.79264342784881592,-0.11084584146738052,0.044476985931396484,1.1103633642196655,2.5711402893066406, 0.88359546661376953,1.6010388135910034,0.08867151290178299,0.49130496382713318,0.45013099908828735,-1.8133101463317871,-0.55878221988677979,0.87610912322998047,0.24551871418952942,-0.54905456304550171,-1.0117123126983643,0.19016027450561523,-0.065123036503791809,-0.20210663974285126,0.48651513457298279,-1.0105347633361816,-0.26342278718948364,0.56704020500183105,0.60562688112258911,-0.91057014465332031,-1.1595073938369751,0.015695296227931976,-1.5733228921890259,1.8267817497253418, -0.57199358940124512,-0.79345476627349854,-0.17612482607364655,-0.96287077665328979,-0.98004788160324097,-0.86591792106628418,-1.0885206460952759,-0.62972116470336914,-0.5399092435836792,-0.9494248628616333,-0.099193289875984192,-0.15734800696372986,-0.15066806972026825,-0.19228468835353851,-1.1371985673904419,-0.15699401497840881,-0.88699805736541748,-0.93981295824050903,-0.99927455186843872,-1.0906383991241455,0.04403487965464592,-0.1064097136259079,-0.19839747250080109,0.067009285092353821, 
