/* Generated by Edge Impulse
*
* Permission is hereby granted, free of charge, to any person obtaining a copy
* of this software and associated documentation files (the "Software"), to deal
* in the Software without restriction, including without limitation the rights
* to use, copy, modify, merge, publish, distribute, sublicense, and/or sell
* copies of the Software, and to permit persons to whom the Software is
* furnished to do so, subject to the following conditions:
*
* The above copyright notice and this permission notice shall be included in
* all copies or substantial portions of the Software.
*
* THE SOFTWARE IS PROVIDED "AS IS", WITHOUT WARRANTY OF ANY KIND, EXPRESS OR
* IMPLIED, INCLUDING BUT NOT LIMITED TO THE WARRANTIES OF MERCHANTABILITY,
* FITNESS FOR A PARTICULAR PURPOSE AND NONINFRINGEMENT. IN NO EVENT SHALL THE
* AUTHORS OR COPYRIGHT HOLDERS BE LIABLE FOR ANY CLAIM, DAMAGES OR OTHER
* LIABILITY, WHETHER IN AN ACTION OF CONTRACT, TORT OR OTHERWISE, ARISING FROM,
* OUT OF OR IN CONNECTION WITH THE SOFTWARE OR THE USE OR OTHER DEALINGS IN THE
* SOFTWARE.
*/
// Generated on: 06.01.2022 17:05:31

#include <stdio.h>
#include <stdlib.h>
#include <vector>
#include "edge-impulse-sdk/tensorflow/lite/c/builtin_op_data.h"
#include "edge-impulse-sdk/tensorflow/lite/c/common.h"
#include "edge-impulse-sdk/tensorflow/lite/micro/micro_mutable_op_resolver.h"
#include "edge-impulse-sdk/porting/ei_classifier_porting.h"

#if EI_CLASSIFIER_PRINT_STATE
#if defined(__cplusplus) && EI_C_LINKAGE == 1
extern "C" {
    extern void ei_printf(const char *format, ...);
}
#else
extern void ei_printf(const char *format, ...);
#endif
#endif

#if defined __GNUC__
#define ALIGN(X) __attribute__((aligned(X)))
#elif defined _MSC_VER
#define ALIGN(X) __declspec(align(X))
#elif defined __TASKING__
#define ALIGN(X) __align(X)
#endif

using namespace tflite;
using namespace tflite::ops;
using namespace tflite::ops::micro;

namespace {

constexpr int kTensorArenaSize = 10064;

#if defined(EI_CLASSIFIER_ALLOCATION_STATIC)
uint8_t tensor_arena[kTensorArenaSize] ALIGN(16);
#elif defined(EI_CLASSIFIER_ALLOCATION_STATIC_HIMAX)
#pragma Bss(".tensor_arena")
uint8_t tensor_arena[kTensorArenaSize] ALIGN(16);
#pragma Bss()
#elif defined(EI_CLASSIFIER_ALLOCATION_STATIC_HIMAX_GNU)
uint8_t tensor_arena[kTensorArenaSize] ALIGN(16) __attribute__((section(".tensor_arena")));
#else
#define EI_CLASSIFIER_ALLOCATION_HEAP 1
uint8_t* tensor_arena = NULL;
#endif

static uint8_t* tensor_boundary;
static uint8_t* current_location;

template <int SZ, class T> struct TfArray {
  int sz; T elem[SZ];
};
enum used_operators_e {
  OP_RESHAPE, OP_CONV_2D, OP_MAX_POOL_2D, OP_FULLY_CONNECTED, OP_SOFTMAX,  OP_LAST
};
struct TensorInfo_t { // subset of TfLiteTensor used for initialization from constant memory
  TfLiteAllocationType allocation_type;
  TfLiteType type;
  void* data;
  TfLiteIntArray* dims;
  size_t bytes;
  TfLiteQuantization quantization;
};
struct NodeInfo_t { // subset of TfLiteNode used for initialization from constant memory
  struct TfLiteIntArray* inputs;
  struct TfLiteIntArray* outputs;
  void* builtin_data;
  used_operators_e used_op_index;
};

TfLiteContext ctx{};
TfLiteTensor tflTensors[35];
TfLiteEvalTensor tflEvalTensors[35];
TfLiteRegistration registrations[OP_LAST];
TfLiteNode tflNodes[17];

const TfArray<2, int> tensor_dimension0 = { 2, { 1,20 } };
const TfArray<1, float> quant0_scale = { 1, { 0.0040156864561140537, } };
const TfArray<1, int> quant0_zero = { 1, { -128 } };
const TfLiteAffineQuantization quant0 = { (TfLiteFloatArray*)&quant0_scale, (TfLiteIntArray*)&quant0_zero, 0 };
const ALIGN(8) int32_t tensor_data1[2] = { -1, 12, };
const TfArray<1, int> tensor_dimension1 = { 1, { 2 } };
const ALIGN(16) int32_t tensor_data2[128] = { 6384, 6347, -5465, -1307, -2533, 58, 1763, -9492, -7012, -4800, 1144, 11996, 0, -4145, 14867, -1055, -4436, 0, -7429, -1253, 0, 1835, -3290, -4958, 8758, 0, -4672, 4362, -1210, -5225, -3347, -1215, 671, -793, -1152, 530, -1405, 0, 394, 13447, 1930, 363, -3197, 2752, -949, 0, -2178, 3071, -4592, 0, -2432, 7601, -5313, -3336, -186, 2429, -3377, 0, 1342, -5213, -3823, 923, -2454, -1704, -2482, -1154, 10856, 2100, 2065, -2243, -1591, 2161, 2193, 2809, -2000, 6079, -5718, -2025, 4144, -3116, -5453, -6426, -6885, 3397, -5772, -4559, 0, -4238, 1413, -7441, -2912, -1617, -8523, -5335, -5257, -1576, -815, 0, 0, 14519, -11756, 676, -3991, -695, -1913, 4263, 14424, 500, -1205, 11471, -1387, -1335, -2236, 5850, 0, 4713, -184, 1546, 413, -5640, -1285, -6918, -4533, -4555, 601, -3766, 2557, -1016, };
const TfArray<1, int> tensor_dimension2 = { 1, { 128 } };
const TfArray<128, float> quant2_scale = { 128, { 9.3414746515918523e-06, 1.8557049770606682e-05, 1.8106793504557572e-05, 3.7091285776114091e-06, 2.3681177481194027e-05, 2.7593061531661078e-05, 2.7330039301887155e-05, 1.0279663911205716e-05, 1.6105725080706179e-05, 1.4496315998258069e-05, 2.0651934391935356e-05, 1.38041541504208e-05, 3.7222882838250371e-06, 8.7232238001888618e-06, 1.424268884875346e-05, 3.7958293432893697e-06, 1.548811087559443e-05, 3.6222215840098215e-06, 2.1438161638798192e-05, 1.5004426131781656e-05, 1.9258077372796834e-05, 2.3992042770260014e-05, 1.5835956219234504e-05, 1.4256776012189221e-05, 1.7865580957732163e-05, 3.7359832276706584e-06, 3.9438064050045796e-06, 1.8569646272226237e-05, 3.5748444133787416e-06, 9.5980130936368369e-06, 3.6339336020319024e-06, 3.5491484595695511e-06, 1.3947856132290326e-05, 2.2414664272218943e-05, 3.7446491205628263e-06, 1.9154145775246434e-05, 2.1929852664470673e-05, 3.7325992252590368e-06, 2.0874138499493711e-05, 8.6139316408662125e-06, 1.6551462977076881e-05, 2.5230026949429885e-05, 1.7769856640370563e-05, 1.7485215721535496e-05, 2.5809786166064441e-05, 3.7864904243178898e-06, 1.9962384612881579e-05, 1.3596637472801376e-05, 1.3318937817530241e-05, 3.7455697565746959e-06, 1.7970092812902294e-05, 1.2884138413937762e-05, 1.9486738892737776e-05, 2.0081075490452349e-05, 2.1198402464506216e-05, 1.0888364158745389e-05, 2.182774551329203e-05, 3.7830382098036353e-06, 2.5822344468906522e-05, 1.5640627680113539e-05, 1.8556153008830734e-05, 2.226083779532928e-05, 1.6159370716195554e-05, 2.1870939235668629e-05, 2.2562851881957613e-05, 2.6122983399545774e-05, 1.0215868314844556e-05, 2.549157761677634e-05, 2.2203070329851471e-05, 1.7673337424639612e-05, 1.928763413161505e-05, 2.1738022041972727e-05, 1.9689281543833204e-05, 2.2137110136100091e-05, 1.7216485503013246e-05, 2.0952375052729622e-05, 1.1125465789518785e-05, 2.3991056878003292e-05, 1.6063742805272341e-05, 2.1217474568402395e-05, 1.2347810297796968e-05, 8.0583849921822548e-06, 1.0817277143360116e-05, 2.3229278667713515e-05, 1.4513440873997752e-05, 2.0274252165108919e-05, 3.6761837236554129e-06, 1.1503983841976151e-05, 2.1452922737807967e-05, 1.5251349395839497e-05, 1.9188923033652827e-05, 1.8980923414346762e-05, 9.9024518931400962e-06, 4.1442135625402443e-06, 1.5947773135849275e-05, 6.8854578785249032e-06, 2.1576111976173706e-05, 3.7004667774453992e-06, 3.7677441468986217e-06, 7.5193720476818271e-06, 7.3874712143151555e-06, 1.6438805687357672e-05, 1.8383012502454221e-05, 2.1519774236367084e-05, 2.4690447389730252e-05, 1.7794091036194004e-05, 1.2625810086319689e-05, 1.4396223377843853e-05, 2.168115861422848e-05, 1.1647302017081529e-05, 3.6542628549796063e-06, 1.207018067361787e-05, 1.897306356113404e-05, 1.6403137124143541e-05, 3.6801325222768355e-06, 1.980191700567957e-05, 2.4291039153467864e-05, 2.1298817955539562e-05, 2.2316595277516171e-05, 1.7432585082133301e-05, 2.5781844669836573e-05, 1.5719175280537456e-05, 3.8727193896193057e-06, 2.0853838577750139e-05, 1.8511451344238594e-05, 1.1575875760172494e-05, 1.8687303963815793e-05, 3.8007342482160311e-06, } };
const TfArray<128, int> quant2_zero = { 128, { 0,0,0,0,0,0,0,0,0,0,0,0,0,0,0,0,0,0,0,0,0,0,0,0,0,0,0,0,0,0,0,0,0,0,0,0,0,0,0,0,0,0,0,0,0,0,0,0,0,0,0,0,0,0,0,0,0,0,0,0,0,0,0,0,0,0,0,0,0,0,0,0,0,0,0,0,0,0,0,0,0,0,0,0,0,0,0,0,0,0,0,0,0,0,0,0,0,0,0,0,0,0,0,0,0,0,0,0,0,0,0,0,0,0,0,0,0,0,0,0,0,0,0,0,0,0,0,0 } };
const TfLiteAffineQuantization quant2 = { (TfLiteFloatArray*)&quant2_scale, (TfLiteIntArray*)&quant2_zero, 0 };
const ALIGN(16) int32_t tensor_data3[12] = { -4, 66, 45, -78, -21, 76, -3, 41, 44, -12, -51, 78, };
const TfArray<1, int> tensor_dimension3 = { 1, { 12 } };
const TfArray<12, float> quant3_scale = { 12, { 0.0016686952440068126, 0.0035839439369738102, 0.0031025090720504522, 0.0033944263122975826, 0.0016377212014049292, 0.0024240976199507713, 0.0048872861079871655, 0.0035469667054712772, 0.0033267543185502291, 0.0037881019525229931, 0.0020174994133412838, 0.0025022819172590971, } };
const TfArray<12, int> quant3_zero = { 12, { 0,0,0,0,0,0,0,0,0,0,0,0 } };
const TfLiteAffineQuantization quant3 = { (TfLiteFloatArray*)&quant3_scale, (TfLiteIntArray*)&quant3_zero, 0 };
const ALIGN(16) int32_t tensor_data4[4] = { -29, 22, 20, -12, };
const TfArray<1, int> tensor_dimension4 = { 1, { 4 } };
const TfArray<1, float> quant4_scale = { 1, { 0.017068402841687202, } };
const TfArray<1, int> quant4_zero = { 1, { 0 } };
const TfLiteAffineQuantization quant4 = { (TfLiteFloatArray*)&quant4_scale, (TfLiteIntArray*)&quant4_zero, 0 };
const ALIGN(16) int32_t tensor_data5[128] = { -3768, 1695, 1341, -11706, -4318, 5004, -8986, 988, -1398, 4915, 8247, -2857, -14559, -9955, -8492, 4016, 7901, -2277, -10811, -1214, -3568, 3818, -1888, -536, -2232, 6, 2317, -14379, -1749, -2545, -4134, 10287, 9211, 3630, -11323, -10890, -3598, -10543, -3680, -6843, 6754, 8234, -10152, -41, -6429, -9982, -10321, -15210, -5108, -3284, -736, 2952, -7666, -10791, 4957, -11876, 1591, -1553, 772, -7338, -12083, -2046, -10743, 3017, -5416, 2419, -8877, 3315, -3721, -11793, -2397, -4829, -12374, 6373, -4667, -4314, -8536, -10040, -9616, -3269, -10613, -9381, 7188, -8772, -6354, -12311, 1149, -122, -7903, -561, -7798, -2307, 2675, -2631, -2228, -7414, -7904, -12323, -4027, -11363, 7933, -6630, -4364, -3094, -5014, 2168, 8132, -979, -4355, 13203, -3702, 7911, -8431, 0, -3861, 5009, 9192, -4864, -16733, -7264, 6046, -8699, -8371, -2827, -2588, -11530, -5939, -11054, };
const TfArray<1, int> tensor_dimension5 = { 1, { 128 } };
const TfArray<128, float> quant5_scale = { 128, { 1.9072871509706602e-05, 1.8916707631433383e-05, 9.3564749477081932e-06, 1.9447136310191127e-06, 2.3141788005887065e-06, 1.5048651221150067e-05, 2.218395593445166e-06, 1.4941068911866751e-05, 8.7732641986804083e-06, 1.5549221643595956e-05, 1.36163998831762e-05, 1.7403868696419522e-05, 2.3502359454141697e-06, 1.9223080016672611e-06, 1.3699208466277923e-05, 1.469499238737626e-05, 2.1435565940919332e-05, 1.8118260413757525e-05, 3.6666319829237182e-06, 1.1855647244374268e-05, 2.1465362806338817e-05, 1.4581600225938018e-05, 2.0207735360600054e-05, 9.488607247476466e-06, 1.2953415534866508e-05, 1.3441705050354358e-05, 1.4060978173802141e-05, 2.2081428596720798e-06, 1.1187801646883599e-05, 1.8738450307864696e-05, 2.4750437660259195e-05, 9.5990126283140853e-06, 1.4713435120938811e-05, 1.579124727868475e-05, 2.4104920157697052e-06, 2.124352704413468e-06, 1.5198572327790316e-05, 8.9149662017007358e-06, 1.4789583474339452e-05, 9.4274009825312532e-06, 1.032120235322509e-05, 1.2065761438861955e-05, 2.3631955627934076e-06, 8.8928845798363909e-06, 1.9789274574577576e-06, 2.3616992166353157e-06, 2.509121486582444e-06, 2.4999599190778099e-06, 1.8634691514307633e-05, 1.7215734260389581e-05, 1.1095989066234324e-05, 1.2368784155114554e-05, 2.2202050331543433e-06, 2.1245923562673852e-06, 1.6111589502543211e-05, 2.9520633688662201e-06, 1.1051110959670041e-05, 1.8322974938200787e-05, 1.2495226656028535e-05, 1.9997655726911034e-06, 2.6580380563245853e-06, 1.912235893541947e-05, 2.4976236545626307e-06, 1.5588837413815781e-05, 9.6411213235114701e-06, 1.220982721861219e-05, 2.2528338377014734e-06, 8.1847756518982351e-06, 2.2827935026725754e-06, 3.9240139813045971e-06, 2.0017389488202753e-06, 1.9626762878033333e-05, 1.9722715478565078e-06, 1.2195825547678396e-05, 4.1887187762768008e-06, 1.0596593710943125e-05, 2.2178912786330329e-06, 2.5630379241192713e-06, 3.2435261800856097e-06, 1.9083541701547801e-05, 2.380703108428861e-06, 2.3952732135512633e-06, 1.9428207451710477e-05, 8.4503899415722117e-06, 1.1135159184050281e-05, 2.1778096197522245e-06, 1.0153527910006233e-05, 1.3252471035229973e-05, 3.019743644472328e-06, 1.2942427019879688e-05, 2.2145725324662635e-06, 1.1988654478045646e-05, 1.4936611478333361e-05, 1.8775988337438321e-06, 1.8763382740871748e-06, 2.6846314540307503e-06, 2.2460490072262473e-06, 2.2400899979402311e-06, 1.1765827366616577e-05, 1.2423577572917566e-05, 1.7746244338923134e-05, 1.353125389869092e-05, 2.5490371626801789e-06, 2.297949095009244e-06, 1.3651304470840842e-05, 1.4371856195793953e-05, 1.3847073205397464e-05, 1.7917720469995402e-05, 2.045446080956026e-06, 7.8012526500970125e-06, 1.3457594832289033e-05, 1.1342152902216185e-05, 2.3136472009355202e-06, 1.8794970628732699e-06, 1.708659328869544e-05, 1.1156329492223449e-05, 1.4611799088015687e-05, 1.4496745279757306e-05, 2.6867680844588904e-06, 1.8662820366444066e-05, 1.0689700502553023e-05, 2.2420986169890966e-06, 3.4356116884737276e-06, 1.6769721696618944e-05, 1.5301397070288658e-05, 2.2993103812041227e-06, 2.0898896764265373e-06, 2.3113218503567623e-06, } };
const TfArray<128, int> quant5_zero = { 128, { 0,0,0,0,0,0,0,0,0,0,0,0,0,0,0,0,0,0,0,0,0,0,0,0,0,0,0,0,0,0,0,0,0,0,0,0,0,0,0,0,0,0,0,0,0,0,0,0,0,0,0,0,0,0,0,0,0,0,0,0,0,0,0,0,0,0,0,0,0,0,0,0,0,0,0,0,0,0,0,0,0,0,0,0,0,0,0,0,0,0,0,0,0,0,0,0,0,0,0,0,0,0,0,0,0,0,0,0,0,0,0,0,0,0,0,0,0,0,0,0,0,0,0,0,0,0,0,0 } };
const TfLiteAffineQuantization quant5 = { (TfLiteFloatArray*)&quant5_scale, (TfLiteIntArray*)&quant5_zero, 0 };
const ALIGN(16) int32_t tensor_data6[48] = { -1666, -1291, 1651, -1372, -6471, -1122, -806, 767, 669, -696, -94, 231, -376, 908, -6516, -2967, -338, 467, -1009, 1544, 1541, 1131, -13, 605, -3723, -1852, 1102, 612, 2785, 1312, 557, 614, 2165, -3653, -1282, 521, 1098, -958, 836, 963, 704, 1048, 558, 143, 1624, 1117, -306, -318, };
const TfArray<1, int> tensor_dimension6 = { 1, { 48 } };
const TfArray<48, float> quant6_scale = { 48, { 6.0508384194690734e-05, 7.2923961852211505e-05, 6.5273030486423522e-05, 9.3453076260630041e-05, 1.1142259609187022e-05, 7.9730423749424517e-05, 6.5372725657653064e-05, 7.2834744059946388e-05, 9.7946831374429166e-05, 6.3461106037721038e-05, 6.3867017161101103e-05, 3.1527208193438128e-05, 5.3511354053625837e-05, 5.3632571507478133e-05, 1.0519213901716284e-05, 7.6271106081549078e-05, 9.9982127721887082e-05, 5.847886495757848e-05, 6.8115114117972553e-05, 5.2810039051109925e-05, 7.3264898674096912e-05, 8.0978788901120424e-05, 6.7984139604959637e-05, 8.5137398855295032e-05, 5.4324009397532791e-05, 7.5636438850779086e-05, 0.0001081387817976065, 4.4921835069544613e-05, 4.672565046348609e-05, 6.7612141720019281e-05, 8.1775353464763612e-05, 6.1918974097352475e-05, 8.9756969828158617e-05, 1.224171955982456e-05, 8.1748978118412197e-05, 5.9700178098864853e-05, 0.00012644383241422474, 6.0031728935427964e-05, 0.00010704617307055742, 8.7237378465943038e-05, 4.906739923171699e-05, 8.2721155195031315e-05, 9.6913456218317151e-05, 0.00011905322753591463, 4.6171815483830869e-05, 3.9652099076192826e-05, 8.7350177636835724e-05, 8.7034975877031684e-05, } };
const TfArray<48, int> quant6_zero = { 48, { 0,0,0,0,0,0,0,0,0,0,0,0,0,0,0,0,0,0,0,0,0,0,0,0,0,0,0,0,0,0,0,0,0,0,0,0,0,0,0,0,0,0,0,0,0,0,0,0 } };
const TfLiteAffineQuantization quant6 = { (TfLiteFloatArray*)&quant6_scale, (TfLiteIntArray*)&quant6_zero, 0 };
const ALIGN(16) int32_t tensor_data7[48] = { -478, 389, -329, -747, 172, -1366, 120, -4, -47, -126, -362, -689, 145, 72, 229, -373, -445, -491, -1418, 229, -359, 148, 241, -978, 364, -369, -528, -748, -343, -532, 5, -17, 76, -787, -504, -473, -105, -154, 285, -505, 352, 169, 427, 389, 140, 908, 405, -205, };
const TfArray<1, int> tensor_dimension7 = { 1, { 48 } };
const TfArray<48, float> quant7_scale = { 48, { 0.00034845387563109398, 0.00033163061016239226, 0.00034083807258866727, 0.00022536153846886009, 0.00021672900766134262, 0.00019797931599896401, 0.00017768463294487447, 0.00026910332962870598, 0.00028777675470337272, 0.00023473323381040245, 0.00019111823348794132, 7.3453113145660609e-05, 0.00025379640283063054, 0.00022196212376002222, 0.00044380134204402566, 0.00029770133551210165, 0.00038899152423255146, 0.00028024084167554975, 0.00024821469560265541, 0.00036203282070346177, 7.8960169048514217e-05, 0.00025929484399966896, 0.00020517404482234269, 0.00021244792151264846, 0.00023343731299974024, 0.00028624443802982569, 7.8930526797194034e-05, 0.00026279402663931251, 0.00020517928351182491, 0.00034199384390376508, 0.00029747193912044168, 0.0002895448706112802, 0.00025879908935166895, 0.00019202423573005944, 0.00022706693562213331, 8.3105587691534311e-05, 0.00028651711181737483, 0.00027575111016631126, 0.00021838223619852215, 0.00037608426646329463, 0.00028702244162559509, 0.00026425239047966897, 0.00022036205336917192, 0.00027445508749224246, 0.00027442339342087507, 0.00018360202375333756, 0.00033969100331887603, 0.00024035428941715509, } };
const TfArray<48, int> quant7_zero = { 48, { 0,0,0,0,0,0,0,0,0,0,0,0,0,0,0,0,0,0,0,0,0,0,0,0,0,0,0,0,0,0,0,0,0,0,0,0,0,0,0,0,0,0,0,0,0,0,0,0 } };
const TfLiteAffineQuantization quant7 = { (TfLiteFloatArray*)&quant7_scale, (TfLiteIntArray*)&quant7_zero, 0 };
const ALIGN(16) int32_t tensor_data8[12] = { 181, 164, -126, 268, 390, 504, 243, 15, -140, 53, 192, 19, };
const TfArray<1, int> tensor_dimension8 = { 1, { 12 } };
const TfArray<12, float> quant8_scale = { 12, { 0.00087525148410350084, 0.00081821694038808346, 0.0012917262502014637, 0.00060639675939455628, 0.0008656661375425756, 0.00082701130304485559, 0.00081217649858444929, 0.0010886344825848937, 0.00085644196951761842, 0.00071358302375301719, 0.00076325505506247282, 0.00083850795635953546, } };
const TfArray<12, int> quant8_zero = { 12, { 0,0,0,0,0,0,0,0,0,0,0,0 } };
const TfLiteAffineQuantization quant8 = { (TfLiteFloatArray*)&quant8_scale, (TfLiteIntArray*)&quant8_zero, 0 };
const ALIGN(16) int8_t tensor_data9[4*12] = { 
  -23, 9, 1, -46, -19, 22, -19, 18, -5, -15, -4, 24, 
  -20, -41, -46, -1, -6, -8, -22, 35, 9, -14, -17, -12, 
  6, 21, -127, -59, 12, -96, 20, -67, -61, 33, -15, -86, 
  -10, -18, -19, 7, -23, -8, 27, -9, -12, -25, 2, -2, 
};
const TfArray<2, int> tensor_dimension9 = { 2, { 4,12 } };
const TfArray<1, float> quant9_scale = { 1, { 0.023279465734958649, } };
const TfArray<1, int> quant9_zero = { 1, { 0 } };
const TfLiteAffineQuantization quant9 = { (TfLiteFloatArray*)&quant9_scale, (TfLiteIntArray*)&quant9_zero, 0 };
const ALIGN(16) int8_t tensor_data10[128*1*3*10] = { 
  /* [0][0][][] */ -38,-18,-30,10,-5,10,-43,22,-46,1, -86,-13,-12,-127,-123,-97,-87,-47,-55,-68, 25,-6,-15,-7,-28,-59,-61,-14,-68,-3, 
  /* [1][0][][] */ 83,-7,-10,20,26,-18,7,68,58,90, 60,59,-22,-107,-94,-125,-127,-57,-44,-10, -8,-33,11,-30,-40,-17,4,-46,2,-8, 
  /* [2][0][][] */ -6,2,13,-16,-5,-29,-23,20,-2,-3, 37,-19,-20,-13,62,96,87,32,36,13, 21,17,19,25,127,122,109,61,64,30, 
  /* [3][0][][] */ -127,28,-13,-41,-40,6,101,-74,40,-53, -72,-92,64,-14,118,-100,87,8,69,124, -121,37,-95,-113,-73,-5,-72,72,6,-123, 
  /* [4][0][][] */ -6,-2,11,-7,1,-17,-22,0,-21,-9, 19,-30,5,-27,16,9,23,-1,-23,-31, 46,12,-10,42,94,103,127,67,66,65, 
  /* [5][0][][] */ -21,23,-12,-29,-50,-48,-40,-48,-22,-51, 25,16,-13,16,-27,-5,-16,0,16,27, 22,34,5,-82,-111,-106,-127,-71,-48,-45, 
  /* [6][0][][] */ 34,10,-8,2,-11,-6,-7,31,30,51, -54,20,-10,-45,-100,-95,-127,-76,-76,-80, -9,20,7,34,-28,-42,-41,6,-12,-9, 
  /* [7][0][][] */ 39,-43,9,37,98,14,55,27,65,39, 0,12,-10,3,127,54,115,-1,45,59, -25,-47,0,-13,48,91,103,68,47,19, 
  /* [8][0][][] */ 9,-3,-6,-6,-27,-13,-23,-2,-10,-4, 16,-26,-7,-41,64,35,21,11,10,-5, 45,30,28,47,127,97,99,35,-2,7, 
  /* [9][0][][] */ -50,-45,-64,-18,-44,-53,-79,-30,-71,-57, 86,7,21,-1,121,98,127,52,41,78, -7,-2,-31,-19,28,57,12,28,-8,21, 
  /* [10][0][][] */ -90,10,-14,-31,-102,-127,-104,-64,-75,-81, -11,19,16,30,-49,-21,-46,-7,-11,17, 23,-6,-43,-105,-126,-105,-114,-58,-35,-44, 
  /* [11][0][][] */ -42,-19,-40,-13,-101,-127,-89,-42,-52,-53, 28,35,-13,-64,-78,-80,-55,-2,8,72, 58,55,-16,-90,-52,-114,-106,-25,39,75, 
  /* [12][0][][] */ 48,-94,-50,-15,111,-41,-13,7,102,54, -32,-76,69,-122,-87,-126,-62,52,-76,-106, -79,-41,-74,68,79,64,-106,58,-127,23, 
  /* [13][0][][] */ 2,11,-35,16,-13,-4,-45,-50,34,35, -23,-6,-9,-127,24,43,51,33,2,-16, 27,14,42,-12,25,90,35,-6,-18,-3, 
  /* [14][0][][] */ 77,-8,9,-17,-10,34,-8,91,64,109, 58,65,-34,-127,-98,-119,-95,28,52,56, -36,-28,-40,-4,-9,11,-41,-11,-5,-22, 
  /* [15][0][][] */ -78,19,-85,-18,88,-111,6,-14,88,-41, -9,-49,42,20,-115,-116,51,-24,-126,-118, -88,-47,-126,124,-49,-122,7,-65,-127,-39, 
  /* [16][0][][] */ 18,-32,8,19,72,97,88,33,23,70, 11,-19,-3,-4,119,123,127,44,59,62, -19,-22,-30,4,-14,19,18,-22,17,-6, 
  /* [17][0][][] */ -58,44,-55,-9,-45,24,-71,11,-119,72, 113,-56,32,-59,-111,81,77,126,-114,-69, -5,-120,-108,33,-105,43,46,-127,-15,87, 
  /* [18][0][][] */ -17,-21,-21,0,-25,10,-17,-3,1,-24, 94,-14,-18,45,125,118,127,91,99,113, -7,21,6,-27,22,50,16,10,6,17, 
  /* [19][0][][] */ -50,-17,2,-33,-67,-29,-52,-17,-52,-73, -42,27,-15,1,-59,-49,-49,-35,-32,-8, 16,-47,-57,-63,-88,-127,-79,-93,-24,-40, 
  /* [20][0][][] */ -22,-4,-21,5,-22,18,2,3,0,10, -4,-17,13,8,83,73,43,12,23,5, -6,-47,0,41,127,106,123,29,45,50, 
  /* [21][0][][] */ -44,-16,-15,-28,-48,-63,-46,-28,-58,-74, 25,-9,-7,35,-17,6,-20,7,26,19, 41,68,-14,-92,-110,-127,-113,-36,-28,3, 
  /* [22][0][][] */ -30,-1,-3,6,-22,12,-3,23,20,22, -11,-11,-18,4,84,72,99,28,-15,2, 11,-16,-37,34,119,127,106,69,68,54, 
  /* [23][0][][] */ -11,21,-13,-13,18,-30,-17,3,-17,-7, 1,-36,-8,-52,12,28,22,18,-9,10, 10,22,-1,36,83,127,81,20,16,48, 
  /* [24][0][][] */ -29,-73,-29,-12,2,25,37,-27,-23,-33, -82,-21,6,22,-18,13,-17,-43,-50,-88, -71,-127,-76,58,67,120,119,61,35,-18, 
  /* [25][0][][] */ -72,-25,-72,81,-90,115,-118,33,-77,50, -2,-102,72,-125,12,118,-127,-61,107,54, 116,-64,-6,4,-70,55,-96,-76,-114,38, 
  /* [26][0][][] */ 97,56,46,-83,75,-26,-57,73,-109,-127, -114,-37,-108,-103,-80,-100,-53,-14,-96,-94, -48,51,13,-94,-83,85,56,-100,39,99, 
  /* [27][0][][] */ 64,3,17,51,-22,-36,-12,51,72,68, -7,12,-8,-35,-108,-127,-123,-27,-39,-7, 10,-20,-11,-7,-34,7,-35,15,-2,-28, 
  /* [28][0][][] */ 54,-64,-114,-124,54,53,53,111,-43,4, 117,-103,-11,-79,-102,-121,-13,56,33,121, 127,-124,23,114,97,-44,62,48,-22,98, 
  /* [29][0][][] */ -63,-42,-41,-127,-56,-116,-70,-119,-79,-111, 57,17,-6,6,58,25,35,16,-9,-7, -56,-27,-84,20,71,80,42,72,53,-21, 
  /* [30][0][][] */ -122,-103,99,12,-86,-21,62,84,64,85, -73,-75,99,-55,27,-17,112,114,57,105, -127,15,-105,89,-22,-66,49,125,124,93, 
  /* [31][0][][] */ 73,-116,-75,32,-44,-49,-30,59,33,-93, 84,-77,108,-39,-89,71,70,114,-71,-74, 98,-50,-85,127,-31,-54,-104,83,60,-45, 
  /* [32][0][][] */ -67,-120,-127,-109,-83,-68,-73,-64,-97,-82, 77,0,37,23,116,122,97,57,44,83, -12,-40,-22,-16,27,63,19,20,1,48, 
  /* [33][0][][] */ -32,-12,4,-30,-54,-35,-57,-21,-52,-45, 48,-8,11,31,4,13,-10,1,25,40, 40,54,-19,-99,-126,-127,-114,-59,-48,-37, 
  /* [34][0][][] */ -127,-80,-15,80,21,84,104,24,-92,19, 10,-47,66,-124,-18,-32,72,-8,105,-7, 89,-48,-36,-118,43,-67,29,64,-73,-98, 
  /* [35][0][][] */ 25,3,-16,-8,8,15,1,-24,-7,-14, -71,9,-14,-49,-127,-118,-106,-70,-96,-113, -28,36,37,1,-32,-23,-9,-2,-17,-16, 
  /* [36][0][][] */ 11,-5,10,-28,-3,6,1,6,10,-1, -2,0,-2,2,63,82,63,2,14,-6, -4,-37,13,23,120,127,113,43,21,13, 
  /* [37][0][][] */ 7,-2,6,-69,-80,29,-4,-70,-61,37, -39,-64,-42,-17,34,-95,88,111,-124,-109, -71,-43,-36,52,-39,11,-120,127,91,-1, 
  /* [38][0][][] */ 18,-17,7,-9,91,83,104,46,15,54, 0,-14,-6,41,100,125,99,12,4,13, -67,-127,-68,52,94,106,70,55,44,22, 
  /* [39][0][][] */ 21,75,70,-75,33,14,-11,-46,69,52, 44,-74,-93,-10,83,100,44,127,79,80, 36,23,-69,-5,-12,-8,-24,-17,-11,-47, 
  /* [40][0][][] */ -100,18,-25,-37,-101,-101,-100,-54,-103,-92, 15,22,23,21,-62,-74,-92,8,21,-20, 79,55,-30,-103,-101,-127,-127,-39,-23,-22, 
  /* [41][0][][] */ -48,28,3,-33,-89,-112,-112,-35,-62,-70, 15,-11,13,34,-23,-52,-35,13,-5,8, 21,18,6,-99,-109,-110,-127,-58,-48,-37, 
  /* [42][0][][] */ -21,4,-12,-3,-4,-18,-11,-20,-10,21, -4,-31,4,-28,76,64,30,6,-16,20, 39,-15,15,29,91,127,112,33,20,17, 
  /* [43][0][][] */ 18,40,21,-66,-38,-55,-62,10,55,19, -74,3,-26,-48,-127,-112,-120,-98,-72,-80, -11,10,38,54,-51,-42,0,0,-5,-1, 
  /* [44][0][][] */ -70,0,14,-25,-82,-95,-93,-43,-74,-77, 19,9,15,16,-19,-15,-38,-4,-13,31, 32,53,6,-105,-126,-127,-122,-70,-27,-27, 
  /* [45][0][][] */ -24,39,-51,-80,123,-36,-39,-6,123,-103, 79,1,-114,61,-95,-89,2,12,-23,127, -46,-58,34,-34,-109,15,12,15,-96,-61, 
  /* [46][0][][] */ -24,-28,-50,-29,-33,-36,-27,-27,-21,-14, 53,17,-2,24,126,127,92,57,67,45, -6,-40,-20,10,96,70,87,42,30,45, 
  /* [47][0][][] */ -121,-6,-32,-47,-97,-127,-107,-107,-63,-127, 11,24,36,20,-92,-113,-83,-41,23,13, 51,34,-26,-112,-116,-89,-124,-22,-54,-33, 
  /* [48][0][][] */ 17,-26,-21,-29,-20,20,4,35,-20,11, -35,7,17,0,95,121,104,36,23,44, -34,-95,-12,21,117,123,127,75,-6,4, 
  /* [49][0][][] */ 12,-73,23,-47,-68,-19,-99,77,-28,109, 118,-123,56,67,-108,-62,12,99,-127,46, 89,-68,-78,-27,-101,-9,-52,107,-26,80, 
  /* [50][0][][] */ 23,-30,-4,14,97,127,99,75,71,74, -2,-2,12,14,36,81,42,16,0,-31, -47,-60,-20,89,120,117,121,75,50,53, 
  /* [51][0][][] */ 31,64,-12,-71,-57,-65,-127,24,29,-3, 73,34,20,-116,-120,-114,-80,-16,46,32, -26,-71,-71,-91,-68,-35,-44,-80,-82,-71, 
  /* [52][0][][] */ 4,-1,-19,-26,22,-21,24,12,7,-18, 101,-16,-13,33,127,102,110,65,87,110, 19,19,-19,-10,58,84,90,9,11,48, 
  /* [53][0][][] */ 0,11,-14,-8,13,16,4,5,29,2, -73,-8,-18,-32,-127,-91,-89,-74,-102,-100, -10,34,31,42,-12,-32,10,19,-6,4, 
  /* [54][0][][] */ -47,13,-16,-42,-76,-64,-88,-45,-82,-75, 18,32,24,4,-28,-26,-6,7,16,-11, 17,7,-46,-104,-119,-127,-113,-45,-57,-39, 
  /* [55][0][][] */ -47,37,4,-26,35,43,7,-24,-38,-33, -51,-114,-75,40,67,111,127,49,70,-25, -44,-19,-20,6,-16,-64,-3,-59,12,-1, 
  /* [56][0][][] */ 86,1,-23,44,127,118,98,55,79,84, 0,-3,4,-23,15,57,40,24,3,28, 20,-23,11,12,-17,16,-19,9,21,19, 
  /* [57][0][][] */ -120,-105,27,-100,110,-113,33,-9,114,-72, -45,-117,127,-102,72,73,-71,-103,-102,45, -57,33,-89,44,-98,46,-101,85,-86,-69, 
  /* [58][0][][] */ 1,-8,-15,-14,4,6,-2,-32,-8,-35, 7,6,1,-5,90,81,75,36,11,30, 41,-44,-8,27,101,100,127,39,66,51, 
  /* [59][0][][] */ -64,-125,-125,-71,-119,-90,-127,-56,-113,-94, 83,12,13,17,89,112,90,64,72,111, -33,-34,-17,-14,50,68,19,26,-1,9, 
  /* [60][0][][] */ -68,-20,7,-28,-81,-112,-127,-44,-55,-100, -10,21,22,-5,-85,-40,-52,-41,-48,-30, -11,-4,-47,-85,-48,-52,-78,-46,-16,-20, 
  /* [61][0][][] */ 6,-2,-4,-2,23,23,-5,35,11,14, -90,11,-23,-34,-119,-127,-116,-49,-67,-108, -22,31,21,23,-23,-24,-46,-22,-19,1, 
  /* [62][0][][] */ -2,6,1,-2,-51,-29,-38,-9,-46,-44, -81,-19,-37,-66,-97,-123,-110,-59,-102,-127, 20,40,67,63,-14,-3,10,2,47,-2, 
  /* [63][0][][] */ -51,27,0,-45,-90,-77,-104,-44,-59,-63, -4,20,13,18,-37,-37,-21,-28,-10,16, 39,63,-15,-111,-87,-98,-127,-67,-25,-41, 
  /* [64][0][][] */ -27,30,28,-25,-6,-37,-26,-42,-41,-45, 15,-33,-8,6,122,108,127,35,58,55, 31,7,-3,2,72,60,90,34,39,35, 
  /* [65][0][][] */ -55,14,-14,-25,-58,-58,-72,-50,-42,-49, 16,9,17,2,-40,-16,-33,5,-12,-1, 41,32,-25,-84,-104,-127,-107,-65,-50,-14, 
  /* [66][0][][] */ -25,15,-3,61,40,9,-10,57,31,2, -127,-125,-95,-60,-23,10,-60,-66,-64,-62, -54,-17,26,33,13,54,78,-32,-24,-41, 
  /* [67][0][][] */ 5,16,-1,-2,46,69,56,26,29,13, 7,-45,-16,17,114,119,127,49,30,45, -13,2,-4,11,-9,-3,0,-8,-12,-6, 
  /* [68][0][][] */ 41,7,-14,26,-2,14,30,50,68,52, -44,9,-11,-55,-98,-127,-110,-80,-62,-106, -11,18,16,52,-9,-18,-32,20,5,14, 
  /* [69][0][][] */ 96,-2,-18,7,23,46,40,81,101,85, -105,-37,-38,-16,-127,-127,-117,-61,-111,-127, -7,20,34,29,-44,-34,-51,-2,-9,-56, 
  /* [70][0][][] */ -19,-6,-5,-14,-15,9,-24,13,-4,-24, 25,-21,22,-11,75,104,102,46,19,19, 11,-21,11,35,85,123,127,18,37,17, 
  /* [71][0][][] */ 11,29,3,19,-45,-68,-67,13,28,22, -39,3,19,-45,-92,-127,-125,-32,-21,-48, 1,-7,1,-25,-26,11,-6,3,-9,-25, 
  /* [72][0][][] */ 25,45,6,-50,-45,-59,-32,-6,20,42, -35,1,-23,-46,-115,-127,-102,-87,-76,-70, -13,19,31,47,-38,-5,-12,-18,10,13, 
  /* [73][0][][] */ 16,-18,-25,-19,32,37,33,-10,19,0, -5,5,-8,14,51,59,28,9,18,1, 2,-55,-29,52,85,117,127,84,68,46, 
  /* [74][0][][] */ -16,-29,-37,-27,-17,-36,-10,-15,7,-12, 63,-20,12,-3,121,86,87,25,56,51, 11,-13,-18,9,109,127,91,61,55,37, 
  /* [75][0][][] */ 65,-4,-10,17,14,-9,-6,27,30,56, 22,29,-36,-101,-127,-112,-118,-65,-14,4, -2,-17,-3,22,1,19,-10,-16,7,-18, 
  /* [76][0][][] */ -35,35,34,-66,-49,-39,-81,-45,-29,-6, -9,-62,-49,5,82,127,69,44,16,-14, 22,5,-15,-1,80,24,102,-19,-16,30, 
  /* [77][0][][] */ -57,4,-7,-25,-43,-74,-39,-39,-55,-70, 28,-2,14,48,-9,20,9,31,24,29, 39,29,-3,-101,-83,-127,-110,-41,-33,-25, 
  /* [78][0][][] */ -40,-24,-26,-19,-120,-77,-127,-33,-55,-79, 34,4,27,49,-79,-70,-62,0,-25,17, 14,24,-18,-113,-101,-75,-111,-64,-35,-54, 
  /* [79][0][][] */ -21,23,2,-16,-10,-23,-13,-39,-47,-39, 45,-10,-9,-19,81,118,103,14,35,39, 73,20,-9,18,127,121,126,70,69,50, 
  /* [80][0][][] */ -6,-38,27,9,-16,-20,-27,37,-8,-22, -25,-56,-6,-59,31,-13,37,-37,5,-3, 6,6,30,28,127,69,73,38,19,2, 
  /* [81][0][][] */ 12,-4,-3,-24,-27,-20,30,6,37,2, 48,-16,1,-14,75,80,41,68,-34,39, -65,-10,-31,16,127,64,41,43,66,24, 
  /* [82][0][][] */ 0,3,-17,-33,3,10,35,23,21,27, 20,-16,-59,7,22,25,106,39,-14,-41, 0,-25,12,1,110,122,127,74,24,28, 
  /* [83][0][][] */ 6,-8,2,-6,1,4,-21,-8,3,-10, -88,7,6,-36,-116,-114,-127,-43,-66,-83, 2,22,18,6,-52,-29,-50,-22,-17,-4, 
  /* [84][0][][] */ 10,-2,-11,-18,31,19,6,5,0,-11, 33,-52,0,0,126,92,127,36,58,47, 24,-4,20,34,117,111,108,57,66,59, 
  /* [85][0][][] */ 59,0,-34,36,114,103,127,47,47,75, -2,27,-8,-27,49,29,42,-7,23,-11, -32,-25,-13,3,30,31,50,30,40,0, 
  /* [86][0][][] */ -50,-110,-31,-117,-8,29,90,-102,-83,-33, -59,-39,-61,-73,-64,43,-63,-50,-125,-45, -29,88,-111,-58,73,127,-86,-45,-50,-52, 
  /* [87][0][][] */ -34,-24,-9,10,-41,-41,33,25,-21,-30, 46,-48,-49,26,41,40,65,24,-1,64, -24,13,21,-32,116,55,127,61,-2,11, 
  /* [88][0][][] */ -53,6,-11,-19,-108,-99,-112,-48,-52,-89, 11,18,22,14,-37,-18,-55,23,-16,29, 31,10,-24,-124,-124,-127,-123,-79,-40,-9, 
  /* [89][0][][] */ -27,3,11,-12,25,-3,-24,-3,18,-17, -44,3,-11,-76,-56,-19,-25,-62,-99,-127, 57,45,46,32,110,78,111,21,5,51, 
  /* [90][0][][] */ 79,-36,7,13,85,95,116,66,51,50, -52,12,-1,1,76,33,34,10,-32,-21, -57,-85,2,60,81,127,127,62,50,31, 
  /* [91][0][][] */ -15,-34,-48,-48,-24,-4,-1,-17,-4,-23, 61,-23,29,35,127,90,118,47,48,58, 7,-34,-1,-10,47,80,48,29,43,18, 
  /* [92][0][][] */ 37,-26,-10,35,2,-27,24,41,6,-16, 3,-7,-62,-98,89,82,18,-39,1,-3, 21,30,26,40,119,105,127,100,78,17, 
  /* [93][0][][] */ 15,-54,102,-94,53,103,5,81,-76,95, -127,-5,-109,-118,-100,-104,5,-107,34,47, 81,12,14,60,-62,-121,-124,-72,-65,-60, 
  /* [94][0][][] */ 88,-39,0,56,127,126,122,41,64,107, -30,16,20,-38,-21,-12,29,0,19,33, 16,24,0,-34,-25,28,-6,19,19,16, 
  /* [95][0][][] */ -17,-60,40,-61,-61,-18,38,11,2,20, -96,-108,-75,12,-37,-17,-29,-66,-5,-76, -35,30,49,-33,16,77,127,52,-46,3, 
  /* [96][0][][] */ -55,11,0,-26,-85,-80,-87,-40,-55,-77, 17,11,-1,10,-42,-20,-47,-15,20,-1, 42,59,3,-94,-117,-127,-109,-40,-40,-34, 
  /* [97][0][][] */ 114,-80,-67,41,-100,117,70,120,-115,121, -14,-118,-68,-46,-69,39,-92,12,59,39, 127,30,3,-75,21,82,101,-52,-35,-70, 
  /* [98][0][][] */ 76,-96,-58,-57,121,54,-68,12,77,74, -91,-70,-118,-89,26,-82,-114,28,127,-50, -49,13,8,-82,-104,-53,1,61,-122,119, 
  /* [99][0][][] */ -30,-72,7,-46,-121,-14,-108,13,10,20, -70,8,19,-36,-127,-84,-29,-8,-35,-66, -30,-28,-15,35,96,34,59,80,27,54, 
  /* [100][0][][] */ 17,5,-17,-37,121,124,127,38,57,40, -67,31,36,-66,61,24,6,-50,-40,26, -35,-40,-8,56,50,11,53,95,-27,-23, 
  /* [101][0][][] */ 25,-9,-4,-19,-30,15,16,-23,6,26, -79,10,-30,-54,-93,-84,-127,-63,-95,-92, -28,10,20,-16,-39,-51,-22,-48,-14,-50, 
  /* [102][0][][] */ 19,16,-3,6,92,85,115,27,9,20, 23,-41,1,28,115,108,127,63,49,1, 2,-21,-28,-8,-29,11,-28,-7,-27,-27, 
  /* [103][0][][] */ -46,21,-26,-25,-90,-74,-92,-69,-56,-80, 22,9,23,-8,-15,-38,-18,22,9,15, 52,37,-18,-101,-104,-127,-120,-74,-38,-24, 
  /* [104][0][][] */ -28,-9,9,-28,-61,-53,-50,-30,-62,-56, -4,14,4,15,-32,-23,-22,-3,-1,1, 37,20,-17,-96,-108,-108,-127,-51,-27,-43, 
  /* [105][0][][] */ 86,43,37,52,60,50,31,79,68,127, -17,-15,-26,-29,-6,-39,-44,9,8,-13, -15,-17,-26,1,-11,23,3,-18,3,-20, 
  /* [106][0][][] */ -25,4,21,-68,-64,-64,-127,-1,-23,9, -7,-20,-57,10,5,-5,-28,75,43,-25, 19,-1,-22,-14,-7,2,58,27,9,16, 
  /* [107][0][][] */ 84,25,36,54,-48,-12,-32,66,92,97, -50,31,-24,-71,-99,-126,-127,-53,-26,-58, 1,-16,18,-26,31,-33,21,28,19,-25, 
  /* [108][0][][] */ 10,-18,5,-18,-20,2,-16,9,15,-6, 34,-28,9,-1,102,125,127,41,44,44, 42,10,-16,-2,114,111,117,46,35,62, 
  /* [109][0][][] */ 30,37,10,-90,-75,-86,-90,-6,36,70, 49,58,1,-116,-97,-127,-113,-7,-23,64, -65,-36,-37,-59,-50,-63,9,-65,-21,4, 
  /* [110][0][][] */ -45,-94,30,69,94,12,-56,46,-49,44, -67,-85,-49,-106,43,-41,-47,-77,-40,-105, -98,126,-29,-127,36,63,-30,-87,15,-100, 
  /* [111][0][][] */ 52,18,-16,-48,83,75,74,58,15,44, 28,-4,-30,5,37,62,79,29,39,54, -63,-70,-84,-37,-122,-93,-89,-115,-87,-127, 
  /* [112][0][][] */ 27,-35,0,4,83,96,81,19,19,23, 61,6,-5,5,40,69,49,82,88,74, 36,73,33,-89,-108,-111,-127,-44,-31,2, 
  /* [113][0][][] */ -68,-7,14,5,-2,-53,-65,-63,-64,-64, -52,-127,-100,-65,-34,-36,-44,-56,-39,-49, 71,54,34,55,23,63,65,52,34,26, 
  /* [114][0][][] */ -44,-96,-40,-83,-38,11,-31,118,18,-42, -118,-90,-70,-63,21,-64,-18,-106,39,-43, 15,-15,-27,19,127,-105,98,64,-107,80, 
  /* [115][0][][] */ 39,12,25,37,-19,-26,-67,10,52,61, -27,-6,15,-59,-114,-127,-99,-27,-33,-36, -5,1,-11,-28,2,-28,-25,-19,-11,-3, 
  /* [116][0][][] */ -59,5,-19,-29,-74,-89,-103,-61,-69,-54, 23,10,19,19,-34,-29,-45,-11,5,-9, 44,20,-41,-91,-119,-127,-110,-39,-54,-38, 
  /* [117][0][][] */ -11,27,8,-2,-61,-65,-83,-19,28,-2, -25,21,21,-44,-117,-95,-127,-45,-46,-43, -21,-9,-24,12,5,-27,5,-40,-31,-54, 
  /* [118][0][][] */ -16,-26,-15,10,-22,-21,-22,-41,-19,-43, -3,10,-8,19,-98,-99,-110,-27,6,-14, -29,33,8,-19,-93,-122,-127,-52,-39,-21, 
  /* [119][0][][] */ 66,-37,11,47,127,107,106,61,78,95, -21,-5,16,-21,34,62,70,41,-13,-13, 14,-22,-8,-11,17,-23,12,15,17,23, 
  /* [120][0][][] */ -53,5,-16,-22,-58,-47,-59,-17,-54,-48, 34,5,6,21,-8,-10,-20,9,6,-3, 35,24,-27,-98,-92,-101,-127,-63,-60,-36, 
  /* [121][0][][] */ 19,-15,-16,14,31,21,9,-13,-12,-4, -57,6,-24,-46,7,-7,-6,-7,-42,-41, 16,4,11,53,96,127,107,11,54,16, 
  /* [122][0][][] */ -118,23,-103,2,-3,-60,40,11,55,-33, 77,-115,-70,-7,-25,61,96,19,-38,-127, 51,47,22,-40,50,-118,-77,60,85,-115, 
  /* [123][0][][] */ -16,-2,2,-24,-20,-18,-21,20,20,-9, 71,-30,-11,34,103,89,127,60,83,68, 0,10,-7,7,61,77,76,11,15,17, 
  /* [124][0][][] */ -85,-15,-17,18,-111,-127,-117,-33,-51,-42, -30,7,25,6,-97,-100,-74,-25,-20,-11, 45,24,-29,-57,-57,-46,-50,-9,-23,-29, 
  /* [125][0][][] */ 4,14,13,-33,6,39,-25,36,-22,26, -28,-18,-73,-24,55,86,46,-12,5,-2, 61,19,-7,19,108,121,127,34,25,39, 
  /* [126][0][][] */ -36,-52,-55,-18,-29,-37,-49,-48,-28,-71, 53,14,-12,5,27,23,31,49,58,65, 99,68,-9,-113,-88,-127,-115,-23,0,21, 
  /* [127][0][][] */ 18,-50,74,-88,-90,54,-50,-72,49,-94, -119,-52,15,-99,103,-114,43,83,105,-27, 121,-87,-16,89,127,52,5,-20,-94,33, 
};
const TfArray<4, int> tensor_dimension10 = { 4, { 128,1,3,10 } };
const TfArray<128, float> quant10_scale = { 128, { 0.0023262461181730032, 0.0046211401931941509, 0.0045090159401297569, 0.00092365988530218601, 0.0058971680700778961, 0.0068713189102709293, 0.0068058199249207973, 0.0025598772335797548, 0.0040107029490172863, 0.0036099222488701344, 0.0051428154110908508, 0.0034375577233731747, 0.00092693697661161423, 0.0021722870878875256, 0.0035467632114887238, 0.00094525044551119208, 0.0038569024764001369, 0.00090201804414391518, 0.005338604561984539, 0.0037364535965025425, 0.0047957124188542366, 0.0059745805338025093, 0.003943523857742548, 0.0035502712707966566, 0.0044489479623734951, 0.00093034736346453428, 0.00098210014402866364, 0.0046242768876254559, 0.00089021999156102538, 0.0023901301901787519, 0.00090493459720164537, 0.00088382110698148608, 0.0034733428619801998, 0.0055817766115069389, 0.00093250535428524017, 0.0047698309645056725, 0.0054610469378530979, 0.0009295046329498291, 0.0051981494762003422, 0.0021450708154588938, 0.0041217021644115448, 0.0062828678637742996, 0.0044251107610762119, 0.0043542282655835152, 0.0064272414892911911, 0.00094292481662705541, 0.0049711014144122601, 0.003385881194844842, 0.0033167274668812752, 0.00093273463426157832, 0.004474974237382412, 0.003208452370017767, 0.0048526544123888016, 0.0050006583333015442, 0.0052788988687098026, 0.0027114576660096645, 0.0054356199689209461, 0.00094206514768302441, 0.0064303688704967499, 0.0038948825094848871, 0.0046209166757762432, 0.0055434699170291424, 0.0040240618400275707, 0.0054463762789964676, 0.0056186788715422153, 0.006505234632641077, 0.0025439905002713203, 0.0063479999080300331, 0.0055290847085416317, 0.0044010751880705357, 0.0048030726611614227, 0.0054132766090333462, 0.0049030925147235394, 0.0055126589722931385, 0.00428730808198452, 0.0052176322788000107, 0.0027705016545951366, 0.0059743351303040981, 0.0040002483874559402, 0.0052836481481790543, 0.0030748939607292414, 0.0020067265722900629, 0.0026937553193420172, 0.0057846345007419586, 0.0036141867749392986, 0.0050487639382481575, 0.00091545586474239826, 0.0028647615108639002, 0.0053422804921865463, 0.0037979432381689548, 0.0047784913331270218, 0.00472669443115592, 0.0024659424088895321, 0.0010320062283426523, 0.0039713690057396889, 0.0017146402969956398, 0.0053729573264718056, 0.00092150294221937656, 0.00093825656222179532, 0.0018724998226389289, 0.0018396533560007811, 0.0040936479344964027, 0.0045778006315231323, 0.005358927883207798, 0.0061484999023377895, 0.0044311457313597202, 0.003144122427329421, 0.003584996797144413, 0.0053991163149476051, 0.0029004509560763836, 0.00090999703388661146, 0.0030057576950639486, 0.0047247372567653656, 0.0040847654454410076, 0.00091643922496587038, 0.0049311411567032337, 0.0060490379109978676, 0.0053039044141769409, 0.0055573550052940845, 0.0043411222286522388, 0.0064202831126749516, 0.0039144428446888924, 0.00096439779736101627, 0.0051930942572653294, 0.0046097850427031517, 0.0028826643247157335, 0.0046535762958228588, 0.00094647187506780028, } };
const TfArray<128, int> quant10_zero = { 128, { 0,0,0,0,0,0,0,0,0,0,0,0,0,0,0,0,0,0,0,0,0,0,0,0,0,0,0,0,0,0,0,0,0,0,0,0,0,0,0,0,0,0,0,0,0,0,0,0,0,0,0,0,0,0,0,0,0,0,0,0,0,0,0,0,0,0,0,0,0,0,0,0,0,0,0,0,0,0,0,0,0,0,0,0,0,0,0,0,0,0,0,0,0,0,0,0,0,0,0,0,0,0,0,0,0,0,0,0,0,0,0,0,0,0,0,0,0,0,0,0,0,0,0,0,0,0,0,0 } };
const TfLiteAffineQuantization quant10 = { (TfLiteFloatArray*)&quant10_scale, (TfLiteIntArray*)&quant10_zero, 0 };
const ALIGN(16) int8_t tensor_data11[128*1*3*128] = { 
  /* [0][0][][] */ -8,11,7,11,1,-10,2,4,-11,-9,5,5,7,-7,-3,5,3,1,10,-10,5,-10,-12,5,0,-12,2,-11,-3,-9,1,7,-6,6,-4,1,0,-5,-12,2,5,-11,-9,6,-5,4,9,-4,0,-7,0,6,4,-4,-10,7,-1,3,-11,-8,-3,2,8,8,-3,2,7,-8,3,12,8,-10,-8,-8,-2,-10,-11,-7,2,8,7,-5,11,-3,7,-1,6,1,-5,-1,-3,-9,11,1,11,-1,-6,12,-2,-9,5,4,-9,-3,-12,0,1,-4,-5,4,4,2,12,-7,-3,-12,-9,-9,-1,-10,11,8,12,6,9,-2,-9,-9, 15,15,23,-1,46,6,38,-6,17,-20,19,-38,-3,7,-72,-12,-52,4,-42,4,22,32,16,22,76,3,6,-64,-11,6,-1,0,-17,40,11,29,29,-4,29,-30,-3,36,17,47,23,4,10,-4,14,-11,-1,-38,-10,59,2,20,-28,2,91,-15,-6,29,69,11,23,3,51,88,65,55,15,-80,56,26,-34,4,30,49,9,25,39,-4,17,18,8,-12,-2,-11,11,47,-12,-33,39,10,-25,2,5,11,-6,-1,-15,-3,0,-10,-5,-50,-40,-60,15,-31,-3,6,-127,80,5,-63,9,-64,-53,-23,15,36,8,9,-3,25,-31,2, -10,-4,-3,8,-6,-7,-1,-3,-1,11,0,-2,-10,5,4,5,5,10,1,5,-10,12,-5,-10,-3,-3,5,-12,-7,-4,-3,7,-6,-1,10,-3,-7,4,7,-4,-11,7,12,11,1,4,-9,12,-10,-4,5,1,-5,-12,4,8,-6,-11,-7,1,5,4,3,2,5,-3,4,-8,5,11,9,5,-3,-9,12,12,-12,2,0,6,-10,8,3,4,-3,-6,-6,-7,-6,-11,-11,-3,-9,-10,-12,7,2,-6,-3,6,-11,1,11,-1,6,7,10,-8,-5,-8,9,5,9,-12,7,7,-7,12,12,3,7,12,1,5,6,-5,-7,12, 
  /* [1][0][][] */ -8,-10,7,11,-7,-4,11,-5,-7,-2,11,3,-11,4,0,-2,-12,-4,3,7,-2,-2,4,-12,0,-1,7,-3,12,-10,-11,8,-4,5,0,11,12,-3,5,-2,4,-5,13,12,-10,1,-7,-7,-2,-9,7,-1,10,5,12,-1,8,0,1,-10,11,-3,4,-5,3,1,-10,8,12,-7,-9,8,10,-8,-6,-12,7,3,-10,0,9,-3,-12,7,-8,-8,4,-10,-11,3,9,-1,-12,0,-8,1,-5,7,-7,12,-9,0,-8,-10,-12,-6,-1,-9,-7,11,3,-7,-3,12,9,9,-4,12,-3,10,6,-7,-2,-11,-3,-9,-7,10, 7,0,-19,0,-2,-13,27,6,-9,-13,27,-6,-5,7,-21,1,-3,-5,2,0,-11,34,-13,-3,-127,-5,-11,18,-9,3,1,8,-23,9,9,36,-18,2,-32,-44,15,46,8,6,35,-9,-26,9,-12,-3,-22,3,-13,15,21,-29,-6,-6,-93,1,2,27,25,20,-25,8,16,-75,23,28,-12,26,23,-21,-6,20,-10,3,-1,-30,1,-9,5,42,-17,-2,9,12,46,3,-14,-16,5,-9,2,-10,21,-2,12,8,4,13,-6,12,23,-5,-11,21,-31,3,12,-4,26,-44,-9,3,46,13,33,8,28,-7,-2,-11,16,3,-5,-2, 1,-11,-3,-5,-4,5,7,8,-12,4,-8,8,7,1,6,9,12,6,-7,0,-10,4,3,9,-2,7,-2,-7,11,-7,10,1,-8,5,11,9,-4,-7,-1,1,-3,10,-5,-11,7,10,-1,-5,0,-12,-2,-11,10,-7,5,3,-2,2,0,5,1,-4,12,-12,-8,3,4,1,12,3,-3,-3,-4,-6,12,-10,-1,-5,-5,-7,3,7,-10,-2,-9,9,-3,9,5,-11,-3,6,12,7,9,0,12,11,8,-6,0,-7,7,9,-1,-3,2,-10,12,7,11,-3,-8,-4,4,-8,-10,-8,2,-1,10,11,5,4,-1,9,-4,-4, 
  /* [2][0][][] */ -19,20,-7,15,16,11,2,10,6,-10,14,10,-9,22,16,24,-7,-8,11,-19,22,19,-3,4,-11,18,-8,25,3,-16,10,15,25,11,15,-4,5,-15,7,-12,-24,-21,1,24,0,-18,-18,-23,11,-11,2,-10,-11,-18,7,1,20,-12,6,21,21,-8,25,-17,-18,-16,2,-19,-5,13,-21,9,-16,5,7,10,-19,24,8,6,12,8,9,6,16,-2,-22,15,15,10,-13,-10,25,-19,-22,21,-24,-8,-6,-7,-18,17,-8,-15,-22,14,3,-13,-2,10,-8,3,19,-4,-22,-7,-9,2,-9,1,-16,-18,11,-8,8,-24,-24,-17, 6,-57,40,12,50,21,2,22,50,23,6,-69,-21,24,-127,-15,-23,-21,15,13,35,-96,18,29,62,-12,-5,-28,6,-25,1,0,-22,2,-4,56,58,8,44,-76,-58,-16,6,38,60,4,-18,-95,7,-22,43,-80,15,46,12,-14,-3,-22,86,15,6,31,0,34,13,43,38,29,73,65,35,-56,51,14,-27,-54,5,39,-123,49,45,27,21,22,56,10,16,19,36,69,35,-19,45,7,-2,20,-7,12,16,30,-10,41,16,24,80,-20,-39,-29,60,-44,17,12,18,19,19,-61,31,-13,-4,34,53,48,-19,19,-57,51,-65,22, -25,17,8,7,-8,23,5,-17,25,22,11,10,3,-13,-4,-15,-10,-11,-20,-24,3,25,16,-8,6,2,-2,-1,17,4,22,4,-9,15,20,24,-3,-24,-8,13,11,23,15,-6,-24,-8,-20,21,3,-12,-21,-2,-24,5,-6,-21,-11,-18,12,2,-16,10,-5,13,17,3,-5,-4,-1,21,25,-4,7,-12,-25,8,-7,12,1,-7,17,-6,1,5,-16,7,23,-1,-10,0,-8,18,19,-22,-3,1,-8,22,-1,-20,0,2,22,18,5,21,-10,-6,23,-19,6,-21,18,8,9,-23,-2,-14,13,-25,4,21,-6,6,-2,0,-10,-20, 
  /* [3][0][][] */ -78,-36,3,0,18,-37,-120,-113,-71,30,-55,-63,14,-23,-28,-82,-46,93,98,98,116,-96,-119,121,4,8,37,-74,11,-59,2,113,67,-40,-23,22,25,40,-75,-61,120,-79,27,-24,-59,-114,110,-75,-61,59,65,-88,53,23,-48,-51,-81,19,74,-21,76,68,-114,-92,-84,37,-52,115,-37,28,105,-117,-40,-94,-59,-41,121,-46,24,118,-113,-85,-10,56,94,116,1,25,-18,-77,-66,-31,-32,108,69,-37,85,10,98,-65,-119,61,38,-59,-1,-89,0,107,95,58,35,-6,34,111,104,-13,-66,87,85,100,-58,-119,-79,-8,29,-21,116,117, -120,-124,117,24,-114,-2,23,-78,90,-32,-19,61,-113,-42,55,42,113,75,-41,-101,-33,-123,118,-100,-38,-83,-111,-76,-29,-20,89,-1,26,-3,-71,50,-109,8,-26,-88,47,24,-70,-123,-38,51,-53,-127,85,46,-60,111,-58,33,-86,-21,-118,-95,-86,-106,66,36,-48,17,26,-62,-44,-123,-26,-56,64,104,-74,-30,-6,-64,68,-35,72,-56,-27,6,13,-21,98,-48,-73,-34,-30,-66,7,47,-40,-27,-65,-71,78,54,74,-126,-9,-45,-24,1,40,-49,-17,19,-29,44,-121,59,-16,-100,7,-57,-106,-104,79,-118,55,31,71,7,-27,-26,-45,23, 96,52,19,57,-31,66,-69,-117,96,108,54,-109,-37,26,83,66,98,52,70,116,-106,65,-62,25,-87,87,-49,49,-123,12,-58,-8,-7,36,-81,105,-98,92,8,6,104,7,-1,-27,-49,61,8,31,-17,-18,-34,-65,96,-65,101,-121,18,115,-62,57,-53,-35,-91,30,111,-24,62,100,-45,-77,90,73,86,51,115,89,85,109,-107,-5,19,102,-67,-60,-87,6,110,-118,14,-44,53,-7,88,-27,120,30,-79,-49,-28,119,-10,-58,10,-31,-42,-43,-45,-95,-58,27,-2,-8,-104,86,-114,17,69,-75,-81,-1,79,-103,63,24,-11,117,83,72, 
  /* [4][0][][] */ 15,-94,90,-28,-70,-31,0,26,-23,-83,-22,-89,-91,-15,-16,101,-21,2,-52,-9,80,95,-60,-8,32,-29,49,-32,-65,43,64,40,88,17,-20,97,51,37,81,-22,-62,35,31,-11,-77,-11,-72,94,49,-48,-56,97,-9,28,-70,-77,-80,93,0,-100,-13,-77,-99,59,35,87,44,98,-71,58,1,101,-73,-74,69,-11,34,22,-73,78,100,-86,96,-34,102,-94,79,3,-13,-12,85,-28,-7,-72,64,74,60,-72,32,68,41,38,-2,64,44,-60,75,-37,-70,28,-81,-99,-18,-34,-10,-80,-59,99,-2,-62,-73,73,101,39,56,-23,-76,-35, 31,11,62,80,-31,47,-23,71,9,-17,-16,71,-21,41,23,-17,80,27,-40,19,-65,-33,-74,15,-48,13,72,-22,-64,60,70,-66,-35,-98,-35,-62,-127,-28,17,79,72,77,23,-36,77,-13,77,-79,-39,-74,59,17,-113,-99,-62,4,-93,-45,-87,-32,-5,-93,57,-97,-55,-93,-7,-64,-57,-76,24,-11,86,73,82,-90,76,2,-67,38,-68,-33,-60,-83,53,-100,-2,-40,0,51,-104,62,-89,60,55,47,-89,85,-34,18,27,-86,-13,-79,-1,-103,-26,4,-61,39,-71,-78,27,-11,76,-85,74,-21,93,70,-92,-31,2,-73,-101,71,14,-68, 23,47,-29,-7,61,1,-80,-46,54,66,-82,53,-61,-74,-32,13,-27,-26,60,54,94,-11,-40,-20,-39,10,97,-65,95,42,3,23,12,95,52,-16,-10,-57,89,31,62,-79,-78,-23,-45,-21,-66,21,-13,17,-12,61,-65,41,-70,51,-77,-30,-80,-80,-103,-27,1,97,-8,91,62,6,32,-19,51,78,22,-33,4,78,-94,-35,-5,-46,83,-62,31,-65,-83,-33,-28,-72,20,39,71,-100,-5,8,76,-73,22,-88,69,-20,42,-62,35,97,5,55,30,-98,-8,-82,-59,53,12,25,27,-45,-66,-74,94,87,16,61,-30,40,-99,89,2,98, 
  /* [5][0][][] */ 9,-10,-5,-13,-2,-9,-10,-1,-13,-5,-3,0,4,9,-5,-5,-1,-10,-13,8,-14,-12,-2,3,-13,-5,14,-9,-1,13,13,-13,6,9,8,7,3,-15,-14,14,-16,7,-3,3,6,2,1,-16,-4,1,9,3,-10,-4,-8,1,1,13,12,15,8,-15,-1,4,5,11,5,-3,13,7,-8,-13,4,-6,-1,-7,-13,13,8,8,1,-12,-11,13,-4,-6,-4,1,8,2,-14,4,-1,-2,-15,-4,1,-3,-4,-7,-2,15,-8,-9,-1,10,14,15,0,-3,-4,-14,-16,-5,1,3,15,7,0,-16,-2,-13,1,-12,11,8,-15,11, 68,35,-28,-8,22,-29,-13,-44,-42,5,0,46,11,37,39,4,-63,-12,-29,17,1,-24,-8,-27,127,0,15,-8,-13,7,0,-11,2,-9,8,-5,3,14,19,15,-25,-12,-31,-1,-39,-12,11,-16,7,-12,-21,15,11,-52,-5,44,-13,0,51,-7,-4,-8,-34,-30,0,-5,110,60,2,2,16,2,4,44,-30,29,44,-20,5,-4,19,3,-24,13,-17,-36,13,-4,-11,-50,1,20,13,9,-20,33,-49,8,-3,98,11,-13,-11,0,33,3,67,-27,-25,21,3,14,-71,109,-11,-16,-12,-10,-31,-11,13,-43,-17,-7,-13,48,-40,12, -7,-4,-10,-6,-1,6,-4,4,-9,4,-16,-14,-4,-8,8,-6,2,10,5,8,-11,-1,-7,12,15,-7,-1,13,12,11,-2,11,-2,1,3,12,-15,-7,-13,-14,-7,-9,16,-14,11,-2,-10,-2,12,8,-12,9,-6,-10,6,-6,8,-1,-10,-12,-9,15,-12,-14,-12,10,15,1,5,2,9,1,3,-9,4,-6,13,6,4,5,-10,10,12,5,9,9,0,-6,-7,-6,-2,11,-13,10,-8,9,-14,-7,-11,-2,3,3,9,-8,8,-1,11,-15,6,-8,12,14,10,5,-12,3,-1,-1,-4,-2,-3,-3,5,-13,-5,5,2,4, 
  /* [6][0][][] */ 82,38,-54,21,99,-81,-9,52,29,-103,-65,-26,-26,25,-71,53,38,73,-91,60,23,-62,19,49,71,-55,-37,25,-5,14,-49,-54,88,-80,-35,-31,72,-42,70,-44,9,28,15,18,98,55,27,-93,20,94,47,-25,19,-64,-31,-72,-18,28,-80,-32,-65,99,-30,-9,-17,43,-74,-88,95,-60,89,-86,57,-68,15,77,-10,48,97,38,62,-91,-48,-85,18,-68,55,-41,36,-92,-103,79,43,9,-12,-39,-88,-105,-97,-11,95,2,5,89,6,47,9,82,-58,22,77,10,10,84,23,88,105,-55,-96,-99,-25,40,-30,-43,20,-56,33,-105, -112,57,-111,28,79,36,-59,-40,93,-81,-61,-123,91,-56,-38,-5,14,104,11,-81,-36,-107,54,12,-57,84,-54,-7,71,-127,74,-96,-100,71,9,-43,-6,90,-111,-74,74,50,-47,35,-5,-79,-42,-85,-58,96,-108,-93,-107,52,74,-63,0,104,-8,-67,79,-92,-98,41,74,-67,13,-62,-116,69,-102,-98,-62,-86,43,63,26,-38,-13,-115,-48,76,-86,36,66,-81,-24,-45,11,18,-117,-28,-58,-3,10,-19,7,-36,-85,-88,-8,-73,56,15,21,-6,-32,80,-28,2,-2,-57,-39,11,97,9,81,-101,-122,-117,24,5,-80,18,-11,66,95,-46, -73,36,-10,-66,51,-89,49,61,-101,-59,-64,89,15,-14,54,49,-87,55,75,-6,-1,-86,-37,-11,65,6,96,-7,-90,101,48,-17,-14,-43,42,-29,-36,-86,-63,-77,104,-107,45,59,-51,-95,106,105,-98,-1,-73,-65,-11,-89,-63,41,-5,-41,-16,-7,-2,-83,-106,90,-82,66,-71,-100,23,43,-25,43,71,48,-94,7,-38,93,-11,99,-82,-9,-25,-52,92,4,78,41,43,91,-47,-100,72,40,66,5,-44,-18,39,-98,94,-16,75,104,-51,-77,-106,17,21,93,-59,78,-68,99,-16,83,-97,46,81,52,106,-82,-13,-49,13,-13,15,93, 
  /* [7][0][][] */ -8,7,-14,7,-5,8,10,-13,8,-4,-3,7,2,-4,-1,14,-10,-11,13,10,11,14,8,10,9,11,-13,0,-11,-8,-11,5,-8,8,7,10,6,0,5,-13,-6,-8,2,-4,3,-1,-15,10,6,-8,4,1,13,0,2,-3,16,-13,2,10,-7,-9,-7,11,-10,-2,-15,-3,-4,11,14,-9,-5,15,7,-3,0,-15,-14,10,-5,-6,11,-2,14,6,-10,-12,-11,-4,-5,-9,10,9,-5,-14,-7,2,-9,-13,1,-5,-11,-6,4,-3,14,4,0,-15,-8,2,12,13,-2,-13,-1,-12,-12,-8,3,14,-5,1,-12,15,14,3, 5,-30,-17,-10,-10,-38,40,19,-8,-22,31,3,-13,-8,-34,13,12,-3,-23,3,-29,1,-12,9,-127,-14,8,17,-16,7,-11,-9,-25,-62,-12,46,-26,-9,-30,-69,-8,57,-13,23,32,4,-52,-9,-34,4,-21,14,-21,13,26,-43,-21,-15,-107,-18,6,42,-2,-3,-44,25,-6,-81,19,16,-28,20,29,-34,-4,-20,-18,-29,-3,-4,6,0,1,60,-16,-7,-14,7,50,24,4,-45,2,2,10,-25,10,10,-12,32,3,19,-20,29,-6,13,-35,16,-22,23,-14,15,5,-61,-7,20,37,37,57,-13,7,-10,-8,-26,13,20,-14,-3, 3,-6,0,-8,3,-6,8,-13,0,-10,-16,3,-9,12,-11,-6,-5,-12,3,13,6,0,2,6,0,16,-11,-14,12,-15,11,12,-10,10,-3,-4,-10,10,-10,1,-3,0,-4,-9,-15,12,-6,15,2,-2,0,-11,11,-14,-12,-12,-10,-9,15,-7,8,15,15,-9,1,-15,-4,0,12,-7,-11,6,-16,3,-5,11,8,-16,9,4,-9,-14,12,-13,-12,-13,-5,-16,13,8,-16,15,-14,6,-11,-14,-11,-3,5,-6,-13,5,2,-1,12,5,9,2,-9,-11,10,10,-12,-10,-4,15,7,-6,-13,-14,15,-15,4,-6,1,3,-1,-7, 
  /* [8][0][][] */ -18,-2,1,-10,21,-10,1,-12,-9,12,17,23,-2,-23,-15,-17,18,24,-15,23,26,-17,-26,11,24,-15,26,-20,-1,-15,24,-24,24,-15,-6,-20,23,-22,11,20,20,-11,-17,19,20,16,-18,-2,5,22,9,-19,16,24,26,9,-2,-3,13,-12,14,10,-15,27,-19,-2,-23,3,19,22,-18,15,6,-27,-11,6,-10,5,-7,-15,25,13,17,8,-19,-13,12,-16,-21,-3,-13,6,27,-21,15,-24,13,-24,23,18,-18,4,20,-17,-7,-6,-18,-10,26,0,-15,13,25,2,26,5,-3,-18,17,21,-17,-11,17,-25,9,-16,15,-27, 43,90,8,-13,-62,18,127,-22,41,-8,99,5,0,21,-25,-1,7,-15,-19,0,-51,-12,-45,-2,-89,22,26,5,5,-17,2,-10,-32,49,-24,72,-44,-9,-50,-33,8,114,12,109,46,-7,-46,3,-34,-26,-17,30,-41,90,64,-13,-63,20,-125,-24,47,91,116,59,-14,48,59,-88,107,37,-6,27,107,-71,5,71,-17,42,-55,-4,20,-20,-21,73,11,-37,-14,-28,109,47,-32,-88,35,-15,15,-15,2,15,6,-4,8,40,-7,37,67,-39,-13,-3,-103,57,-3,27,7,-4,14,-13,86,34,17,-35,61,29,16,-73,-18,-7,-50,-10, -5,21,0,-23,0,8,20,1,-22,25,12,21,11,-17,-12,-1,-21,-25,-26,8,10,-22,-4,26,-13,-8,-24,3,-16,24,-4,-12,13,13,20,-20,-24,12,27,-4,-10,-14,-10,-6,26,7,-1,-7,9,-15,8,17,10,-19,15,22,-7,-9,-19,22,-2,-10,-18,-8,-2,-6,5,20,-10,-16,-12,6,11,25,17,23,14,15,15,-6,-8,-14,-1,3,-18,-4,21,-16,-4,-7,-13,-2,8,12,15,-8,1,-2,27,21,-13,-13,-19,3,14,4,-14,-7,-4,-23,-22,7,-13,-23,-25,15,-23,1,-24,11,19,12,18,7,-23,4,-12,-9, 
  /* [9][0][][] */ -4,-1,-12,-11,2,-4,1,-11,12,-2,-4,10,-3,8,-14,-14,13,14,-7,-14,-3,-4,13,13,5,9,14,3,15,-8,-12,5,15,3,-1,15,2,-11,12,8,12,6,8,6,-7,6,4,7,-12,4,-15,-15,-13,2,5,6,10,-11,5,-12,-2,8,-2,14,0,2,-7,-15,10,5,-2,-5,7,-14,-12,-2,-13,-9,15,2,7,-4,15,10,-12,-4,-13,-6,-5,-14,-6,10,-2,3,13,5,15,6,-11,10,7,8,-10,5,-11,6,6,-1,4,0,10,3,10,7,1,9,-9,-9,-9,-2,15,6,-13,-11,5,-6,-2,3, 17,-64,-20,3,-4,4,41,-2,-25,-11,4,87,-12,25,-54,10,-7,-2,-7,-10,-26,41,-4,-11,-108,-2,-6,5,11,7,7,-11,-36,-78,-14,26,-3,-13,-29,-107,15,36,9,21,54,3,-55,-26,-16,10,-19,83,0,14,12,-36,-23,-4,-127,-4,21,36,32,8,-48,1,-12,-121,16,11,-16,17,41,-40,-2,-2,-31,-22,0,-48,-7,9,-12,56,-9,0,0,-13,24,-6,7,-47,-37,-12,4,-12,14,-7,-11,6,9,1,-16,32,6,-1,-8,10,-28,83,14,2,39,-31,-3,15,15,23,72,6,15,-19,-17,-15,-2,9,-8,-7, 8,3,13,-5,-1,2,-9,13,1,-6,0,-14,7,7,6,7,-10,-1,-4,-1,-14,3,12,14,8,9,13,-2,-5,3,10,11,3,0,11,0,-2,9,5,11,2,15,-9,3,0,6,6,10,-12,-9,-6,-5,8,9,15,11,8,-4,13,14,1,-8,11,9,-5,-8,6,-5,1,7,-5,15,6,-8,-12,-10,-5,11,14,9,-13,11,5,-9,10,13,8,-7,7,7,-6,-9,-14,-8,15,3,12,3,13,8,4,-7,15,-7,10,4,13,-2,4,-8,-14,2,0,12,13,2,10,-10,0,-7,11,-15,-1,8,11,6,-1,4, 
  /* [10][0][][] */ -1,17,1,9,5,-17,-3,8,6,2,17,-6,6,8,14,6,16,-5,-8,-15,-3,10,-12,-13,13,-14,8,9,2,-9,-1,7,13,-7,10,9,-1,11,1,-2,-8,14,10,-13,4,12,-6,7,4,13,-7,16,-16,-13,14,-15,9,-12,6,17,17,10,6,-2,-1,-15,12,-2,-4,1,-2,-5,15,-17,12,-14,15,-4,16,-4,-5,-8,-4,0,4,-4,3,4,13,8,-10,-7,17,0,-7,-9,-9,4,-9,9,12,-8,-13,-11,13,-7,6,13,-12,-14,-1,-14,-16,7,3,-12,9,-10,-2,-14,-10,-10,-2,5,-6,9,-17,-15, 23,-36,-28,3,-4,-20,-58,-12,-24,-1,-38,-44,7,8,-26,-14,10,14,-22,25,8,-58,-18,-5,127,16,17,20,-17,-4,-15,7,19,-53,3,-10,0,-15,42,33,-28,-90,-16,-44,-31,13,46,-20,19,17,26,-48,-39,-59,-1,41,-5,10,78,6,1,-40,-124,-3,39,-11,30,65,-37,-57,14,5,-51,23,-10,-23,13,-46,-29,-16,-4,4,-3,-24,1,-11,17,13,-23,-35,23,35,-25,15,-2,11,-22,-7,-14,30,16,2,6,-3,-10,29,24,-3,13,-30,-11,-3,-12,24,13,5,-7,-2,-11,-9,-26,1,7,-33,-7,25,-42,17, -7,-13,2,4,13,-12,7,7,16,-3,-7,5,-15,6,-17,-14,10,8,14,-14,-3,-9,7,12,13,-17,-9,-2,3,2,10,17,-3,-12,-8,0,0,8,9,-16,6,10,-9,-15,-13,9,16,13,-17,8,-5,1,4,13,-8,-7,1,16,11,-9,5,-13,4,9,2,-2,12,5,4,5,7,11,-3,-16,-6,-6,-7,-1,-5,3,-11,9,17,-16,-4,-3,-7,14,1,16,-12,8,-5,-5,7,-8,8,-16,13,-16,17,-8,-7,-12,11,-16,-5,-7,5,8,-10,1,6,-5,1,7,6,-13,16,-6,7,5,10,4,-3,2,16,-2, 
  /* [11][0][][] */ 2,-4,6,-4,-8,7,-13,-9,-11,9,6,-4,12,10,2,-2,7,-6,3,10,-12,-11,-11,5,-5,0,13,-10,6,-12,5,7,-6,-6,5,7,-1,-13,11,-6,-1,10,2,-14,-4,-3,14,-12,8,-11,13,3,-5,7,-11,9,11,-5,-10,-13,3,-2,-8,-6,-3,9,0,-13,-9,0,5,2,-10,0,2,11,-1,1,-12,0,13,14,-4,13,-9,12,9,-4,4,-6,2,-9,8,1,-10,-2,-5,-2,4,9,3,-1,0,9,7,5,4,-6,-7,-1,-6,-8,-4,-14,-8,4,-10,-10,4,-1,-9,-3,13,-3,3,4,-5,0, 10,40,-60,1,-61,22,23,0,-58,-15,-8,35,-4,8,30,11,4,-4,38,3,-47,66,-33,-30,-127,-13,10,11,3,-10,5,-13,-7,36,2,-8,-39,-6,-83,15,22,24,-46,-9,33,8,-31,13,-33,-8,-59,39,6,-28,-8,-16,4,-10,-71,-12,-5,-8,-21,11,-19,0,-48,-33,-3,-69,-81,16,-3,-31,-2,28,-24,26,24,-45,-42,-11,-20,-16,-50,20,-5,-12,22,-59,-43,-28,-28,8,17,-25,30,5,11,-14,-26,28,-40,20,6,3,-10,15,-47,61,12,3,38,-28,12,8,-7,7,8,6,20,-52,14,-8,8,-30,37,13, 12,-4,-10,2,7,-5,4,7,-6,-3,11,-13,-2,0,-8,8,4,2,7,-11,-4,-8,11,-8,-6,-1,-4,-7,10,-11,-13,6,-10,4,1,-10,13,5,-4,10,13,-7,-9,-4,11,-9,-5,11,-5,14,3,2,-3,7,4,4,2,-7,1,3,-7,-7,-6,-2,-5,9,-9,3,10,10,-13,-4,-4,-7,-8,-1,-4,-12,5,-2,0,8,8,-10,7,2,10,6,5,11,-11,2,-2,2,-9,-7,2,7,-7,12,-5,-1,-6,12,2,-14,2,-2,7,-2,1,-3,-13,4,9,11,0,9,6,-1,11,3,4,10,-7,11,4,11, 
  /* [12][0][][] */ 67,-27,1,-81,53,96,-37,-20,-42,100,33,-54,-42,14,71,-12,-24,-68,-36,58,63,80,98,-6,18,31,71,32,31,-41,-71,91,12,75,4,48,-45,10,-7,25,-89,76,-71,-48,-93,26,54,18,-91,-9,53,-15,98,93,-75,-91,-48,-99,-101,92,-38,-5,38,38,87,99,99,24,-21,26,31,-17,93,-49,90,-52,-88,-49,-50,-48,73,-78,-16,101,-86,-47,-36,29,-78,22,-25,10,46,67,-17,15,39,94,42,95,-87,52,4,53,-19,14,37,26,76,35,-27,48,14,-28,38,31,-29,-69,14,-12,-50,-3,-90,49,-40,20,41,-24, 80,-87,27,-93,-40,38,25,-70,-120,-78,20,-75,71,-21,39,-60,37,-9,62,-30,47,72,-62,-4,-88,-44,23,-92,7,56,-38,-90,-119,-106,4,-37,68,99,67,-95,25,31,8,42,25,29,20,-63,-17,-77,-92,-98,-127,35,-124,36,-7,-43,54,-7,7,9,-44,-108,-58,71,-107,-91,11,74,-100,94,-14,-116,-60,86,40,58,-15,-72,61,-125,-71,7,54,-95,-73,34,-114,-72,11,-44,-84,-98,-96,9,-56,-49,-59,54,-67,-63,44,56,7,77,-66,-4,-106,-13,-84,-93,-25,-86,-63,-73,41,-17,-105,-95,-112,-88,-57,-120,1,-109,-120,-81, -61,47,-101,7,-72,66,-65,-48,71,35,-46,16,-94,31,-100,-31,52,4,-4,-74,-52,-85,-36,-21,40,101,-45,2,-36,-65,-10,-95,-22,34,-2,-22,56,22,-74,75,-40,-34,-40,81,4,67,-72,52,-44,17,47,-34,-9,-29,-99,-97,-62,87,-28,-88,59,13,96,93,33,37,58,-23,-55,-93,-58,-60,-19,93,-12,-75,-26,-21,-26,97,-37,70,90,-9,87,74,-53,-67,-8,19,-50,93,87,40,99,-64,74,37,-59,-40,-36,-50,-38,-17,-56,-81,-82,-101,-100,49,60,-1,98,-70,-66,91,-45,-34,49,72,-60,44,30,60,32,-72,-35,7, 
  /* [13][0][][] */ -22,-92,-42,73,-56,118,40,43,-110,-59,-96,-94,66,-6,62,-90,29,9,-98,86,-24,86,-1,123,104,-54,73,-111,120,36,-20,-37,-24,-59,24,8,-118,75,-111,-15,120,-30,56,-100,90,55,68,83,23,-60,-54,-98,-81,-123,20,-124,-64,42,-120,-34,1,32,102,-9,117,43,-103,92,18,-14,-65,97,2,112,62,58,87,83,-25,-5,-20,-47,41,-44,100,104,-103,79,-91,-36,-52,-39,100,29,68,58,106,-54,-105,73,-86,106,-53,18,-30,-16,30,51,112,-24,11,-88,-72,-19,-20,123,-34,31,32,11,-123,-38,-58,1,-76,63,-60,-30, 47,93,-14,-52,40,48,79,-89,-68,-28,-52,69,-57,-121,-45,-106,-120,116,-105,16,-62,-4,-106,41,-92,24,3,76,-51,-124,-7,-24,-46,84,49,-56,-113,15,63,32,2,75,-62,-85,21,61,69,-9,118,-23,56,6,-86,100,-28,-77,62,48,-121,110,25,-46,-88,-86,24,-117,-78,-14,108,115,55,3,-23,77,-109,-66,-29,37,-127,44,11,97,-123,-127,-69,10,12,-112,-74,38,-113,-122,-81,-1,-123,83,-90,-12,-118,-74,-119,23,-41,4,19,-16,105,-124,-70,34,38,-95,-55,-99,-68,-8,-91,-25,-40,-120,25,-118,-87,-28,92,-107,-64,70, -4,98,-105,-93,102,23,93,3,112,-78,-110,-20,97,39,-4,-3,-22,84,0,71,-67,32,43,11,116,82,97,121,89,95,-74,-76,46,50,8,11,-74,-10,-13,28,103,-46,-118,-69,-7,-50,-103,116,87,4,65,5,-107,34,34,102,-109,-75,30,121,-113,-46,-30,119,-5,-15,27,-108,-77,-97,24,98,9,-90,119,-37,93,-41,48,116,-71,-61,-22,4,-86,42,36,94,41,97,100,116,18,4,-99,-52,42,-105,57,66,91,48,99,-28,-28,120,69,-101,28,95,-83,101,-76,5,81,69,-96,98,5,-94,-48,-5,-89,50,-45,-34,38,49, 
  /* [14][0][][] */ 1,5,-8,-14,-15,8,9,10,10,-3,12,6,11,11,-14,-3,-17,2,7,16,-14,9,2,5,2,13,4,14,-17,1,6,15,-6,14,-12,-11,-9,-15,3,-6,-12,15,-8,17,-17,-1,-3,-13,-17,4,3,-4,10,17,0,9,-15,-8,-3,-7,3,-8,7,-10,-3,10,-16,10,-12,14,-10,12,2,-11,9,10,-7,-10,-7,-8,3,-2,-5,-13,14,8,-13,7,-6,2,5,15,-10,11,13,-7,-3,-7,12,-4,13,-1,-11,-8,13,14,13,3,-11,0,-15,12,3,-4,-2,11,3,4,7,16,-13,10,-7,-10,3,-16,-9,-3, 5,-10,31,6,68,-7,-79,-32,19,17,-37,-2,6,21,-15,13,-55,8,25,-5,24,3,36,10,24,1,-5,-77,-15,3,13,2,-5,14,8,-34,35,-11,24,-32,-91,-84,8,-43,-14,14,28,-71,26,14,23,-12,28,-25,-37,13,20,2,91,3,-13,-27,-27,5,27,-23,19,108,-45,-70,22,-123,-39,37,-53,-16,5,0,-71,33,21,-9,19,-52,12,5,-11,-10,-53,28,20,6,22,16,-1,12,-21,-2,13,16,10,-35,26,-5,2,-22,47,-50,40,-18,12,13,-88,-5,8,-75,-31,-127,-109,7,-11,17,-17,15,-43,26,-17,-15, -4,16,9,0,11,-11,13,-13,5,12,-3,-8,1,16,-13,14,-3,11,3,13,-14,-11,-3,-2,5,16,0,-11,11,13,-7,16,11,17,0,-10,17,16,-17,9,-11,-9,0,6,-8,-6,4,3,-10,-15,-7,3,2,-7,7,-3,4,2,-5,0,9,-8,-11,10,4,14,7,4,-4,2,5,5,4,15,-17,-8,6,12,-10,-11,16,15,-5,-6,7,-7,12,-5,13,-12,7,-11,6,15,-14,-7,14,-9,15,14,0,-9,-4,-10,17,-6,7,15,10,16,-13,-8,11,-5,9,-11,2,8,-3,-2,7,-13,4,10,16,12,-15,-9, 
  /* [15][0][][] */ 13,-4,11,0,1,3,-12,14,9,14,-15,15,-11,7,10,6,5,-12,-13,11,-10,14,-3,-5,14,-15,9,11,11,-6,-12,10,14,10,15,7,15,-6,14,-1,-14,-9,3,9,-9,-11,-2,-13,-5,-1,-13,2,-6,-5,15,-8,7,10,9,-1,-10,13,4,5,4,-6,12,6,14,1,-2,2,14,5,-16,10,-1,-6,-15,9,15,16,14,6,-9,-10,9,-9,6,-11,-14,11,7,-1,12,-11,9,3,13,13,11,-11,13,-13,-14,-5,0,12,0,13,14,-4,14,5,11,8,9,-14,7,-4,-14,14,0,-6,16,13,-8,12, 12,19,-23,6,-19,23,44,11,-25,11,58,-89,1,1,-13,9,-16,-11,-27,3,-22,14,-9,-9,-85,-1,2,-6,-9,-12,5,-4,-2,5,5,28,-20,5,-30,-18,-6,66,12,16,-1,-14,-32,-9,9,14,0,-119,-14,0,44,2,-11,8,-84,-10,35,32,20,2,-29,20,17,-65,42,36,-24,23,28,-12,-6,58,-29,-14,1,-22,0,19,1,59,-14,-6,-4,7,43,-9,-10,-9,1,-2,-17,-6,-3,11,11,6,6,4,-10,19,27,10,-31,4,-31,-127,-9,9,14,-31,15,11,44,23,28,-8,30,-19,4,-29,-4,5,-26,3, -5,14,4,16,3,-13,-7,6,8,15,-11,6,12,0,5,7,-10,0,-8,14,9,-10,3,-9,-14,15,2,10,-10,10,-4,-15,-12,10,14,5,-12,11,14,2,11,4,-11,3,4,-7,-9,15,-11,3,12,7,-16,13,10,3,-11,-9,-1,0,10,13,3,9,-13,13,-15,-3,12,5,-11,-12,5,-4,14,12,-6,2,3,2,-1,-4,-6,-2,-10,1,-14,-10,-6,-11,12,11,-14,7,-1,2,1,-12,4,-15,9,15,12,-6,1,15,-15,-14,-2,1,16,-10,-14,7,-9,-14,-15,-11,5,-7,0,3,14,15,11,-5,12,-11, 
  /* [16][0][][] */ -3,-2,-7,-3,1,4,0,1,0,8,-7,-9,-6,-2,8,2,-11,9,-7,-4,1,7,1,0,-3,-4,-2,-4,-8,-5,-3,-5,3,3,-3,-10,5,-5,-8,-7,-6,1,-8,-4,-1,4,-2,-9,-11,-4,-4,-11,-1,3,6,-6,-6,6,-6,-1,-8,-6,-10,-5,-3,8,-9,3,-8,-7,-5,-4,4,9,-1,-3,3,6,-6,-10,-1,11,-7,0,-10,-7,10,-3,9,-7,2,10,3,-4,3,8,4,1,0,-2,8,4,2,4,7,1,2,10,-10,0,-4,0,-10,-6,6,4,8,-2,5,-11,-8,6,1,9,0,-1,1,3, 28,9,-23,9,-4,-21,-22,-32,-39,2,-20,-27,-7,-23,3,10,-26,8,-69,-1,15,-31,6,-23,127,3,6,12,-2,-13,-11,10,13,-4,-10,-22,2,-6,29,17,-8,-28,-15,-41,-57,10,14,-9,19,-9,2,-64,-30,-44,-16,42,-10,9,82,-4,-15,-34,-7,-47,-3,-31,73,72,-32,3,2,-1,-35,40,0,33,9,-33,7,-7,-18,-14,-16,8,-2,-50,10,5,-4,-66,1,5,11,-9,-26,26,-32,-2,9,34,4,-7,4,-36,-10,-2,9,-13,-19,-32,-3,-17,-57,80,7,11,-10,-5,-23,-20,-9,-31,-3,-23,-10,4,-75,-8, -4,1,-3,6,5,-10,-7,-7,2,-8,-4,-1,-11,9,6,-1,9,-8,-11,-4,2,-2,10,1,8,10,3,-6,3,2,-4,-11,-4,-11,-11,3,6,9,5,-5,-1,10,10,-4,-10,2,10,2,1,-3,-3,-5,0,-5,7,-3,-10,4,-2,10,6,5,5,1,-10,-8,10,2,7,4,4,-8,0,9,-7,-7,9,-1,11,8,-5,-11,-6,-10,-11,10,-3,-8,9,10,4,5,7,6,-8,-1,3,-10,4,-5,6,3,8,10,-4,7,-4,8,-5,7,-6,-7,4,-6,2,-7,4,-3,-6,2,-8,-1,-8,10,4,3,10,8, 
  /* [17][0][][] */ 11,-6,11,-12,8,-3,-2,8,4,7,12,4,2,3,-5,-7,1,-1,-11,-9,-9,-5,-7,-7,3,-1,-1,-4,-7,10,-9,11,-9,8,1,7,-13,-1,6,-3,1,13,-12,6,-10,11,-9,4,9,-10,-13,7,-6,1,0,-12,8,-8,0,13,-3,1,-4,2,-2,12,-11,7,4,-9,0,6,2,-12,-11,7,9,3,4,2,1,-10,9,-4,1,4,-7,-7,-1,10,-2,-13,-5,9,7,6,7,-12,-1,-8,-6,-6,3,9,1,-7,6,-10,9,-7,11,12,0,-11,0,6,11,0,-4,1,1,4,3,4,9,5,-10,-6, 8,37,-57,0,-22,28,-38,11,-68,2,-8,54,-10,0,36,7,6,-8,60,4,-37,63,3,-42,-127,-13,-4,20,5,3,10,8,-7,5,1,-39,-28,-11,-65,-10,6,-22,-19,7,29,-6,-6,9,-5,3,-15,80,29,-52,-3,-10,39,9,-110,-4,-10,-36,-50,10,-53,14,-21,-52,-17,-51,-52,1,14,-12,2,34,-21,13,5,-67,-31,-21,6,-39,-25,33,-11,-13,16,-88,-20,-12,-20,-12,32,-3,21,6,5,-17,-22,3,-29,23,21,-5,16,14,-49,61,5,14,49,-19,-12,11,14,17,16,16,24,-52,0,14,-6,6,43,-6, 5,11,6,6,12,-8,0,10,-7,8,-3,5,-6,-4,-3,-12,5,-2,7,-12,0,7,-11,10,-8,9,-13,10,13,-3,11,10,-7,-5,8,-4,10,-13,-7,-10,3,-5,-9,0,-2,7,-12,13,0,12,-5,-8,-3,-2,7,-11,6,8,3,4,-12,-4,11,-13,9,-12,4,-5,6,-8,-11,-8,-2,6,10,-10,9,-3,5,6,-4,-2,9,2,10,7,2,12,-11,12,3,-2,1,8,-1,7,2,-9,9,-5,-2,-13,0,7,-8,5,5,12,7,0,-13,-8,4,10,-2,-8,-10,2,-10,-4,-10,10,-12,-6,1,-3,12,12, 
  /* [18][0][][] */ 41,-4,-49,39,-20,-11,30,5,60,-58,30,-35,48,-27,-40,22,22,16,-18,-59,-45,-6,-13,-13,52,-29,56,51,-20,56,30,-31,-8,-22,45,-61,-61,-3,-13,56,-45,-32,-46,1,57,-23,-34,28,-34,-49,-65,-5,1,-49,-38,-21,23,54,0,48,-19,49,-39,-9,34,-41,-8,55,-48,-45,-3,45,29,-62,27,56,-41,-13,-31,-31,62,-45,-13,-61,-8,-20,52,20,25,27,11,6,32,-23,-34,-63,-49,30,-10,12,51,22,-19,65,29,59,21,-31,34,61,-3,45,-59,64,-14,18,32,11,37,35,22,-24,3,-12,15,-8,64,47, -81,-10,-68,-21,48,-95,-23,37,12,-5,15,-48,49,-112,-23,-54,57,44,45,36,-14,36,37,31,5,42,27,-39,27,-56,-26,52,33,4,-49,-127,20,-32,-55,-25,1,-45,22,-89,-63,-3,-45,-35,18,-38,38,-40,-7,-36,-53,-59,-57,15,0,6,5,-69,-71,-29,-76,-14,30,-49,6,-29,-42,-60,-6,-60,-67,-26,-52,17,-19,-25,-12,33,30,4,-22,19,55,120,25,-29,-37,-38,11,-24,-12,-17,-90,-10,3,16,-19,-107,-21,-85,-62,36,-19,-4,-20,-67,38,66,36,-53,-17,3,-89,-15,-92,36,-26,-54,-26,-33,25,50,-15,13, 47,35,-16,3,-61,15,6,-39,51,54,-10,34,52,15,25,43,23,-19,-54,64,-63,45,-49,42,-27,-59,50,-13,28,45,39,-24,-32,1,16,65,12,-62,-35,-64,64,-58,0,-20,-53,24,41,-16,4,-31,-23,-5,-41,56,30,55,12,-61,53,44,57,-54,-27,-40,62,-5,-5,34,-54,-23,16,-60,-59,-56,7,19,-7,-13,35,-7,43,-27,7,60,-15,64,30,53,-11,-45,-36,-23,50,-55,-57,46,-6,1,23,-48,-26,-15,-6,-27,-61,6,28,-8,-62,62,-18,-59,55,61,-56,-39,60,-28,-29,8,15,-50,-53,33,-11,40,-39,30, 
  /* [19][0][][] */ 6,-4,-18,-17,17,-5,-17,13,7,-17,-16,0,-15,19,-5,12,15,2,2,-19,12,-8,-13,-6,2,6,19,-10,-14,14,-9,2,-5,18,-20,-11,-9,8,-5,-14,14,-19,-7,-14,-14,13,13,-17,-11,14,1,-15,-3,19,-11,13,-6,-8,-16,17,17,15,1,-19,-4,-6,3,6,-12,-11,-8,19,-14,18,12,-4,1,12,-17,-12,3,-14,-13,-4,1,-5,-5,11,-6,-6,4,-9,-9,6,-10,-19,6,-11,-14,-10,-19,-11,3,-1,6,14,13,-5,-12,4,-6,7,14,15,14,19,13,-5,-1,-13,0,-19,5,11,-19,2,-13,-8, 15,93,37,-13,29,20,-73,-3,27,15,-90,-31,-10,12,45,1,-33,-19,52,15,9,8,11,19,77,8,-3,-36,2,14,15,-10,12,109,17,-35,33,20,53,-2,-15,-127,-9,-60,-47,-9,47,-40,28,1,29,-15,80,-67,-75,9,42,17,115,9,-31,-59,-58,-42,-2,-30,35,93,-62,-17,37,-37,-40,14,-60,6,2,-16,-34,16,32,-20,-13,-76,27,70,1,12,-50,-15,-1,44,49,-10,50,12,-52,8,0,-11,-23,21,32,-31,-12,-8,1,-13,100,-27,17,17,16,-13,11,-38,-22,-24,-61,40,-24,-15,-21,40,-36,5,27,2, 6,-10,15,-10,-9,-18,-4,-1,18,-10,-15,0,-12,11,8,-9,18,-16,5,-12,-13,-12,10,-3,-11,-15,8,-2,14,3,13,18,-8,2,-10,-3,-16,-18,7,-3,17,4,-7,4,3,-4,11,13,-18,-10,-6,11,-20,2,0,3,4,-4,-14,-5,-10,-14,12,-9,17,1,17,7,8,16,19,-17,-3,-14,2,13,17,9,19,12,-12,0,5,4,-16,-13,9,0,17,19,5,18,3,-8,-18,9,-7,-16,-3,15,19,8,19,13,-18,5,-1,-18,-5,4,3,-12,11,-12,12,14,8,-7,-7,-3,4,9,3,10,-6,13,-16,-13, 
  /* [20][0][][] */ 3,-2,-9,5,-5,-10,-4,3,8,0,2,2,-2,9,8,-2,9,1,10,-1,-9,-3,-6,-7,4,-5,1,1,-5,9,9,-6,-3,-1,8,3,0,-1,-1,-2,0,-11,-10,2,9,11,-2,11,-4,11,-9,-10,-1,-6,-4,5,10,10,-5,3,-4,5,-9,5,10,-8,0,-10,-8,-7,-10,-4,9,5,6,-8,11,-8,-8,-9,7,4,-11,-1,-7,-9,-7,0,-9,8,9,4,3,5,1,-1,-1,7,-7,3,6,-1,-9,-5,1,-2,10,1,-4,2,4,-6,-8,-7,-7,-1,0,-4,3,3,-4,11,7,2,-2,0,-7,5, -8,7,33,0,7,-54,-82,-2,10,11,-41,-7,11,4,22,4,-9,0,28,-4,12,8,-6,-13,27,10,4,0,0,-3,0,-4,15,8,-2,-16,15,-3,4,12,-13,-127,-19,-57,-18,-4,12,-4,2,-3,16,-12,20,-31,-3,8,30,-4,35,7,-5,-24,-115,10,-6,-4,0,22,-71,-62,2,7,-64,-3,-19,-15,-36,4,-7,23,1,6,-6,-57,9,15,-11,2,-24,20,20,18,12,5,22,-11,-5,-8,-5,13,-8,-40,2,-15,-13,2,-30,9,20,1,7,-3,27,10,5,10,-35,-6,-19,20,-18,9,0,20,2,14,5,11, -1,-6,3,6,0,-9,1,-4,4,-3,6,-4,-7,5,-4,5,2,-6,2,7,7,2,-1,-4,-6,10,0,-1,-11,10,-5,-7,-5,9,6,-4,8,9,9,-5,8,3,3,-10,2,1,10,1,9,-5,10,8,-4,2,-10,-11,9,10,-4,6,-1,-3,1,-4,-2,-10,9,-1,4,9,1,-4,9,3,11,-3,9,-7,-9,-1,4,-3,10,0,1,9,9,-6,2,6,5,6,2,7,10,11,0,6,1,-2,2,5,0,-2,-6,5,5,-9,4,8,9,2,4,3,1,9,-11,0,6,9,-7,8,7,-1,1,6,-9,-8, 
  /* [21][0][][] */ -8,-13,1,10,-2,16,-16,16,0,-9,10,-2,-11,-9,15,11,-12,0,8,7,-14,3,-8,2,-14,-6,-4,7,-11,-8,0,3,-2,3,-6,6,7,-5,-3,-14,-4,-14,-10,-15,-1,3,-5,2,13,12,-7,4,-7,-15,-15,-8,-7,3,-7,0,0,-12,-2,-1,16,-2,14,-9,5,-14,-16,6,4,-8,-4,14,-2,-6,11,-9,13,4,15,-13,13,12,-7,-9,2,2,-6,-1,3,-7,6,-10,-12,-2,0,-3,-3,-8,-5,7,6,6,-10,3,12,16,16,11,-8,-5,12,-6,-2,-3,13,-6,-13,6,11,2,4,11,-9,-15, 1,-78,14,-7,-51,-33,-62,7,14,-16,-34,-6,-1,-6,-97,-8,22,16,65,4,15,1,-13,7,20,-6,14,8,4,2,5,12,-26,-96,-8,1,9,11,9,-127,-36,-54,3,-3,7,8,-23,-57,-26,13,20,16,15,-17,25,-79,15,-12,-44,-11,7,-11,-56,-3,-41,4,1,-116,-38,-50,19,-16,-3,-38,24,-38,-65,-36,-48,-3,6,-1,-2,-10,16,36,11,-7,-2,6,15,17,-6,-5,35,-15,-17,11,-8,25,-8,8,-8,22,22,19,-22,-8,-12,19,-5,10,43,-19,15,9,7,-8,19,45,4,-3,-18,17,-21,7,-58,-5, -13,-9,4,-10,10,-2,12,10,5,-10,15,-4,14,16,8,-1,-9,-7,2,-15,0,9,3,7,3,10,-7,-10,5,16,-6,6,-4,4,-14,10,10,13,15,-12,-10,-14,0,16,9,-13,-10,1,14,-7,-1,-12,2,14,1,14,10,6,0,-13,-1,15,-9,3,4,-12,-6,8,-5,8,0,-13,8,10,-10,-8,4,5,-12,-8,-6,-1,8,12,13,-2,13,-2,4,-6,15,-5,-7,-11,-13,-10,16,7,-15,-7,8,-3,-8,2,-2,-12,-3,-3,15,-4,0,2,-11,-8,0,11,-5,-10,8,-9,-7,-13,-1,8,-2,-16,-13,-13, 
  /* [22][0][][] */ 3,0,9,2,-1,1,0,10,2,8,-6,-11,-2,1,4,-11,7,0,-7,-8,-9,3,7,2,3,4,8,-7,5,2,0,3,10,-7,11,-11,1,4,3,4,-3,0,7,6,8,3,-12,-7,11,5,9,-2,5,-11,5,1,-5,-11,10,1,-5,-11,-10,-8,-10,-4,5,-6,-2,-5,2,-1,0,-10,-3,11,-11,-5,0,5,9,-10,-6,7,-1,-7,1,-1,9,2,-2,-3,-3,-3,-5,11,3,-8,9,-9,8,-11,-2,4,10,-3,6,-4,0,8,1,9,2,-1,1,0,-3,4,9,-1,-7,-2,3,-11,5,0,-12,-5, 25,9,-7,-6,22,26,54,-13,-6,-13,23,-22,-2,16,-7,-10,-4,-11,-68,8,-7,13,-7,12,127,8,8,-46,12,2,3,-9,-26,70,-1,49,-11,-10,-10,-6,25,50,3,63,15,-6,-34,4,-5,-11,-22,-20,-26,45,34,3,-42,5,34,-23,1,58,93,11,6,3,60,46,62,49,-4,-26,74,2,-11,24,-1,28,20,5,5,1,-15,46,-6,-14,-11,2,24,17,-10,-51,11,-7,-42,-4,7,-11,1,24,16,36,-26,16,19,-43,28,-45,7,-27,-3,-6,-21,113,-3,-42,11,-22,-19,-50,11,14,-8,-33,-7,5,-18,8, 11,-9,-9,0,-8,2,10,-3,6,-10,-1,-9,-1,11,7,-1,-9,11,-7,-7,4,-4,-1,-3,3,2,2,-3,-5,-7,-7,5,4,3,7,9,11,-5,-11,-1,-5,3,-6,3,12,10,4,-10,6,-1,-7,8,-2,1,-9,-9,0,-2,4,-6,11,7,-2,5,8,-6,7,-6,-1,3,-11,-4,6,9,-5,-11,-7,6,-6,9,4,-5,4,10,-11,-1,2,9,-11,2,-1,-11,6,4,6,-10,0,9,0,-3,-5,-2,6,10,7,-9,-6,5,-3,-8,-6,8,-2,10,0,-5,0,1,12,-10,-8,-1,11,5,2,10,4,-2, 
  /* [23][0][][] */ -15,-21,-21,3,17,-23,20,1,3,-15,-3,-10,19,-2,-13,-14,-16,-7,24,-20,7,24,6,23,10,3,-6,-19,1,12,7,13,-14,12,10,-14,25,-2,-16,15,-7,8,8,-13,21,25,19,23,22,-5,-11,-1,-25,-4,13,10,18,-9,-2,-6,11,10,18,-11,17,23,-22,24,21,-7,8,-5,4,-5,-10,13,5,-18,2,-4,-20,16,22,1,22,-10,24,18,9,1,-17,9,17,-21,12,-12,13,17,4,-10,5,-16,-2,24,15,8,15,-8,-20,-9,21,17,12,-12,21,-7,8,-10,-22,-5,16,21,-9,-1,9,11,-13,-1, 3,-38,21,9,110,54,49,10,40,11,37,-84,-14,3,-127,-22,-27,-16,-64,26,15,-15,6,10,76,19,14,-77,10,-23,-10,13,-11,-51,15,45,51,-1,8,-38,-44,-9,20,65,52,-10,-40,-57,-22,10,34,-25,-10,35,35,24,-32,-12,69,-1,-20,35,15,22,-10,56,16,60,65,21,42,-46,62,24,-48,-46,6,-23,-104,30,23,0,6,32,35,-32,-22,28,13,61,10,-33,36,-13,-68,11,39,19,20,-46,-1,30,-5,71,49,-46,-54,-34,-1,-19,-7,0,-46,10,-14,-82,8,-28,-22,-9,29,57,10,-23,-29,45,-43,-5, 8,22,-20,-3,21,-23,14,-15,-19,-19,9,-5,3,0,21,15,-14,7,19,4,-11,-24,20,-19,24,-22,6,-14,18,3,-7,8,15,-6,-13,9,-13,-19,25,-5,24,22,0,-16,14,-23,17,-14,2,12,-10,1,13,1,-12,20,-16,-22,-7,-7,13,-2,-7,12,-17,22,3,6,-17,-10,-14,0,-13,11,-17,-13,15,3,12,-3,-4,-22,-3,11,-10,-25,14,-15,16,-3,-5,-8,23,-21,2,-7,-22,2,-4,5,-6,-22,-15,-1,-6,17,1,-22,5,-22,23,7,15,20,9,16,18,-12,-18,12,-19,-7,8,-17,-2,-10,-3,-15, 
  /* [24][0][][] */ -10,-6,-14,-15,-9,11,-2,11,-1,-9,-10,14,8,8,-2,-11,0,-10,-15,14,6,13,-3,10,-9,5,-17,-12,13,-15,-12,-9,-13,15,0,16,14,15,-12,-10,11,17,-15,15,12,-11,11,3,15,0,-15,-3,7,16,2,7,-14,15,-15,-8,9,4,7,-15,11,18,13,12,10,12,14,7,-10,-8,2,-17,-17,-13,-8,13,-17,-3,16,-1,0,-4,-14,-12,11,12,-12,0,-13,-10,-3,-5,-16,2,-5,-17,3,-5,18,15,15,14,0,15,-12,-16,-5,-7,6,1,-15,9,-2,-1,-6,-4,2,-17,-9,9,11,8,16,8, 35,97,-10,7,18,46,93,-8,-19,-1,58,73,1,-10,66,-14,-17,-15,-6,-1,-20,69,-31,3,-27,12,7,-57,-2,4,-16,2,6,75,4,16,-9,-16,-23,1,35,49,16,78,35,-12,-28,33,2,18,-34,58,34,40,36,15,-24,-14,-35,-21,33,47,127,27,-23,20,53,27,93,52,-28,-29,95,-5,-9,100,-17,54,54,28,-1,-11,-4,47,-31,8,3,-18,70,27,-31,-47,8,-15,-30,6,40,10,5,66,-9,12,-27,23,49,-52,63,-56,-35,73,-8,11,-18,-61,12,-33,50,-32,-24,-39,65,-7,3,-21,14,7,61,-7, -15,-15,8,16,-11,-16,11,-11,1,1,10,12,5,14,-9,7,8,-6,12,4,-2,-17,-3,-10,13,6,17,15,8,8,8,1,-14,6,0,-10,-9,-17,-5,-5,1,-16,12,-4,4,12,-18,-16,-16,10,7,-4,-15,-11,11,4,-15,16,12,-9,15,-18,4,16,-8,-16,-15,10,4,9,-7,-9,-7,-9,11,-3,13,6,-14,-18,8,-1,-11,-11,2,1,-14,-4,3,8,-13,-14,-13,-13,0,0,-18,1,-6,13,13,-2,-2,-5,7,-13,6,-8,17,14,-15,-12,0,-6,7,9,18,10,3,1,2,14,13,6,-11,-7,-11,-16, 
  /* [25][0][][] */ -14,17,0,10,9,-6,1,-7,-17,8,17,15,11,3,9,-11,-4,7,-10,1,7,-7,-13,-4,4,9,12,16,-6,-8,5,6,-8,-1,15,-2,-4,-15,-6,-6,12,14,-12,-6,14,12,9,0,-7,-14,-16,5,2,-1,-17,12,-14,-2,-7,-11,-18,16,0,5,1,-4,-16,-3,3,-7,6,-11,6,-7,-4,-7,3,-2,-5,-1,-1,4,16,2,6,-5,1,17,-13,11,-14,-13,15,-12,7,9,-18,-16,12,11,-16,-14,-2,-8,8,-3,-3,-15,15,3,7,2,-1,5,-11,-3,-9,3,-15,11,-7,12,14,5,0,0,8,6, 30,50,22,-8,87,40,60,-2,15,-15,8,120,14,-22,63,-1,-10,-7,-115,-16,15,50,18,10,-5,6,2,-10,6,-19,-12,15,-14,5,12,22,4,13,-1,32,46,25,2,53,5,-8,8,36,5,-11,-10,127,-3,50,22,10,-63,-17,33,-9,17,19,55,31,32,15,10,32,55,19,-9,-27,64,55,10,58,72,-2,23,26,32,-23,14,37,6,-15,7,31,12,38,10,-70,9,-16,-63,11,12,13,-5,30,4,11,12,23,-1,-17,80,-38,-10,110,-16,-5,-45,15,9,-32,19,-5,-4,-75,2,38,-17,-23,-6,35,50,-3, -3,17,-13,-2,5,1,8,6,-15,10,14,-4,6,-7,-9,-17,4,0,-3,-14,10,0,-3,8,-9,-13,-4,3,17,-17,5,-8,3,4,-3,17,-10,-10,16,5,-8,-4,4,-12,-1,17,1,4,-13,-11,0,-18,3,2,1,9,-10,14,-16,17,-6,4,-9,3,3,-13,-2,-9,14,-1,-6,15,12,14,-6,16,-13,-8,-3,-18,1,5,-3,2,3,-14,5,-13,14,0,11,3,11,8,-17,12,-1,-10,-8,-7,-11,-2,3,14,-4,-1,-13,3,14,2,-8,-9,-11,3,-1,-13,-10,-2,-16,10,10,1,-7,1,-14,-5,0,11, 
  /* [26][0][][] */ 2,3,0,14,-17,14,-9,-10,4,-11,-1,-7,-3,11,-14,8,-11,-3,7,1,-5,-14,-8,2,-3,-7,-12,-11,-1,2,-3,-17,1,5,-17,9,12,13,-1,5,-15,16,-14,10,5,-1,-3,-6,2,-13,-7,-10,-1,-17,15,-5,-15,-17,-9,-14,-11,-10,7,16,-1,-16,4,-11,-3,2,1,8,-1,9,5,-9,-10,6,-13,15,-3,14,10,-7,-4,1,8,5,0,16,-13,14,13,-3,-15,-9,-8,10,-6,9,13,-2,-6,-1,3,12,6,4,-16,16,2,-4,-14,4,6,-13,-4,-2,14,-16,-8,-16,-11,-6,-5,9,-3,-9, -16,-37,16,-5,-8,-36,-55,-5,6,24,-53,-11,13,0,-15,7,-7,-15,4,14,15,-74,6,2,40,7,9,18,-6,2,14,14,19,-53,11,-4,10,11,13,47,-38,-55,-21,-50,-30,11,26,-30,16,6,8,33,-13,-15,-17,27,-9,-7,86,20,-6,-30,-127,-25,52,-3,-7,31,-43,-65,24,16,-69,-18,-23,-38,21,-50,-39,1,5,5,7,-30,-10,-2,-11,-1,-32,-3,21,4,6,-10,0,-13,-11,-6,-4,1,15,-31,6,-13,-6,30,2,3,23,11,6,17,25,9,16,23,-17,17,5,7,-29,0,-14,9,3,-9,-47,-10, 6,-15,-9,9,10,10,5,-14,-10,-15,1,-8,-13,-5,11,17,-9,-1,7,-8,10,-4,-1,0,15,-8,4,4,16,7,13,0,-16,-4,-17,-11,10,10,-4,-9,-4,6,14,16,15,0,8,13,-17,3,2,-3,7,-13,14,-13,6,-4,1,-1,10,-2,15,11,-14,11,1,-6,-7,15,-9,-1,-10,3,-7,0,7,-3,-12,2,-2,-12,-12,2,4,17,-13,-4,4,-11,-4,-5,-1,-7,-2,-13,16,0,-11,-11,-8,8,13,10,-4,-4,13,-12,-11,3,-4,-16,4,-4,3,-7,8,-5,13,12,-6,-8,7,-11,11,-9,16,17, 
  /* [27][0][][] */ -58,82,28,28,-49,-54,-108,-6,13,33,-32,101,48,-98,-82,68,-34,-96,-105,4,-30,-61,-92,-6,-21,104,51,-44,-8,-50,13,19,63,-94,-71,-2,-37,64,79,-65,48,-56,-10,24,-74,97,-79,-103,83,-89,-44,-31,77,85,-11,-16,-49,69,76,-85,69,20,-8,67,-3,41,34,-59,62,33,8,21,-5,-32,-95,-93,62,-75,-102,18,69,22,-3,16,-24,32,-104,-21,-11,-100,52,42,74,-3,92,-7,13,62,-62,55,-63,-73,-13,-31,38,-7,52,-74,4,12,87,61,-95,-80,-60,39,89,-45,38,74,-77,90,-32,-45,-82,0,39,-78, 10,-31,73,-17,-69,24,28,-71,33,25,32,74,-64,-90,-111,-4,67,-82,11,-45,57,76,16,-35,62,-18,-9,-122,41,-53,49,-83,-102,-95,-60,17,-7,-20,-97,-70,-3,-127,8,13,72,108,-70,-89,-15,-92,-4,-71,31,-38,-68,-97,44,-14,23,-109,24,-62,-4,-77,3,71,6,23,-81,-60,59,54,-10,47,-92,-67,16,-43,82,-122,22,-43,-89,-43,-111,5,51,-120,38,14,-104,-8,80,56,75,72,-68,-34,-28,9,-95,24,-60,32,-80,10,-4,-3,-74,46,46,-62,61,-78,104,0,-68,-6,11,-10,64,-101,-105,-96,4,-97,-37,-73, 100,64,106,93,95,-54,49,-3,-74,48,-107,-67,20,-41,-5,101,-56,59,86,20,-20,-50,-10,-28,15,2,-54,-83,-73,57,77,82,103,49,-47,-17,41,-20,51,44,-87,43,-44,105,15,-95,12,-53,-31,23,12,-55,-84,-73,31,-18,82,-48,2,-106,-89,0,-41,-64,-89,-47,55,-22,72,15,29,-103,-36,-13,22,-13,-79,52,50,25,86,-31,-17,79,103,-57,50,16,60,100,-77,-100,-70,-58,-104,10,-102,-105,-70,51,-2,74,86,24,92,-9,-43,-38,-102,104,7,-105,46,-95,98,21,74,-106,12,67,-89,18,-105,-56,106,-79,46,-73, 
  /* [28][0][][] */ 1,-2,8,13,-6,0,-14,-11,10,3,7,6,17,18,10,-7,21,14,-4,14,13,4,-15,-2,-7,16,15,15,9,-15,20,-3,-11,19,-16,-5,8,-10,-9,3,-12,-4,-5,-1,13,11,2,6,14,4,-15,18,-13,10,-16,-17,-1,-10,0,16,11,13,6,-18,20,-16,3,12,1,16,16,5,-2,12,4,-13,8,9,-8,1,-19,-16,-18,15,2,-21,-2,9,7,-20,-8,-19,11,-16,17,19,-3,3,16,-7,14,-9,8,10,-7,11,19,-1,-19,-5,13,6,19,11,-21,2,-7,-8,-21,11,9,-2,-8,-12,-7,-12,-12,0, -20,-78,2,20,35,36,0,16,37,33,33,-56,3,6,-127,-5,-5,-2,18,-21,43,-81,17,21,-8,12,-6,-39,20,21,16,1,-15,7,10,39,20,-8,26,-45,-34,38,28,27,25,3,-5,-48,-1,13,40,-69,11,43,34,-14,-33,20,20,-12,25,40,12,21,27,12,17,11,38,36,52,-18,31,-51,10,-61,-1,27,-100,17,54,18,1,46,25,9,-10,26,-3,67,42,8,37,-15,-2,14,0,6,-16,-42,12,30,12,-1,61,-3,-50,-30,10,-64,-13,12,6,48,21,-17,36,-19,-5,28,45,37,-9,30,-12,19,-5,-16, 18,21,-3,-7,-21,-20,-6,-8,-13,-16,1,-14,-19,14,-16,10,1,-3,8,13,19,-2,11,15,-13,1,-6,4,-4,0,-11,3,7,14,-19,-3,-2,-10,-14,11,-4,3,9,-13,-14,-13,12,17,-2,-19,14,-17,-10,11,11,18,-20,11,-1,4,-17,12,14,17,-10,8,-17,16,14,18,20,-21,-7,5,-5,-13,17,1,1,-17,0,0,-21,11,12,5,-11,-1,16,4,10,11,0,10,-8,-18,-17,-15,-6,15,14,7,3,4,20,-6,-20,11,0,-20,18,14,14,1,5,10,-10,20,-1,2,-1,-15,12,-7,9,11,6,-6, 
  /* [29][0][][] */ 3,-5,-12,-2,5,-12,3,-4,2,-6,-9,-1,-6,5,-12,4,4,-5,11,-13,-5,5,12,-6,-6,-3,11,-2,-11,8,1,-1,-13,3,12,3,9,6,1,-7,11,-6,12,6,-7,8,-8,5,0,3,-6,6,1,-3,-11,0,-9,-11,6,7,-11,11,8,10,-13,7,11,-10,4,5,4,4,-7,4,2,-2,-9,3,9,4,-3,2,11,8,8,-3,-12,-10,-8,-5,-5,4,2,-8,13,-6,-11,-5,-5,-7,1,-2,11,6,5,0,1,8,7,6,7,-3,8,-1,11,-8,-5,6,3,-6,3,2,8,5,8,-10,1,9, 26,36,-16,10,-23,14,-12,13,-51,12,-17,44,-10,1,31,2,5,10,62,-4,-43,53,-12,-13,-94,-9,-10,13,-1,-11,-10,5,-12,17,7,-7,-30,4,-61,-19,3,-22,-12,5,32,-4,-36,3,-2,4,-16,81,24,-28,0,-29,10,-7,-127,-2,8,-13,-69,4,-58,16,-21,-86,-29,-49,-21,5,0,-37,-5,4,-24,-5,22,-39,-16,-2,4,-21,-13,37,-8,6,7,-55,-17,-17,-27,5,24,-6,39,-8,10,9,-1,-2,-30,21,27,12,8,9,-42,68,-2,6,49,-17,0,11,-11,10,49,24,13,-32,13,21,-13,-12,60,9, -1,-3,2,-4,-1,-7,-12,1,-5,-13,-8,8,3,-9,4,6,-10,10,6,-5,-6,5,11,4,-10,-6,-7,7,-7,-4,3,-8,2,-6,9,-9,-11,-4,-2,12,0,-2,-6,-9,5,2,6,-10,11,6,-8,-6,-6,-3,-1,-7,10,8,5,-8,-6,-4,-2,10,-6,7,-3,6,-6,11,12,-9,-8,-12,-7,-7,-2,9,7,-12,0,7,-7,7,0,9,-6,2,12,-9,6,-2,-3,0,0,-9,-1,8,12,-12,12,-12,-12,-3,-11,8,8,-12,-4,-4,6,-7,10,9,13,1,13,4,4,10,0,-7,-5,-7,-7,-7,1,5, 
  /* [30][0][][] */ 2,4,8,0,8,9,3,8,1,4,-6,3,7,6,7,9,5,-8,-9,3,-8,-2,3,2,-4,-8,-2,-9,1,-4,7,-3,2,-3,-4,-9,5,3,8,7,9,5,-2,1,10,4,-1,9,6,-4,-6,0,0,1,6,-1,-3,-6,8,2,-7,-9,-2,-1,-3,1,8,9,4,-8,-6,-7,-6,6,-7,6,-7,-9,4,-2,0,8,-8,-1,-9,-1,-8,-8,3,9,4,-6,0,-8,0,-2,6,2,-6,9,-5,-2,-4,7,-10,9,-5,-1,-1,-6,4,-6,0,4,-5,8,-9,1,-7,2,-10,7,7,8,4,4,-5,3, -1,35,4,-9,31,27,49,-5,8,3,41,-44,8,-1,-45,2,-5,0,-37,10,1,25,5,6,111,-8,7,-30,8,-7,-3,8,-12,62,-6,36,5,-3,-10,3,25,37,16,33,23,-7,-19,32,-2,8,-16,-15,-18,26,33,31,-35,-7,7,-12,10,49,83,17,9,20,43,23,53,43,7,-24,44,15,3,51,9,37,22,0,8,-1,9,27,-9,-18,7,-1,28,21,-12,-38,14,0,-31,-5,22,-7,-4,11,9,20,-8,21,18,-41,-6,-19,-3,-37,4,5,-17,127,-1,-33,23,-20,-7,-29,20,14,-3,-17,-9,3,-23,8, -5,5,-1,0,4,3,-4,-5,4,0,1,5,-3,-1,2,-1,-1,-6,1,-9,7,-6,-8,-6,6,3,-4,-2,-5,-7,5,2,-4,5,4,8,-2,-9,6,-6,6,4,-3,-7,-5,8,-1,6,6,-1,-6,3,-3,2,7,1,3,8,8,6,-1,0,-3,9,-1,-3,-7,-2,-5,-9,-7,-2,-7,-1,7,8,7,-7,-5,-2,1,3,6,0,2,8,-8,-1,-1,-2,3,-1,-9,-4,7,3,2,-6,-10,-1,1,-7,7,-8,4,1,7,1,3,2,-4,4,7,-8,5,-5,7,-9,6,3,-4,7,0,9,-7,1,-6,8, 
  /* [31][0][][] */ 9,5,-16,6,9,-15,-5,17,-6,-24,10,-5,-2,14,8,-18,22,2,-3,-4,5,-18,-4,-4,-20,-10,-20,-19,16,-24,15,8,-15,8,18,-22,9,-23,-23,13,20,-22,11,15,-12,0,-3,-2,-17,-13,-3,-23,-2,-11,-9,1,17,-5,14,-15,1,7,-20,21,10,-17,-13,23,24,16,-13,-13,21,12,-8,19,-11,-13,20,-8,4,14,5,19,-12,-11,-9,11,-24,-6,12,-18,12,-9,18,19,5,7,-7,5,7,-2,-11,-5,4,-15,20,20,7,-4,-13,-17,-15,17,5,-2,0,-23,-5,2,4,13,16,23,-6,13,2,-10, 58,-18,-66,-16,0,32,81,13,-44,4,39,-29,-16,13,39,-1,-6,3,-115,-9,-11,-56,-8,1,61,-11,3,-38,15,0,-7,-5,1,18,-12,-6,-4,-8,8,38,41,92,-13,-5,-46,-1,-47,45,-32,20,3,-87,-94,-28,32,65,-44,21,-32,23,28,10,120,-21,49,43,67,54,24,32,-41,41,21,58,14,66,37,-127,22,-48,-8,-17,-3,77,-43,-25,9,17,46,-40,-17,-33,-34,-5,-77,12,-18,14,-17,34,39,11,-34,22,46,-13,84,-22,-32,-27,-20,0,-8,22,23,3,34,29,7,-87,56,-38,9,-94,13,13,-37,10, 11,8,3,-4,3,-19,18,-6,-12,12,-20,-12,-1,3,-1,-24,7,-22,-5,-15,-8,14,23,-15,22,-25,-7,24,-11,-11,20,-12,18,-9,17,12,3,17,-5,4,-12,25,14,23,-18,-22,18,-18,8,-23,-5,-20,-23,24,2,0,-5,12,6,-8,-15,9,-3,-21,12,-16,2,-21,8,24,0,15,25,17,-14,-20,20,-24,18,14,0,-5,18,-2,22,12,21,4,7,-23,-20,-1,-5,10,12,-5,-21,-15,-17,3,15,20,3,-24,-25,-21,2,-3,14,12,13,8,0,11,-8,-8,-12,14,-8,3,16,24,22,-9,16,13,14,-24, 
  /* [32][0][][] */ -8,-14,12,-9,14,-14,-14,-9,-13,12,4,6,-7,-13,-7,-1,6,-3,-3,-15,-4,13,8,10,-11,15,9,-3,-9,14,12,-7,14,10,6,10,0,10,-2,1,16,-15,11,4,-1,-9,14,-2,-3,11,4,-9,-13,12,-3,9,9,-8,-8,11,13,-2,9,-9,2,10,-16,1,-5,-16,-3,13,6,11,-14,0,-10,11,-13,-4,-11,-7,14,-14,11,-13,13,6,-8,-2,15,-4,8,5,-16,-7,-15,-13,8,-2,9,-7,-7,-11,2,-4,14,-4,1,-2,14,16,11,-6,-6,0,-5,5,14,8,-11,-2,0,-10,1,2,-12,-8, -6,-46,-12,-15,-19,-19,-32,-10,-19,27,-13,-33,7,-3,-28,-10,-13,-7,-66,11,12,-70,-13,-18,118,-6,-12,-4,-11,20,-10,-4,15,-35,-3,-16,18,9,26,44,-17,-67,-22,-62,-22,-16,31,11,31,-16,3,-43,-46,-102,2,38,-6,8,84,26,-12,-54,-127,6,48,9,55,67,-41,-42,12,22,-51,36,-38,-45,13,-61,-12,-11,23,1,-25,-22,-17,-16,-8,16,-23,-63,3,10,-10,0,-23,-5,-17,-15,-12,16,-9,7,6,-5,-18,8,7,17,30,-15,0,-6,-21,20,-1,19,-12,-6,-22,-24,2,-35,-4,-46,-7,-11,-44,-5, -16,12,-12,4,16,1,-14,4,-4,-11,-3,-12,10,5,-7,-1,-4,-12,2,-1,15,4,-7,1,12,3,-9,-16,0,-2,15,11,3,-13,9,-14,-14,-16,0,-14,-8,-6,-16,-8,9,11,-13,-13,2,-1,13,5,-7,10,-5,12,-10,5,7,-14,-9,-7,-2,-16,8,7,12,5,-9,-4,8,14,2,-10,-9,-12,10,6,15,-1,15,7,-8,-14,-14,-9,10,-2,4,-12,1,3,-14,15,-12,0,-3,-4,-7,5,-14,10,-15,-9,0,16,-9,-2,12,-9,9,-5,8,7,12,-1,-1,4,-1,12,-8,8,0,15,10,-1,-6,14, 
  /* [33][0][][] */ -12,-6,4,-2,15,15,10,-5,1,6,-13,8,-1,1,-4,14,11,9,-15,2,0,-1,6,6,-3,-12,-4,-6,-2,-11,0,2,6,2,-14,8,8,-6,15,-14,-3,5,-4,1,10,-6,-2,-2,5,-6,4,-5,10,-7,-13,-3,4,10,-14,-6,-12,-12,15,0,-8,-12,-13,-6,10,-6,-6,12,14,-2,9,15,5,7,-10,-1,13,9,-13,6,2,-3,12,-5,-2,-11,-4,10,-11,10,-5,-9,11,-3,12,11,-5,-10,6,-2,-1,9,13,-13,-8,-10,11,-10,12,-4,6,0,0,-2,-4,-6,-1,14,-9,-6,5,-5,13,10, 26,30,-27,-12,-36,21,45,-8,-27,8,19,36,3,20,11,6,-1,-13,-16,-5,-14,2,-11,-18,-127,-8,-7,5,-14,3,-4,0,-8,25,-15,39,-28,-9,-38,0,12,74,-22,-22,25,-10,-41,6,-10,-5,-23,10,-2,-18,46,-20,-20,11,-92,0,25,26,11,9,-9,24,-3,-49,20,28,-22,10,-1,18,-6,25,4,-30,13,-50,-8,14,0,64,-33,-1,11,8,55,-34,-17,-33,-12,8,4,5,29,5,5,-2,16,38,-27,37,16,-19,9,14,-51,15,6,-4,11,-19,5,14,22,25,36,-30,44,-16,-6,-26,14,-2,33,7, 0,-5,1,-2,7,4,-13,5,15,-3,10,13,1,7,-9,-1,-5,3,11,-12,-5,11,14,-8,1,4,14,11,2,-1,-2,-5,-11,13,-9,3,-5,-15,-5,-7,13,-5,-15,6,11,1,10,13,-9,2,-4,1,-13,0,12,12,-14,9,-9,4,0,11,0,1,3,-9,-4,0,9,9,-13,-9,14,-2,6,15,5,2,14,-14,-15,-3,-6,-7,-7,10,11,-2,2,-10,-1,0,3,-3,-10,-5,-7,-5,15,4,-6,-13,-5,-10,-9,8,-8,3,-4,3,-3,12,14,5,-8,-12,3,6,2,-8,-4,13,-11,-4,-6,6,14,-13, 
  /* [34][0][][] */ -72,-22,-41,89,-57,65,77,-17,62,-62,-3,65,-26,-94,-97,49,-27,-61,-81,-17,59,-76,30,-66,52,-42,83,23,-92,28,51,67,-19,75,-43,-16,-46,-43,-79,-33,-48,64,22,-77,30,-82,-67,-11,-73,22,75,69,-92,28,-90,5,21,-13,82,79,-49,-30,-74,-6,12,88,-40,-80,-45,-9,32,-55,11,14,32,81,58,-62,-42,32,-4,86,18,80,-56,-34,48,38,65,9,14,-97,77,83,71,42,24,67,62,-10,18,6,-89,-55,7,76,75,84,-73,20,-39,42,62,-42,-56,10,65,-92,-65,-17,-56,39,-36,51,94,59,25,-18, 18,-12,-92,-99,9,47,-90,-18,55,-46,11,-55,-78,-97,85,-84,-67,31,47,-70,27,1,-99,50,-32,-79,-4,68,43,-75,93,-60,54,31,87,-71,63,-6,56,-35,72,75,-31,9,-97,76,-80,13,-25,-94,-71,33,-5,-85,-86,-65,-57,44,15,3,-39,4,17,-7,16,-69,-71,68,-34,-42,-70,-121,37,-65,-87,8,-64,59,-88,27,-72,-115,-56,-20,-43,-25,20,-96,-1,70,-8,-106,-13,-37,28,88,58,60,88,-20,12,-78,-10,24,81,-91,-39,-54,53,25,32,71,-77,-10,-75,39,-28,-105,22,-35,-54,28,58,-127,65,-119,2,67, 58,-94,-37,-4,-29,-57,-35,16,-21,16,-15,86,-49,-62,-35,-67,57,82,-79,-50,60,32,-42,79,-23,-35,-49,99,84,10,81,71,42,-85,-65,-96,-14,1,14,29,-60,11,-65,32,81,-6,-3,86,68,-63,-76,18,-7,92,46,79,29,48,-25,26,-82,81,-56,21,56,70,54,72,13,18,-91,90,63,-90,-26,21,-59,-30,-79,-45,-17,-4,-11,43,-22,-59,-3,-66,75,92,-27,-67,69,11,20,37,87,-6,27,73,1,15,-76,-23,-74,-92,-1,-37,-37,-43,39,95,58,-72,73,-76,-14,75,84,42,75,-25,-80,58,24,64,-51,-38, 
  /* [35][0][][] */ 9,23,56,-36,104,-41,64,80,51,-94,107,16,66,-62,51,-99,-68,0,-77,-94,9,-102,102,58,-48,85,5,106,-100,-36,106,-83,-25,-81,-86,-43,46,112,-95,-2,33,-104,-111,-77,-57,-10,91,19,-43,-15,59,-1,-105,-106,69,-80,52,-52,-27,24,-108,-9,75,73,-89,-19,27,-104,33,62,109,-86,47,85,-83,-25,-65,17,-14,6,-36,-109,52,98,-66,62,38,21,81,-70,97,-10,-9,38,57,106,-25,54,-96,-98,45,48,92,30,44,-88,-75,26,72,89,30,7,-21,-56,97,-63,-38,76,5,89,95,63,55,-20,-8,-38,87,65, 39,76,-61,-102,52,-104,-53,-54,-48,-58,-78,-2,-50,-18,-26,-30,-54,-49,-126,12,-70,69,56,-107,-5,-18,8,-127,-31,24,45,60,-105,72,83,-38,-97,-50,79,-65,-39,-115,-22,100,44,-69,-70,20,59,-25,64,-72,87,-121,-97,-112,72,105,40,-18,49,6,11,65,13,112,90,-104,-23,61,-12,-40,74,-20,-7,19,-32,44,-18,72,-50,81,-55,-53,-52,-82,-110,48,29,-35,-108,17,-98,-42,-73,-61,41,74,52,-26,-78,-64,38,32,-104,-107,50,40,-21,-99,-98,-36,-18,-63,-106,-65,9,83,-74,4,37,-56,-47,-82,-43,-5,20,-111, 6,-53,76,89,-19,18,-8,-91,-103,100,33,105,-58,59,63,-49,77,-24,43,-23,7,81,67,100,-29,-61,-7,-82,-51,-72,-7,-107,-80,21,41,-21,-76,50,33,-97,42,29,106,-2,85,-76,61,54,-37,-74,39,93,27,34,105,32,-20,101,-65,74,46,-103,28,106,-103,11,-54,107,7,47,-17,-69,54,-70,-81,-8,-42,8,112,-35,-35,-68,-58,-22,-9,10,55,95,-79,46,31,111,-15,-92,96,107,-67,48,69,-59,61,44,56,83,-84,63,-79,-4,-20,91,-58,64,-82,-85,45,0,41,15,11,-19,-61,78,82,95,-75,0,-54,-14, 
  /* [36][0][][] */ 12,3,13,-14,0,-5,2,-14,14,-11,10,11,10,8,12,-2,-15,7,-7,-12,8,7,15,8,-15,7,-14,16,-14,-3,-14,-5,-3,7,-3,-10,-10,12,15,-14,10,6,5,-10,16,-8,9,-11,3,12,8,-3,-13,10,-3,-14,-6,8,9,-12,-13,14,1,10,-4,15,-7,-9,7,-3,15,-2,-6,-2,3,-10,-2,10,13,-7,12,7,-7,-8,-2,13,-12,-1,10,5,-7,-14,-11,-16,4,8,2,1,10,-14,1,7,-8,-5,16,8,-3,-14,7,-3,-3,-1,1,-6,0,-14,-4,-2,-13,5,-11,8,-1,-8,7,-4,9,-7, 26,52,-3,9,-24,27,60,-11,-12,19,31,21,-14,-1,41,5,-12,6,32,-1,-10,64,-20,8,-127,-1,0,-4,-8,-15,4,-12,-17,71,-4,30,-18,8,-52,-25,35,53,-24,40,35,4,-13,8,-18,9,-35,6,41,33,21,-13,17,-9,-68,-1,14,40,48,17,-39,7,7,-44,56,25,-27,0,41,5,10,51,-14,41,42,-27,-15,-3,-6,29,-32,35,9,3,45,10,-32,-3,-17,14,21,-14,25,-4,-2,-5,-2,37,-22,16,20,-18,4,-20,-62,-7,9,17,17,-61,3,-17,36,-13,12,6,17,-8,-10,-10,3,-12,49,11, -3,-2,-1,-6,6,12,-5,15,-3,12,-3,-6,8,7,13,-12,-11,4,-6,-3,-10,-16,0,15,-12,10,-5,3,-4,7,8,-1,10,-5,-9,4,0,-11,5,-10,15,12,-8,14,-6,-14,-3,11,-12,8,13,3,-6,15,2,8,-12,-7,7,13,-5,-2,-16,6,7,5,-8,10,-11,-5,-4,-2,10,7,1,15,-11,6,-1,-5,13,5,-13,6,-1,-12,3,-3,-4,13,-8,-14,11,-13,-9,6,-12,-11,1,4,14,-3,-12,5,10,7,2,-6,7,-12,-6,-6,15,7,-3,-2,-14,14,-2,-15,4,-15,-6,4,-4,-15,-5,-9, 
  /* [37][0][][] */ -25,-22,11,12,2,0,3,3,15,5,-19,-2,5,23,-3,-10,-4,-15,-20,-4,17,-23,-15,-12,-21,15,-24,0,-9,7,23,22,7,16,4,6,11,16,-2,21,-2,-8,18,-3,2,-9,-20,14,23,15,8,-11,15,20,26,20,-1,-5,21,-26,22,-18,-4,-23,-18,26,12,-16,11,-21,13,1,3,-10,8,0,-6,23,21,9,1,-15,8,-16,12,-6,17,-6,26,5,1,-21,-15,23,12,1,-8,3,19,26,24,4,-19,-7,-1,6,-16,-10,-18,1,16,2,-23,-21,24,8,19,-14,1,-2,25,9,-8,-17,14,-8,-6,8, -18,-31,38,-14,65,-34,-97,-46,30,-26,-104,-34,26,-19,-27,-11,-83,18,63,-24,5,-40,2,-31,0,23,-16,-35,12,0,18,11,-12,-34,13,-69,32,1,24,-27,-93,-86,-67,-37,-102,-2,53,-54,26,21,14,-27,18,-11,-82,-4,37,18,42,-11,-68,-59,-55,-88,12,-61,-35,121,-61,-19,30,-74,-35,52,-60,-33,50,-42,-70,61,45,10,38,-64,-4,50,-11,16,-60,5,20,37,87,11,1,23,-12,-12,25,46,-15,-10,-10,-51,-23,-27,9,-20,91,-48,13,-2,-40,-17,-23,-41,-25,-61,-127,47,4,19,2,37,-87,48,-17,19, 14,20,-4,12,-24,-16,18,11,-26,2,25,18,-20,24,0,-12,16,-7,-16,-13,-23,-21,-8,17,-24,-24,-25,1,18,10,-12,7,3,19,25,-5,-13,7,1,8,-27,-21,-13,-13,23,3,16,20,-19,-17,18,12,-8,3,13,-21,-3,-3,-4,-15,7,23,-13,10,23,-7,-7,-26,-4,10,-22,-19,-8,-20,9,-10,-7,20,-11,2,-14,-3,-5,22,9,-10,-21,4,12,-13,-6,17,-1,-18,-26,22,16,25,1,-20,-17,-1,12,23,16,-25,-2,-23,-10,-3,-17,-4,-14,-19,-19,23,23,22,-23,-24,18,-14,-21,-26,11,0,-4,-20, 
  /* [38][0][][] */ 7,6,-1,-1,-10,-2,3,-12,-10,16,-11,16,4,15,3,-15,-15,-14,10,9,-8,8,-7,11,13,9,11,-10,1,-5,6,-6,6,15,13,-9,-3,-3,13,9,-13,11,-11,-9,-6,10,9,11,-2,-3,5,9,13,-9,13,16,-15,12,12,11,7,5,2,-3,-13,5,-3,1,-12,6,-4,-4,0,-7,14,9,13,-15,4,11,-8,12,15,2,3,-6,-13,-4,-9,-2,-11,-13,8,9,-6,-4,-3,-14,7,-5,3,-5,3,-15,13,-4,-7,-15,-6,0,-5,2,-16,-12,-8,-11,1,-2,16,-13,-11,16,-10,-1,12,-14,-2,-13, 30,38,-41,-14,-64,10,20,-37,-22,-23,24,31,-6,29,29,14,-16,0,28,14,-91,14,-71,-39,-127,-8,-12,-23,-10,-6,-5,8,-10,39,6,19,-106,-14,-119,15,34,9,-70,31,32,-15,-44,14,-33,12,-72,39,31,-22,77,2,-19,3,-51,-28,11,17,14,-8,-18,36,-29,1,32,-56,-78,18,38,-8,-33,38,16,20,9,-12,-65,-29,-44,15,-90,20,12,-14,34,-49,-71,-42,-33,13,4,-25,38,15,-1,25,-6,30,-109,55,37,-17,51,-1,-20,51,9,11,-6,-32,-11,-3,43,22,-16,-15,21,-54,-2,-36,4,-12,25,-2, 5,7,4,16,-1,15,14,9,-8,4,-8,16,12,-12,-12,16,12,11,10,2,-5,6,-12,-12,-5,13,-14,-11,14,5,-2,6,1,-12,7,-3,-15,1,-5,-11,6,5,-11,5,13,-7,-4,-1,11,-14,-4,-14,-3,-7,-5,-1,-7,-14,-11,-2,-16,1,-9,8,-2,-13,-15,13,-5,10,7,-10,-8,-5,1,-12,0,4,-13,9,3,5,-13,-1,-16,-4,-15,-14,-8,10,0,-16,-3,9,5,16,-7,-13,9,-12,4,-13,-13,-6,5,2,-16,1,8,5,2,14,5,-4,-16,12,1,7,4,9,-14,-14,12,-11,-3,10,15,-3, 
  /* [39][0][][] */ 19,-14,-15,-17,24,-14,24,-3,24,21,-17,-21,-23,-11,-20,1,10,-11,-6,-7,-11,-25,18,-6,18,-13,11,23,22,15,-13,15,-10,15,5,-2,13,4,-1,-12,13,2,-25,21,-4,11,-4,22,-14,11,25,12,-10,16,-13,12,-11,8,-1,-19,-14,-18,-9,21,-11,0,8,19,-20,23,17,-20,-2,3,5,8,-17,21,8,-16,11,19,25,-19,2,6,3,4,7,-25,6,-17,15,15,-4,20,-8,-3,-20,19,-23,-7,24,14,15,25,4,11,0,-21,22,-21,-21,-3,-9,21,24,23,21,18,-18,4,-11,13,23,20,-17,15, 29,107,4,17,71,53,95,-2,2,36,53,61,-19,-23,127,24,-29,22,-51,15,-55,109,-24,26,-94,0,14,-70,-13,-4,-19,-5,-29,119,16,40,-49,24,-31,-11,33,92,-4,94,53,5,-50,51,13,7,-30,62,7,72,44,31,9,-3,-59,-17,21,88,127,50,2,34,28,13,98,73,-27,-2,107,2,-12,95,13,81,45,-7,-7,7,6,47,-38,4,-23,-6,74,52,-33,-83,-15,24,-2,-26,51,-10,-13,29,7,50,-50,14,13,-56,67,-66,-22,29,24,9,-12,-67,-8,-27,58,7,-23,-64,67,14,14,-82,5,10,99,25, 22,-11,-13,-20,11,-10,7,22,7,-22,-2,-24,-22,-17,24,-13,-9,-19,4,17,-18,-14,8,-10,-21,10,-25,7,5,25,5,-1,3,24,-11,24,21,24,-22,25,25,2,14,6,-1,-7,14,20,18,0,3,12,20,7,-7,-15,12,21,22,4,21,-23,25,25,-23,21,-22,7,1,7,-3,7,23,14,-21,16,19,23,-6,-19,-14,-13,1,20,-24,-18,0,2,-25,-12,8,-1,20,-20,-8,12,17,5,18,-3,21,-5,-22,0,20,3,-18,7,-15,17,-23,-14,2,13,17,-21,4,12,-6,-6,25,16,22,-4,18,19,13,20, 
  /* [40][0][][] */ 19,-18,12,-15,3,-9,-16,5,-17,7,13,18,-17,-8,14,-11,-14,4,8,-13,15,-2,8,-13,-22,-15,-2,-17,-19,-14,17,-4,8,0,-6,15,-17,15,11,-9,-14,-2,-14,-8,-16,-20,-19,-6,-5,15,8,-21,-10,7,15,-3,-16,-13,23,13,-12,5,-11,-23,12,17,4,-12,22,-15,7,19,19,11,20,-22,-6,-16,16,-4,22,13,13,-17,0,-15,-10,20,-20,-1,-18,-19,-12,4,3,-2,12,-10,-2,19,-4,-14,9,12,0,-21,13,-20,2,-11,-7,-2,3,21,-10,5,10,-10,-4,18,-22,-16,16,19,8,7,16,3, 9,-33,3,-5,-13,-34,-76,9,18,13,-52,7,-19,31,-21,9,3,6,-16,17,10,-99,17,7,85,14,14,2,-8,-11,-19,-15,34,-76,1,-10,1,-16,30,47,-47,-99,-3,-92,-52,-3,-3,-45,15,9,24,17,-46,-41,19,29,5,18,90,13,22,-50,-127,-6,34,26,6,61,-73,-60,25,13,-81,-15,-43,-53,35,-44,-71,-1,38,-19,-9,-27,-4,-12,-21,22,-23,2,20,45,15,15,24,-15,-42,-23,4,21,38,-8,-12,17,-15,40,28,26,49,-13,16,9,9,17,6,28,-12,14,2,16,-32,-26,22,4,-1,8,-76,-16, 18,18,-6,-18,11,-8,-10,-12,-6,22,19,-5,1,-19,-12,-18,13,-7,-18,-13,-7,20,16,14,7,-15,-6,-16,-5,-21,-23,2,-13,20,-7,7,-13,12,-13,16,-16,-19,-17,-10,-17,13,5,8,-15,-6,-23,6,-15,8,21,-15,9,-10,18,15,-18,-11,-4,-3,-18,-4,21,-18,18,19,19,15,17,-20,7,1,-6,21,18,16,-7,22,20,-17,-20,-10,-17,-6,9,-20,-2,1,5,7,-4,-18,-11,16,-11,12,3,-11,-23,17,8,-12,6,16,6,-9,-14,19,11,-13,8,-14,15,7,12,20,21,-10,6,-13,14,-4,-4,-22, 
  /* [41][0][][] */ 5,19,16,8,2,-5,4,-18,-19,12,10,13,14,-12,-10,5,-18,3,7,-8,-8,-4,-5,-4,-10,0,9,-6,3,-4,8,12,-10,12,-11,7,-8,-11,-11,-12,-3,-12,19,-4,12,0,-5,-11,5,-5,-14,-16,17,16,-2,10,7,-4,-11,-1,-10,5,-3,13,0,5,-8,-2,-7,-16,10,7,2,-19,14,9,15,-2,-9,9,-1,-6,-10,6,-5,-15,8,0,-4,-4,10,-12,0,12,19,12,20,-15,7,2,2,-14,-10,-15,-11,20,-1,-16,-14,-6,-13,1,2,14,-17,16,7,-10,10,-13,-18,7,0,-1,-8,-15,19,8, 12,-97,-41,4,-14,20,85,-2,-9,-14,24,61,9,28,-59,1,6,-5,-55,-27,-38,-56,3,-10,-127,-18,-4,11,-13,-2,13,-19,-43,-122,-12,56,-27,-13,-27,-50,-1,94,-5,41,30,-7,-73,0,-21,-11,-28,101,-21,20,7,-5,-44,-15,-113,-10,-3,62,44,0,-27,12,-19,-96,7,39,-7,30,14,-56,-18,-29,9,-72,-13,-43,-4,5,-4,98,-5,-43,6,-12,34,-18,1,-46,-17,14,0,-26,14,3,-5,13,15,39,-35,28,8,10,47,0,-47,82,-14,1,44,-40,5,17,-15,29,55,-19,-6,-19,2,-7,-2,2,-37,-17, -7,-12,-7,18,-10,20,4,10,-1,-16,13,9,6,-14,14,-9,1,-18,-15,19,13,-1,-12,4,2,-1,16,-18,-19,-11,-14,-19,0,-14,11,-11,20,4,-14,-8,-8,-16,5,13,5,10,8,5,16,6,-1,13,-10,10,-13,16,3,-3,19,13,-14,-15,11,-14,11,13,-13,-13,-3,-19,-15,-4,-17,-14,10,17,-18,3,15,-2,13,5,6,14,-9,-9,11,4,12,-14,8,-6,-7,-10,9,-12,-8,-10,7,-15,15,-20,10,-4,-18,-14,-4,-10,3,13,-11,20,7,-14,-5,5,-1,15,8,-12,2,12,-19,9,-6,19,0,-6, 
  /* [42][0][][] */ 62,14,-10,61,-48,50,-68,70,82,54,12,80,28,-73,70,-43,67,-13,57,65,34,4,-50,51,-72,-73,97,39,-14,-75,64,-82,-66,79,69,-25,28,-90,32,50,29,76,39,18,39,24,-52,-64,-72,5,71,37,-31,-29,-47,35,-52,60,-98,7,17,-38,-73,54,10,-34,-79,76,100,-83,49,15,100,36,-12,-53,76,-35,-90,-37,-45,44,35,1,-49,-29,82,56,-61,-14,-41,76,-49,36,34,45,-28,-54,-93,17,74,96,31,83,-67,59,-29,75,-58,-49,-21,-49,-66,-10,58,-79,-8,-58,54,75,43,3,-100,8,46,31,8,79, 16,-66,-124,-12,47,32,-45,45,18,-26,-60,51,18,3,4,-77,-69,-75,-104,17,35,37,2,-86,-35,66,-91,59,-3,-69,15,-8,-5,100,-11,-60,-113,-90,25,-70,40,48,-2,64,-71,30,-109,88,65,-66,-37,37,-77,-38,1,48,-21,-29,70,-73,-1,-46,-49,-112,-18,-80,35,-96,27,114,-25,51,-52,-94,68,-20,30,-6,-105,-74,52,44,13,-122,-3,-127,-42,5,-1,77,-120,32,-36,90,-23,-113,-34,-71,49,-53,9,-84,51,-121,-25,23,22,59,-57,27,-49,-46,-70,74,-44,-70,-42,65,14,-39,-86,-9,-1,-25,62,102,-57,17, -83,-55,44,-40,-37,-63,-56,-13,-33,77,-85,52,-74,13,11,-22,71,6,-34,-67,-47,35,-57,-32,-16,-7,18,-41,97,75,48,67,16,11,81,17,30,49,100,60,34,-44,20,14,-87,47,60,-10,-3,-47,97,-72,34,-69,90,77,-41,33,86,95,85,11,56,-96,30,85,1,-67,-96,1,31,18,-23,56,95,71,-4,70,89,-8,72,74,-77,29,23,-67,33,-37,79,-17,-23,11,91,55,-25,-40,-1,86,69,100,66,57,-47,-45,45,-31,-76,101,16,-66,-8,-4,85,32,61,-29,52,25,-41,2,62,53,-52,-89,-73,34,-69,53, 
  /* [43][0][][] */ -4,17,-24,-14,25,-9,-7,0,14,-8,15,25,-21,-19,-26,-15,-19,7,-14,-5,-16,1,3,25,-13,26,-4,-12,-26,-23,-24,-18,17,-23,16,-22,11,26,-16,-9,10,-23,-26,5,-18,-7,4,18,8,-18,-25,8,-22,26,2,1,10,15,11,-3,13,-13,-7,-18,-24,-18,3,-8,17,-8,3,12,-23,20,7,2,-14,-12,-2,1,-25,5,25,-6,11,12,26,-5,10,4,22,-9,12,-5,-25,20,-7,23,6,7,-2,-3,10,-12,20,20,-25,11,-24,7,-17,-3,22,11,4,-19,4,9,16,25,-24,6,-4,-23,-14,-3,24,-17, 23,79,-8,9,-41,12,112,-9,-22,3,43,-4,23,-5,-9,6,-31,3,-64,16,-35,-41,-41,-12,-106,-12,1,-45,5,-27,-20,19,-49,32,21,46,-18,-6,-54,-17,-5,79,-44,27,54,3,-78,-2,3,-13,-20,-10,-88,48,59,-10,-60,15,-127,-38,39,92,32,39,-1,70,8,-83,75,60,-30,24,65,-23,-5,63,6,-42,-67,-18,-23,10,-3,77,-46,-56,7,12,67,28,-22,-60,-4,14,-45,5,3,-3,16,-25,-20,6,-37,44,74,-20,29,-2,-44,58,25,12,52,-32,-15,-31,16,65,31,-92,47,-3,8,-108,-15,7,-13,6, -16,12,-27,-13,6,-25,3,7,-25,22,24,21,-17,25,-13,18,-26,-26,-18,23,-17,-7,4,20,8,-23,-12,15,-14,0,26,1,8,-12,2,-6,-10,18,20,14,-13,-11,4,15,2,11,20,11,-16,8,-20,5,16,-21,2,-3,-14,-18,-7,-2,23,-22,8,-21,16,-21,1,-20,9,5,15,-2,-12,-3,10,-4,-1,-2,5,-8,4,23,10,-8,16,26,1,5,-16,-9,-22,-16,-3,-17,4,25,25,0,4,8,12,14,1,23,-1,-3,-3,-5,-23,-9,-8,4,13,4,27,-7,-6,21,23,-13,-3,24,-1,-10,2,10,7,0, 
  /* [44][0][][] */ -115,114,-61,11,67,-117,116,-34,-35,23,-28,-117,29,93,-12,-92,70,-31,51,-22,-67,-83,113,79,42,56,-15,-15,-99,-88,-40,-48,-55,52,70,92,41,-51,-23,-10,26,-85,-39,116,47,2,-20,-7,59,62,-63,-23,91,-74,-5,-50,22,-94,-31,-100,70,-64,39,106,-101,-19,-15,-91,-30,-23,-5,-49,-85,-60,68,32,-67,89,46,12,-25,2,33,-103,-101,-59,74,102,-104,-65,-38,55,49,-108,71,117,58,43,16,60,96,-49,-103,56,119,91,-65,36,24,-109,-49,-49,-116,117,90,-4,112,65,22,-83,12,-30,-120,-93,-103,-59,113,-80, 18,41,1,-36,-17,-127,-26,-19,41,52,-46,14,103,-47,91,-3,-47,-19,-7,-87,17,95,-92,-57,48,-6,-38,-50,-87,-105,15,102,-98,-88,-65,2,122,18,-104,-54,-27,-111,11,-75,-67,-50,-71,-113,-38,4,-67,-94,35,46,36,79,-108,95,-36,-89,54,-11,113,11,-19,-114,-35,108,91,32,94,28,-88,-121,100,-13,-84,46,-66,-32,79,39,-27,-60,113,-117,43,110,88,-116,18,-65,73,61,-7,12,72,25,9,-16,41,37,-112,-98,-99,33,54,75,1,-47,16,-11,43,-26,78,-98,4,38,4,104,-51,-39,10,-21,-62,-15,90,-112, 71,42,-105,-37,-65,-104,43,-120,-32,-7,15,70,77,-35,-99,111,39,-69,-92,-107,-24,59,-32,116,38,36,-98,-56,-53,-87,40,-50,43,-57,-96,108,2,85,115,13,-79,-32,-98,-71,-96,-115,3,40,1,-59,120,82,-52,-103,-80,76,42,-118,-113,-85,-45,27,94,-38,-106,-9,-63,-30,-117,-8,74,-2,103,-71,50,4,-75,-10,15,99,-36,-86,12,101,-113,-56,-117,-4,75,116,38,17,111,91,7,69,-1,-2,-62,-104,-36,-69,-14,1,3,103,98,109,61,57,87,-111,-95,59,13,-41,-30,-20,3,57,41,30,-21,-16,-76,36,-86,86, 
  /* [45][0][][] */ -67,27,-61,58,45,26,-11,-42,63,-33,-48,50,33,78,75,59,-78,73,96,-60,-60,-25,95,-48,-5,-65,-77,-55,-12,30,67,10,27,-58,-66,45,-16,-30,-61,-44,16,-22,-24,63,81,22,7,10,37,30,18,-85,-57,44,49,-45,-4,-27,1,-12,-9,-51,-36,-81,-79,-73,57,53,-27,-96,-75,-30,-72,34,94,-35,70,32,-101,-34,-62,-76,-98,22,71,-83,76,-79,-101,77,59,84,74,33,99,-58,57,-27,75,-5,-91,41,-64,-60,92,38,-77,37,88,71,-41,82,11,-72,-47,66,-11,48,-3,22,100,-50,4,54,-27,92,-100,-30, -15,-95,-23,10,9,-104,22,-127,-63,-47,29,-71,-8,29,48,81,-34,-19,42,-21,-122,-64,24,41,32,-7,-42,-78,1,-97,-18,-55,-9,-75,79,-29,37,-76,-79,-41,51,-21,-12,-36,43,-85,-26,44,63,-72,-48,23,17,-33,-93,-108,-115,-25,-2,34,-98,14,-91,20,49,-33,4,3,17,-48,45,26,78,-112,-107,-71,-102,57,-75,16,-6,15,-65,-68,30,-114,-73,-80,-50,-93,-99,-59,-50,-6,-42,-42,54,34,-29,-101,-57,-91,-109,12,-23,48,-48,67,75,-10,-30,-73,26,-41,39,-104,40,-108,35,38,-118,-66,-84,-44,67,61,-90,-45, -77,-19,-26,-2,19,-59,10,100,91,21,-62,-72,-80,101,-50,88,44,-35,56,-83,-91,-18,-54,3,-71,53,-100,-85,-85,-67,-92,-76,-100,-51,-69,45,78,-76,93,-69,-6,77,66,-33,-64,5,-48,-48,32,30,-5,-88,67,30,-51,-43,-6,29,-8,-53,87,-53,-54,57,-46,34,51,89,-57,-66,21,-73,75,23,17,34,90,-88,-96,-46,-40,-73,-69,6,-56,49,-84,-62,-88,83,35,-34,96,62,97,-2,40,21,18,51,67,-34,-8,-10,42,71,-77,7,46,27,-2,93,-26,-51,79,-93,40,80,-43,-74,75,-69,-37,37,67,-80,15,-37, 
  /* [46][0][][] */ 57,-82,55,78,37,-83,-7,86,85,37,-35,27,0,87,77,-51,59,28,76,34,-64,30,33,-95,74,-14,-18,80,54,61,6,-13,17,-1,-53,-57,-59,14,-62,76,50,0,21,-25,72,78,-35,-88,-30,17,42,67,-65,-87,86,-83,-81,50,17,63,-25,-93,59,-48,1,-54,-76,91,55,17,84,76,3,-32,-65,56,-78,61,45,88,-4,8,44,25,-39,57,-10,-63,37,-46,-7,-59,42,-17,61,29,38,-31,-45,-74,-56,86,72,38,17,58,-92,-24,-56,15,40,30,-43,-21,82,35,-12,-14,8,84,-33,58,-16,-17,-41,-81,-16,87, 71,-65,42,-91,-34,-69,-56,25,-36,27,-41,88,-14,-28,-8,83,-29,56,62,58,-125,-98,-59,-3,71,86,-55,28,-20,3,-60,-94,-104,71,47,66,-78,-2,20,-101,55,60,-10,-66,-21,-36,24,20,15,-48,-14,-49,-8,91,-3,-84,6,-32,84,-60,-117,-41,-12,-19,7,-60,-45,-92,-88,-83,-67,-19,-9,37,31,31,-93,39,-92,42,-61,-45,81,-84,-40,-122,-39,-86,-71,68,-127,-88,13,-82,33,70,11,-67,-18,4,43,77,14,-78,-25,-19,-93,-51,21,6,23,-30,52,28,-8,-74,-89,-109,21,-68,-13,-29,-30,-107,-7,-9,-19,41, -20,-93,-26,60,41,-53,-67,45,18,58,75,-75,91,-84,38,86,9,46,-71,-78,-93,-47,71,-34,-16,-91,19,82,6,-42,-50,-40,35,40,-22,-26,-75,-34,-75,77,-44,-33,20,47,-4,88,93,-11,-19,56,-9,-21,46,-53,54,-54,9,-28,5,63,-53,-51,-53,50,-63,-68,-6,-1,69,9,83,-5,48,39,92,-72,-94,61,-75,-41,65,-60,44,7,42,51,41,56,39,-81,60,27,90,14,12,80,30,-45,30,-6,54,79,80,-14,52,31,-37,-30,-2,-59,-36,-92,33,-6,60,-5,67,-81,19,-37,34,0,-31,-83,52,-3,78,90, 
  /* [47][0][][] */ -19,-7,39,17,-39,26,10,87,-57,0,15,-40,41,47,88,16,21,-13,-94,-17,42,28,-70,-78,71,-30,93,-31,14,50,2,53,83,78,-59,28,47,89,86,52,-80,-50,-63,73,30,31,58,-76,27,-38,75,-71,-40,66,54,62,64,34,46,74,3,-59,-18,-47,55,39,-26,37,-95,46,-90,13,44,-17,-8,-33,48,88,-53,16,-15,91,59,17,-16,-67,-71,9,71,4,-75,-59,-22,-72,74,51,55,-8,77,-59,66,66,92,16,-24,-78,-50,-76,-73,-45,4,67,63,-33,61,-41,44,89,-2,-33,5,45,-23,-33,88,-80,-20,-32, 45,-80,97,44,33,58,16,50,-16,-56,-67,-24,43,-88,-119,-93,33,15,-30,77,-88,-17,55,73,88,-74,25,-95,-13,-7,75,-83,-127,-101,19,19,-105,-36,29,-35,6,-67,21,20,-42,-40,-66,-47,-60,-10,12,32,4,-39,80,-108,56,89,-59,24,2,-4,-50,-97,-23,-102,36,-7,88,-23,-76,-31,58,93,38,-59,-73,9,-59,-20,101,-23,-73,-81,-62,39,-73,44,-2,124,40,62,37,86,-68,-79,-87,60,80,-91,65,-12,-32,85,-84,-53,14,-21,83,21,26,-8,32,-73,67,-55,-81,-104,-67,65,-44,122,-90,-7,16,-12,41,-13, -41,-48,-70,67,39,-32,-48,-70,-24,-46,-17,-83,-64,15,-55,84,-46,76,36,42,66,-22,-67,-57,-10,-95,-30,78,84,-19,95,-60,15,89,95,-57,61,69,-65,-13,-44,-69,-43,-73,-19,86,24,-64,8,48,-86,6,23,-89,36,70,-77,29,-73,16,78,83,30,-26,47,27,-95,-86,7,-62,-68,39,46,-23,-47,-29,-78,-93,70,-21,-36,-13,76,-86,-74,79,-80,-60,-22,71,-43,14,-54,26,26,69,84,-16,-38,-89,81,-39,-47,-3,92,-12,24,50,36,-52,43,-17,60,88,57,-41,26,56,42,8,91,0,90,3,19,40,-67,61, 
  /* [48][0][][] */ 11,-3,9,10,1,5,12,0,2,8,1,-11,12,-5,7,5,-5,-7,4,-11,5,9,-1,7,-8,-6,5,1,-6,12,5,6,-2,11,9,-7,7,12,-1,-7,-4,-12,-10,-7,-9,5,-11,-11,0,8,5,-11,1,10,-5,-3,7,10,8,-5,-4,3,-4,9,-11,0,-8,1,12,-8,-3,-6,0,-4,-3,-8,-8,-4,-8,-7,5,1,-2,-1,6,8,-10,11,9,3,8,-3,-10,-10,0,8,-6,6,2,5,6,-2,10,12,-12,3,4,-9,10,7,-8,-5,10,-4,10,5,0,-5,-11,-3,-6,0,5,8,3,13,6,8, -10,22,1,0,33,32,76,-16,19,-3,42,-55,12,-3,-106,-9,-15,4,-60,4,-13,56,5,19,106,-3,5,-51,9,-8,1,-5,-20,70,8,29,0,2,4,8,26,60,8,52,30,5,-30,7,0,-7,-3,-41,-27,34,19,25,-57,0,3,-13,9,54,102,26,10,16,47,13,79,77,-1,-33,83,4,-6,27,10,52,27,6,9,4,15,38,-4,-28,-4,6,18,23,-20,-50,35,3,-38,8,27,0,0,10,11,17,2,28,18,-62,-66,-34,-14,-52,1,5,-35,127,-10,-53,4,-27,-23,-40,8,11,1,-20,-2,-6,-28,-6, -9,3,-10,6,7,-2,11,6,8,-5,4,-4,-10,12,10,11,4,0,-9,-6,-11,11,2,-4,6,10,4,-12,-11,11,2,-2,-1,-2,-1,3,9,-9,-2,-8,-2,-10,-1,1,-7,3,-2,-13,8,9,2,10,-6,-12,9,-9,4,-10,-9,-8,-3,12,-3,-10,-8,-4,3,-5,0,8,-4,4,1,-5,10,-8,2,12,-6,-11,10,10,-9,9,0,-10,11,7,-2,11,7,12,-11,5,-6,12,3,-7,-4,-4,8,-6,-9,-12,6,-7,-7,-1,-2,0,7,-9,-10,5,-3,0,-9,11,4,-7,-1,-6,-3,3,-9,10,9,13, 
